-0.000000000000000000e+00 1.028445945731661232e-01 -0.000000000000000000e+00 0.000000000000000000e+00 -4.003987056893278107e-02 -5.196847607706241989e-01 1.217579283362345555e-01 -1.946892737676074736e-01 -9.945900857935473238e-02 0.000000000000000000e+00 -3.064410311658689601e-01 0.000000000000000000e+00 0.000000000000000000e+00 -5.065996627524781831e-02 0.000000000000000000e+00 0.000000000000000000e+00 1.049909110023082986e-01 -0.000000000000000000e+00 -2.009580136317325738e-01 -2.164878697015453490e-01 -5.491997533768785411e-01 -0.000000000000000000e+00 0.000000000000000000e+00 3.796769516993565019e-01 0.000000000000000000e+00 -0.000000000000000000e+00 -0.000000000000000000e+00 4.782911738389272194e-01 -2.032688193902167095e-02 3.960579197488388048e-01 -7.139680123602416550e-01 0.000000000000000000e+00 -0.000000000000000000e+00 -0.000000000000000000e+00 7.948423300257555502e-01 5.932858302491254010e-01 0.000000000000000000e+00 1.632467941064713601e-01 3.295002442346593452e-01 0.000000000000000000e+00 -5.138724750846695999e-02 0.000000000000000000e+00 -0.000000000000000000e+00 0.000000000000000000e+00 9.986673217971793193e-01 2.468301001177597431e-01 -1.137262033620384249e-01 -0.000000000000000000e+00 0.000000000000000000e+00 0.000000000000000000e+00 -7.628166430162507394e-01 4.069250615636191837e-01 -0.000000000000000000e+00 -0.000000000000000000e+00 0.000000000000000000e+00 -4.887343818455392452e-01 0.000000000000000000e+00 -6.618468914509986201e-01 1.319757489438070086e-01 -0.000000000000000000e+00 0.000000000000000000e+00 -4.360618359991953463e-01 0.000000000000000000e+00 0.000000000000000000e+00
-2.648470879392784139e-01 0.000000000000000000e+00 2.059494890271492129e-01 0.000000000000000000e+00 3.720222769179192812e-01 3.525803688834821745e-03 -3.270527390521624778e-01 -9.276251802330409690e-02 -0.000000000000000000e+00 4.768474742730449689e-01 5.825823055216997615e-01 0.000000000000000000e+00 -2.618599705309781478e-01 0.000000000000000000e+00 6.932097224143435321e-02 3.173883760923744135e-01 0.000000000000000000e+00 3.434982426157680013e-01 0.000000000000000000e+00 -0.000000000000000000e+00 0.000000000000000000e+00 3.217779931822594697e-01 0.000000000000000000e+00 2.922193876225344655e-01 -0.000000000000000000e+00 -3.477379467682357728e-01 1.842359542142345350e-03 -0.000000000000000000e+00 0.000000000000000000e+00 -0.000000000000000000e+00 2.175947849753608054e-01 -4.941370800808153052e-01 0.000000000000000000e+00 2.424624359136930141e-01 -4.450790962480465907e-01 -2.592098184946331485e-01 -0.000000000000000000e+00 -0.000000000000000000e+00 3.092722551917506668e-01 0.000000000000000000e+00 0.000000000000000000e+00 0.000000000000000000e+00 0.000000000000000000e+00 -6.533128463096444793e-01 -5.805669790769808492e-01 -2.771338974166221436e-01 0.000000000000000000e+00 0.000000000000000000e+00 0.000000000000000000e+00 -2.185070812622527392e-01 -2.414386863803320571e-01 -0.000000000000000000e+00 0.000000000000000000e+00 2.107224022664309221e-02 -0.000000000000000000e+00 -0.000000000000000000e+00 -4.416113557602504430e-02 0.000000000000000000e+00 -1.110653415318649584e+00 4.093771366122393729e-02 1.219218064946147179e-01 1.178586530548056538e-01 0.000000000000000000e+00 0.000000000000000000e+00
-0.000000000000000000e+00 0.000000000000000000e+00 0.000000000000000000e+00 -9.643632071595470423e-02 2.793828231075493607e-01 -0.000000000000000000e+00 -0.000000000000000000e+00 -0.000000000000000000e+00 -4.763730107067473130e-01 -0.000000000000000000e+00 -0.000000000000000000e+00 -3.781048155821500889e-02 0.000000000000000000e+00 -0.000000000000000000e+00 0.000000000000000000e+00 -1.905409153483810999e-02 -5.772409355197600789e-01 -0.000000000000000000e+00 -4.145153789084012330e-01 0.000000000000000000e+00 -0.000000000000000000e+00 -0.000000000000000000e+00 -0.000000000000000000e+00 -4.733710494577835631e-02 3.954652224242850567e-01 -0.000000000000000000e+00 0.000000000000000000e+00 5.809854694647013096e-01 -1.838339214014899081e-01 -2.100734666172782983e-01 -0.000000000000000000e+00 3.537097045054245215e-02 3.947197841495324044e-01 0.000000000000000000e+00 -2.990933576328361210e-01 -4.839037572614997007e-01 -1.852728263084379157e-01 -0.000000000000000000e+00 2.744610898924513265e-01 0.000000000000000000e+00 0.000000000000000000e+00 1.072523621924923731e-01 1.037041303253722069e-01 0.000000000000000000e+00 1.062038529378072638e-01 0.000000000000000000e+00 -4.246657613290068523e-01 -1.130105002831764405e-01 0.000000000000000000e+00 -0.000000000000000000e+00 1.099181807263595323e-01 -3.263663191748395476e-01 0.000000000000000000e+00 0.000000000000000000e+00 -5.029932733941717693e-01 0.000000000000000000e+00 -5.690073030356108674e-01 0.000000000000000000e+00 -0.000000000000000000e+00 -0.000000000000000000e+00 -0.000000000000000000e+00 -5.073933478308721989e-01 -1.376561113961882465e-01 0.000000000000000000e+00
-1.848438434625654658e-01 0.000000000000000000e+00 3.236464146492539634e-02 -0.000000000000000000e+00 -0.000000000000000000e+00 2.143555368264198902e-01 -1.064250040265504321e-01 -5.420696336711920693e-02 4.332903646794118435e-01 -7.405616229058691047e-02 0.000000000000000000e+00 -7.316151192345996535e-01 5.766273568727346976e-01 -7.317525622035438160e-02 -5.070383962220902374e-01 3.161705790531853522e-01 -0.000000000000000000e+00 -0.000000000000000000e+00 -0.000000000000000000e+00 -0.000000000000000000e+00 -0.000000000000000000e+00 0.000000000000000000e+00 4.651646318763377058e-02 -1.684643644770938281e-02 -0.000000000000000000e+00 0.000000000000000000e+00 -2.414958581072094435e-01 -5.137144960206981859e-01 0.000000000000000000e+00 0.000000000000000000e+00 -0.000000000000000000e+00 -8.514392760365522284e-01 0.000000000000000000e+00 0.000000000000000000e+00 1.110083202289303961e-01 3.896973080457158400e-02 -0.000000000000000000e+00 1.414251034189469014e-01 -1.709342599787247730e-01 -4.036271698094731457e-03 0.000000000000000000e+00 -4.264740743818262736e-01 -2.855776798901969032e-02 0.000000000000000000e+00 0.000000000000000000e+00 2.012479954013717265e-01 0.000000000000000000e+00 0.000000000000000000e+00 -0.000000000000000000e+00 6.312250270815107367e-01 0.000000000000000000e+00 0.000000000000000000e+00 0.000000000000000000e+00 0.000000000000000000e+00 2.161519419590224589e-01 0.000000000000000000e+00 -0.000000000000000000e+00 -0.000000000000000000e+00 3.242045518861007558e-01 -2.501128205539969174e-01 -4.287256749890033247e-01 -0.000000000000000000e+00 0.000000000000000000e+00 0.000000000000000000e+00
-0.000000000000000000e+00 -1.863293524073127982e-01 -5.035133266117636230e-02 -0.000000000000000000e+00 -0.000000000000000000e+00 4.714133491760419403e-01 -4.491429655911220037e-02 0.000000000000000000e+00 -3.915252480039046468e-01 3.367467621140958212e-01 0.000000000000000000e+00 -5.516579223238334689e-02 -0.000000000000000000e+00 -0.000000000000000000e+00 0.000000000000000000e+00 -1.989855944001986399e-02 -3.274514635275398433e-01 -0.000000000000000000e+00 0.000000000000000000e+00 -2.620914405303971795e-01 8.854939773747246001e-02 0.000000000000000000e+00 -0.000000000000000000e+00 1.532865703801158386e-01 -3.961685012379007609e-01 0.000000000000000000e+00 0.000000000000000000e+00 0.000000000000000000e+00 2.680343064253483121e-01 2.528427904506806434e-01 -6.738265033908058532e-01 0.000000000000000000e+00 3.990906636640938476e-01 -0.000000000000000000e+00 3.208105847059105065e-01 0.000000000000000000e+00 -0.000000000000000000e+00 -0.000000000000000000e+00 -1.926289082337736269e-01 1.346112151683979130e-01 -1.493675345202507068e-02 -0.000000000000000000e+00 -0.000000000000000000e+00 0.000000000000000000e+00 -0.000000000000000000e+00 -0.000000000000000000e+00 2.494754291967920395e-02 4.012547013742604612e-02 -0.000000000000000000e+00 -2.006011749675790795e-02 -0.000000000000000000e+00 9.471448277676020044e-01 6.188618764803885952e-01 -1.139294630366025907e-01 -0.000000000000000000e+00 -6.224763411362207455e-01 -1.726650571856646332e-01 -0.000000000000000000e+00 3.461943486243977686e-02 4.993885424273194484e-01 0.000000000000000000e+00 -0.000000000000000000e+00 0.000000000000000000e+00 0.000000000000000000e+00
-0.000000000000000000e+00 1.051390111784698128e-01 0.000000000000000000e+00 -2.179118124767059628e-01 -2.918096534512474860e-01 -0.000000000000000000e+00 1.841219306539320366e-01 5.003408207730464241e-01 -0.000000000000000000e+00 0.000000000000000000e+00 5.656859059982229793e-02 -0.000000000000000000e+00 -1.777630340657081476e-01 0.000000000000000000e+00 1.134254003788193327e-01 -1.818292126209416354e-02 0.000000000000000000e+00 0.000000000000000000e+00 -0.000000000000000000e+00 -0.000000000000000000e+00 0.000000000000000000e+00 -0.000000000000000000e+00 6.226369082076463335e-02 -9.814747726725661647e-02 5.154779859683559229e-01 -5.121988903016029548e-02 -0.000000000000000000e+00 -0.000000000000000000e+00 3.475373341695000562e-01 3.221128553569136549e-02 -3.005176540026738841e-01 -1.970280571313293427e-01 -1.097535106492006918e-01 -1.323068909573963392e-01 1.034073822318745672e-01 -3.015147778303028381e-01 -6.507348243907484786e-01 -3.294424680544153633e-02 3.890074963966517752e-01 -7.591940879014607013e-01 -1.659059972451834911e-02 -0.000000000000000000e+00 -0.000000000000000000e+00 -1.560728095813338767e-01 6.072730840700880928e-02 2.677116339720700955e-01 -0.000000000000000000e+00 0.000000000000000000e+00 8.085363291077032888e-02 4.561405101876124801e-01 -0.000000000000000000e+00 -3.641761850368629982e-01 4.023254126989578849e-01 -0.000000000000000000e+00 -2.684110672820725907e-01 -6.369261459307268280e-01 -0.000000000000000000e+00 1.332852113085699897e-01 -4.777410878102053560e-01 -0.000000000000000000e+00 1.114969317171205128e-02 0.000000000000000000e+00 1.555040219094482590e-01 2.440010529337657275e-01
-2.350481599233541219e-01 -0.000000000000000000e+00 0.000000000000000000e+00 2.641993961976616956e-01 0.000000000000000000e+00 0.000000000000000000e+00 -0.000000000000000000e+00 0.000000000000000000e+00 2.245605031100606289e-02 0.000000000000000000e+00 -3.138604889573208268e-01 -0.000000000000000000e+00 4.269271328341053828e-02 0.000000000000000000e+00 -9.831894962797982362e-02 -1.396758480816406855e-02 0.000000000000000000e+00 1.924551925446527090e-01 3.300982830854620048e-02 -0.000000000000000000e+00 -6.418118502807618198e-02 -6.757448508016864475e-01 0.000000000000000000e+00 0.000000000000000000e+00 -0.000000000000000000e+00 0.000000000000000000e+00 -0.000000000000000000e+00 7.008629886885356375e-02 0.000000000000000000e+00 -0.000000000000000000e+00 0.000000000000000000e+00 0.000000000000000000e+00 -0.000000000000000000e+00 -2.024334307822715090e-02 9.297984984787585616e-02 -0.000000000000000000e+00 0.000000000000000000e+00 -0.000000000000000000e+00 -0.000000000000000000e+00 0.000000000000000000e+00 0.000000000000000000e+00 -5.498340087984110447e-01 -0.000000000000000000e+00 6.205867497952428646e-01 0.000000000000000000e+00 -4.744539430558267212e-01 0.000000000000000000e+00 5.760628430708346001e-03 -2.271688101266558235e-01 -5.026050996875526256e-01 0.000000000000000000e+00 -1.195041841891048978e-01 -0.000000000000000000e+00 -4.869189692272002934e-01 3.030509258274763917e-01 0.000000000000000000e+00 -0.000000000000000000e+00 -9.424868235141452277e-02 -5.608546456639523781e-02 3.590881156010519715e-02 -1.746232333751840116e-01 0.000000000000000000e+00 -0.000000000000000000e+00 -1.125395057070856936e-01
-1.587212031290314851e-01 5.909293988588627533e-01 -0.000000000000000000e+00 -2.338752020987574787e-01 -1.270348884240869169e-01 0.000000000000000000e+00 2.561237395290960062e-01 -0.000000000000000000e+00 0.000000000000000000e+00 6.170576289323877195e-02 -0.000000000000000000e+00 3.272853834934956185e-01 -0.000000000000000000e+00 4.410912575764227017e-01 3.682122676379805809e-02 0.000000000000000000e+00 -1.449036282154343713e-01 0.000000000000000000e+00 -0.000000000000000000e+00 -0.000000000000000000e+00 -1.177562773484241640e-02 -4.627496748328573939e-01 0.000000000000000000e+00 -5.181749737347122187e-01 0.000000000000000000e+00 -0.000000000000000000e+00 7.299293580448085184e-02 0.000000000000000000e+00 -1.484767787872406375e-01 -3.519720056043443845e-01 0.000000000000000000e+00 -2.665056710087350678e-01 0.000000000000000000e+00 -0.000000000000000000e+00 0.000000000000000000e+00 -1.402356392817483977e-01 0.000000000000000000e+00 -3.501086176873294264e-01 0.000000000000000000e+00 -1.924139864911265235e-02 -1.547867804773493394e-01 -3.250982372514402696e-01 1.521371247200333787e-01 -5.509203651136025393e-01 8.614590324033365165e-02 -0.000000000000000000e+00 0.000000000000000000e+00 -0.000000000000000000e+00 0.000000000000000000e+00 -5.056945418593914443e-01 -1.768367279041393181e-01 -0.000000000000000000e+00 3.681258808649240377e-02 4.099405548446269920e-01 7.284866413201715463e-02 2.804627330031065902e-01 -3.887017252728993122e-01 4.388514019233308305e-01 -0.000000000000000000e+00 -0.000000000000000000e+00 -0.000000000000000000e+00 -2.174956957555853054e-01 0.000000000000000000e+00 -0.000000000000000000e+00
-0.000000000000000000e+00 -1.061352113034809808e+00 -0.000000000000000000e+00 0.000000000000000000e+00 4.320949792772800779e-01 0.000000000000000000e+00 -0.000000000000000000e+00 -5.317033389121792464e-01 0.000000000000000000e+00 -7.817262675711755815e-01 -0.000000000000000000e+00 -0.000000000000000000e+00 -0.000000000000000000e+00 0.000000000000000000e+00 8.115244675260182561e-01 3.150785620455528457e-01 -1.199019103925160444e-02 -6.614546585499188058e-01 -0.000000000000000000e+00 0.000000000000000000e+00 1.966767226318398287e-01 -0.000000000000000000e+00 2.634221250446117102e-01 -1.988423145633624045e-01 0.000000000000000000e+00 -0.000000000000000000e+00 0.000000000000000000e+00 -0.000000000000000000e+00 -0.000000000000000000e+00 -7.602894613331101503e-02 0.000000000000000000e+00 -9.970329888101718899e-04 5.310676438760643103e-01 -0.000000000000000000e+00 -0.000000000000000000e+00 5.919372822676728374e-01 4.816675229893478960e-01 -0.000000000000000000e+00 -0.000000000000000000e+00 0.000000000000000000e+00 1.432138313309751498e-01 0.000000000000000000e+00 -0.000000000000000000e+00 -2.021063056670643898e-01 1.983267455524151401e-01 6.078432297285566444e-01 1.079943232031186362e-01 4.963735956295772245e-01 -8.890458325130937700e-01 0.000000000000000000e+00 0.000000000000000000e+00 -0.000000000000000000e+00 0.000000000000000000e+00 0.000000000000000000e+00 0.000000000000000000e+00 -0.000000000000000000e+00 0.000000000000000000e+00 -5.444582237376259792e-01 -0.000000000000000000e+00 -2.886397082530277602e-01 -0.000000000000000000e+00 2.506667590345119101e-01 1.992667254155316425e-01 -8.643028825779235091e-02
-1.393966280506938639e-02 3.392085968358985598e-02 -2.562950248067623060e-01 4.501909811633370562e-01 -0.000000000000000000e+00 7.281279321627912582e-01 3.309519463436328413e-01 2.970850206695993534e-01 0.000000000000000000e+00 -0.000000000000000000e+00 1.736895125803499251e-01 0.000000000000000000e+00 -6.860440069788766859e-01 -2.426223224236061238e-01 -0.000000000000000000e+00 0.000000000000000000e+00 5.092114349872884915e-01 0.000000000000000000e+00 5.955938695084151968e-01 0.000000000000000000e+00 -0.000000000000000000e+00 -2.534045926047865382e-01 -2.873324658574734625e-01 -3.809227321093838770e-01 -9.722142483243731426e-02 3.435176321630479257e-01 0.000000000000000000e+00 -1.770277259116602719e-01 -0.000000000000000000e+00 -3.371025521141520764e-01 0.000000000000000000e+00 -0.000000000000000000e+00 7.731337267493246790e-01 -0.000000000000000000e+00 5.847032188585162826e-01 0.000000000000000000e+00 0.000000000000000000e+00 3.035776277700167128e-02 5.165547542483562848e-01 0.000000000000000000e+00 -0.000000000000000000e+00 -1.378564821223861314e-01 -2.745895516911267542e-01 6.370230699402815722e-01 0.000000000000000000e+00 -0.000000000000000000e+00 -3.837672071793504780e-01 4.802631279757976074e-02 5.573809003110417049e-01 0.000000000000000000e+00 1.275973906122445378e-01 2.511946065607144063e-01 0.000000000000000000e+00 -0.000000000000000000e+00 4.201289855392221217e-01 -2.045187504842538029e-01 -0.000000000000000000e+00 -6.025030143572080998e-01 -1.989657181374666628e-01 2.161388522029057679e-01 -7.942488018604214328e-02 -0.000000000000000000e+00 -0.000000000000000000e+00 0.000000000000000000e+00
-0.000000000000000000e+00 -7.025787400759161971e-02 -6.030181250901109902e-01 -2.343090957186219347e-01 -2.392169624730155764e-01 0.000000000000000000e+00 4.579067194513451733e-02 -6.068056276817534317e-02 -0.000000000000000000e+00 3.991250253950081595e-01 -0.000000000000000000e+00 -0.000000000000000000e+00 -0.000000000000000000e+00 -0.000000000000000000e+00 0.000000000000000000e+00 -0.000000000000000000e+00 -0.000000000000000000e+00 0.000000000000000000e+00 -5.773657480087638350e-01 -3.314607465552317778e-01 -0.000000000000000000e+00 1.179178173956848263e-01 -0.000000000000000000e+00 -0.000000000000000000e+00 -0.000000000000000000e+00 5.666045609902793656e-02 -0.000000000000000000e+00 -0.000000000000000000e+00 6.650978962756512458e-02 1.137470524944341199e-01 -1.702218160500813815e-01 2.460892516777287986e-01 -1.125783864251826416e-01 1.038135575824915627e-02 -0.000000000000000000e+00 -0.000000000000000000e+00 -2.343957259979707330e-01 -0.000000000000000000e+00 0.000000000000000000e+00 0.000000000000000000e+00 -3.269239066324218235e-01 -7.707874740282882886e-02 1.310577332752311253e-01 4.118284831712712979e-01 -8.157798064858823306e-02 0.000000000000000000e+00 2.555563359750304131e-01 0.000000000000000000e+00 7.976941758559118190e-02 -1.205889011975115888e-01 -0.000000000000000000e+00 -0.000000000000000000e+00 3.195405944045123098e-02 -0.000000000000000000e+00 1.934579508032275297e-01 -3.316170941695819468e-02 1.835782253596113522e-01 7.366485026632159372e-02 -0.000000000000000000e+00 -0.000000000000000000e+00 4.386581560645844494e-03 4.208165979866086426e-01 1.414483624186070321e-01 -5.153824793852836983e-01
-4.924576838744316176e-01 1.347721879920980581e-01 3.254061887117633001e-01 -1.590244168952447967e-01 2.049596313532698610e-01 -0.000000000000000000e+00 -0.000000000000000000e+00 -2.112357330270230871e-01 0.000000000000000000e+00 -0.000000000000000000e+00 -2.271734637409873747e-01 0.000000000000000000e+00 4.698832281214503914e-01 1.639089635476645435e-02 0.000000000000000000e+00 0.000000000000000000e+00 1.769234510572327557e-01 -2.583586098890247595e-01 0.000000000000000000e+00 -0.000000000000000000e+00 0.000000000000000000e+00 1.153376657748847040e-01 -8.668268413645094927e-01 -5.588861514513172868e-02 1.212333963114039809e-03 -3.255847912274582034e-01 -0.000000000000000000e+00 -0.000000000000000000e+00 0.000000000000000000e+00 0.000000000000000000e+00 8.776022957488839593e-02 -3.286354440185644266e-01 0.000000000000000000e+00 -1.685459879746249723e-01 0.000000000000000000e+00 -0.000000000000000000e+00 2.090614861764152899e-01 -0.000000000000000000e+00 0.000000000000000000e+00 5.032593377320698780e-02 -0.000000000000000000e+00 0.000000000000000000e+00 -1.681187238497023340e-01 0.000000000000000000e+00 0.000000000000000000e+00 0.000000000000000000e+00 3.889574841718023146e-01 -0.000000000000000000e+00 -0.000000000000000000e+00 -0.000000000000000000e+00 -1.652513801380540437e-01 9.571703618569694927e-02 -2.980962112497307359e-01 0.000000000000000000e+00 -0.000000000000000000e+00 -4.387090338190726135e-01 -2.033895157651719257e-02 0.000000000000000000e+00 8.206241401233406174e-01 -1.795044218741391195e-01 -1.351272467993387405e-01 -0.000000000000000000e+00 0.000000000000000000e+00 -4.664944750610601210e-01
2.032531434225904599e-01 -0.000000000000000000e+00 3.551686745360948527e-01 -0.000000000000000000e+00 0.000000000000000000e+00 -0.000000000000000000e+00 0.000000000000000000e+00 -0.000000000000000000e+00 2.064024150390502133e-01 -0.000000000000000000e+00 4.845818505688505584e-01 3.671766675426811344e-01 -0.000000000000000000e+00 -0.000000000000000000e+00 1.542862980745809409e-01 -3.804705231178249769e-01 -9.703859692092918141e-03 -5.003738653943804460e-01 6.036745933023829336e-01 -1.846059331150610439e-01 -0.000000000000000000e+00 0.000000000000000000e+00 2.989200488288578095e-01 -0.000000000000000000e+00 -0.000000000000000000e+00 -2.365472951774287846e-01 0.000000000000000000e+00 8.500255438452991585e-02 -0.000000000000000000e+00 -0.000000000000000000e+00 1.960657848491312860e-01 -0.000000000000000000e+00 -2.892436941682077767e-01 3.485333755276206480e-01 1.371586676548038897e-01 7.594931141691324550e-01 -8.876699120463587001e-01 -4.914622921793500576e-01 -4.604073806985581330e-01 -0.000000000000000000e+00 -1.650247730734859530e-01 0.000000000000000000e+00 5.629766701808984752e-01 0.000000000000000000e+00 -0.000000000000000000e+00 0.000000000000000000e+00 0.000000000000000000e+00 -5.484901003127994334e-01 -4.442776155131325511e-02 -0.000000000000000000e+00 -0.000000000000000000e+00 -8.230875956961809792e-02 3.889607002709110639e-01 1.067293237768240921e-01 -0.000000000000000000e+00 -0.000000000000000000e+00 -3.679529448113428303e-01 -3.706409527608895971e-01 3.605451345186007073e-01 -6.371495944444099946e-02 0.000000000000000000e+00 -0.000000000000000000e+00 8.317370530857395514e-03 0.000000000000000000e+00
-0.000000000000000000e+00 7.237087605436748339e-02 0.000000000000000000e+00 -4.409595572418756326e-01 1.097596095590603615e-01 -0.000000000000000000e+00 1.349932723074781515e-01 -5.405657959859208050e-01 0.000000000000000000e+00 3.166502407132962826e-01 6.998943844849988549e-01 0.000000000000000000e+00 -0.000000000000000000e+00 0.000000000000000000e+00 0.000000000000000000e+00 -0.000000000000000000e+00 0.000000000000000000e+00 -4.931889630482393372e-01 -0.000000000000000000e+00 -2.412154125163091800e-01 2.839317963464471628e-01 -1.322578553473074264e-02 -2.024492864019338534e-01 0.000000000000000000e+00 -2.009763756544952484e-01 -2.131018841678218034e-01 0.000000000000000000e+00 -1.627081167863131395e-02 0.000000000000000000e+00 -0.000000000000000000e+00 -0.000000000000000000e+00 -0.000000000000000000e+00 2.223934239621159006e-02 1.422938076789611803e-02 -0.000000000000000000e+00 -2.158862400169489215e-01 1.045436244290606081e-01 7.456024378350294135e-02 3.187387370547785648e-01 -0.000000000000000000e+00 -4.703583001626125415e-01 -5.618475499397801443e-01 4.170828597524627868e-01 -0.000000000000000000e+00 0.000000000000000000e+00 -0.000000000000000000e+00 -5.385578820834311387e-01 -0.000000000000000000e+00 0.000000000000000000e+00 -1.009617715867895393e-01 5.743848988091910801e-01 -6.476444271514719686e-01 5.622115317072019502e-01 -1.499303296927920193e-01 -8.959235391943243254e-01 -7.517982558897165490e-02 -2.423913133720196345e-01 1.874511690711334055e-01 -2.324579613123952948e-01 0.000000000000000000e+00 -0.000000000000000000e+00 0.000000000000000000e+00 -3.465167266432744309e-01 -0.000000000000000000e+00
-0.000000000000000000e+00 -3.412297298266835175e-03 -0.000000000000000000e+00 -1.768059084500485031e-02 1.947671745534645081e-03 -2.767187654396601193e-01 1.135178035481264475e-01 -7.152539372792707795e-01 0.000000000000000000e+00 7.089608566006594392e-01 1.695413837091833686e-01 0.000000000000000000e+00 0.000000000000000000e+00 2.883354159227735636e-01 -0.000000000000000000e+00 1.072631170786173330e-02 -5.289073589606692050e-01 0.000000000000000000e+00 0.000000000000000000e+00 0.000000000000000000e+00 8.110067836066632563e-02 0.000000000000000000e+00 -0.000000000000000000e+00 1.145901734222439516e-01 -0.000000000000000000e+00 0.000000000000000000e+00 5.129881785391829374e-02 -3.624219577339529152e-01 1.932562816606246681e-01 -0.000000000000000000e+00 0.000000000000000000e+00 0.000000000000000000e+00 4.253815600663511942e-01 -0.000000000000000000e+00 -0.000000000000000000e+00 -0.000000000000000000e+00 1.420506381282156116e-01 -2.960684700795417901e-01 0.000000000000000000e+00 -3.211746517226150011e-01 -0.000000000000000000e+00 -0.000000000000000000e+00 0.000000000000000000e+00 0.000000000000000000e+00 -0.000000000000000000e+00 -0.000000000000000000e+00 -0.000000000000000000e+00 -3.106638205476059400e-01 -1.680790254601493838e-01 0.000000000000000000e+00 -2.436166452564125784e-01 0.000000000000000000e+00 -3.866021930663692818e-01 0.000000000000000000e+00 3.803828058486890540e-01 6.670506706429978339e-01 -4.028115595624399137e-01 -5.931692009371831720e-01 5.992195381658420306e-02 0.000000000000000000e+00 0.000000000000000000e+00 1.901487363573142741e-01 0.000000000000000000e+00 -0.000000000000000000e+00
6.166998007282156052e-02 -0.000000000000000000e+00 -1.586390357864270184e-01 0.000000000000000000e+00 2.145685742885270475e-01 -0.000000000000000000e+00 -1.765450080761885310e-01 -0.000000000000000000e+00 -0.000000000000000000e+00 4.481333025963357697e-01 -5.714642793618567307e-01 4.367382525709430641e-01 -0.000000000000000000e+00 0.000000000000000000e+00 -0.000000000000000000e+00 -0.000000000000000000e+00 -0.000000000000000000e+00 0.000000000000000000e+00 -0.000000000000000000e+00 3.866135069222521869e-02 3.988736459105853283e-01 0.000000000000000000e+00 -0.000000000000000000e+00 -3.120609413216061112e-01 -0.000000000000000000e+00 0.000000000000000000e+00 0.000000000000000000e+00 0.000000000000000000e+00 0.000000000000000000e+00 -0.000000000000000000e+00 -3.953052925677452700e-01 0.000000000000000000e+00 0.000000000000000000e+00 -0.000000000000000000e+00 -1.306324696626456061e-01 -3.461398410859534147e-01 5.562745133948591297e-02 2.915676859956854439e-01 -1.415509379781359489e-01 3.883533133503472290e-01 -0.000000000000000000e+00 -0.000000000000000000e+00 -0.000000000000000000e+00 0.000000000000000000e+00 -3.154538197041458214e-01 3.760849853574648738e-01 0.000000000000000000e+00 -0.000000000000000000e+00 -0.000000000000000000e+00 -0.000000000000000000e+00 0.000000000000000000e+00 -2.676247275516486779e-01 -3.593048614072447688e-01 2.264268505758454120e-01 -0.000000000000000000e+00 0.000000000000000000e+00 -0.000000000000000000e+00 -2.598137231591797214e-01 -0.000000000000000000e+00 -1.905979016169573326e-02 -7.043262300077271498e-02 -0.000000000000000000e+00 -0.000000000000000000e+00 0.000000000000000000e+00
-1.341055666189312490e-01 0.000000000000000000e+00 3.911084377732285677e-01 -0.000000000000000000e+00 -2.391012624773293169e-02 -4.493431966758072021e-03 0.000000000000000000e+00 -5.846660284565061705e-01 2.989741460421819694e-02 3.640328780911342710e-01 0.000000000000000000e+00 1.917919048202722243e-01 4.330795924245487566e-02 0.000000000000000000e+00 2.558616144875373033e-01 -2.995223949253886242e-01 0.000000000000000000e+00 -0.000000000000000000e+00 -2.683415217702325162e-01 -0.000000000000000000e+00 -1.473030499692208339e-01 2.996168088520682615e-01 0.000000000000000000e+00 -9.953994957707644475e-02 4.491550444086364058e-01 0.000000000000000000e+00 2.977063946404432393e-01 3.381873616338822996e-01 5.138727660871645897e-01 -3.478854569047431372e-02 -0.000000000000000000e+00 2.443368046354326695e-01 -7.394513434390120876e-01 0.000000000000000000e+00 -0.000000000000000000e+00 0.000000000000000000e+00 -1.657705090495708300e-01 1.752139726768066341e-01 0.000000000000000000e+00 -0.000000000000000000e+00 3.370841140888040655e-01 1.947873710874236108e-01 -0.000000000000000000e+00 0.000000000000000000e+00 0.000000000000000000e+00 7.556514185305147624e-01 -0.000000000000000000e+00 -3.611480970873339191e-01 3.648393880803705858e-01 0.000000000000000000e+00 0.000000000000000000e+00 -8.214492448133746405e-02 -3.089512586417680340e-01 0.000000000000000000e+00 0.000000000000000000e+00 -2.755070349914946481e-01 4.904552236955912053e-02 2.575207734651788760e-01 -0.000000000000000000e+00 3.654666846895127663e-01 0.000000000000000000e+00 1.080448112478879619e+00 -4.850558779854897140e-01 1.875464026840838738e-01
-0.000000000000000000e+00 0.000000000000000000e+00 -0.000000000000000000e+00 6.673268435139249055e-01 7.044475991365391210e-02 0.000000000000000000e+00 -8.789210331742700055e-02 0.000000000000000000e+00 0.000000000000000000e+00 0.000000000000000000e+00 0.000000000000000000e+00 2.978363142120061813e-01 0.000000000000000000e+00 1.294288880762630989e-01 -0.000000000000000000e+00 2.393536171582803518e-01 1.779404563788523630e-01 -0.000000000000000000e+00 -2.259760415734128058e-01 0.000000000000000000e+00 -0.000000000000000000e+00 0.000000000000000000e+00 -0.000000000000000000e+00 -0.000000000000000000e+00 -0.000000000000000000e+00 -5.226313891278176922e-03 -0.000000000000000000e+00 -0.000000000000000000e+00 -0.000000000000000000e+00 1.291433910629209980e-01 -3.442732183965628301e-01 6.857464862184760312e-02 3.255493793864023492e-03 0.000000000000000000e+00 5.446435487141265686e-02 -4.355492156489333688e-02 -0.000000000000000000e+00 -1.680718343552336513e-01 -0.000000000000000000e+00 -0.000000000000000000e+00 2.051926354161131005e-01 2.698623553851642876e-01 0.000000000000000000e+00 2.736237091915797448e-01 -0.000000000000000000e+00 0.000000000000000000e+00 -0.000000000000000000e+00 -0.000000000000000000e+00 -0.000000000000000000e+00 -1.563684870321590259e-01 -5.328504193263583488e-01 -4.560930579294704412e-02 -0.000000000000000000e+00 4.990861112494055646e-02 9.391104333936541038e-02 3.397094770829959254e-01 0.000000000000000000e+00 0.000000000000000000e+00 6.612258476039118982e-01 -0.000000000000000000e+00 1.772887564200989474e-01 -0.000000000000000000e+00 -4.953191098513413590e-03 3.347868558309494147e-01
0.000000000000000000e+00 -0.000000000000000000e+00 0.000000000000000000e+00 -3.583933659514901282e-01 0.000000000000000000e+00 6.578102830917433863e-01 -3.058157505891129779e-01 -0.000000000000000000e+00 0.000000000000000000e+00 1.549674327827385012e-01 -2.741136868540114957e-01 -6.594280997564267999e-01 -0.000000000000000000e+00 1.088632116251732479e-01 -2.244193248274140573e-01 -0.000000000000000000e+00 4.945683935577463441e-01 0.000000000000000000e+00 -0.000000000000000000e+00 0.000000000000000000e+00 0.000000000000000000e+00 2.315971050056638281e-01 0.000000000000000000e+00 -0.000000000000000000e+00 -0.000000000000000000e+00 0.000000000000000000e+00 3.018373295259646483e-01 -0.000000000000000000e+00 1.408754392454701077e-01 0.000000000000000000e+00 5.158564089101654038e-02 -3.162808035423785719e-02 -6.922394672600586107e-02 -0.000000000000000000e+00 -3.469861822247258254e-01 -2.900976824896976947e-01 -1.130383083404192107e-01 -1.111164075058477044e-02 -0.000000000000000000e+00 -0.000000000000000000e+00 -4.334032403772513503e-02 2.722565414491029401e-01 -0.000000000000000000e+00 0.000000000000000000e+00 6.214474081556885521e-01 7.459005062684734844e-01 -8.270246120746861385e-01 -1.488800167778820023e-02 4.438717189968545695e-01 5.861969388722652052e-01 -7.982480407607162043e-02 -0.000000000000000000e+00 -0.000000000000000000e+00 2.147031431302320048e-01 7.769336585154239527e-01 -1.415174095633602303e-01 5.148682427034613207e-01 -4.346916895464779662e-01 -6.687235083773269695e-01 0.000000000000000000e+00 0.000000000000000000e+00 1.047180359850154868e-01 2.478221324007506554e-01 3.387165715901382379e-01
1.240780725170786969e-01 0.000000000000000000e+00 7.020278971289145575e-02 1.088340213856206912e-01 -5.860086689696914625e-02 -2.035675022061160522e-01 -4.691372140398521462e-01 3.510659902266811128e-01 -0.000000000000000000e+00 -0.000000000000000000e+00 0.000000000000000000e+00 0.000000000000000000e+00 0.000000000000000000e+00 -0.000000000000000000e+00 0.000000000000000000e+00 -4.279436946309337353e-01 -4.086491509191381155e-01 4.353243454644187271e-01 -0.000000000000000000e+00 -0.000000000000000000e+00 0.000000000000000000e+00 0.000000000000000000e+00 -0.000000000000000000e+00 -0.000000000000000000e+00 4.844563075973163380e-01 -0.000000000000000000e+00 0.000000000000000000e+00 4.216468460598185586e-01 0.000000000000000000e+00 -0.000000000000000000e+00 0.000000000000000000e+00 -3.159497842513951382e-01 0.000000000000000000e+00 -0.000000000000000000e+00 3.767597371454358135e-01 -0.000000000000000000e+00 0.000000000000000000e+00 0.000000000000000000e+00 0.000000000000000000e+00 0.000000000000000000e+00 -0.000000000000000000e+00 0.000000000000000000e+00 2.863758076470364622e-01 5.264576002630582119e-01 -2.063597972143952630e-01 -0.000000000000000000e+00 0.000000000000000000e+00 0.000000000000000000e+00 3.753674260780811012e-01 -1.722927199033819079e-01 5.754003579537325663e-01 0.000000000000000000e+00 -0.000000000000000000e+00 0.000000000000000000e+00 -0.000000000000000000e+00 0.000000000000000000e+00 0.000000000000000000e+00 4.826345390307318350e-01 -0.000000000000000000e+00 -0.000000000000000000e+00 2.543325574274838408e-01 0.000000000000000000e+00 7.740126322272949944e-01 0.000000000000000000e+00
-0.000000000000000000e+00 -0.000000000000000000e+00 -1.487284041054803274e-01 -1.247380263261021055e-01 -0.000000000000000000e+00 0.000000000000000000e+00 -3.336399368590492465e-01 -4.355141761342171125e-02 -0.000000000000000000e+00 0.000000000000000000e+00 1.027671344995629149e-01 -5.988189545192431629e-01 -1.744174923813032740e-01 -1.288020068410857810e-01 -5.785213521776244594e-01 3.231287978276057293e-01 -0.000000000000000000e+00 -4.385589280528710554e-01 -0.000000000000000000e+00 0.000000000000000000e+00 0.000000000000000000e+00 0.000000000000000000e+00 -2.054288090111540122e-01 -0.000000000000000000e+00 6.418611533519488210e-01 4.014704539105579673e-01 -0.000000000000000000e+00 -3.809251847266176827e-01 4.228791827228914335e-01 -0.000000000000000000e+00 -2.291327662773131602e-01 -0.000000000000000000e+00 -3.241740000862298188e-01 2.523242404123553495e-01 -0.000000000000000000e+00 1.886935939712019727e-01 -3.278236473734852385e-01 4.145967399390796393e-01 -0.000000000000000000e+00 -0.000000000000000000e+00 -2.512745461354639054e-01 -3.839324035660381940e-01 2.140093420045522665e-01 1.813207378842680850e-01 -1.009982546335709941e+00 5.563970453324832421e-01 -6.304009377121913005e-01 2.383473679853141333e-02 4.171021453028112558e-01 5.330010802018301241e-01 2.370974715364118635e-01 -0.000000000000000000e+00 4.564252695221703848e-01 -1.791105352802773998e-01 0.000000000000000000e+00 0.000000000000000000e+00 -0.000000000000000000e+00 0.000000000000000000e+00 0.000000000000000000e+00 5.498401121958357285e-01 -0.000000000000000000e+00 -3.854120361347097568e-01 0.000000000000000000e+00 -0.000000000000000000e+00
3.116604483939938164e-01 0.000000000000000000e+00 3.683090623037754002e-02 -2.865953013698448459e-01 -2.785633307444442264e-01 -2.522804412117202189e-01 -0.000000000000000000e+00 -2.038327147383076771e-02 -0.000000000000000000e+00 0.000000000000000000e+00 6.539340505508027812e-01 -0.000000000000000000e+00 1.936960394341696035e-01 -1.983183431093068771e-01 -0.000000000000000000e+00 0.000000000000000000e+00 1.718729915980911002e-02 -0.000000000000000000e+00 3.470017219746924786e-01 -0.000000000000000000e+00 -0.000000000000000000e+00 0.000000000000000000e+00 -6.074501877471267797e-01 -0.000000000000000000e+00 -7.903119390211355011e-01 0.000000000000000000e+00 -3.227964079293680483e-02 -2.694120675689102851e-01 -0.000000000000000000e+00 -6.137126091911825343e-01 -8.550701361969942349e-02 0.000000000000000000e+00 -1.434495120921338018e-01 -4.750371700561172306e-01 -0.000000000000000000e+00 -0.000000000000000000e+00 -3.374337108202057345e-01 0.000000000000000000e+00 -0.000000000000000000e+00 0.000000000000000000e+00 -0.000000000000000000e+00 0.000000000000000000e+00 -8.266709376141045951e-02 0.000000000000000000e+00 5.001316762623565088e-02 4.322377200438485834e-01 -0.000000000000000000e+00 -4.982980470493088565e-01 -0.000000000000000000e+00 -0.000000000000000000e+00 3.874353617598910726e-01 5.960795990552428952e-02 0.000000000000000000e+00 -0.000000000000000000e+00 -5.073969893700653877e-01 -0.000000000000000000e+00 -1.587233126617119683e-01 -0.000000000000000000e+00 -1.777036237750220238e-01 -0.000000000000000000e+00 -0.000000000000000000e+00 -0.000000000000000000e+00 -0.000000000000000000e+00 -0.000000000000000000e+00
-0.000000000000000000e+00 0.000000000000000000e+00 -0.000000000000000000e+00 -0.000000000000000000e+00 -0.000000000000000000e+00 0.000000000000000000e+00 -4.799606976080343368e-01 -9.644203165425988544e-01 -0.000000000000000000e+00 -2.584630364988445006e-01 -3.718470845618724319e-01 0.000000000000000000e+00 0.000000000000000000e+00 -0.000000000000000000e+00 0.000000000000000000e+00 -0.000000000000000000e+00 -0.000000000000000000e+00 0.000000000000000000e+00 -5.126521224812333882e-02 -0.000000000000000000e+00 4.441072214715350297e-01 -0.000000000000000000e+00 0.000000000000000000e+00 -4.274180034565813191e-01 -0.000000000000000000e+00 0.000000000000000000e+00 4.202730368884601275e-01 -6.505238268045115957e-01 -3.689093418622001463e-01 7.077826291285420623e-01 3.478449837309650072e-01 -0.000000000000000000e+00 -0.000000000000000000e+00 -0.000000000000000000e+00 8.394939998581897600e-02 0.000000000000000000e+00 -1.725958062185617148e-01 -4.993774187982774060e-01 -1.760674332587883889e-02 0.000000000000000000e+00 7.158592398092233910e-01 0.000000000000000000e+00 1.318745985686949895e-01 -0.000000000000000000e+00 -0.000000000000000000e+00 -4.348607152936217468e-01 0.000000000000000000e+00 -0.000000000000000000e+00 -2.407181145229859640e-02 -1.918661615214458938e-01 -6.383370770225007540e-01 3.581884348842405419e-02 -0.000000000000000000e+00 -0.000000000000000000e+00 0.000000000000000000e+00 1.855485955571629653e-01 -5.561566547192531296e-01 -1.921313805251517182e-01 -0.000000000000000000e+00 -0.000000000000000000e+00 1.296641934124684592e-01 1.552896575531837256e-02 0.000000000000000000e+00 -0.000000000000000000e+00
0.000000000000000000e+00 2.163531683422317553e-01 -7.068211309679015564e-01 -0.000000000000000000e+00 1.695259372596789049e-01 -0.000000000000000000e+00 -2.261486904964061240e-01 -0.000000000000000000e+00 0.000000000000000000e+00 -3.451594838636008467e-01 -2.278576676828834024e-01 -0.000000000000000000e+00 -1.147043792561837083e+00 -1.428619513583422040e-01 0.000000000000000000e+00 -9.741030714231590018e-03 1.528247317877512168e-01 -0.000000000000000000e+00 -0.000000000000000000e+00 1.247167219738225113e-01 -0.000000000000000000e+00 -0.000000000000000000e+00 0.000000000000000000e+00 -0.000000000000000000e+00 0.000000000000000000e+00 6.616634696689933648e-01 5.312750983991993969e-01 -0.000000000000000000e+00 -9.018478190768125513e-02 -0.000000000000000000e+00 0.000000000000000000e+00 4.066672676868869907e-01 -0.000000000000000000e+00 -0.000000000000000000e+00 0.000000000000000000e+00 -0.000000000000000000e+00 -0.000000000000000000e+00 -0.000000000000000000e+00 -0.000000000000000000e+00 -0.000000000000000000e+00 -2.081479054000173190e-01 -0.000000000000000000e+00 -1.285053766601849945e-02 -2.049330233259918921e-01 0.000000000000000000e+00 0.000000000000000000e+00 2.566910661286017636e-01 4.030569589961955357e-01 0.000000000000000000e+00 -3.312777380827379159e-01 0.000000000000000000e+00 0.000000000000000000e+00 -0.000000000000000000e+00 -7.512263161453632820e-01 0.000000000000000000e+00 -0.000000000000000000e+00 1.058925511362653893e-01 0.000000000000000000e+00 -0.000000000000000000e+00 4.299167322640802258e-01 -0.000000000000000000e+00 4.569132968754581192e-01 -5.454987659335053252e-01 -1.778143049869178316e-01
-0.000000000000000000e+00 -6.453156079516618460e-02 6.344925260323356353e-01 -4.018275287651185135e-02 0.000000000000000000e+00 4.239355263106120431e-01 -6.292559458730837552e-01 -1.222310024678879697e-01 -0.000000000000000000e+00 2.186542926838036527e-01 5.389082230823429853e-01 0.000000000000000000e+00 -0.000000000000000000e+00 0.000000000000000000e+00 1.615000927793741881e-01 -0.000000000000000000e+00 7.447698941159726083e-01 0.000000000000000000e+00 1.011681449420799572e-02 -0.000000000000000000e+00 0.000000000000000000e+00 0.000000000000000000e+00 4.057840316436910899e-01 -0.000000000000000000e+00 -0.000000000000000000e+00 -0.000000000000000000e+00 -0.000000000000000000e+00 2.741175522052280988e-01 -0.000000000000000000e+00 -0.000000000000000000e+00 3.309017801429182115e-01 -0.000000000000000000e+00 -7.298656933201996821e-01 9.996893634256141803e-02 -5.439311750236506399e-02 4.579871614669618340e-01 -0.000000000000000000e+00 0.000000000000000000e+00 2.642041618503043199e-01 -4.991217973720419310e-01 0.000000000000000000e+00 -0.000000000000000000e+00 -0.000000000000000000e+00 -0.000000000000000000e+00 0.000000000000000000e+00 0.000000000000000000e+00 -3.623791726869919350e-01 -7.412712266786500859e-01 -0.000000000000000000e+00 0.000000000000000000e+00 -0.000000000000000000e+00 0.000000000000000000e+00 0.000000000000000000e+00 -0.000000000000000000e+00 4.844838110076426368e-02 -1.630688786221605457e-01 0.000000000000000000e+00 -2.330398714525651060e-01 -3.558247018986433474e-01 -9.518726228782938004e-02 -0.000000000000000000e+00 0.000000000000000000e+00 -0.000000000000000000e+00 0.000000000000000000e+00
-0.000000000000000000e+00 -0.000000000000000000e+00 -0.000000000000000000e+00 0.000000000000000000e+00 -0.000000000000000000e+00 -0.000000000000000000e+00 -0.000000000000000000e+00 -0.000000000000000000e+00 4.320886751843610041e-01 -1.276081635318872809e-01 -1.454274759591879240e-01 -3.418223780503113624e-02 -8.148762959911436399e-01 0.000000000000000000e+00 0.000000000000000000e+00 1.450388334897719511e-01 0.000000000000000000e+00 0.000000000000000000e+00 0.000000000000000000e+00 -0.000000000000000000e+00 0.000000000000000000e+00 2.637235702260344317e-01 0.000000000000000000e+00 -0.000000000000000000e+00 0.000000000000000000e+00 0.000000000000000000e+00 9.853106278408739482e-02 -0.000000000000000000e+00 -1.166161340129655000e-01 0.000000000000000000e+00 -5.795995977639355479e-01 -3.488112366898541983e-01 -0.000000000000000000e+00 -6.711858128426904935e-02 -0.000000000000000000e+00 -2.614693529693309371e-01 -0.000000000000000000e+00 -0.000000000000000000e+00 -9.826920080783622113e-01 6.041873869273726161e-01 -1.005877252797539922e+00 0.000000000000000000e+00 0.000000000000000000e+00 0.000000000000000000e+00 -5.239162996579624712e-03 -0.000000000000000000e+00 -4.447624657410765847e-01 -2.920822395958863615e-01 4.134397613102332447e-01 7.305907894669258495e-02 -2.416833836286517989e-01 -0.000000000000000000e+00 0.000000000000000000e+00 0.000000000000000000e+00 -0.000000000000000000e+00 3.554485238063122554e-01 9.982597365252265931e-01 6.189511747572619405e-02 5.385541051897339004e-01 8.156482062387149234e-02 0.000000000000000000e+00 0.000000000000000000e+00 -3.888237343847463223e-01 -0.000000000000000000e+00
-3.197436544166180616e-01 0.000000000000000000e+00 -0.000000000000000000e+00 0.000000000000000000e+00 -1.601545717115431533e-01 6.070172949078105340e-01 0.000000000000000000e+00 -0.000000000000000000e+00 -2.251300744196197690e-01 -5.844063259149233358e-02 0.000000000000000000e+00 1.095137345851626698e-01 0.000000000000000000e+00 -0.000000000000000000e+00 0.000000000000000000e+00 0.000000000000000000e+00 -4.727647677090159317e-01 8.960041427131304470e-02 -0.000000000000000000e+00 -0.000000000000000000e+00 0.000000000000000000e+00 -6.122297932870588433e-01 2.395257413761799903e-01 0.000000000000000000e+00 4.453732144722669095e-01 -5.325163641520144209e-01 0.000000000000000000e+00 -0.000000000000000000e+00 -0.000000000000000000e+00 -3.225724870222301810e-01 0.000000000000000000e+00 9.383901164038767340e-02 0.000000000000000000e+00 2.035057418510874128e-01 -6.352256177795551073e-01 0.000000000000000000e+00 -2.092674116686250863e-01 -3.018292046108262960e-01 -9.200389202943231454e-03 3.718722669806071024e-01 -1.090951519141907244e-01 -2.208348370141410555e-01 -0.000000000000000000e+00 2.795379381616920900e-01 0.000000000000000000e+00 -3.524546093329114504e-01 0.000000000000000000e+00 -0.000000000000000000e+00 4.891230622469049938e-01 -0.000000000000000000e+00 2.759928243611825538e-01 -5.588032179754178763e-01 0.000000000000000000e+00 -3.372705454752719656e-01 5.941231753891477174e-01 -2.231047556514034469e-01 -0.000000000000000000e+00 -1.329439091845732168e-01 -3.062990614679528822e-01 -0.000000000000000000e+00 -0.000000000000000000e+00 -6.277256965460616955e-01 0.000000000000000000e+00 -0.000000000000000000e+00
1.032649420300798399e-01 -0.000000000000000000e+00 0.000000000000000000e+00 1.113765977034666177e+00 -0.000000000000000000e+00 -0.000000000000000000e+00 0.000000000000000000e+00 2.607059416176067956e-01 1.579122852474978411e-01 -1.567054907879726899e-01 -0.000000000000000000e+00 -0.000000000000000000e+00 0.000000000000000000e+00 0.000000000000000000e+00 0.000000000000000000e+00 0.000000000000000000e+00 -0.000000000000000000e+00 -5.211367405232172345e-01 1.130211137225295981e-01 -0.000000000000000000e+00 0.000000000000000000e+00 -0.000000000000000000e+00 0.000000000000000000e+00 -5.412307497761545960e-01 -0.000000000000000000e+00 -0.000000000000000000e+00 -1.538717585212015238e-01 -0.000000000000000000e+00 -3.850993186595669943e-02 3.513250507218130814e-01 -3.993297321185673709e-01 -4.081073500946377774e-01 -1.641203729595521743e-01 0.000000000000000000e+00 -0.000000000000000000e+00 0.000000000000000000e+00 1.843294468524991903e-01 -0.000000000000000000e+00 -0.000000000000000000e+00 0.000000000000000000e+00 0.000000000000000000e+00 0.000000000000000000e+00 -0.000000000000000000e+00 0.000000000000000000e+00 -8.954155182873166363e-02 3.487599185146320613e-01 7.251615167110941895e-01 0.000000000000000000e+00 -1.232583690348144412e+00 2.138756857935932565e-01 -1.979387866524729422e-01 -0.000000000000000000e+00 0.000000000000000000e+00 0.000000000000000000e+00 0.000000000000000000e+00 -2.388921299393071546e-02 -0.000000000000000000e+00 0.000000000000000000e+00 0.000000000000000000e+00 0.000000000000000000e+00 -5.120707957321071757e-02 -0.000000000000000000e+00 -1.876724148767308642e-01 -2.568699670207832964e-01
-4.617070450366587142e-01 0.000000000000000000e+00 0.000000000000000000e+00 -3.676533693672558445e-01 -3.360164853037248545e-01 -1.649571573387785539e-02 -0.000000000000000000e+00 -0.000000000000000000e+00 -0.000000000000000000e+00 -0.000000000000000000e+00 -3.033223713345493122e-01 -6.155877696077951544e-01 4.548548945872988858e-01 2.719625187958940593e-01 0.000000000000000000e+00 -2.188422169334401923e-01 -0.000000000000000000e+00 6.469696313858427916e-02 -0.000000000000000000e+00 -0.000000000000000000e+00 0.000000000000000000e+00 -0.000000000000000000e+00 -0.000000000000000000e+00 -0.000000000000000000e+00 1.023853457788498206e-01 -0.000000000000000000e+00 -0.000000000000000000e+00 0.000000000000000000e+00 -0.000000000000000000e+00 0.000000000000000000e+00 -2.973888208440144121e-01 1.097781891688947992e-01 2.428136834662491528e-01 -1.596484955170371089e-01 0.000000000000000000e+00 2.408567282558892464e-01 2.986291076190936700e-01 0.000000000000000000e+00 -7.855225856860705846e-01 0.000000000000000000e+00 -0.000000000000000000e+00 -2.314611248267544608e-01 0.000000000000000000e+00 -5.394833096887059476e-01 -0.000000000000000000e+00 0.000000000000000000e+00 0.000000000000000000e+00 -0.000000000000000000e+00 -0.000000000000000000e+00 -0.000000000000000000e+00 -4.471910995333830963e-01 -5.491329513444208610e-01 2.676077642484339658e-01 -1.127198322932155133e-01 3.695171508158697632e-02 0.000000000000000000e+00 7.879211548744384785e-01 0.000000000000000000e+00 0.000000000000000000e+00 8.585707271208826985e-02 1.570234389720627233e-01 1.444816970525474309e-01 0.000000000000000000e+00 0.000000000000000000e+00
0.000000000000000000e+00 0.000000000000000000e+00 3.717334654589394272e-01 2.905915502818495755e-01 5.073863038314258000e-01 6.400017126188889405e-01 -0.000000000000000000e+00 6.313073147429053289e-02 2.439174963979985622e-01 9.841227390420502485e-02 -4.676439022848510874e-01 0.000000000000000000e+00 0.000000000000000000e+00 -1.222960631644241236e-01 1.213974813076348913e-01 1.987771338915225172e-01 0.000000000000000000e+00 1.461942894220567835e-01 0.000000000000000000e+00 -0.000000000000000000e+00 -2.217796613958079033e-01 3.987367895716052019e-02 -0.000000000000000000e+00 0.000000000000000000e+00 6.764076952631666029e-02 -0.000000000000000000e+00 -0.000000000000000000e+00 1.692017579030646035e-01 0.000000000000000000e+00 0.000000000000000000e+00 5.331828344144819154e-02 7.024414945213977579e-02 5.185644975717644822e-01 -4.806375059821091367e-01 -0.000000000000000000e+00 -3.418590161588906939e-01 0.000000000000000000e+00 8.091648216631731616e-01 -0.000000000000000000e+00 -0.000000000000000000e+00 -5.616801564060436291e-01 2.374877575068695956e-01 0.000000000000000000e+00 0.000000000000000000e+00 -1.110329102719550681e-01 -6.323047982917587295e-02 -7.038951515642922763e-01 0.000000000000000000e+00 0.000000000000000000e+00 -5.022157314469977152e-01 -2.066910128938175550e-01 -5.817661499729588348e-01 -1.991078632932414549e-01 4.642582966165730296e-01 0.000000000000000000e+00 0.000000000000000000e+00 -2.578190730853256452e-01 1.858531649698922650e-01 1.463418587427834684e-02 1.043007994214970174e-01 -0.000000000000000000e+00 -0.000000000000000000e+00 -0.000000000000000000e+00 -0.000000000000000000e+00
-1.207474054129095142e+00 -1.539985110750093089e-01 -0.000000000000000000e+00 -0.000000000000000000e+00 4.632183830427628601e-01 -5.749608824162802945e-01 -0.000000000000000000e+00 5.543832431467221600e-01 -0.000000000000000000e+00 -4.495556931173049220e-01 5.201695298935893330e-01 -0.000000000000000000e+00 5.885027530830543308e-01 5.113607265384302325e-01 0.000000000000000000e+00 -5.564709906016032104e-01 -4.010037497777047544e-01 -0.000000000000000000e+00 -1.828296540640109158e-01 3.042252837802840171e-01 -0.000000000000000000e+00 -0.000000000000000000e+00 -0.000000000000000000e+00 0.000000000000000000e+00 0.000000000000000000e+00 0.000000000000000000e+00 0.000000000000000000e+00 0.000000000000000000e+00 2.279559356112025870e-01 -0.000000000000000000e+00 0.000000000000000000e+00 0.000000000000000000e+00 1.707802089301383719e-01 -0.000000000000000000e+00 -0.000000000000000000e+00 -2.225832120578052353e-01 -2.187284378005130425e-02 -0.000000000000000000e+00 2.929499704097859869e-02 0.000000000000000000e+00 0.000000000000000000e+00 -0.000000000000000000e+00 0.000000000000000000e+00 -0.000000000000000000e+00 4.503355640150640271e-01 -4.079081679514370284e-01 0.000000000000000000e+00 -0.000000000000000000e+00 -0.000000000000000000e+00 0.000000000000000000e+00 4.679431172502388492e-01 3.497986251820114356e-01 4.435166682585351960e-01 -0.000000000000000000e+00 0.000000000000000000e+00 -3.125491707271974007e-01 -0.000000000000000000e+00 0.000000000000000000e+00 -0.000000000000000000e+00 0.000000000000000000e+00 2.930150860069820618e-01 0.000000000000000000e+00 4.030431268925239729e-01 2.719536391038175904e-01
5.253943143425843232e-01 0.000000000000000000e+00 0.000000000000000000e+00 -3.211630678022101559e-01 6.554279627991012325e-02 -0.000000000000000000e+00 1.098670112416266498e-01 1.335687705958255589e-01 -3.474646883456451452e-01 0.000000000000000000e+00 -2.866098422838733173e-01 -4.191116717231950783e-01 0.000000000000000000e+00 -0.000000000000000000e+00 4.776821873345311054e-01 -0.000000000000000000e+00 4.586176223297868115e-01 4.831327284409025480e-01 -0.000000000000000000e+00 -2.831350102489607612e-01 1.835766061049833586e-01 0.000000000000000000e+00 2.405292260620135736e-01 0.000000000000000000e+00 -0.000000000000000000e+00 8.976119664181993196e-02 -4.021448046081613215e-02 1.978411868227746284e-01 1.347954946667732634e-01 1.760985562949510252e-01 2.595589664208226566e-01 -0.000000000000000000e+00 -0.000000000000000000e+00 -0.000000000000000000e+00 -0.000000000000000000e+00 4.821782197973022432e-01 -5.639748347237837356e-01 0.000000000000000000e+00 -4.911467258857302176e-01 -0.000000000000000000e+00 0.000000000000000000e+00 0.000000000000000000e+00 -0.000000000000000000e+00 0.000000000000000000e+00 5.447915348406248519e-03 -2.577035002697366517e-01 2.622281654093186476e-01 0.000000000000000000e+00 -1.418257613257469484e-02 -2.330826530766953383e-02 -0.000000000000000000e+00 -5.342500713989621897e-01 3.313162643915152361e-01 -0.000000000000000000e+00 9.543421917567754820e-01 0.000000000000000000e+00 4.678283282543412303e-01 -1.308687637329576658e-01 0.000000000000000000e+00 0.000000000000000000e+00 0.000000000000000000e+00 -5.606281144516083170e-01 0.000000000000000000e+00 -6.816120121820740119e-02
0.000000000000000000e+00 -0.000000000000000000e+00 6.370591476358966609e-01 0.000000000000000000e+00 4.985346311890372917e-01 0.000000000000000000e+00 0.000000000000000000e+00 5.107614477020813171e-01 -0.000000000000000000e+00 -0.000000000000000000e+00 -2.105368788681070413e-01 0.000000000000000000e+00 4.074123813159314933e-01 -0.000000000000000000e+00 0.000000000000000000e+00 3.299360509922113494e-01 0.000000000000000000e+00 -0.000000000000000000e+00 3.106107663313310563e-01 0.000000000000000000e+00 -1.017145312538965569e-02 -0.000000000000000000e+00 -0.000000000000000000e+00 0.000000000000000000e+00 -0.000000000000000000e+00 -7.969905573013433275e-02 0.000000000000000000e+00 3.130899167912910563e-01 -0.000000000000000000e+00 -6.376558628777780069e-02 -0.000000000000000000e+00 0.000000000000000000e+00 0.000000000000000000e+00 -2.381290891244135788e-01 -0.000000000000000000e+00 -0.000000000000000000e+00 0.000000000000000000e+00 -8.136683230887233054e-02 3.466157505783107329e-01 -2.390478823707816725e-01 -3.340109965933621972e-01 -0.000000000000000000e+00 1.476715796942134340e-01 1.651205558562814091e-01 9.001495157528289007e-03 -0.000000000000000000e+00 0.000000000000000000e+00 -3.965610873809278375e-02 6.332969015229698850e-02 1.007805975876656795e-01 -2.198142474056995477e-01 0.000000000000000000e+00 -0.000000000000000000e+00 0.000000000000000000e+00 0.000000000000000000e+00 0.000000000000000000e+00 3.045980953570145977e-01 -0.000000000000000000e+00 -4.034752778219478642e-01 -8.981484884188783990e-02 -3.639783444449213867e-01 -4.610556870584083256e-01 0.000000000000000000e+00 2.272479058143523634e-01
-0.000000000000000000e+00 -0.000000000000000000e+00 4.126988587251873009e-01 -0.000000000000000000e+00 0.000000000000000000e+00 1.153845472450744092e-01 0.000000000000000000e+00 -0.000000000000000000e+00 0.000000000000000000e+00 1.458365614322184867e-01 1.499303064413522457e-01 8.920421359168843878e-02 0.000000000000000000e+00 0.000000000000000000e+00 -0.000000000000000000e+00 0.000000000000000000e+00 -1.144320543669697932e-01 -0.000000000000000000e+00 4.352141389441588903e-01 -4.121811735122217768e-01 -3.865027686875331658e-02 0.000000000000000000e+00 0.000000000000000000e+00 0.000000000000000000e+00 0.000000000000000000e+00 -0.000000000000000000e+00 3.986193586562880031e-01 -0.000000000000000000e+00 1.063217935609713644e-01 0.000000000000000000e+00 0.000000000000000000e+00 -3.993652949042272166e-02 3.230524456662592359e-01 -0.000000000000000000e+00 0.000000000000000000e+00 -1.064272299815862549e-01 -0.000000000000000000e+00 4.508892087269229798e-02 0.000000000000000000e+00 2.960986936378563750e-02 0.000000000000000000e+00 -7.624841019957606658e-02 -0.000000000000000000e+00 1.919372382080404005e-01 0.000000000000000000e+00 -0.000000000000000000e+00 -0.000000000000000000e+00 0.000000000000000000e+00 -1.308127667563316887e-01 -0.000000000000000000e+00 -0.000000000000000000e+00 -4.106582912546160452e-02 2.807230767917699432e-01 -1.336663623675269363e-01 0.000000000000000000e+00 -0.000000000000000000e+00 -3.712466033754045491e-01 0.000000000000000000e+00 -5.364263242764403250e-01 0.000000000000000000e+00 0.000000000000000000e+00 -8.761482039810525313e-02 -7.487799313143094215e-01 -0.000000000000000000e+00
4.915131781748963841e-02 -0.000000000000000000e+00 1.281345756665615676e+00 -1.098799744462772010e-01 -0.000000000000000000e+00 -0.000000000000000000e+00 1.836452612409764373e-01 0.000000000000000000e+00 0.000000000000000000e+00 -4.906606774753851097e-01 1.782722525240805489e-01 7.039238373084391043e-01 -0.000000000000000000e+00 -6.134028583589688083e-02 0.000000000000000000e+00 1.198680165538484610e-01 1.287129197617117582e-01 -0.000000000000000000e+00 -1.892475482885372373e-01 -3.303745013333854175e-01 -0.000000000000000000e+00 -0.000000000000000000e+00 -0.000000000000000000e+00 0.000000000000000000e+00 6.369542573721330425e-02 2.746808180779822858e-03 3.421966997408867339e-01 -3.099993983810725440e-01 2.988888869488633970e-01 -6.152456588886192623e-01 1.939629788346404760e-01 -3.730381095824306659e-01 0.000000000000000000e+00 -0.000000000000000000e+00 0.000000000000000000e+00 -6.287957235194086003e-02 0.000000000000000000e+00 -0.000000000000000000e+00 0.000000000000000000e+00 9.356864107390883145e-02 0.000000000000000000e+00 0.000000000000000000e+00 -0.000000000000000000e+00 2.513392876410016075e-01 4.671760496726597989e-01 -0.000000000000000000e+00 1.494258297639352306e-01 -0.000000000000000000e+00 4.192078721206414227e-01 0.000000000000000000e+00 0.000000000000000000e+00 0.000000000000000000e+00 0.000000000000000000e+00 0.000000000000000000e+00 2.424200131797955848e-01 0.000000000000000000e+00 3.510211212049455520e-01 3.812856655573297789e-03 -4.175502284423094901e-01 0.000000000000000000e+00 -4.412084261507238647e-01 -0.000000000000000000e+00 0.000000000000000000e+00 0.000000000000000000e+00
-7.052019288438525491e-02 0.000000000000000000e+00 -2.523395111450032480e-01 3.002524184776220184e-01 -0.000000000000000000e+00 -0.000000000000000000e+00 0.000000000000000000e+00 1.188225592468210717e-01 -2.850758094045107577e-02 -1.152854311742958632e-01 7.139322670732854703e-02 1.594475736138890043e-01 -0.000000000000000000e+00 6.415719265347852307e-01 -0.000000000000000000e+00 -6.822172047641615611e-02 -2.811651785192815015e-02 1.949809313230229935e-01 2.607630113788117487e-01 -0.000000000000000000e+00 0.000000000000000000e+00 -0.000000000000000000e+00 -0.000000000000000000e+00 -0.000000000000000000e+00 0.000000000000000000e+00 0.000000000000000000e+00 -4.179831695335263497e-02 -0.000000000000000000e+00 9.439122665690684311e-02 -4.469639356295964094e-01 -0.000000000000000000e+00 -0.000000000000000000e+00 0.000000000000000000e+00 1.236165385083364127e-01 0.000000000000000000e+00 -0.000000000000000000e+00 -0.000000000000000000e+00 -5.653572431369916496e-01 2.248107587116935369e-01 0.000000000000000000e+00 -0.000000000000000000e+00 -4.346841750162632745e-01 -0.000000000000000000e+00 -4.510144575024317426e-01 7.663467570010443208e-02 -0.000000000000000000e+00 -2.401754611993022204e-01 -2.349337484376812502e-01 0.000000000000000000e+00 0.000000000000000000e+00 0.000000000000000000e+00 -2.296348777723072887e-01 -6.246998951981225234e-01 -0.000000000000000000e+00 2.583789461047702463e-01 0.000000000000000000e+00 0.000000000000000000e+00 -0.000000000000000000e+00 -0.000000000000000000e+00 -0.000000000000000000e+00 1.476569442340338045e-01 -0.000000000000000000e+00 0.000000000000000000e+00 0.000000000000000000e+00
-0.000000000000000000e+00 4.898244908200413694e-01 -0.000000000000000000e+00 -0.000000000000000000e+00 -0.000000000000000000e+00 -0.000000000000000000e+00 0.000000000000000000e+00 -2.879110132370506572e-02 -1.237929577026589123e-01 1.157926291520424908e-02 -7.249748383552693243e-01 -4.147151217071848306e-01 -3.675388877955083067e-01 1.496456317810724301e-01 4.226214726762239637e-02 -0.000000000000000000e+00 0.000000000000000000e+00 -0.000000000000000000e+00 -0.000000000000000000e+00 0.000000000000000000e+00 -0.000000000000000000e+00 -4.994261369176110354e-02 -0.000000000000000000e+00 2.003462050991205654e-02 0.000000000000000000e+00 0.000000000000000000e+00 0.000000000000000000e+00 -2.648430832322827277e-01 -2.033728702425340040e-01 0.000000000000000000e+00 -5.328159128359771790e-01 6.731598780874874233e-02 1.756650333435228611e-02 -9.706452168815553339e-02 -0.000000000000000000e+00 -0.000000000000000000e+00 0.000000000000000000e+00 -3.505291359239606219e-01 -0.000000000000000000e+00 -2.142627246405051297e-02 0.000000000000000000e+00 0.000000000000000000e+00 -3.868585665099338322e-01 2.467304289846150578e-01 -0.000000000000000000e+00 -0.000000000000000000e+00 -5.871130500282391029e-01 0.000000000000000000e+00 3.745688378510245164e-02 0.000000000000000000e+00 -4.140366446286012914e-01 -0.000000000000000000e+00 0.000000000000000000e+00 0.000000000000000000e+00 0.000000000000000000e+00 4.059708654924239907e-02 2.819215509224725080e-01 0.000000000000000000e+00 0.000000000000000000e+00 0.000000000000000000e+00 -0.000000000000000000e+00 -0.000000000000000000e+00 0.000000000000000000e+00 -6.713667941748575618e-01
-2.464418698054977597e-01 7.989941113648504900e-02 0.000000000000000000e+00 -0.000000000000000000e+00 -4.560066631849157281e-01 0.000000000000000000e+00 -1.083840307548927934e-01 0.000000000000000000e+00 0.000000000000000000e+00 7.124668003342250755e-02 -6.743640450087933225e-01 -0.000000000000000000e+00 2.374910650663118739e-01 -0.000000000000000000e+00 0.000000000000000000e+00 -0.000000000000000000e+00 4.118730344161057322e-01 -0.000000000000000000e+00 3.277919598146981639e-01 1.404636676058995670e-01 0.000000000000000000e+00 -0.000000000000000000e+00 -0.000000000000000000e+00 1.769360925463649842e-02 -0.000000000000000000e+00 2.146887788434021782e-01 0.000000000000000000e+00 -0.000000000000000000e+00 -0.000000000000000000e+00 1.500843195549332043e-01 -0.000000000000000000e+00 -6.539957751946747812e-03 8.345321830720816569e-01 1.124506063847134918e-01 0.000000000000000000e+00 8.906642245984756900e-02 1.362820774577594152e-01 -0.000000000000000000e+00 -0.000000000000000000e+00 -0.000000000000000000e+00 2.212608552731937517e-01 -3.534683820722147041e-01 -0.000000000000000000e+00 -4.655825874753074523e-01 2.758677719071824241e-01 0.000000000000000000e+00 0.000000000000000000e+00 -1.204902270258530750e-01 -3.671169765211970692e-01 -0.000000000000000000e+00 0.000000000000000000e+00 0.000000000000000000e+00 -0.000000000000000000e+00 -1.838052213678123548e-02 -0.000000000000000000e+00 -3.509323378761141643e-01 -5.980098237318023230e-02 -0.000000000000000000e+00 4.239779882465192773e-01 -1.234948960737105722e-01 -0.000000000000000000e+00 0.000000000000000000e+00 0.000000000000000000e+00 2.276564667523395535e-01
-0.000000000000000000e+00 -1.867260351127686679e-01 1.673196985086170818e-01 1.679297674418417374e-01 7.113058930750351672e-02 -0.000000000000000000e+00 -0.000000000000000000e+00 0.000000000000000000e+00 -5.947891208401414470e-03 -2.251198361592960939e-01 -3.965841799297581960e-01 5.165326420038890420e-01 2.585313107136987254e-01 -0.000000000000000000e+00 6.027897099099084333e-01 0.000000000000000000e+00 3.755622108729650965e-01 -0.000000000000000000e+00 0.000000000000000000e+00 0.000000000000000000e+00 4.917481595359539104e-01 0.000000000000000000e+00 3.923972307245107149e-01 0.000000000000000000e+00 0.000000000000000000e+00 0.000000000000000000e+00 0.000000000000000000e+00 1.583918686064115233e-01 0.000000000000000000e+00 2.437945905829199955e-01 2.089986620745909462e-01 0.000000000000000000e+00 -7.100956839259876807e-02 3.704103781416091812e-02 -0.000000000000000000e+00 -4.221828900234101400e-01 -2.482950406043416269e-01 3.411326007066804028e-02 0.000000000000000000e+00 -0.000000000000000000e+00 2.303701776412748203e-01 -0.000000000000000000e+00 -4.148913582929631416e-01 0.000000000000000000e+00 -0.000000000000000000e+00 0.000000000000000000e+00 2.305065436942157001e-02 -2.671427972550025065e-01 -0.000000000000000000e+00 -0.000000000000000000e+00 2.309256564121396904e-01 0.000000000000000000e+00 -5.650793854096822777e-01 -0.000000000000000000e+00 0.000000000000000000e+00 2.336908375268360871e-01 -2.271051837519479366e-01 -4.221900281107255348e-01 5.466325551923806314e-02 3.406666593767694318e-01 -0.000000000000000000e+00 4.875869812697748024e-02 -0.000000000000000000e+00 -0.000000000000000000e+00
-0.000000000000000000e+00 -0.000000000000000000e+00 -1.628552467622313427e-01 0.000000000000000000e+00 -2.025083067974170134e-02 -0.000000000000000000e+00 7.532099746834977627e-02 0.000000000000000000e+00 -4.481733638172040735e-01 -0.000000000000000000e+00 -0.000000000000000000e+00 -0.000000000000000000e+00 -0.000000000000000000e+00 1.019033717526350441e-01 -2.039312570199410812e-01 2.272435018109405513e-01 0.000000000000000000e+00 1.412624226912432002e-01 0.000000000000000000e+00 5.516452856910639690e-01 1.473592210152340765e-01 -0.000000000000000000e+00 -4.094201447726410897e-02 0.000000000000000000e+00 4.828046388978928238e-01 2.547125332468390749e-02 -0.000000000000000000e+00 -0.000000000000000000e+00 4.032019532945788631e-01 -0.000000000000000000e+00 -0.000000000000000000e+00 -0.000000000000000000e+00 -0.000000000000000000e+00 -0.000000000000000000e+00 0.000000000000000000e+00 -1.075443331869276875e-01 -1.121646678198790215e-01 0.000000000000000000e+00 -0.000000000000000000e+00 0.000000000000000000e+00 0.000000000000000000e+00 -0.000000000000000000e+00 6.395160863743754032e-01 0.000000000000000000e+00 0.000000000000000000e+00 2.728146688448757629e-01 -8.977479470209561718e-01 -4.364764969154912855e-01 0.000000000000000000e+00 -4.003450554247588444e-01 3.432434262551455895e-01 0.000000000000000000e+00 -0.000000000000000000e+00 2.377484467796537604e-01 0.000000000000000000e+00 9.198674564834139963e-03 -3.413821369793015870e-02 5.905835848600741317e-02 0.000000000000000000e+00 2.135086898873189420e-01 0.000000000000000000e+00 -0.000000000000000000e+00 -0.000000000000000000e+00 0.000000000000000000e+00
-2.238141077737928197e-01 0.000000000000000000e+00 -0.000000000000000000e+00 0.000000000000000000e+00 -0.000000000000000000e+00 0.000000000000000000e+00 3.479627727860115649e-01 3.966902268071039184e-01 -1.019964289361676713e-01 -1.095141787837117936e-01 0.000000000000000000e+00 6.441573696307372199e-01 0.000000000000000000e+00 3.161265454596628444e-01 3.368915242213607348e-03 2.249841065539480087e-02 -2.370713907495796413e-01 0.000000000000000000e+00 -2.201033104487948033e-01 -0.000000000000000000e+00 -1.983556181718100775e-01 -0.000000000000000000e+00 0.000000000000000000e+00 2.054224206916134277e-01 -1.921534968909691943e-01 -9.499280167202077407e-02 -0.000000000000000000e+00 4.037664236624292080e-01 -0.000000000000000000e+00 1.744080848811387086e-01 -0.000000000000000000e+00 2.964002016780830639e-01 -0.000000000000000000e+00 -3.918218056382599124e-01 4.753945800351487283e-01 -3.858618050630264334e-02 -5.901859491178016448e-01 2.573612988241623656e-01 -0.000000000000000000e+00 8.915725298324860687e-03 -0.000000000000000000e+00 -0.000000000000000000e+00 -0.000000000000000000e+00 0.000000000000000000e+00 -0.000000000000000000e+00 -4.670718515507388813e-01 0.000000000000000000e+00 2.151204441075871554e-01 0.000000000000000000e+00 -0.000000000000000000e+00 2.604130972893949347e-01 2.521919939291659141e-01 -5.167072847967449922e-01 0.000000000000000000e+00 -2.233586785682941389e-01 -0.000000000000000000e+00 -4.422094685267054931e-02 -0.000000000000000000e+00 0.000000000000000000e+00 0.000000000000000000e+00 -4.443652535364396861e-01 0.000000000000000000e+00 -0.000000000000000000e+00 0.000000000000000000e+00
-0.000000000000000000e+00 1.924739508024219392e-01 0.000000000000000000e+00 -0.000000000000000000e+00 3.591948756375299978e-01 2.796236941778962870e-01 -0.000000000000000000e+00 -0.000000000000000000e+00 0.000000000000000000e+00 -0.000000000000000000e+00 -0.000000000000000000e+00 1.218372279595176244e-01 -0.000000000000000000e+00 0.000000000000000000e+00 0.000000000000000000e+00 1.661429731880572080e-01 -4.332471837979331442e-01 3.920946330961736503e-01 4.318904887866401726e-02 0.000000000000000000e+00 -5.085924249680325859e-01 2.866036963654235992e-01 0.000000000000000000e+00 -1.924253089734907773e-01 -4.866650333924389393e-01 2.764266573658353821e-01 2.014199780365049097e-01 3.759127883188762009e-01 0.000000000000000000e+00 0.000000000000000000e+00 -0.000000000000000000e+00 -4.843578937633026826e-01 0.000000000000000000e+00 -6.564837866848792503e-02 -0.000000000000000000e+00 -0.000000000000000000e+00 5.000399037608698194e-01 3.826901384153810759e-01 0.000000000000000000e+00 0.000000000000000000e+00 1.020311950744586665e-01 -0.000000000000000000e+00 -1.503954026203512540e-01 2.420345019912682472e-01 -2.849153992615581499e-02 3.655230724861618374e-01 -0.000000000000000000e+00 0.000000000000000000e+00 -7.611023686994824455e-01 -3.516384686167532969e-01 -1.853053452581716609e-01 -8.903471187643313689e-02 0.000000000000000000e+00 -9.186516237733942380e-02 1.261170618931386177e-02 -0.000000000000000000e+00 -1.187506152823748079e-01 -2.617527709570149214e-02 3.270224023706138072e-01 -0.000000000000000000e+00 5.212258482549628757e-01 0.000000000000000000e+00 0.000000000000000000e+00 4.489194980518911027e-02
0.000000000000000000e+00 3.528983025702300269e-01 2.104997009988387457e-01 0.000000000000000000e+00 5.414590672328469662e-02 0.000000000000000000e+00 4.641107257623138804e-01 -5.302902967988146754e-01 0.000000000000000000e+00 3.109802476473422783e-01 0.000000000000000000e+00 -0.000000000000000000e+00 6.080839847628191630e-02 5.169028714605492514e-01 -5.752995153031956882e-02 1.695373882673226473e-01 -0.000000000000000000e+00 -0.000000000000000000e+00 -4.988586654103706330e-02 0.000000000000000000e+00 -0.000000000000000000e+00 4.550976998862426570e-01 0.000000000000000000e+00 0.000000000000000000e+00 -3.851201082915058777e-02 0.000000000000000000e+00 7.594058757119717118e-01 6.018410401346857563e-01 -0.000000000000000000e+00 1.203410328532363988e-01 -0.000000000000000000e+00 -0.000000000000000000e+00 1.163574512032452324e+00 -8.927893115154687809e-02 0.000000000000000000e+00 1.302725282157253250e-01 -1.546557911403498020e-01 1.419165500382769951e-02 5.274260257402948321e-02 -2.839518197303885633e-02 1.728331142847143453e-01 -0.000000000000000000e+00 -0.000000000000000000e+00 -2.521828780076102242e-02 1.155297909937509290e-02 -4.342405215335031765e-01 0.000000000000000000e+00 0.000000000000000000e+00 4.196668226059563911e-01 5.074591182838799064e-01 -4.676939921592265098e-02 0.000000000000000000e+00 -5.009593380084884778e-02 -4.407072515116867706e-01 0.000000000000000000e+00 -1.635658972253789256e-01 -2.389849304774901428e-01 1.518825058091352875e-01 0.000000000000000000e+00 -0.000000000000000000e+00 -0.000000000000000000e+00 -0.000000000000000000e+00 9.124216070383109334e-02 -3.706238421078807410e-01
-0.000000000000000000e+00 -2.089034039664146303e-01 0.000000000000000000e+00 6.736547282508115186e-01 6.438360452295170677e-02 0.000000000000000000e+00 -4.616615975940492889e-01 4.946131740676624200e-01 -5.490162860099696562e-01 0.000000000000000000e+00 -5.658351081152120932e-01 0.000000000000000000e+00 -1.326028534129420344e-01 -0.000000000000000000e+00 -2.081229532018947226e-01 -0.000000000000000000e+00 -0.000000000000000000e+00 2.016485427148394238e-01 0.000000000000000000e+00 1.811682748081107266e-03 2.155486391676202651e-01 1.169983460088901694e-01 6.770615884186392819e-02 -0.000000000000000000e+00 -0.000000000000000000e+00 4.755657328621524377e-02 -1.331950189197348144e-01 0.000000000000000000e+00 3.367896071517382794e-01 2.498148922754065693e-01 -0.000000000000000000e+00 3.947195396631396069e-01 0.000000000000000000e+00 0.000000000000000000e+00 0.000000000000000000e+00 0.000000000000000000e+00 -9.469090736238361394e-03 0.000000000000000000e+00 -2.401615427356900700e-01 -7.982861228409984800e-02 -0.000000000000000000e+00 0.000000000000000000e+00 -3.291004020576577815e-01 0.000000000000000000e+00 -4.107251823578625949e-01 -0.000000000000000000e+00 0.000000000000000000e+00 -3.509884292942640899e-02 -0.000000000000000000e+00 -0.000000000000000000e+00 0.000000000000000000e+00 -0.000000000000000000e+00 0.000000000000000000e+00 0.000000000000000000e+00 -1.832716381377052367e-02 -0.000000000000000000e+00 -0.000000000000000000e+00 0.000000000000000000e+00 -2.517375494095166477e-01 -1.018098019993494280e-01 4.281246133383408425e-01 0.000000000000000000e+00 -1.074438457523507057e-02 -0.000000000000000000e+00
2.364924205360953435e-01 -6.701238441902249710e-01 0.000000000000000000e+00 0.000000000000000000e+00 0.000000000000000000e+00 2.092505688074431935e-01 3.805645985528668396e-01 -0.000000000000000000e+00 -4.402333435070564516e-01 0.000000000000000000e+00 2.959802724930938322e-01 0.000000000000000000e+00 0.000000000000000000e+00 -0.000000000000000000e+00 2.766610476339224634e-01 -1.043550628387783091e-01 0.000000000000000000e+00 -5.648445232929578674e-01 0.000000000000000000e+00 0.000000000000000000e+00 6.602327065994303412e-01 0.000000000000000000e+00 -5.423518278285150984e-01 -3.270803039628732978e-01 1.471863171701107420e-01 1.332682406459381463e-01 8.220500346062765626e-03 7.749437365204407679e-02 0.000000000000000000e+00 -0.000000000000000000e+00 -3.134492754820213389e-01 1.569940893678400395e-01 -0.000000000000000000e+00 0.000000000000000000e+00 5.553694747152267963e-01 -0.000000000000000000e+00 3.315236240368166221e-01 -1.970738549381391980e-01 -2.001084493112738338e-01 7.004424532364892375e-01 5.626376283094653985e-01 -6.956249787804991147e-02 2.757358056397658519e-01 2.484623026781697663e-01 0.000000000000000000e+00 6.300435812313928130e-01 -9.893853369133033537e-02 0.000000000000000000e+00 0.000000000000000000e+00 1.058353423747404598e-01 0.000000000000000000e+00 -0.000000000000000000e+00 -2.697756341583554610e-02 0.000000000000000000e+00 -0.000000000000000000e+00 4.633998266505793273e-01 -2.099829760873296314e-01 -3.670564332876716240e-02 6.071967183526090217e-01 -0.000000000000000000e+00 1.042542539722662587e-01 9.880910931481848292e-02 -1.222333405716538035e-01 8.547723834111020658e-02
1.791501652977269821e-01 7.205555980926523496e-01 -0.000000000000000000e+00 0.000000000000000000e+00 -1.096400569265057467e-01 -3.875250706510590670e-01 -0.000000000000000000e+00 0.000000000000000000e+00 -0.000000000000000000e+00 -4.120112179447388279e-01 -2.889848379810848189e-01 1.678793752747727019e-01 4.968844996151713933e-02 7.265588473537365477e-02 3.077510250884366583e-01 -2.967606993145354699e-01 -6.604471164070749856e-01 -5.512629685961477344e-02 0.000000000000000000e+00 -3.672126814984555954e-01 1.544544126345270552e-01 4.764604761290878177e-01 -0.000000000000000000e+00 0.000000000000000000e+00 4.364007004712705529e-01 -9.101828386594815190e-02 -4.377510400221674147e-01 -0.000000000000000000e+00 -3.900764080821622626e-01 -2.251305425587812603e-01 0.000000000000000000e+00 -2.776426951090275042e-01 -0.000000000000000000e+00 -0.000000000000000000e+00 -0.000000000000000000e+00 -0.000000000000000000e+00 1.114757128674458558e-01 0.000000000000000000e+00 -4.375249650458420958e-01 -0.000000000000000000e+00 -3.762678825291867479e-01 2.890408148392585863e-01 0.000000000000000000e+00 -0.000000000000000000e+00 0.000000000000000000e+00 -0.000000000000000000e+00 7.127426208853855638e-02 -6.054600726961612001e-01 -1.855363344601238529e-01 -0.000000000000000000e+00 -1.748712439131343832e-01 -4.790124412740137672e-01 -3.630095478964047717e-01 -2.483303145742889184e-02 -0.000000000000000000e+00 0.000000000000000000e+00 -0.000000000000000000e+00 0.000000000000000000e+00 1.214899634324342372e-02 -0.000000000000000000e+00 5.188787114525810623e-02 -2.823406631160729763e-01 -0.000000000000000000e+00 -8.975580798789671577e-02
-0.000000000000000000e+00 4.720844820815825460e-01 2.526560135284822706e-01 -0.000000000000000000e+00 -0.000000000000000000e+00 9.984208428376586952e-02 -0.000000000000000000e+00 -0.000000000000000000e+00 0.000000000000000000e+00 -0.000000000000000000e+00 5.647533207000481337e-01 1.115433048004423611e-01 -0.000000000000000000e+00 0.000000000000000000e+00 -3.481804313725241906e-01 -4.120279791919720380e-01 -0.000000000000000000e+00 0.000000000000000000e+00 0.000000000000000000e+00 3.919820757172209902e-01 8.317624634554514618e-01 1.035664225212442058e-01 -3.546556859109978310e-01 -5.824403596353363577e-01 -3.598126413676556220e-03 3.821820469162912071e-01 -0.000000000000000000e+00 -2.962480976892335471e-01 -0.000000000000000000e+00 0.000000000000000000e+00 0.000000000000000000e+00 0.000000000000000000e+00 2.360959738115484818e-01 -0.000000000000000000e+00 0.000000000000000000e+00 3.993204079595664702e-01 2.142088361567241195e-01 0.000000000000000000e+00 -0.000000000000000000e+00 1.553321379205593877e-01 -1.478933088643979293e-02 -0.000000000000000000e+00 -0.000000000000000000e+00 -1.522338500597851252e-01 -0.000000000000000000e+00 -1.098313791839125031e+00 0.000000000000000000e+00 -3.202201836516611055e-01 -0.000000000000000000e+00 8.688049737176316289e-02 0.000000000000000000e+00 -1.333859939149681095e-01 -0.000000000000000000e+00 6.080667751440266972e-02 -3.813548808577528204e-01 0.000000000000000000e+00 -2.731110809912220549e-01 0.000000000000000000e+00 2.331694354998533336e-01 0.000000000000000000e+00 -0.000000000000000000e+00 -1.034895322628447550e-01 4.511292498050120114e-01 -4.280431656251188488e-01
-3.904487159946611885e-01 0.000000000000000000e+00 0.000000000000000000e+00 -2.212243668944890440e-01 -3.860544095682328924e-01 0.000000000000000000e+00 0.000000000000000000e+00 5.182928771174163396e-01 0.000000000000000000e+00 -3.733458100246495048e-01 3.910262000708100705e-01 3.384542784840395280e-01 3.849011890131678881e-02 -3.881282680781741323e-01 1.843403636013800084e-01 -1.367977780018932443e-01 -0.000000000000000000e+00 3.997822223522191631e-01 -0.000000000000000000e+00 8.277143320333754106e-01 0.000000000000000000e+00 -4.450183440865883022e-01 -0.000000000000000000e+00 -9.923456841065018130e-01 -6.843528764639685014e-02 0.000000000000000000e+00 0.000000000000000000e+00 7.478512079902995824e-01 -4.431955060643654187e-01 3.815013199429057034e-02 0.000000000000000000e+00 -1.500375071492202617e-01 -2.737660111300473931e-01 -0.000000000000000000e+00 4.586136688517774007e-01 -6.473697250827569194e-01 0.000000000000000000e+00 0.000000000000000000e+00 7.868991277179389066e-01 0.000000000000000000e+00 -0.000000000000000000e+00 -2.881011659821381965e-01 -0.000000000000000000e+00 7.393165322949413198e-01 -0.000000000000000000e+00 0.000000000000000000e+00 3.493439229945419222e-01 -0.000000000000000000e+00 -0.000000000000000000e+00 -3.906867121524159603e-01 1.647291392830746715e-01 0.000000000000000000e+00 7.828152673913917059e-02 0.000000000000000000e+00 -0.000000000000000000e+00 6.224429367066626473e-02 -5.640313585277794209e-03 -1.043967585716242485e+00 1.057565849840630574e-02 1.340430891246430223e-01 0.000000000000000000e+00 0.000000000000000000e+00 -0.000000000000000000e+00 -8.222455983228620091e-03
-0.000000000000000000e+00 -1.551706330830768532e-01 -2.781690401162061343e-01 -0.000000000000000000e+00 -4.147038648407398997e-01 0.000000000000000000e+00 -0.000000000000000000e+00 0.000000000000000000e+00 0.000000000000000000e+00 0.000000000000000000e+00 0.000000000000000000e+00 3.068497369896542315e-01 0.000000000000000000e+00 1.928418347934218458e-01 0.000000000000000000e+00 1.867084867723788622e-01 4.434161406170904901e-02 0.000000000000000000e+00 -5.686420926926286090e-02 0.000000000000000000e+00 -3.991249592890455666e-02 0.000000000000000000e+00 -0.000000000000000000e+00 3.610594007182721388e-02 -0.000000000000000000e+00 -1.789443567739988916e-01 -0.000000000000000000e+00 1.996388835808076689e-01 -0.000000000000000000e+00 -2.945328870821340983e-01 1.587751761491010272e-01 -1.589991263055380577e-01 -2.936251845693455542e-01 4.779205238736775746e-02 0.000000000000000000e+00 0.000000000000000000e+00 3.361502263140547231e-01 0.000000000000000000e+00 0.000000000000000000e+00 -0.000000000000000000e+00 0.000000000000000000e+00 0.000000000000000000e+00 1.113623260845473251e-01 0.000000000000000000e+00 -1.251080849232026615e-02 0.000000000000000000e+00 -7.441557656895524120e-02 -0.000000000000000000e+00 0.000000000000000000e+00 0.000000000000000000e+00 0.000000000000000000e+00 3.096171389437533950e-02 1.885576185912465341e-01 0.000000000000000000e+00 -1.273043106302520211e-01 0.000000000000000000e+00 -0.000000000000000000e+00 -3.339551536258222875e-01 -0.000000000000000000e+00 -0.000000000000000000e+00 5.664456850471187577e-02 -0.000000000000000000e+00 0.000000000000000000e+00 -2.038971234819043910e-01
0.000000000000000000e+00 0.000000000000000000e+00 -3.376880267539535962e-01 0.000000000000000000e+00 0.000000000000000000e+00 -0.000000000000000000e+00 0.000000000000000000e+00 -3.868813058332153942e-01 0.000000000000000000e+00 0.000000000000000000e+00 0.000000000000000000e+00 -0.000000000000000000e+00 -0.000000000000000000e+00 2.968999770125443916e-01 -3.886746374401571502e-02 0.000000000000000000e+00 0.000000000000000000e+00 1.527338185357338673e-01 -0.000000000000000000e+00 -5.519590608372936247e-01 6.914313411377984164e-02 -8.721458469087733142e-04 1.317111077198851454e-02 0.000000000000000000e+00 0.000000000000000000e+00 4.019967742286291446e-02 -0.000000000000000000e+00 0.000000000000000000e+00 0.000000000000000000e+00 -1.607889455976740378e-01 -0.000000000000000000e+00 5.393006230630029846e-02 -0.000000000000000000e+00 -0.000000000000000000e+00 -0.000000000000000000e+00 0.000000000000000000e+00 -0.000000000000000000e+00 -0.000000000000000000e+00 -0.000000000000000000e+00 0.000000000000000000e+00 0.000000000000000000e+00 4.865707141147823100e-01 -4.775182146545263184e-01 0.000000000000000000e+00 -0.000000000000000000e+00 -0.000000000000000000e+00 0.000000000000000000e+00 0.000000000000000000e+00 0.000000000000000000e+00 0.000000000000000000e+00 -1.048860723377145199e-01 -7.990163268983793698e-02 2.415104774089671391e-01 0.000000000000000000e+00 3.703838234046341604e-02 -3.157728590770402244e-01 -2.162978134343051806e-01 0.000000000000000000e+00 5.104095742432230853e-01 0.000000000000000000e+00 5.140326135163568733e-01 -0.000000000000000000e+00 6.735762606738902036e-01 0.000000000000000000e+00
0.000000000000000000e+00 7.897810447172644022e-01 3.030653433977806982e-02 -0.000000000000000000e+00 0.000000000000000000e+00 -5.431651653999217677e-01 -0.000000000000000000e+00 -0.000000000000000000e+00 0.000000000000000000e+00 3.058437715890252040e-01 -0.000000000000000000e+00 -0.000000000000000000e+00 0.000000000000000000e+00 0.000000000000000000e+00 -0.000000000000000000e+00 -2.674891066552285701e-01 -2.732269939386827162e-01 -0.000000000000000000e+00 -1.471799593771919157e-01 2.630131540249160960e-01 -0.000000000000000000e+00 0.000000000000000000e+00 -9.399550204780707241e-02 -0.000000000000000000e+00 -0.000000000000000000e+00 0.000000000000000000e+00 2.318465539570725154e-01 -0.000000000000000000e+00 -3.596328542419933161e-01 -0.000000000000000000e+00 -0.000000000000000000e+00 -5.122708516469156592e-01 -0.000000000000000000e+00 1.146313775188209511e-01 0.000000000000000000e+00 -7.370009427684094672e-02 -4.227612126366737111e-01 0.000000000000000000e+00 -2.373677556948664835e-01 -0.000000000000000000e+00 0.000000000000000000e+00 0.000000000000000000e+00 0.000000000000000000e+00 -3.707224875570041545e-01 -0.000000000000000000e+00 3.340238264473134877e-01 0.000000000000000000e+00 0.000000000000000000e+00 -0.000000000000000000e+00 -0.000000000000000000e+00 -0.000000000000000000e+00 -1.559991738441132147e-01 0.000000000000000000e+00 7.719847825957920628e-02 -0.000000000000000000e+00 -0.000000000000000000e+00 0.000000000000000000e+00 -0.000000000000000000e+00 5.365477956424512529e-01 -6.264395119603132223e-01 0.000000000000000000e+00 -2.834659948556385034e-01 -4.437401191839843717e-01 -3.266736513650009277e-01
0.000000000000000000e+00 -2.854575589536497704e-01 0.000000000000000000e+00 -1.630256004995509489e-01 -2.927628801485798737e-01 0.000000000000000000e+00 0.000000000000000000e+00 0.000000000000000000e+00 0.000000000000000000e+00 2.205685400036948851e-01 1.323876381143739289e+00 0.000000000000000000e+00 -0.000000000000000000e+00 -0.000000000000000000e+00 -0.000000000000000000e+00 0.000000000000000000e+00 0.000000000000000000e+00 1.253015164076634325e-01 2.543364325985434937e-01 0.000000000000000000e+00 8.538830011375128648e-02 1.137535131060525062e+00 3.019938764048255564e-01 -0.000000000000000000e+00 -0.000000000000000000e+00 -0.000000000000000000e+00 4.985475690741911770e-01 -6.053126285813003049e-01 -5.485485762684378513e-02 -2.008202819881302059e-01 -0.000000000000000000e+00 0.000000000000000000e+00 0.000000000000000000e+00 0.000000000000000000e+00 -0.000000000000000000e+00 -8.765366398416774008e-02 -0.000000000000000000e+00 4.408711051914835505e-02 7.071440356862729315e-02 0.000000000000000000e+00 -5.554590542000474584e-02 0.000000000000000000e+00 -2.176690663029920078e-02 0.000000000000000000e+00 -0.000000000000000000e+00 1.639671563868674575e-01 0.000000000000000000e+00 0.000000000000000000e+00 0.000000000000000000e+00 0.000000000000000000e+00 -0.000000000000000000e+00 0.000000000000000000e+00 0.000000000000000000e+00 -0.000000000000000000e+00 2.870950666452284361e-01 -0.000000000000000000e+00 -0.000000000000000000e+00 -0.000000000000000000e+00 -0.000000000000000000e+00 -9.923840151186838487e-02 0.000000000000000000e+00 5.429797078277978813e-03 3.789522552538064915e-01 -0.000000000000000000e+00
-0.000000000000000000e+00 8.484104776917510485e-03 -0.000000000000000000e+00 0.000000000000000000e+00 -2.325092269606825468e-01 -0.000000000000000000e+00 -6.772508048242094347e-03 4.913111245275752492e-01 0.000000000000000000e+00 -0.000000000000000000e+00 -1.651437222305802699e-01 7.263082164005237873e-01 0.000000000000000000e+00 -3.855608576584162450e-01 -0.000000000000000000e+00 1.742074044663722843e-01 -1.021531409501723331e-01 -4.420260376170735972e-01 -0.000000000000000000e+00 -0.000000000000000000e+00 0.000000000000000000e+00 0.000000000000000000e+00 0.000000000000000000e+00 0.000000000000000000e+00 3.862732707964047774e-01 2.838261471045153139e-01 -0.000000000000000000e+00 0.000000000000000000e+00 1.419120782164498829e-01 0.000000000000000000e+00 0.000000000000000000e+00 -4.334176462119518902e-01 -3.983078486541569152e-01 0.000000000000000000e+00 -0.000000000000000000e+00 0.000000000000000000e+00 -0.000000000000000000e+00 0.000000000000000000e+00 8.108098414090669781e-01 0.000000000000000000e+00 0.000000000000000000e+00 3.236681679726716721e-01 6.977398553670369208e-02 0.000000000000000000e+00 0.000000000000000000e+00 -6.455026882341341476e-01 0.000000000000000000e+00 -2.402835336229890151e-01 -0.000000000000000000e+00 -5.801030797640940179e-02 6.301703519753494576e-02 -2.210422576914789494e-01 0.000000000000000000e+00 -0.000000000000000000e+00 2.929671082911914914e-01 0.000000000000000000e+00 -9.105165709097734483e-01 -0.000000000000000000e+00 5.845851205278422558e-02 0.000000000000000000e+00 -0.000000000000000000e+00 -0.000000000000000000e+00 -0.000000000000000000e+00 1.054866125669622484e-01
-1.141510174503625186e-01 -0.000000000000000000e+00 1.554191564313941176e-01 3.342810195164330755e-01 0.000000000000000000e+00 -0.000000000000000000e+00 -9.581576119400818659e-01 1.873429869881545751e-01 -5.927212024196020224e-01 0.000000000000000000e+00 -1.242968014360034956e-01 1.262116315203749839e-01 2.680375298753234770e-01 -0.000000000000000000e+00 9.625850315065256901e-02 -0.000000000000000000e+00 1.020192820641147302e-01 -8.283346731869792867e-01 1.918369507569633869e-01 -7.126600429841124518e-01 -0.000000000000000000e+00 8.622807282798197748e-02 1.552526407942902975e-01 -0.000000000000000000e+00 0.000000000000000000e+00 -2.991774455803008353e-02 6.663382688605578030e-01 2.663174363768798514e-02 0.000000000000000000e+00 1.765009512732920727e-02 1.758780715843785425e-01 -1.235516112030610042e-01 3.528264972301682900e-01 2.857265459958656106e-01 -2.151896942584716546e-02 -0.000000000000000000e+00 -1.302585030519137210e-01 -0.000000000000000000e+00 -8.332264336125371059e-04 -0.000000000000000000e+00 -3.251744597175370011e-01 7.532521771900336782e-01 0.000000000000000000e+00 -1.350546176567169465e-01 5.348628107019252065e-01 -0.000000000000000000e+00 -0.000000000000000000e+00 -2.226729649898959995e-01 -0.000000000000000000e+00 6.978701694894252627e-01 2.262977201224747048e-01 0.000000000000000000e+00 0.000000000000000000e+00 0.000000000000000000e+00 -0.000000000000000000e+00 -1.128023756239944358e-01 -4.420031751505382189e-02 0.000000000000000000e+00 -0.000000000000000000e+00 -2.488200631410328670e-02 -1.800863608214997025e-01 0.000000000000000000e+00 9.494120776604063339e-02 3.129837635700270515e-01
2.874822800957658742e-01 0.000000000000000000e+00 1.812876791640319687e-02 0.000000000000000000e+00 -0.000000000000000000e+00 -0.000000000000000000e+00 0.000000000000000000e+00 3.476741700478005459e-01 -0.000000000000000000e+00 1.342724139594102251e-02 -0.000000000000000000e+00 0.000000000000000000e+00 7.869056024206593225e-01 -0.000000000000000000e+00 -0.000000000000000000e+00 -0.000000000000000000e+00 4.878737796222615275e-01 1.260965525467784065e+00 -0.000000000000000000e+00 -1.139030372302435139e-02 0.000000000000000000e+00 -0.000000000000000000e+00 -4.346363384564462529e-02 -1.210642311286668354e-01 -0.000000000000000000e+00 0.000000000000000000e+00 0.000000000000000000e+00 0.000000000000000000e+00 -3.175746008315337710e-01 -0.000000000000000000e+00 4.466323847079574638e-01 -5.479798441416650068e-01 -0.000000000000000000e+00 5.175341550563444110e-02 0.000000000000000000e+00 5.383811905404107395e-02 -3.759136740464244508e-01 -0.000000000000000000e+00 1.695720156307455873e-01 5.565418332080589170e-02 0.000000000000000000e+00 -3.105901331343944305e-01 -0.000000000000000000e+00 -4.578597728671948697e-01 8.445921166646427891e-02 1.151670573473910150e-02 -0.000000000000000000e+00 1.926338956503479416e-01 0.000000000000000000e+00 -0.000000000000000000e+00 -2.031090450704213513e-01 0.000000000000000000e+00 -3.699961354883488651e-01 0.000000000000000000e+00 -0.000000000000000000e+00 0.000000000000000000e+00 -0.000000000000000000e+00 -0.000000000000000000e+00 1.620859693501195409e-01 -0.000000000000000000e+00 -0.000000000000000000e+00 6.029166192762377419e-01 -0.000000000000000000e+00 -6.232629244530347723e-01
0.000000000000000000e+00 0.000000000000000000e+00 2.805394083978724265e-02 -0.000000000000000000e+00 -3.977271625465134686e-01 0.000000000000000000e+00 0.000000000000000000e+00 -0.000000000000000000e+00 1.245930405675538116e-01 0.000000000000000000e+00 -3.882386481862712957e-01 -7.410787880767082114e-02 -0.000000000000000000e+00 3.732912000241163097e-01 1.888201721561149071e-01 1.138497219513696368e-01 0.000000000000000000e+00 1.528905665210097409e-01 0.000000000000000000e+00 1.256390164926876885e-01 -2.714674294581808506e-02 -0.000000000000000000e+00 0.000000000000000000e+00 -0.000000000000000000e+00 5.896186320239076295e-01 3.067952009789843282e-01 1.268009488419362951e-01 -1.016842809595096819e-01 -7.374411967768664811e-01 -2.006346531897806040e-01 7.687323243576329457e-01 0.000000000000000000e+00 0.000000000000000000e+00 1.959599696004175051e-01 -2.021618410098734719e-01 0.000000000000000000e+00 0.000000000000000000e+00 4.256501873245009948e-01 -0.000000000000000000e+00 -0.000000000000000000e+00 0.000000000000000000e+00 0.000000000000000000e+00 -1.209980194307244267e-01 0.000000000000000000e+00 -1.086495561593864290e-01 -3.367776821173690954e-02 -0.000000000000000000e+00 -4.826305126231668352e-02 -2.706957719833064657e-01 -0.000000000000000000e+00 2.404745693777370907e-01 -1.994181434397183927e-01 2.245317446594850830e-01 -0.000000000000000000e+00 5.707578308583872717e-01 0.000000000000000000e+00 2.222922346098398297e-02 -0.000000000000000000e+00 0.000000000000000000e+00 0.000000000000000000e+00 3.241740941002758669e-01 3.466341362245898283e-01 -1.159931652455504225e-01 1.336662414400004162e-01
-0.000000000000000000e+00 0.000000000000000000e+00 -0.000000000000000000e+00 -1.261282246604276402e-01 -0.000000000000000000e+00 0.000000000000000000e+00 0.000000000000000000e+00 0.000000000000000000e+00 -3.943369463912463901e-01 -6.727693635845786169e-01 -0.000000000000000000e+00 0.000000000000000000e+00 5.992568495363784775e-01 -4.972309296713577353e-01 -0.000000000000000000e+00 -4.110524648354209054e-01 0.000000000000000000e+00 -0.000000000000000000e+00 2.742220250123806116e-02 3.586230617835194784e-02 0.000000000000000000e+00 -0.000000000000000000e+00 6.266140793273857756e-01 -0.000000000000000000e+00 2.894349516034311256e-04 -0.000000000000000000e+00 0.000000000000000000e+00 2.850165467803158492e-01 -0.000000000000000000e+00 -4.151151288153925867e-01 5.575114221383418167e-01 -0.000000000000000000e+00 5.011708617038603819e-01 0.000000000000000000e+00 -2.710780160538346362e-01 -0.000000000000000000e+00 -5.235618153032887134e-01 -0.000000000000000000e+00 0.000000000000000000e+00 -8.238454577565278159e-02 7.509132157005722341e-01 0.000000000000000000e+00 3.548054758298948425e-02 -6.465059159209164408e-01 7.134463196365737649e-03 -1.997167882691387730e-02 0.000000000000000000e+00 -0.000000000000000000e+00 4.920541646505766087e-01 -4.656010229342055773e-01 -0.000000000000000000e+00 0.000000000000000000e+00 0.000000000000000000e+00 -4.291753215347183237e-01 8.100809535319769550e-02 2.010464176974688377e-01 0.000000000000000000e+00 -0.000000000000000000e+00 -1.454658619810440812e-01 -0.000000000000000000e+00 7.135235673240425402e-02 0.000000000000000000e+00 3.009052554030076654e-01 -0.000000000000000000e+00
0.000000000000000000e+00 3.936586907986283634e-01 1.105122391151642097e-01 -0.000000000000000000e+00 0.000000000000000000e+00 -0.000000000000000000e+00 -1.348115944437771052e-01 0.000000000000000000e+00 -0.000000000000000000e+00 -6.788167649176319873e-01 4.215608648110498180e-01 -1.179992738347415970e-01 -0.000000000000000000e+00 -0.000000000000000000e+00 0.000000000000000000e+00 -0.000000000000000000e+00 -1.704583165338567630e-01 0.000000000000000000e+00 6.454738982193161112e-01 0.000000000000000000e+00 5.880593369911824020e-01 0.000000000000000000e+00 -6.185625397298974981e-01 -2.749461202542970995e-01 1.168503879568358189e-01 0.000000000000000000e+00 -4.947599419811773286e-02 0.000000000000000000e+00 -0.000000000000000000e+00 0.000000000000000000e+00 6.259340928359143907e-01 -1.350174008082964394e-01 -0.000000000000000000e+00 -0.000000000000000000e+00 3.759766969435560657e-01 0.000000000000000000e+00 5.824280174651896153e-02 -2.909158017165491272e-01 -3.711993077764854654e-01 1.411282606193662859e-01 1.235796141820321992e-01 -5.331087101999319733e-02 1.790174009805030331e-01 -8.013019342959371016e-02 -0.000000000000000000e+00 -1.289709216705667572e-01 -0.000000000000000000e+00 2.847695491991424910e-01 0.000000000000000000e+00 -1.476600824847978111e-01 -4.604923839312624612e-01 -0.000000000000000000e+00 0.000000000000000000e+00 0.000000000000000000e+00 4.411780643362483989e-02 0.000000000000000000e+00 -0.000000000000000000e+00 0.000000000000000000e+00 -7.216413468523502628e-01 -2.095719625791924723e-01 0.000000000000000000e+00 0.000000000000000000e+00 -0.000000000000000000e+00 0.000000000000000000e+00
-0.000000000000000000e+00 0.000000000000000000e+00 -7.749038592171812734e-02 -0.000000000000000000e+00 0.000000000000000000e+00 0.000000000000000000e+00 2.915114358971729880e-01 -0.000000000000000000e+00 -0.000000000000000000e+00 0.000000000000000000e+00 3.134230458858407870e-02 4.280468630586003465e-01 -0.000000000000000000e+00 1.069560789668109468e-01 -0.000000000000000000e+00 0.000000000000000000e+00 1.464334874503733508e-01 6.909395392183446116e-01 -0.000000000000000000e+00 -0.000000000000000000e+00 0.000000000000000000e+00 6.755224902788373176e-02 5.424830201480409508e-01 -0.000000000000000000e+00 -6.780338003297602112e-02 -3.306381409845488006e-01 0.000000000000000000e+00 3.507608891600358936e-01 -0.000000000000000000e+00 0.000000000000000000e+00 7.139892760069049826e-01 -0.000000000000000000e+00 -4.306968374722500159e-02 0.000000000000000000e+00 -3.946571240275182357e-01 -0.000000000000000000e+00 -0.000000000000000000e+00 -0.000000000000000000e+00 1.245949497205636330e-01 3.404905825124101559e-01 1.930512131650279420e-02 7.591530738763832206e-03 0.000000000000000000e+00 -0.000000000000000000e+00 -5.845800755305093910e-01 0.000000000000000000e+00 -0.000000000000000000e+00 -0.000000000000000000e+00 -1.046988239044406577e-01 -1.446361926445340618e-01 5.257097969801324266e-01 0.000000000000000000e+00 -3.661855834023670098e-01 -3.209794058564816727e-02 0.000000000000000000e+00 -0.000000000000000000e+00 -4.025308675052122753e-01 3.109826571924251271e-01 0.000000000000000000e+00 -1.631785214111077242e-01 7.652400502444380859e-01 3.868337366314833492e-01 -0.000000000000000000e+00 0.000000000000000000e+00
0.000000000000000000e+00 4.605623585058909453e-01 3.917970021912090539e-01 5.006064140176648136e-01 0.000000000000000000e+00 -2.054839756981638177e-01 -0.000000000000000000e+00 2.768473002810595829e-01 -3.815424016200865548e-02 3.770593234188310272e-01 0.000000000000000000e+00 -0.000000000000000000e+00 -0.000000000000000000e+00 -8.651992874927398880e-01 -0.000000000000000000e+00 -5.401474672015100786e-01 -5.299036919423536461e-04 1.267045748647609438e-01 -0.000000000000000000e+00 -0.000000000000000000e+00 2.919267011220344488e-01 2.335827863579170716e-01 -0.000000000000000000e+00 -0.000000000000000000e+00 0.000000000000000000e+00 -4.033646427460316208e-01 0.000000000000000000e+00 0.000000000000000000e+00 -7.562573555852680762e-01 -0.000000000000000000e+00 1.673865367679856081e-02 -2.448376481602596369e-02 -2.865033565563353535e-01 0.000000000000000000e+00 0.000000000000000000e+00 1.913144239934695401e-01 -2.316615971122636120e-02 0.000000000000000000e+00 -2.579022155932027549e-01 -3.960657672607595381e-01 0.000000000000000000e+00 2.176034126802242064e-01 0.000000000000000000e+00 0.000000000000000000e+00 -0.000000000000000000e+00 -5.570844385982558489e-01 7.585008435109384661e-02 0.000000000000000000e+00 -0.000000000000000000e+00 1.208088062208628050e-01 0.000000000000000000e+00 -4.435269674412233853e-01 3.956259344327370253e-01 -2.322833310949903307e-01 -2.045776246372107976e-01 6.015114131848912082e-01 -0.000000000000000000e+00 -0.000000000000000000e+00 -0.000000000000000000e+00 0.000000000000000000e+00 0.000000000000000000e+00 -8.246034771592983259e-02 -5.677735426814635444e-02 0.000000000000000000e+00
0.000000000000000000e+00 0.000000000000000000e+00 3.190419311755209320e-01 -0.000000000000000000e+00 0.000000000000000000e+00 -4.806224099386965376e-01 0.000000000000000000e+00 -9.986468643405081724e-02 0.000000000000000000e+00 0.000000000000000000e+00 -7.879150678836609467e-01 -6.273321370131375307e-02 2.630652907213888447e-01 -0.000000000000000000e+00 -2.425792913310788057e-01 8.099570105076471516e-02 3.300683475784391696e-01 -5.383309753121514607e-01 -1.263144971936519811e-01 0.000000000000000000e+00 -3.528981829825716954e-01 1.594511152912909957e-02 4.726793999704095306e-01 -1.547236522086237187e-01 0.000000000000000000e+00 2.988834184006515793e-01 1.550738015010751925e-01 -4.872573248892874131e-01 -0.000000000000000000e+00 1.458367719007517271e-01 -4.658254970655068550e-01 2.986622863811945194e-01 -1.904390305856001608e-01 -0.000000000000000000e+00 -0.000000000000000000e+00 -4.856629208660648289e-01 0.000000000000000000e+00 1.663002840184618636e-02 -0.000000000000000000e+00 -7.874174115014799524e-02 0.000000000000000000e+00 -4.629844222627740868e-01 0.000000000000000000e+00 -0.000000000000000000e+00 0.000000000000000000e+00 -0.000000000000000000e+00 0.000000000000000000e+00 0.000000000000000000e+00 -3.648697178843834932e-01 3.530493461107135911e-01 0.000000000000000000e+00 1.804857787017422055e-01 0.000000000000000000e+00 0.000000000000000000e+00 -3.043637092217530982e-01 7.068480784393624816e-01 1.324585036180088715e-01 -7.565437620165411936e-02 -0.000000000000000000e+00 0.000000000000000000e+00 0.000000000000000000e+00 4.912587327056467945e-01 0.000000000000000000e+00 -5.940557473900678204e-02
