-1.000000000000000000e+00 8.112684643024470343e-02 0.000000000000000000e+00 0.000000000000000000e+00 0.000000000000000000e+00 0.000000000000000000e+00 0.000000000000000000e+00 0.000000000000000000e+00 9.050454957187135940e-02 0.000000000000000000e+00 0.000000000000000000e+00 0.000000000000000000e+00 1.079908730916963877e-01 0.000000000000000000e+00 0.000000000000000000e+00 0.000000000000000000e+00 0.000000000000000000e+00 0.000000000000000000e+00 8.890866096954158637e-02 0.000000000000000000e+00 0.000000000000000000e+00 0.000000000000000000e+00 0.000000000000000000e+00 1.315501440108244047e-01 0.000000000000000000e+00 0.000000000000000000e+00 0.000000000000000000e+00 0.000000000000000000e+00 0.000000000000000000e+00 0.000000000000000000e+00 0.000000000000000000e+00 0.000000000000000000e+00 0.000000000000000000e+00 0.000000000000000000e+00 6.611688385944747282e-02 1.082088966782309702e-01 0.000000000000000000e+00 1.012614810465982812e-01 0.000000000000000000e+00 0.000000000000000000e+00 0.000000000000000000e+00 9.808762626607840651e-02 0.000000000000000000e+00 0.000000000000000000e+00 0.000000000000000000e+00 9.194984017051624492e-02 0.000000000000000000e+00 8.871097537117147991e-02 0.000000000000000000e+00 8.173207313448374589e-02 0.000000000000000000e+00 -0.000000000000000000e+00 -1.793095543802144531e-01 -1.459102551010910409e-01 -1.448549362743080660e-01 -0.000000000000000000e+00 -0.000000000000000000e+00 -1.740240597744880657e-01 -1.357183084406607676e-01 -1.750390590478370367e-01 -0.000000000000000000e+00 -0.000000000000000000e+00 -1.599256857253347763e-01 -0.000000000000000000e+00
0.000000000000000000e+00 -1.000000000000000000e+00 0.000000000000000000e+00 0.000000000000000000e+00 7.231286997095055791e-02 0.000000000000000000e+00 0.000000000000000000e+00 0.000000000000000000e+00 0.000000000000000000e+00 0.000000000000000000e+00 0.000000000000000000e+00 6.302866898832737430e-02 0.000000000000000000e+00 9.155795916542017188e-02 0.000000000000000000e+00 0.000000000000000000e+00 0.000000000000000000e+00 0.000000000000000000e+00 0.000000000000000000e+00 0.000000000000000000e+00 9.706348859705750398e-02 0.000000000000000000e+00 0.000000000000000000e+00 0.000000000000000000e+00 0.000000000000000000e+00 0.000000000000000000e+00 8.521447545376512056e-02 0.000000000000000000e+00 0.000000000000000000e+00 0.000000000000000000e+00 0.000000000000000000e+00 0.000000000000000000e+00 7.720340101750405859e-02 7.274869454409488290e-02 0.000000000000000000e+00 0.000000000000000000e+00 0.000000000000000000e+00 1.053123269214533697e-01 0.000000000000000000e+00 0.000000000000000000e+00 0.000000000000000000e+00 0.000000000000000000e+00 8.191820231889991588e-02 1.135535608860457069e-01 0.000000000000000000e+00 1.012665738743423333e-01 0.000000000000000000e+00 0.000000000000000000e+00 0.000000000000000000e+00 0.000000000000000000e+00 0.000000000000000000e+00 -0.000000000000000000e+00 -1.662800846915761521e-01 -1.674253854849214462e-01 -1.600493743809248692e-01 -1.701006781353756325e-01 -0.000000000000000000e+00 -0.000000000000000000e+00 -1.801426572740982002e-01 -0.000000000000000000e+00 -1.926854964851439089e-01 -0.000000000000000000e+00 -0.000000000000000000e+00 -1.640433495519437457e-01
0.000000000000000000e+00 0.000000000000000000e+00 -1.000000000000000000e+00 0.000000000000000000e+00 0.000000000000000000e+00 0.000000000000000000e+00 0.000000000000000000e+00 1.035067218361520880e-01 0.000000000000000000e+00 0.000000000000000000e+00 0.000000000000000000e+00 0.000000000000000000e+00 0.000000000000000000e+00 0.000000000000000000e+00 0.000000000000000000e+00 0.000000000000000000e+00 0.000000000000000000e+00 0.000000000000000000e+00 0.000000000000000000e+00 0.000000000000000000e+00 0.000000000000000000e+00 0.000000000000000000e+00 0.000000000000000000e+00 0.000000000000000000e+00 6.925143440065922862e-02 0.000000000000000000e+00 0.000000000000000000e+00 0.000000000000000000e+00 0.000000000000000000e+00 0.000000000000000000e+00 0.000000000000000000e+00 0.000000000000000000e+00 0.000000000000000000e+00 0.000000000000000000e+00 0.000000000000000000e+00 0.000000000000000000e+00 0.000000000000000000e+00 0.000000000000000000e+00 0.000000000000000000e+00 0.000000000000000000e+00 0.000000000000000000e+00 0.000000000000000000e+00 0.000000000000000000e+00 9.519182876293204310e-02 7.208428360567903370e-02 1.108084961464382012e-01 0.000000000000000000e+00 0.000000000000000000e+00 0.000000000000000000e+00 0.000000000000000000e+00 0.000000000000000000e+00 -0.000000000000000000e+00 -1.712737890991407053e-01 -0.000000000000000000e+00 -0.000000000000000000e+00 -1.684945749611620469e-01 -1.657189977380706114e-01 -0.000000000000000000e+00 -0.000000000000000000e+00 -0.000000000000000000e+00 -0.000000000000000000e+00 -0.000000000000000000e+00 -0.000000000000000000e+00 -0.000000000000000000e+00
0.000000000000000000e+00 0.000000000000000000e+00 0.000000000000000000e+00 -1.000000000000000000e+00 0.000000000000000000e+00 0.000000000000000000e+00 8.350179042726837975e-02 0.000000000000000000e+00 0.000000000000000000e+00 0.000000000000000000e+00 5.237607283217734361e-02 0.000000000000000000e+00 0.000000000000000000e+00 0.000000000000000000e+00 0.000000000000000000e+00 9.590980174924054746e-02 0.000000000000000000e+00 0.000000000000000000e+00 0.000000000000000000e+00 0.000000000000000000e+00 9.900220439297661990e-02 0.000000000000000000e+00 0.000000000000000000e+00 0.000000000000000000e+00 0.000000000000000000e+00 0.000000000000000000e+00 0.000000000000000000e+00 0.000000000000000000e+00 8.653861445120915319e-02 9.481332001535619503e-02 0.000000000000000000e+00 0.000000000000000000e+00 0.000000000000000000e+00 0.000000000000000000e+00 0.000000000000000000e+00 8.840656937075877519e-02 0.000000000000000000e+00 8.147712602787840486e-02 0.000000000000000000e+00 0.000000000000000000e+00 0.000000000000000000e+00 9.611821462828847029e-02 0.000000000000000000e+00 6.029541016185963054e-02 0.000000000000000000e+00 0.000000000000000000e+00 0.000000000000000000e+00 0.000000000000000000e+00 0.000000000000000000e+00 0.000000000000000000e+00 0.000000000000000000e+00 -1.700504669510714550e-01 -1.473645932243337064e-01 -1.487580660774175667e-01 -1.527468684470077442e-01 -0.000000000000000000e+00 -1.648481314534066544e-01 -0.000000000000000000e+00 -0.000000000000000000e+00 -1.536973395647777962e-01 -0.000000000000000000e+00 -1.358549970772723048e-01 -0.000000000000000000e+00 -1.788729625948937141e-01
6.670496596089725561e-02 8.212991009806983045e-02 0.000000000000000000e+00 0.000000000000000000e+00 -1.000000000000000000e+00 9.825279973654992005e-02 0.000000000000000000e+00 0.000000000000000000e+00 0.000000000000000000e+00 0.000000000000000000e+00 1.146479431817390565e-01 0.000000000000000000e+00 0.000000000000000000e+00 0.000000000000000000e+00 0.000000000000000000e+00 0.000000000000000000e+00 0.000000000000000000e+00 0.000000000000000000e+00 0.000000000000000000e+00 8.880342542398667049e-02 0.000000000000000000e+00 0.000000000000000000e+00 7.521949893449929314e-02 0.000000000000000000e+00 0.000000000000000000e+00 0.000000000000000000e+00 9.054185861389189849e-02 1.091976150220339697e-01 7.129300585295988979e-02 0.000000000000000000e+00 0.000000000000000000e+00 1.074883062622739582e-01 0.000000000000000000e+00 0.000000000000000000e+00 0.000000000000000000e+00 0.000000000000000000e+00 0.000000000000000000e+00 0.000000000000000000e+00 1.063148153972156840e-01 1.076294847203888849e-01 0.000000000000000000e+00 0.000000000000000000e+00 0.000000000000000000e+00 0.000000000000000000e+00 0.000000000000000000e+00 0.000000000000000000e+00 0.000000000000000000e+00 0.000000000000000000e+00 1.081144095037314817e-01 5.630579658287013234e-02 0.000000000000000000e+00 -1.823291617832204503e-01 -0.000000000000000000e+00 -0.000000000000000000e+00 -1.792423210736580341e-01 -1.705371427590156863e-01 -0.000000000000000000e+00 -0.000000000000000000e+00 -1.720650068896883711e-01 -0.000000000000000000e+00 -1.607137871817108099e-01 -1.580567677703664797e-01 -0.000000000000000000e+00 -1.777263139465277975e-01
0.000000000000000000e+00 0.000000000000000000e+00 0.000000000000000000e+00 9.953127154167279445e-02 1.060273319092694400e-01 -1.000000000000000000e+00 0.000000000000000000e+00 0.000000000000000000e+00 9.169248638356732040e-02 0.000000000000000000e+00 0.000000000000000000e+00 0.000000000000000000e+00 0.000000000000000000e+00 0.000000000000000000e+00 0.000000000000000000e+00 0.000000000000000000e+00 0.000000000000000000e+00 0.000000000000000000e+00 0.000000000000000000e+00 0.000000000000000000e+00 0.000000000000000000e+00 8.894018776000137128e-02 0.000000000000000000e+00 0.000000000000000000e+00 0.000000000000000000e+00 0.000000000000000000e+00 8.294856324498819933e-02 7.989300399356122351e-02 0.000000000000000000e+00 0.000000000000000000e+00 0.000000000000000000e+00 0.000000000000000000e+00 0.000000000000000000e+00 0.000000000000000000e+00 9.990123389555644051e-02 4.236016906300902468e-02 0.000000000000000000e+00 1.120529061278411898e-01 0.000000000000000000e+00 0.000000000000000000e+00 0.000000000000000000e+00 0.000000000000000000e+00 8.594620747883979783e-02 0.000000000000000000e+00 0.000000000000000000e+00 5.764617966076839017e-02 9.109105835290901010e-02 7.349640677278160283e-02 0.000000000000000000e+00 0.000000000000000000e+00 0.000000000000000000e+00 -1.682439397706233519e-01 -0.000000000000000000e+00 -0.000000000000000000e+00 -1.645380819449131782e-01 -0.000000000000000000e+00 -1.727333826196875421e-01 -1.734645186885032386e-01 -0.000000000000000000e+00 -0.000000000000000000e+00 -0.000000000000000000e+00 -0.000000000000000000e+00 -1.626146636028693304e-01 -1.605069917148872483e-01
7.867562078848786000e-02 0.000000000000000000e+00 0.000000000000000000e+00 9.914191286430351635e-02 0.000000000000000000e+00 0.000000000000000000e+00 -1.000000000000000000e+00 0.000000000000000000e+00 5.921298860829263266e-02 0.000000000000000000e+00 0.000000000000000000e+00 0.000000000000000000e+00 1.029785517557586100e-01 1.181925417233982700e-01 9.654337822965665394e-02 0.000000000000000000e+00 0.000000000000000000e+00 0.000000000000000000e+00 7.284355698364354537e-02 0.000000000000000000e+00 0.000000000000000000e+00 0.000000000000000000e+00 0.000000000000000000e+00 0.000000000000000000e+00 1.124205925499338621e-01 0.000000000000000000e+00 0.000000000000000000e+00 0.000000000000000000e+00 1.183721741251318044e-01 8.501804183855805885e-02 0.000000000000000000e+00 8.031773569596706297e-02 0.000000000000000000e+00 8.077284932157210995e-02 0.000000000000000000e+00 9.762985665575110716e-02 0.000000000000000000e+00 0.000000000000000000e+00 0.000000000000000000e+00 0.000000000000000000e+00 0.000000000000000000e+00 0.000000000000000000e+00 0.000000000000000000e+00 0.000000000000000000e+00 0.000000000000000000e+00 0.000000000000000000e+00 8.381397886092549487e-02 9.461103913073001803e-02 0.000000000000000000e+00 0.000000000000000000e+00 0.000000000000000000e+00 -0.000000000000000000e+00 -0.000000000000000000e+00 -1.888284192557548868e-01 -0.000000000000000000e+00 -0.000000000000000000e+00 -1.766260395757685842e-01 -1.853427460998529341e-01 -1.556196771110725796e-01 -0.000000000000000000e+00 -0.000000000000000000e+00 -1.645415604357138850e-01 -0.000000000000000000e+00 -0.000000000000000000e+00
0.000000000000000000e+00 0.000000000000000000e+00 0.000000000000000000e+00 0.000000000000000000e+00 0.000000000000000000e+00 0.000000000000000000e+00 0.000000000000000000e+00 -1.000000000000000000e+00 0.000000000000000000e+00 8.326798659343664921e-02 0.000000000000000000e+00 0.000000000000000000e+00 0.000000000000000000e+00 0.000000000000000000e+00 0.000000000000000000e+00 0.000000000000000000e+00 0.000000000000000000e+00 0.000000000000000000e+00 0.000000000000000000e+00 0.000000000000000000e+00 0.000000000000000000e+00 0.000000000000000000e+00 6.555239291064873797e-02 0.000000000000000000e+00 8.392653128742133539e-02 0.000000000000000000e+00 0.000000000000000000e+00 0.000000000000000000e+00 0.000000000000000000e+00 0.000000000000000000e+00 0.000000000000000000e+00 0.000000000000000000e+00 0.000000000000000000e+00 0.000000000000000000e+00 7.756638890908212902e-02 0.000000000000000000e+00 9.823877747944306793e-02 7.164162694782126584e-02 0.000000000000000000e+00 0.000000000000000000e+00 0.000000000000000000e+00 8.805348707266597019e-02 0.000000000000000000e+00 0.000000000000000000e+00 7.814998958684309105e-02 8.926301223831145659e-02 0.000000000000000000e+00 0.000000000000000000e+00 0.000000000000000000e+00 0.000000000000000000e+00 0.000000000000000000e+00 -1.918094630931141686e-01 -1.838587833799697202e-01 -1.390290153521436534e-01 -1.979226169508476185e-01 -0.000000000000000000e+00 -1.754694651452271825e-01 -1.643807695485412501e-01 -1.772474981354815182e-01 -1.342695975711641621e-01 -0.000000000000000000e+00 -0.000000000000000000e+00 -1.732055562919345704e-01 -1.669551816955590628e-01
0.000000000000000000e+00 0.000000000000000000e+00 0.000000000000000000e+00 0.000000000000000000e+00 0.000000000000000000e+00 0.000000000000000000e+00 9.149378992548570788e-02 0.000000000000000000e+00 -1.000000000000000000e+00 0.000000000000000000e+00 8.849406483270735868e-02 9.501917848564239710e-02 0.000000000000000000e+00 0.000000000000000000e+00 0.000000000000000000e+00 5.736045375964113346e-02 0.000000000000000000e+00 0.000000000000000000e+00 0.000000000000000000e+00 0.000000000000000000e+00 0.000000000000000000e+00 0.000000000000000000e+00 9.855942150315225025e-02 0.000000000000000000e+00 1.065319535351883506e-01 0.000000000000000000e+00 0.000000000000000000e+00 0.000000000000000000e+00 1.129355367928985415e-01 0.000000000000000000e+00 0.000000000000000000e+00 0.000000000000000000e+00 1.216417434490174587e-01 0.000000000000000000e+00 0.000000000000000000e+00 0.000000000000000000e+00 0.000000000000000000e+00 0.000000000000000000e+00 0.000000000000000000e+00 0.000000000000000000e+00 0.000000000000000000e+00 0.000000000000000000e+00 0.000000000000000000e+00 0.000000000000000000e+00 0.000000000000000000e+00 0.000000000000000000e+00 0.000000000000000000e+00 1.162627208829864478e-01 1.249801358918700006e-01 0.000000000000000000e+00 0.000000000000000000e+00 -0.000000000000000000e+00 -1.899426691008346268e-01 -0.000000000000000000e+00 -0.000000000000000000e+00 -1.346904232565347970e-01 -0.000000000000000000e+00 -0.000000000000000000e+00 -0.000000000000000000e+00 -0.000000000000000000e+00 -1.546213841134538025e-01 -1.737512830937106567e-01 -0.000000000000000000e+00 -0.000000000000000000e+00
0.000000000000000000e+00 0.000000000000000000e+00 0.000000000000000000e+00 0.000000000000000000e+00 0.000000000000000000e+00 0.000000000000000000e+00 0.000000000000000000e+00 0.000000000000000000e+00 0.000000000000000000e+00 -1.000000000000000000e+00 6.544679936226555084e-02 0.000000000000000000e+00 0.000000000000000000e+00 0.000000000000000000e+00 0.000000000000000000e+00 0.000000000000000000e+00 9.376937983945553279e-02 8.573320287771835080e-02 0.000000000000000000e+00 0.000000000000000000e+00 0.000000000000000000e+00 0.000000000000000000e+00 6.558240150635009924e-02 0.000000000000000000e+00 6.624420929406679703e-02 0.000000000000000000e+00 0.000000000000000000e+00 9.425819943675887991e-02 0.000000000000000000e+00 1.025887934004040825e-01 0.000000000000000000e+00 0.000000000000000000e+00 0.000000000000000000e+00 1.094869141429130333e-01 0.000000000000000000e+00 0.000000000000000000e+00 0.000000000000000000e+00 0.000000000000000000e+00 0.000000000000000000e+00 0.000000000000000000e+00 1.231464932851074334e-01 0.000000000000000000e+00 0.000000000000000000e+00 0.000000000000000000e+00 0.000000000000000000e+00 0.000000000000000000e+00 8.647605821689791084e-02 0.000000000000000000e+00 1.095629219578275193e-01 0.000000000000000000e+00 9.774533928089218504e-02 -1.969196831287798322e-01 -1.679046830594865258e-01 -1.647220435015044893e-01 -0.000000000000000000e+00 -1.792396264388184668e-01 -0.000000000000000000e+00 -1.664876892551861165e-01 -0.000000000000000000e+00 -0.000000000000000000e+00 -0.000000000000000000e+00 -1.729795136755199747e-01 -0.000000000000000000e+00 -1.747866619103274344e-01
0.000000000000000000e+00 0.000000000000000000e+00 0.000000000000000000e+00 0.000000000000000000e+00 0.000000000000000000e+00 7.090181435605370786e-02 0.000000000000000000e+00 0.000000000000000000e+00 0.000000000000000000e+00 0.000000000000000000e+00 -1.000000000000000000e+00 0.000000000000000000e+00 0.000000000000000000e+00 0.000000000000000000e+00 0.000000000000000000e+00 0.000000000000000000e+00 0.000000000000000000e+00 0.000000000000000000e+00 0.000000000000000000e+00 0.000000000000000000e+00 0.000000000000000000e+00 0.000000000000000000e+00 8.787314392188536050e-02 0.000000000000000000e+00 0.000000000000000000e+00 0.000000000000000000e+00 0.000000000000000000e+00 0.000000000000000000e+00 0.000000000000000000e+00 0.000000000000000000e+00 8.322279041233769659e-02 0.000000000000000000e+00 0.000000000000000000e+00 0.000000000000000000e+00 0.000000000000000000e+00 0.000000000000000000e+00 0.000000000000000000e+00 7.054665832812795356e-02 0.000000000000000000e+00 6.802668957557955753e-02 0.000000000000000000e+00 0.000000000000000000e+00 0.000000000000000000e+00 0.000000000000000000e+00 8.300878153297656936e-02 0.000000000000000000e+00 9.769425164257743155e-02 0.000000000000000000e+00 8.413716727158376818e-02 0.000000000000000000e+00 8.155217381921389674e-02 -0.000000000000000000e+00 -0.000000000000000000e+00 -0.000000000000000000e+00 -0.000000000000000000e+00 -1.930888360419938943e-01 -1.527377003910360964e-01 -1.636467217869667368e-01 -1.657263585986293586e-01 -1.782625340548479875e-01 -0.000000000000000000e+00 -1.646457107167481615e-01 -1.703646954050662687e-01 -1.883776428067331365e-01
0.000000000000000000e+00 0.000000000000000000e+00 0.000000000000000000e+00 0.000000000000000000e+00 0.000000000000000000e+00 0.000000000000000000e+00 1.017612656992698955e-01 9.010402717802967754e-02 0.000000000000000000e+00 7.946952678880359056e-02 0.000000000000000000e+00 -1.000000000000000000e+00 7.791055718042963485e-02 0.000000000000000000e+00 7.848641394806916971e-02 0.000000000000000000e+00 0.000000000000000000e+00 0.000000000000000000e+00 0.000000000000000000e+00 0.000000000000000000e+00 0.000000000000000000e+00 0.000000000000000000e+00 0.000000000000000000e+00 0.000000000000000000e+00 0.000000000000000000e+00 0.000000000000000000e+00 0.000000000000000000e+00 9.312383771572808888e-02 0.000000000000000000e+00 1.152113280121660477e-01 9.901011982860254135e-02 0.000000000000000000e+00 0.000000000000000000e+00 0.000000000000000000e+00 9.672843444804704593e-02 0.000000000000000000e+00 0.000000000000000000e+00 6.932418179570819239e-02 0.000000000000000000e+00 7.144474244584830824e-02 0.000000000000000000e+00 7.566842377108841389e-02 0.000000000000000000e+00 0.000000000000000000e+00 7.933727859122594039e-02 0.000000000000000000e+00 0.000000000000000000e+00 0.000000000000000000e+00 0.000000000000000000e+00 0.000000000000000000e+00 0.000000000000000000e+00 -0.000000000000000000e+00 -1.447774261347810620e-01 -0.000000000000000000e+00 -1.785142986550039279e-01 -0.000000000000000000e+00 -1.513974396137554856e-01 -1.540503852777231342e-01 -0.000000000000000000e+00 -1.644644166519959594e-01 -1.670669992484753175e-01 -0.000000000000000000e+00 -0.000000000000000000e+00 -1.745667702428633228e-01
8.363793238567905630e-02 0.000000000000000000e+00 0.000000000000000000e+00 0.000000000000000000e+00 8.988588366198896340e-02 0.000000000000000000e+00 0.000000000000000000e+00 0.000000000000000000e+00 0.000000000000000000e+00 8.900155979941844209e-02 0.000000000000000000e+00 0.000000000000000000e+00 -1.000000000000000000e+00 0.000000000000000000e+00 0.000000000000000000e+00 0.000000000000000000e+00 0.000000000000000000e+00 7.631481415338799146e-02 1.174439670824821424e-01 0.000000000000000000e+00 0.000000000000000000e+00 8.527131824809236482e-02 1.068470789574222368e-01 0.000000000000000000e+00 0.000000000000000000e+00 7.453426855117870065e-02 0.000000000000000000e+00 0.000000000000000000e+00 7.340386902337979469e-02 0.000000000000000000e+00 0.000000000000000000e+00 1.067831680693584195e-01 0.000000000000000000e+00 0.000000000000000000e+00 0.000000000000000000e+00 6.347879965561542548e-02 0.000000000000000000e+00 0.000000000000000000e+00 9.606381694465077059e-02 0.000000000000000000e+00 0.000000000000000000e+00 0.000000000000000000e+00 0.000000000000000000e+00 0.000000000000000000e+00 0.000000000000000000e+00 9.548085351650729968e-02 0.000000000000000000e+00 0.000000000000000000e+00 7.135321001804025010e-02 9.483399078354273759e-02 0.000000000000000000e+00 -0.000000000000000000e+00 -0.000000000000000000e+00 -0.000000000000000000e+00 -1.412296039941425274e-01 -1.525216616644132772e-01 -1.558915670870376913e-01 -0.000000000000000000e+00 -0.000000000000000000e+00 -1.703136965417207105e-01 -1.704701719764972478e-01 -1.704809679127826660e-01 -0.000000000000000000e+00 -0.000000000000000000e+00
0.000000000000000000e+00 0.000000000000000000e+00 0.000000000000000000e+00 0.000000000000000000e+00 0.000000000000000000e+00 0.000000000000000000e+00 0.000000000000000000e+00 0.000000000000000000e+00 0.000000000000000000e+00 0.000000000000000000e+00 0.000000000000000000e+00 6.565795734780530135e-02 7.673607531386787695e-02 -1.000000000000000000e+00 8.930494490387588802e-02 0.000000000000000000e+00 0.000000000000000000e+00 0.000000000000000000e+00 1.134494889964947906e-01 0.000000000000000000e+00 0.000000000000000000e+00 0.000000000000000000e+00 0.000000000000000000e+00 0.000000000000000000e+00 0.000000000000000000e+00 0.000000000000000000e+00 0.000000000000000000e+00 1.109166844744726016e-01 0.000000000000000000e+00 0.000000000000000000e+00 0.000000000000000000e+00 0.000000000000000000e+00 8.638324530575586246e-02 0.000000000000000000e+00 7.315759151113340741e-02 0.000000000000000000e+00 0.000000000000000000e+00 0.000000000000000000e+00 0.000000000000000000e+00 0.000000000000000000e+00 0.000000000000000000e+00 0.000000000000000000e+00 7.327852709412051302e-02 0.000000000000000000e+00 0.000000000000000000e+00 0.000000000000000000e+00 0.000000000000000000e+00 0.000000000000000000e+00 0.000000000000000000e+00 9.548819838023334117e-02 0.000000000000000000e+00 -1.478620796804513970e-01 -1.713714598511683618e-01 -1.462351230428886872e-01 -1.732107395365952984e-01 -1.768185346783001655e-01 -1.682134951941731404e-01 -0.000000000000000000e+00 -0.000000000000000000e+00 -1.386990168518399402e-01 -0.000000000000000000e+00 -1.844600150541289285e-01 -1.753732046762237762e-01 -0.000000000000000000e+00
0.000000000000000000e+00 0.000000000000000000e+00 0.000000000000000000e+00 7.466421441131497472e-02 0.000000000000000000e+00 0.000000000000000000e+00 0.000000000000000000e+00 8.628281044914636044e-02 0.000000000000000000e+00 0.000000000000000000e+00 1.054154850720637748e-01 0.000000000000000000e+00 0.000000000000000000e+00 0.000000000000000000e+00 -1.000000000000000000e+00 4.905206488941354220e-02 7.635235462061554235e-02 0.000000000000000000e+00 0.000000000000000000e+00 0.000000000000000000e+00 1.012534692760519578e-01 0.000000000000000000e+00 0.000000000000000000e+00 0.000000000000000000e+00 0.000000000000000000e+00 6.538494165533992319e-02 7.764542068664828656e-02 0.000000000000000000e+00 0.000000000000000000e+00 0.000000000000000000e+00 0.000000000000000000e+00 0.000000000000000000e+00 0.000000000000000000e+00 0.000000000000000000e+00 0.000000000000000000e+00 8.116159668894581958e-02 1.262461126462506855e-01 0.000000000000000000e+00 0.000000000000000000e+00 0.000000000000000000e+00 0.000000000000000000e+00 0.000000000000000000e+00 0.000000000000000000e+00 0.000000000000000000e+00 0.000000000000000000e+00 0.000000000000000000e+00 1.000025552237060744e-01 0.000000000000000000e+00 0.000000000000000000e+00 0.000000000000000000e+00 0.000000000000000000e+00 -1.448728225040321616e-01 -0.000000000000000000e+00 -1.556592356172837310e-01 -0.000000000000000000e+00 -1.785216092686311706e-01 -0.000000000000000000e+00 -0.000000000000000000e+00 -0.000000000000000000e+00 -1.715459825776928515e-01 -0.000000000000000000e+00 -0.000000000000000000e+00 -1.649025635084062913e-01 -0.000000000000000000e+00
0.000000000000000000e+00 0.000000000000000000e+00 0.000000000000000000e+00 0.000000000000000000e+00 0.000000000000000000e+00 0.000000000000000000e+00 0.000000000000000000e+00 0.000000000000000000e+00 0.000000000000000000e+00 8.092210413045357320e-02 0.000000000000000000e+00 0.000000000000000000e+00 0.000000000000000000e+00 0.000000000000000000e+00 0.000000000000000000e+00 -1.000000000000000000e+00 0.000000000000000000e+00 0.000000000000000000e+00 0.000000000000000000e+00 8.528621179676940112e-02 0.000000000000000000e+00 0.000000000000000000e+00 0.000000000000000000e+00 0.000000000000000000e+00 0.000000000000000000e+00 0.000000000000000000e+00 0.000000000000000000e+00 7.381559945104605724e-02 0.000000000000000000e+00 0.000000000000000000e+00 0.000000000000000000e+00 0.000000000000000000e+00 0.000000000000000000e+00 0.000000000000000000e+00 0.000000000000000000e+00 0.000000000000000000e+00 0.000000000000000000e+00 0.000000000000000000e+00 0.000000000000000000e+00 0.000000000000000000e+00 9.645660084213328322e-02 0.000000000000000000e+00 0.000000000000000000e+00 0.000000000000000000e+00 0.000000000000000000e+00 0.000000000000000000e+00 0.000000000000000000e+00 0.000000000000000000e+00 7.897122929028693727e-02 0.000000000000000000e+00 0.000000000000000000e+00 -1.681241678836293552e-01 -0.000000000000000000e+00 -0.000000000000000000e+00 -1.377466765638374613e-01 -1.511674722056217668e-01 -0.000000000000000000e+00 -0.000000000000000000e+00 -0.000000000000000000e+00 -1.528943336058817548e-01 -1.861737970546080978e-01 -0.000000000000000000e+00 -1.529586290179972274e-01 -1.862074952525707705e-01
0.000000000000000000e+00 0.000000000000000000e+00 0.000000000000000000e+00 0.000000000000000000e+00 0.000000000000000000e+00 0.000000000000000000e+00 0.000000000000000000e+00 0.000000000000000000e+00 0.000000000000000000e+00 0.000000000000000000e+00 0.000000000000000000e+00 0.000000000000000000e+00 0.000000000000000000e+00 0.000000000000000000e+00 7.173951145051023215e-02 0.000000000000000000e+00 -1.000000000000000000e+00 0.000000000000000000e+00 0.000000000000000000e+00 1.152952048348467179e-01 0.000000000000000000e+00 0.000000000000000000e+00 0.000000000000000000e+00 0.000000000000000000e+00 0.000000000000000000e+00 0.000000000000000000e+00 0.000000000000000000e+00 7.924053092010444055e-02 0.000000000000000000e+00 0.000000000000000000e+00 0.000000000000000000e+00 0.000000000000000000e+00 0.000000000000000000e+00 0.000000000000000000e+00 0.000000000000000000e+00 0.000000000000000000e+00 0.000000000000000000e+00 0.000000000000000000e+00 0.000000000000000000e+00 0.000000000000000000e+00 1.002629938730471015e-01 0.000000000000000000e+00 0.000000000000000000e+00 0.000000000000000000e+00 0.000000000000000000e+00 0.000000000000000000e+00 0.000000000000000000e+00 0.000000000000000000e+00 4.581821646282065869e-02 0.000000000000000000e+00 0.000000000000000000e+00 -1.633454342221147548e-01 -1.643874679713848153e-01 -0.000000000000000000e+00 -0.000000000000000000e+00 -0.000000000000000000e+00 -1.556348082286282131e-01 -1.640049714670469838e-01 -1.335545250176529697e-01 -0.000000000000000000e+00 -0.000000000000000000e+00 -1.628593706053794998e-01 -1.454535589208817148e-01 -1.329005879420838698e-01
0.000000000000000000e+00 9.699036441398328767e-02 7.936526495902550271e-02 0.000000000000000000e+00 0.000000000000000000e+00 0.000000000000000000e+00 0.000000000000000000e+00 0.000000000000000000e+00 1.006877114520809968e-01 0.000000000000000000e+00 0.000000000000000000e+00 0.000000000000000000e+00 0.000000000000000000e+00 9.393521083804809435e-02 0.000000000000000000e+00 0.000000000000000000e+00 0.000000000000000000e+00 -1.000000000000000000e+00 8.331540027585729313e-02 1.036553292159715922e-01 0.000000000000000000e+00 0.000000000000000000e+00 0.000000000000000000e+00 7.468046591595747796e-02 0.000000000000000000e+00 0.000000000000000000e+00 8.963414474559271150e-02 0.000000000000000000e+00 0.000000000000000000e+00 0.000000000000000000e+00 8.456041277302096815e-02 9.969233697498579294e-02 0.000000000000000000e+00 0.000000000000000000e+00 0.000000000000000000e+00 0.000000000000000000e+00 0.000000000000000000e+00 0.000000000000000000e+00 0.000000000000000000e+00 0.000000000000000000e+00 8.003039587444908676e-02 0.000000000000000000e+00 0.000000000000000000e+00 0.000000000000000000e+00 0.000000000000000000e+00 8.917350510089100402e-02 7.441806642690100559e-02 8.217341924234357331e-02 0.000000000000000000e+00 0.000000000000000000e+00 0.000000000000000000e+00 -0.000000000000000000e+00 -0.000000000000000000e+00 -0.000000000000000000e+00 -0.000000000000000000e+00 -1.693092592970762422e-01 -0.000000000000000000e+00 -1.618418681414682814e-01 -1.977274866703971068e-01 -1.149663257185948445e-01 -0.000000000000000000e+00 -1.524683847811232340e-01 -1.867584867708519669e-01 -0.000000000000000000e+00
9.314703240943965346e-02 0.000000000000000000e+00 0.000000000000000000e+00 0.000000000000000000e+00 0.000000000000000000e+00 0.000000000000000000e+00 0.000000000000000000e+00 0.000000000000000000e+00 0.000000000000000000e+00 8.761560281913476078e-02 0.000000000000000000e+00 0.000000000000000000e+00 1.168793041737550553e-01 0.000000000000000000e+00 0.000000000000000000e+00 0.000000000000000000e+00 8.035276623334272617e-02 6.691832276591208606e-02 -1.000000000000000000e+00 0.000000000000000000e+00 0.000000000000000000e+00 0.000000000000000000e+00 0.000000000000000000e+00 0.000000000000000000e+00 0.000000000000000000e+00 0.000000000000000000e+00 0.000000000000000000e+00 0.000000000000000000e+00 0.000000000000000000e+00 0.000000000000000000e+00 8.491981153717328978e-02 0.000000000000000000e+00 0.000000000000000000e+00 0.000000000000000000e+00 0.000000000000000000e+00 1.002191275591835101e-01 0.000000000000000000e+00 0.000000000000000000e+00 8.513149627207895753e-02 0.000000000000000000e+00 0.000000000000000000e+00 0.000000000000000000e+00 0.000000000000000000e+00 9.916381617724867592e-02 0.000000000000000000e+00 0.000000000000000000e+00 0.000000000000000000e+00 0.000000000000000000e+00 0.000000000000000000e+00 0.000000000000000000e+00 0.000000000000000000e+00 -1.909254940370950504e-01 -0.000000000000000000e+00 -0.000000000000000000e+00 -0.000000000000000000e+00 -0.000000000000000000e+00 -1.690677294585960222e-01 -0.000000000000000000e+00 -0.000000000000000000e+00 -1.594221546511410958e-01 -0.000000000000000000e+00 -1.579336532429135298e-01 -0.000000000000000000e+00 -0.000000000000000000e+00
0.000000000000000000e+00 6.683381132820441495e-02 0.000000000000000000e+00 0.000000000000000000e+00 0.000000000000000000e+00 0.000000000000000000e+00 8.440358359818367351e-02 0.000000000000000000e+00 0.000000000000000000e+00 0.000000000000000000e+00 7.149321938792321807e-02 8.106647686996862334e-02 0.000000000000000000e+00 0.000000000000000000e+00 0.000000000000000000e+00 0.000000000000000000e+00 0.000000000000000000e+00 0.000000000000000000e+00 0.000000000000000000e+00 -1.000000000000000000e+00 9.858120751998082631e-02 0.000000000000000000e+00 0.000000000000000000e+00 0.000000000000000000e+00 0.000000000000000000e+00 0.000000000000000000e+00 0.000000000000000000e+00 0.000000000000000000e+00 0.000000000000000000e+00 0.000000000000000000e+00 0.000000000000000000e+00 0.000000000000000000e+00 0.000000000000000000e+00 0.000000000000000000e+00 8.099670588002977345e-02 0.000000000000000000e+00 7.915176942532532733e-02 0.000000000000000000e+00 0.000000000000000000e+00 0.000000000000000000e+00 0.000000000000000000e+00 0.000000000000000000e+00 8.571950068585429405e-02 0.000000000000000000e+00 0.000000000000000000e+00 0.000000000000000000e+00 0.000000000000000000e+00 0.000000000000000000e+00 8.084830951255651821e-02 0.000000000000000000e+00 0.000000000000000000e+00 -1.476542494925536797e-01 -1.655375073062989866e-01 -0.000000000000000000e+00 -1.777256389345862886e-01 -0.000000000000000000e+00 -1.723610488885400083e-01 -0.000000000000000000e+00 -0.000000000000000000e+00 -1.753363833324911303e-01 -1.562710543041616051e-01 -0.000000000000000000e+00 -1.298016040616340461e-01 -1.609635962976990187e-01
0.000000000000000000e+00 0.000000000000000000e+00 0.000000000000000000e+00 0.000000000000000000e+00 0.000000000000000000e+00 8.901964670201198415e-02 0.000000000000000000e+00 0.000000000000000000e+00 6.019112876647887689e-02 9.754326724621763256e-02 6.254632149512197314e-02 0.000000000000000000e+00 0.000000000000000000e+00 0.000000000000000000e+00 0.000000000000000000e+00 0.000000000000000000e+00 9.096177634099471276e-02 0.000000000000000000e+00 0.000000000000000000e+00 0.000000000000000000e+00 -1.000000000000000000e+00 7.679377628816458357e-02 0.000000000000000000e+00 0.000000000000000000e+00 0.000000000000000000e+00 0.000000000000000000e+00 0.000000000000000000e+00 0.000000000000000000e+00 1.050913801081536925e-01 0.000000000000000000e+00 0.000000000000000000e+00 0.000000000000000000e+00 9.842233419369239567e-02 0.000000000000000000e+00 0.000000000000000000e+00 0.000000000000000000e+00 0.000000000000000000e+00 0.000000000000000000e+00 0.000000000000000000e+00 0.000000000000000000e+00 0.000000000000000000e+00 0.000000000000000000e+00 0.000000000000000000e+00 0.000000000000000000e+00 0.000000000000000000e+00 0.000000000000000000e+00 9.152799988081032623e-02 0.000000000000000000e+00 0.000000000000000000e+00 0.000000000000000000e+00 0.000000000000000000e+00 -1.784148343968613992e-01 -0.000000000000000000e+00 -0.000000000000000000e+00 -0.000000000000000000e+00 -0.000000000000000000e+00 -1.499475228577422381e-01 -1.680648633908966016e-01 -1.694424886870087577e-01 -0.000000000000000000e+00 -0.000000000000000000e+00 -1.636792760875772357e-01 -1.750645557625908899e-01 -1.594348504904521124e-01
0.000000000000000000e+00 0.000000000000000000e+00 0.000000000000000000e+00 0.000000000000000000e+00 0.000000000000000000e+00 0.000000000000000000e+00 0.000000000000000000e+00 0.000000000000000000e+00 0.000000000000000000e+00 0.000000000000000000e+00 0.000000000000000000e+00 0.000000000000000000e+00 0.000000000000000000e+00 0.000000000000000000e+00 0.000000000000000000e+00 0.000000000000000000e+00 0.000000000000000000e+00 0.000000000000000000e+00 0.000000000000000000e+00 0.000000000000000000e+00 0.000000000000000000e+00 -1.000000000000000000e+00 0.000000000000000000e+00 0.000000000000000000e+00 0.000000000000000000e+00 8.922404220526471141e-02 0.000000000000000000e+00 0.000000000000000000e+00 0.000000000000000000e+00 0.000000000000000000e+00 8.991070638927717296e-02 0.000000000000000000e+00 0.000000000000000000e+00 0.000000000000000000e+00 9.692588995128563478e-02 0.000000000000000000e+00 0.000000000000000000e+00 0.000000000000000000e+00 1.100532552227562882e-01 0.000000000000000000e+00 0.000000000000000000e+00 0.000000000000000000e+00 0.000000000000000000e+00 0.000000000000000000e+00 0.000000000000000000e+00 0.000000000000000000e+00 0.000000000000000000e+00 0.000000000000000000e+00 9.537074589214418474e-02 1.120563366133286165e-01 0.000000000000000000e+00 -1.523363074088417979e-01 -1.787076854083175514e-01 -1.786683470818963004e-01 -0.000000000000000000e+00 -1.738218362682372176e-01 -0.000000000000000000e+00 -1.764581896593222787e-01 -1.596043534950056242e-01 -0.000000000000000000e+00 -1.570000966529059294e-01 -0.000000000000000000e+00 -1.713883358967346338e-01 -1.616440563338951419e-01
0.000000000000000000e+00 0.000000000000000000e+00 1.089301642298470402e-01 0.000000000000000000e+00 0.000000000000000000e+00 0.000000000000000000e+00 0.000000000000000000e+00 1.010998394346722812e-01 0.000000000000000000e+00 0.000000000000000000e+00 0.000000000000000000e+00 0.000000000000000000e+00 9.557978251559691441e-02 0.000000000000000000e+00 0.000000000000000000e+00 0.000000000000000000e+00 0.000000000000000000e+00 0.000000000000000000e+00 0.000000000000000000e+00 0.000000000000000000e+00 0.000000000000000000e+00 0.000000000000000000e+00 -1.000000000000000000e+00 0.000000000000000000e+00 0.000000000000000000e+00 0.000000000000000000e+00 0.000000000000000000e+00 0.000000000000000000e+00 0.000000000000000000e+00 0.000000000000000000e+00 1.023383817606680901e-01 0.000000000000000000e+00 0.000000000000000000e+00 0.000000000000000000e+00 0.000000000000000000e+00 0.000000000000000000e+00 0.000000000000000000e+00 0.000000000000000000e+00 0.000000000000000000e+00 0.000000000000000000e+00 0.000000000000000000e+00 0.000000000000000000e+00 6.479462495997742599e-02 8.483508237483314285e-02 0.000000000000000000e+00 0.000000000000000000e+00 0.000000000000000000e+00 0.000000000000000000e+00 0.000000000000000000e+00 0.000000000000000000e+00 0.000000000000000000e+00 -1.570979117496067168e-01 -1.914989500645815912e-01 -0.000000000000000000e+00 -0.000000000000000000e+00 -1.747685683316315686e-01 -0.000000000000000000e+00 -1.657660035636550622e-01 -2.021958054479674471e-01 -0.000000000000000000e+00 -1.606061186666017104e-01 -0.000000000000000000e+00 -0.000000000000000000e+00 -1.423435327219754187e-01
8.495216037980739265e-02 1.034175989557385711e-01 6.189510781266083228e-02 0.000000000000000000e+00 0.000000000000000000e+00 0.000000000000000000e+00 0.000000000000000000e+00 8.849074138720361415e-02 0.000000000000000000e+00 0.000000000000000000e+00 0.000000000000000000e+00 0.000000000000000000e+00 0.000000000000000000e+00 0.000000000000000000e+00 9.148107394065346787e-02 0.000000000000000000e+00 0.000000000000000000e+00 0.000000000000000000e+00 0.000000000000000000e+00 6.435965746960617406e-02 0.000000000000000000e+00 0.000000000000000000e+00 0.000000000000000000e+00 -1.000000000000000000e+00 0.000000000000000000e+00 0.000000000000000000e+00 0.000000000000000000e+00 0.000000000000000000e+00 9.593900001164122615e-02 0.000000000000000000e+00 0.000000000000000000e+00 0.000000000000000000e+00 0.000000000000000000e+00 0.000000000000000000e+00 0.000000000000000000e+00 8.665312804410466030e-02 1.228737995547395517e-01 7.571669449834200760e-02 0.000000000000000000e+00 0.000000000000000000e+00 0.000000000000000000e+00 1.100225534176343944e-01 0.000000000000000000e+00 0.000000000000000000e+00 0.000000000000000000e+00 0.000000000000000000e+00 0.000000000000000000e+00 0.000000000000000000e+00 0.000000000000000000e+00 0.000000000000000000e+00 0.000000000000000000e+00 -0.000000000000000000e+00 -1.840092959515544635e-01 -1.798497478281753104e-01 -1.584693299824991852e-01 -1.378692009057756462e-01 -0.000000000000000000e+00 -1.966628645201558556e-01 -1.535075083976595867e-01 -0.000000000000000000e+00 -0.000000000000000000e+00 -1.855158456592939376e-01 -0.000000000000000000e+00 -1.675798538919731628e-01
0.000000000000000000e+00 8.401629979113844904e-02 0.000000000000000000e+00 0.000000000000000000e+00 0.000000000000000000e+00 9.211429933104971213e-02 0.000000000000000000e+00 0.000000000000000000e+00 0.000000000000000000e+00 9.846911399766786199e-02 0.000000000000000000e+00 0.000000000000000000e+00 1.018270809355898421e-01 0.000000000000000000e+00 0.000000000000000000e+00 0.000000000000000000e+00 0.000000000000000000e+00 0.000000000000000000e+00 0.000000000000000000e+00 0.000000000000000000e+00 0.000000000000000000e+00 0.000000000000000000e+00 1.039828106471230584e-01 0.000000000000000000e+00 -1.000000000000000000e+00 0.000000000000000000e+00 8.775207613469275525e-02 7.688569976338660572e-02 0.000000000000000000e+00 0.000000000000000000e+00 0.000000000000000000e+00 0.000000000000000000e+00 0.000000000000000000e+00 0.000000000000000000e+00 0.000000000000000000e+00 0.000000000000000000e+00 1.001161387016453741e-01 0.000000000000000000e+00 0.000000000000000000e+00 0.000000000000000000e+00 0.000000000000000000e+00 0.000000000000000000e+00 0.000000000000000000e+00 0.000000000000000000e+00 0.000000000000000000e+00 0.000000000000000000e+00 0.000000000000000000e+00 9.609120104088125780e-02 7.976205302941914710e-02 0.000000000000000000e+00 0.000000000000000000e+00 -1.701040491369527341e-01 -0.000000000000000000e+00 -0.000000000000000000e+00 -1.679401215701439298e-01 -0.000000000000000000e+00 -1.656674931201481960e-01 -0.000000000000000000e+00 -0.000000000000000000e+00 -0.000000000000000000e+00 -1.922448624559086050e-01 -0.000000000000000000e+00 -1.763712878145466678e-01 -1.970639610262945041e-01
0.000000000000000000e+00 0.000000000000000000e+00 9.274431915459863118e-02 6.684176169056736672e-02 0.000000000000000000e+00 1.053869538989838789e-01 0.000000000000000000e+00 0.000000000000000000e+00 0.000000000000000000e+00 0.000000000000000000e+00 0.000000000000000000e+00 0.000000000000000000e+00 0.000000000000000000e+00 0.000000000000000000e+00 0.000000000000000000e+00 0.000000000000000000e+00 0.000000000000000000e+00 0.000000000000000000e+00 0.000000000000000000e+00 8.775756416127851456e-02 6.614269125441532560e-02 0.000000000000000000e+00 0.000000000000000000e+00 0.000000000000000000e+00 7.519749044661117043e-02 -1.000000000000000000e+00 9.533256463986990170e-02 0.000000000000000000e+00 0.000000000000000000e+00 1.073108315936591728e-01 0.000000000000000000e+00 0.000000000000000000e+00 0.000000000000000000e+00 1.050079869489620732e-01 0.000000000000000000e+00 0.000000000000000000e+00 0.000000000000000000e+00 0.000000000000000000e+00 0.000000000000000000e+00 0.000000000000000000e+00 7.840238262106839773e-02 0.000000000000000000e+00 0.000000000000000000e+00 0.000000000000000000e+00 0.000000000000000000e+00 7.330908296598603879e-02 0.000000000000000000e+00 0.000000000000000000e+00 0.000000000000000000e+00 0.000000000000000000e+00 0.000000000000000000e+00 -1.771574849868772228e-01 -1.791691830057820511e-01 -0.000000000000000000e+00 -1.559429103968498764e-01 -1.941163605841469131e-01 -0.000000000000000000e+00 -0.000000000000000000e+00 -0.000000000000000000e+00 -1.657212527314142203e-01 -0.000000000000000000e+00 -1.698645456674711951e-01 -1.748015826525965710e-01 -1.837027922453073892e-01
0.000000000000000000e+00 9.314629607563580660e-02 5.947114887725511723e-02 0.000000000000000000e+00 0.000000000000000000e+00 0.000000000000000000e+00 7.006503853315865227e-02 1.089117375599340104e-01 0.000000000000000000e+00 8.152157842701562851e-02 0.000000000000000000e+00 0.000000000000000000e+00 0.000000000000000000e+00 0.000000000000000000e+00 0.000000000000000000e+00 0.000000000000000000e+00 0.000000000000000000e+00 0.000000000000000000e+00 1.242000438521500133e-01 0.000000000000000000e+00 0.000000000000000000e+00 0.000000000000000000e+00 0.000000000000000000e+00 8.928527479162567948e-02 0.000000000000000000e+00 0.000000000000000000e+00 -1.000000000000000000e+00 0.000000000000000000e+00 0.000000000000000000e+00 0.000000000000000000e+00 8.335747661903182559e-02 0.000000000000000000e+00 0.000000000000000000e+00 0.000000000000000000e+00 0.000000000000000000e+00 0.000000000000000000e+00 0.000000000000000000e+00 0.000000000000000000e+00 0.000000000000000000e+00 0.000000000000000000e+00 7.511848925147426859e-02 0.000000000000000000e+00 0.000000000000000000e+00 0.000000000000000000e+00 0.000000000000000000e+00 8.652997569519083054e-02 0.000000000000000000e+00 7.133045605558754887e-02 8.124232450277056594e-02 0.000000000000000000e+00 0.000000000000000000e+00 -0.000000000000000000e+00 -1.519636797883449630e-01 -0.000000000000000000e+00 -0.000000000000000000e+00 -0.000000000000000000e+00 -1.768945004294442680e-01 -0.000000000000000000e+00 -0.000000000000000000e+00 -0.000000000000000000e+00 -0.000000000000000000e+00 -0.000000000000000000e+00 -0.000000000000000000e+00 -0.000000000000000000e+00
0.000000000000000000e+00 8.040436743665729802e-02 7.020304011989063342e-02 0.000000000000000000e+00 0.000000000000000000e+00 0.000000000000000000e+00 0.000000000000000000e+00 0.000000000000000000e+00 0.000000000000000000e+00 0.000000000000000000e+00 9.808178430097320988e-02 0.000000000000000000e+00 0.000000000000000000e+00 0.000000000000000000e+00 0.000000000000000000e+00 0.000000000000000000e+00 0.000000000000000000e+00 0.000000000000000000e+00 0.000000000000000000e+00 0.000000000000000000e+00 7.447900452410191607e-02 7.215427439575963775e-02 0.000000000000000000e+00 7.247885393173859880e-02 0.000000000000000000e+00 0.000000000000000000e+00 0.000000000000000000e+00 -1.000000000000000000e+00 0.000000000000000000e+00 0.000000000000000000e+00 0.000000000000000000e+00 0.000000000000000000e+00 0.000000000000000000e+00 6.260995276040046131e-02 8.638229673082203908e-02 0.000000000000000000e+00 9.002274437694177123e-02 0.000000000000000000e+00 0.000000000000000000e+00 8.258438943501481000e-02 6.519787924452488670e-02 8.921282431600043028e-02 0.000000000000000000e+00 8.240164986684375692e-02 0.000000000000000000e+00 6.598370752098124681e-02 0.000000000000000000e+00 0.000000000000000000e+00 1.064024259501491487e-01 7.329451817320727092e-02 0.000000000000000000e+00 -0.000000000000000000e+00 -0.000000000000000000e+00 -0.000000000000000000e+00 -0.000000000000000000e+00 -1.419699826919467722e-01 -0.000000000000000000e+00 -0.000000000000000000e+00 -0.000000000000000000e+00 -0.000000000000000000e+00 -0.000000000000000000e+00 -0.000000000000000000e+00 -0.000000000000000000e+00 -0.000000000000000000e+00
0.000000000000000000e+00 0.000000000000000000e+00 0.000000000000000000e+00 7.415599961799015927e-02 0.000000000000000000e+00 0.000000000000000000e+00 0.000000000000000000e+00 0.000000000000000000e+00 0.000000000000000000e+00 0.000000000000000000e+00 0.000000000000000000e+00 0.000000000000000000e+00 0.000000000000000000e+00 0.000000000000000000e+00 0.000000000000000000e+00 0.000000000000000000e+00 0.000000000000000000e+00 9.133488110150794759e-02 7.353422655833145860e-02 1.028252843996670662e-01 0.000000000000000000e+00 0.000000000000000000e+00 0.000000000000000000e+00 0.000000000000000000e+00 0.000000000000000000e+00 7.519610172920478119e-02 0.000000000000000000e+00 0.000000000000000000e+00 -1.000000000000000000e+00 0.000000000000000000e+00 0.000000000000000000e+00 0.000000000000000000e+00 0.000000000000000000e+00 0.000000000000000000e+00 0.000000000000000000e+00 0.000000000000000000e+00 0.000000000000000000e+00 0.000000000000000000e+00 0.000000000000000000e+00 8.459930429295642318e-02 0.000000000000000000e+00 0.000000000000000000e+00 0.000000000000000000e+00 0.000000000000000000e+00 0.000000000000000000e+00 0.000000000000000000e+00 0.000000000000000000e+00 0.000000000000000000e+00 9.920106244751769609e-02 0.000000000000000000e+00 0.000000000000000000e+00 -0.000000000000000000e+00 -1.579628410266636085e-01 -1.699616898550218025e-01 -0.000000000000000000e+00 -1.624300496359333268e-01 -0.000000000000000000e+00 -1.778875501972979056e-01 -0.000000000000000000e+00 -1.707505236404991689e-01 -0.000000000000000000e+00 -0.000000000000000000e+00 -0.000000000000000000e+00 -1.774135427223769990e-01
0.000000000000000000e+00 0.000000000000000000e+00 0.000000000000000000e+00 0.000000000000000000e+00 0.000000000000000000e+00 0.000000000000000000e+00 0.000000000000000000e+00 9.370928234536958501e-02 0.000000000000000000e+00 0.000000000000000000e+00 0.000000000000000000e+00 0.000000000000000000e+00 0.000000000000000000e+00 6.471054753736411869e-02 0.000000000000000000e+00 0.000000000000000000e+00 0.000000000000000000e+00 0.000000000000000000e+00 0.000000000000000000e+00 0.000000000000000000e+00 0.000000000000000000e+00 0.000000000000000000e+00 0.000000000000000000e+00 1.199263898268207174e-01 0.000000000000000000e+00 0.000000000000000000e+00 0.000000000000000000e+00 0.000000000000000000e+00 0.000000000000000000e+00 -1.000000000000000000e+00 0.000000000000000000e+00 0.000000000000000000e+00 0.000000000000000000e+00 0.000000000000000000e+00 0.000000000000000000e+00 0.000000000000000000e+00 0.000000000000000000e+00 0.000000000000000000e+00 0.000000000000000000e+00 1.123355317980902768e-01 0.000000000000000000e+00 0.000000000000000000e+00 0.000000000000000000e+00 0.000000000000000000e+00 1.068979828250315456e-01 0.000000000000000000e+00 0.000000000000000000e+00 0.000000000000000000e+00 1.063026556119415489e-01 0.000000000000000000e+00 1.263827739811739792e-01 -1.786771302125243488e-01 -1.717517951119550412e-01 -0.000000000000000000e+00 -1.848601176557400638e-01 -0.000000000000000000e+00 -2.058856394032776427e-01 -1.878756434438679790e-01 -0.000000000000000000e+00 -1.661872120815872933e-01 -0.000000000000000000e+00 -1.721731072304044929e-01 -1.509289950906091415e-01 -1.508976321797418363e-01
0.000000000000000000e+00 0.000000000000000000e+00 0.000000000000000000e+00 0.000000000000000000e+00 1.058471049529046137e-01 0.000000000000000000e+00 8.959625428387081592e-02 0.000000000000000000e+00 8.903278774925753314e-02 0.000000000000000000e+00 0.000000000000000000e+00 0.000000000000000000e+00 0.000000000000000000e+00 0.000000000000000000e+00 0.000000000000000000e+00 0.000000000000000000e+00 0.000000000000000000e+00 0.000000000000000000e+00 0.000000000000000000e+00 0.000000000000000000e+00 0.000000000000000000e+00 0.000000000000000000e+00 0.000000000000000000e+00 7.807123931835265040e-02 0.000000000000000000e+00 0.000000000000000000e+00 0.000000000000000000e+00 9.400596146346366921e-02 6.360697997625207323e-02 0.000000000000000000e+00 -1.000000000000000000e+00 1.104261138171145906e-01 0.000000000000000000e+00 9.238989963763005742e-02 0.000000000000000000e+00 0.000000000000000000e+00 0.000000000000000000e+00 0.000000000000000000e+00 0.000000000000000000e+00 0.000000000000000000e+00 0.000000000000000000e+00 0.000000000000000000e+00 9.110150623647293722e-02 0.000000000000000000e+00 1.030865853380175667e-01 0.000000000000000000e+00 0.000000000000000000e+00 0.000000000000000000e+00 0.000000000000000000e+00 0.000000000000000000e+00 5.914002610860158438e-02 -1.566500637833724008e-01 -1.933549452182292960e-01 -1.760191764292611816e-01 -0.000000000000000000e+00 -1.643135654445171401e-01 -0.000000000000000000e+00 -0.000000000000000000e+00 -0.000000000000000000e+00 -1.819355495032573544e-01 -0.000000000000000000e+00 -1.618364170593293572e-01 -0.000000000000000000e+00 -0.000000000000000000e+00
0.000000000000000000e+00 0.000000000000000000e+00 0.000000000000000000e+00 0.000000000000000000e+00 0.000000000000000000e+00 0.000000000000000000e+00 0.000000000000000000e+00 0.000000000000000000e+00 0.000000000000000000e+00 8.598233900283543119e-02 0.000000000000000000e+00 0.000000000000000000e+00 0.000000000000000000e+00 0.000000000000000000e+00 0.000000000000000000e+00 0.000000000000000000e+00 0.000000000000000000e+00 0.000000000000000000e+00 1.091270984085765811e-01 0.000000000000000000e+00 0.000000000000000000e+00 0.000000000000000000e+00 9.380513888190551708e-02 0.000000000000000000e+00 0.000000000000000000e+00 8.302648820623401149e-02 0.000000000000000000e+00 0.000000000000000000e+00 6.374883193438768414e-02 0.000000000000000000e+00 0.000000000000000000e+00 -1.000000000000000000e+00 1.044608841066427124e-01 0.000000000000000000e+00 0.000000000000000000e+00 0.000000000000000000e+00 0.000000000000000000e+00 0.000000000000000000e+00 0.000000000000000000e+00 0.000000000000000000e+00 0.000000000000000000e+00 0.000000000000000000e+00 0.000000000000000000e+00 0.000000000000000000e+00 0.000000000000000000e+00 1.091742592924022232e-01 0.000000000000000000e+00 1.030147796415335215e-01 0.000000000000000000e+00 1.179618393444068769e-01 0.000000000000000000e+00 -1.652801610273025856e-01 -1.959744043025168359e-01 -1.584112979922875086e-01 -1.742364486834113990e-01 -0.000000000000000000e+00 -0.000000000000000000e+00 -1.697478426744201963e-01 -1.578049927043716494e-01 -0.000000000000000000e+00 -0.000000000000000000e+00 -1.497794416517488902e-01 -0.000000000000000000e+00 -0.000000000000000000e+00
0.000000000000000000e+00 0.000000000000000000e+00 0.000000000000000000e+00 0.000000000000000000e+00 0.000000000000000000e+00 0.000000000000000000e+00 9.401179066038305165e-02 0.000000000000000000e+00 0.000000000000000000e+00 0.000000000000000000e+00 0.000000000000000000e+00 0.000000000000000000e+00 8.841771975278371609e-02 0.000000000000000000e+00 0.000000000000000000e+00 7.404939203005575510e-02 0.000000000000000000e+00 0.000000000000000000e+00 0.000000000000000000e+00 0.000000000000000000e+00 0.000000000000000000e+00 0.000000000000000000e+00 0.000000000000000000e+00 5.971290448992208622e-02 0.000000000000000000e+00 0.000000000000000000e+00 0.000000000000000000e+00 0.000000000000000000e+00 0.000000000000000000e+00 0.000000000000000000e+00 0.000000000000000000e+00 0.000000000000000000e+00 -1.000000000000000000e+00 0.000000000000000000e+00 0.000000000000000000e+00 6.269778477804828498e-02 0.000000000000000000e+00 0.000000000000000000e+00 7.677899240048154106e-02 0.000000000000000000e+00 0.000000000000000000e+00 0.000000000000000000e+00 0.000000000000000000e+00 0.000000000000000000e+00 0.000000000000000000e+00 4.583751448390133154e-02 0.000000000000000000e+00 0.000000000000000000e+00 9.348260484794661263e-02 0.000000000000000000e+00 0.000000000000000000e+00 -0.000000000000000000e+00 -1.513209471864922218e-01 -0.000000000000000000e+00 -0.000000000000000000e+00 -0.000000000000000000e+00 -0.000000000000000000e+00 -1.698422548821883482e-01 -1.766565707492729342e-01 -0.000000000000000000e+00 -1.740829202710874601e-01 -1.850737583012702914e-01 -1.866929341539891318e-01 -1.470992120767316280e-01
0.000000000000000000e+00 9.619662266311419796e-02 0.000000000000000000e+00 9.983874107525080033e-02 0.000000000000000000e+00 0.000000000000000000e+00 9.424747532028657226e-02 8.114749159982359572e-02 0.000000000000000000e+00 0.000000000000000000e+00 0.000000000000000000e+00 0.000000000000000000e+00 0.000000000000000000e+00 0.000000000000000000e+00 0.000000000000000000e+00 0.000000000000000000e+00 0.000000000000000000e+00 0.000000000000000000e+00 9.701731035378290124e-02 1.017612262709899074e-01 1.064561244846163879e-01 0.000000000000000000e+00 0.000000000000000000e+00 0.000000000000000000e+00 0.000000000000000000e+00 0.000000000000000000e+00 0.000000000000000000e+00 0.000000000000000000e+00 0.000000000000000000e+00 0.000000000000000000e+00 0.000000000000000000e+00 0.000000000000000000e+00 0.000000000000000000e+00 -1.000000000000000000e+00 0.000000000000000000e+00 8.337935387055785130e-02 0.000000000000000000e+00 1.070776625095416351e-01 0.000000000000000000e+00 7.372415753048652820e-02 0.000000000000000000e+00 0.000000000000000000e+00 0.000000000000000000e+00 0.000000000000000000e+00 0.000000000000000000e+00 0.000000000000000000e+00 8.927018084631040129e-02 0.000000000000000000e+00 0.000000000000000000e+00 6.696065404844729618e-02 0.000000000000000000e+00 -0.000000000000000000e+00 -1.539535120825176184e-01 -1.577782046827286289e-01 -1.145084630854237145e-01 -0.000000000000000000e+00 -0.000000000000000000e+00 -1.452327176136898601e-01 -1.506745742948799038e-01 -0.000000000000000000e+00 -0.000000000000000000e+00 -1.522313782812869387e-01 -1.615596954253213369e-01 -0.000000000000000000e+00
0.000000000000000000e+00 0.000000000000000000e+00 0.000000000000000000e+00 8.304355452690753703e-02 0.000000000000000000e+00 0.000000000000000000e+00 1.073183119741726865e-01 0.000000000000000000e+00 0.000000000000000000e+00 0.000000000000000000e+00 0.000000000000000000e+00 0.000000000000000000e+00 6.967261507530433939e-02 0.000000000000000000e+00 0.000000000000000000e+00 0.000000000000000000e+00 0.000000000000000000e+00 0.000000000000000000e+00 0.000000000000000000e+00 0.000000000000000000e+00 0.000000000000000000e+00 0.000000000000000000e+00 0.000000000000000000e+00 0.000000000000000000e+00 6.614699378595470525e-02 0.000000000000000000e+00 0.000000000000000000e+00 0.000000000000000000e+00 0.000000000000000000e+00 0.000000000000000000e+00 0.000000000000000000e+00 0.000000000000000000e+00 0.000000000000000000e+00 0.000000000000000000e+00 -1.000000000000000000e+00 0.000000000000000000e+00 0.000000000000000000e+00 0.000000000000000000e+00 0.000000000000000000e+00 0.000000000000000000e+00 0.000000000000000000e+00 9.290796726525341054e-02 0.000000000000000000e+00 0.000000000000000000e+00 0.000000000000000000e+00 0.000000000000000000e+00 0.000000000000000000e+00 0.000000000000000000e+00 0.000000000000000000e+00 0.000000000000000000e+00 0.000000000000000000e+00 -1.491217724440852543e-01 -1.694931074257168824e-01 -1.755978340513340841e-01 -0.000000000000000000e+00 -1.502038010104927435e-01 -0.000000000000000000e+00 -0.000000000000000000e+00 -0.000000000000000000e+00 -0.000000000000000000e+00 -1.889284412328766094e-01 -1.548414205269182942e-01 -1.922950440100264502e-01 -0.000000000000000000e+00
6.442377833435281032e-02 0.000000000000000000e+00 0.000000000000000000e+00 0.000000000000000000e+00 6.947756958906221858e-02 0.000000000000000000e+00 0.000000000000000000e+00 0.000000000000000000e+00 0.000000000000000000e+00 7.759680058974345596e-02 0.000000000000000000e+00 0.000000000000000000e+00 0.000000000000000000e+00 0.000000000000000000e+00 0.000000000000000000e+00 0.000000000000000000e+00 9.200763482452291309e-02 0.000000000000000000e+00 7.387160553996646728e-02 7.401073541266713074e-02 0.000000000000000000e+00 0.000000000000000000e+00 9.031969114651496044e-02 0.000000000000000000e+00 0.000000000000000000e+00 0.000000000000000000e+00 0.000000000000000000e+00 8.062675212384905199e-02 8.740341771558055028e-02 7.187166875090342244e-02 0.000000000000000000e+00 0.000000000000000000e+00 0.000000000000000000e+00 8.345237327105514691e-02 0.000000000000000000e+00 -1.000000000000000000e+00 0.000000000000000000e+00 0.000000000000000000e+00 0.000000000000000000e+00 0.000000000000000000e+00 8.555324799416419435e-02 0.000000000000000000e+00 0.000000000000000000e+00 1.228173106443539164e-01 0.000000000000000000e+00 0.000000000000000000e+00 5.656149479517667833e-02 0.000000000000000000e+00 9.791568564087421711e-02 0.000000000000000000e+00 0.000000000000000000e+00 -1.707067099767130558e-01 -0.000000000000000000e+00 -0.000000000000000000e+00 -0.000000000000000000e+00 -1.698448413953381753e-01 -0.000000000000000000e+00 -0.000000000000000000e+00 -0.000000000000000000e+00 -1.948026608117307268e-01 -0.000000000000000000e+00 -1.432472756106272505e-01 -1.584045705024768602e-01 -0.000000000000000000e+00
0.000000000000000000e+00 0.000000000000000000e+00 7.567994315485718215e-02 0.000000000000000000e+00 0.000000000000000000e+00 0.000000000000000000e+00 0.000000000000000000e+00 0.000000000000000000e+00 0.000000000000000000e+00 0.000000000000000000e+00 0.000000000000000000e+00 0.000000000000000000e+00 0.000000000000000000e+00 0.000000000000000000e+00 6.755890421054305817e-02 0.000000000000000000e+00 0.000000000000000000e+00 0.000000000000000000e+00 7.016999617706744241e-02 5.804831948108733763e-02 0.000000000000000000e+00 0.000000000000000000e+00 6.982007949907936828e-02 0.000000000000000000e+00 0.000000000000000000e+00 0.000000000000000000e+00 0.000000000000000000e+00 0.000000000000000000e+00 0.000000000000000000e+00 0.000000000000000000e+00 0.000000000000000000e+00 0.000000000000000000e+00 0.000000000000000000e+00 0.000000000000000000e+00 0.000000000000000000e+00 8.394239847070106286e-02 -1.000000000000000000e+00 0.000000000000000000e+00 0.000000000000000000e+00 0.000000000000000000e+00 0.000000000000000000e+00 0.000000000000000000e+00 0.000000000000000000e+00 0.000000000000000000e+00 0.000000000000000000e+00 1.019848200804376326e-01 0.000000000000000000e+00 0.000000000000000000e+00 0.000000000000000000e+00 0.000000000000000000e+00 0.000000000000000000e+00 -0.000000000000000000e+00 -1.681287007761913255e-01 -0.000000000000000000e+00 -1.641778085508896479e-01 -1.633778645149921160e-01 -0.000000000000000000e+00 -0.000000000000000000e+00 -1.521123826266180534e-01 -1.712892583355804521e-01 -0.000000000000000000e+00 -0.000000000000000000e+00 -0.000000000000000000e+00 -1.670803620650892496e-01
0.000000000000000000e+00 9.608988039790182512e-02 1.125060761007149190e-01 0.000000000000000000e+00 0.000000000000000000e+00 0.000000000000000000e+00 0.000000000000000000e+00 0.000000000000000000e+00 0.000000000000000000e+00 0.000000000000000000e+00 0.000000000000000000e+00 0.000000000000000000e+00 0.000000000000000000e+00 0.000000000000000000e+00 0.000000000000000000e+00 0.000000000000000000e+00 0.000000000000000000e+00 0.000000000000000000e+00 0.000000000000000000e+00 0.000000000000000000e+00 0.000000000000000000e+00 0.000000000000000000e+00 0.000000000000000000e+00 0.000000000000000000e+00 0.000000000000000000e+00 0.000000000000000000e+00 9.796862773000852842e-02 0.000000000000000000e+00 0.000000000000000000e+00 0.000000000000000000e+00 0.000000000000000000e+00 0.000000000000000000e+00 0.000000000000000000e+00 0.000000000000000000e+00 9.221797928921103560e-02 0.000000000000000000e+00 0.000000000000000000e+00 -1.000000000000000000e+00 0.000000000000000000e+00 0.000000000000000000e+00 8.977667092947974603e-02 0.000000000000000000e+00 0.000000000000000000e+00 0.000000000000000000e+00 0.000000000000000000e+00 0.000000000000000000e+00 7.386223676808392757e-02 0.000000000000000000e+00 0.000000000000000000e+00 0.000000000000000000e+00 0.000000000000000000e+00 -0.000000000000000000e+00 -0.000000000000000000e+00 -0.000000000000000000e+00 -0.000000000000000000e+00 -0.000000000000000000e+00 -0.000000000000000000e+00 -1.752185854730122228e-01 -0.000000000000000000e+00 -0.000000000000000000e+00 -1.566797344530981018e-01 -1.418121235453439488e-01 -1.856255266321444053e-01 -2.153833422371910222e-01
0.000000000000000000e+00 0.000000000000000000e+00 0.000000000000000000e+00 0.000000000000000000e+00 0.000000000000000000e+00 7.500631248702104015e-02 0.000000000000000000e+00 0.000000000000000000e+00 0.000000000000000000e+00 0.000000000000000000e+00 0.000000000000000000e+00 0.000000000000000000e+00 1.010978566080158181e-01 0.000000000000000000e+00 5.766104947316665064e-02 0.000000000000000000e+00 0.000000000000000000e+00 0.000000000000000000e+00 0.000000000000000000e+00 0.000000000000000000e+00 0.000000000000000000e+00 0.000000000000000000e+00 7.158586680392617363e-02 0.000000000000000000e+00 0.000000000000000000e+00 0.000000000000000000e+00 0.000000000000000000e+00 0.000000000000000000e+00 0.000000000000000000e+00 0.000000000000000000e+00 0.000000000000000000e+00 8.286865156092315665e-02 0.000000000000000000e+00 0.000000000000000000e+00 0.000000000000000000e+00 0.000000000000000000e+00 0.000000000000000000e+00 0.000000000000000000e+00 -1.000000000000000000e+00 0.000000000000000000e+00 9.592533071877509809e-02 1.051052910290024706e-01 0.000000000000000000e+00 0.000000000000000000e+00 0.000000000000000000e+00 0.000000000000000000e+00 8.870395850195646192e-02 0.000000000000000000e+00 9.001812885608857784e-02 0.000000000000000000e+00 0.000000000000000000e+00 -0.000000000000000000e+00 -0.000000000000000000e+00 -1.827668273066795079e-01 -1.588302444229831301e-01 -0.000000000000000000e+00 -1.568439487305101354e-01 -0.000000000000000000e+00 -0.000000000000000000e+00 -1.670445151118874205e-01 -1.733167870303966296e-01 -0.000000000000000000e+00 -1.646570723684175619e-01 -0.000000000000000000e+00
0.000000000000000000e+00 0.000000000000000000e+00 0.000000000000000000e+00 0.000000000000000000e+00 0.000000000000000000e+00 1.180550664329529653e-01 4.786602083826500820e-02 0.000000000000000000e+00 0.000000000000000000e+00 0.000000000000000000e+00 0.000000000000000000e+00 0.000000000000000000e+00 1.067407994945030747e-01 0.000000000000000000e+00 0.000000000000000000e+00 0.000000000000000000e+00 0.000000000000000000e+00 6.947318780406072647e-02 9.079745915446493787e-02 9.261104471868687738e-02 0.000000000000000000e+00 0.000000000000000000e+00 0.000000000000000000e+00 0.000000000000000000e+00 0.000000000000000000e+00 0.000000000000000000e+00 0.000000000000000000e+00 0.000000000000000000e+00 0.000000000000000000e+00 0.000000000000000000e+00 0.000000000000000000e+00 0.000000000000000000e+00 0.000000000000000000e+00 0.000000000000000000e+00 1.035261874940797411e-01 0.000000000000000000e+00 0.000000000000000000e+00 0.000000000000000000e+00 0.000000000000000000e+00 -1.000000000000000000e+00 0.000000000000000000e+00 0.000000000000000000e+00 0.000000000000000000e+00 0.000000000000000000e+00 0.000000000000000000e+00 0.000000000000000000e+00 0.000000000000000000e+00 0.000000000000000000e+00 0.000000000000000000e+00 0.000000000000000000e+00 0.000000000000000000e+00 -1.770147055546588133e-01 -1.522290103115841731e-01 -0.000000000000000000e+00 -1.663435104150019772e-01 -1.642300466836928152e-01 -0.000000000000000000e+00 -1.597744490253315552e-01 -1.696974934551744030e-01 -1.448359782817199293e-01 -1.665207660787867694e-01 -1.561182738589607100e-01 -1.525186521850626642e-01 -1.894448531072648600e-01
0.000000000000000000e+00 0.000000000000000000e+00 0.000000000000000000e+00 0.000000000000000000e+00 0.000000000000000000e+00 0.000000000000000000e+00 0.000000000000000000e+00 0.000000000000000000e+00 0.000000000000000000e+00 0.000000000000000000e+00 0.000000000000000000e+00 1.157448345589775218e-01 0.000000000000000000e+00 0.000000000000000000e+00 6.346104786825598754e-02 0.000000000000000000e+00 0.000000000000000000e+00 0.000000000000000000e+00 9.634027053761010095e-02 0.000000000000000000e+00 0.000000000000000000e+00 0.000000000000000000e+00 7.274727431178042159e-02 0.000000000000000000e+00 0.000000000000000000e+00 0.000000000000000000e+00 0.000000000000000000e+00 0.000000000000000000e+00 0.000000000000000000e+00 0.000000000000000000e+00 0.000000000000000000e+00 8.433277312653865432e-02 0.000000000000000000e+00 0.000000000000000000e+00 0.000000000000000000e+00 0.000000000000000000e+00 0.000000000000000000e+00 0.000000000000000000e+00 0.000000000000000000e+00 0.000000000000000000e+00 -1.000000000000000000e+00 0.000000000000000000e+00 0.000000000000000000e+00 0.000000000000000000e+00 0.000000000000000000e+00 9.043743926875419392e-02 0.000000000000000000e+00 0.000000000000000000e+00 0.000000000000000000e+00 0.000000000000000000e+00 1.266106114024201368e-01 -0.000000000000000000e+00 -1.969845868267276479e-01 -1.434096997787972505e-01 -0.000000000000000000e+00 -0.000000000000000000e+00 -1.476293130837698642e-01 -1.632605586591803493e-01 -1.701821850814503323e-01 -0.000000000000000000e+00 -1.625560088379728596e-01 -1.605471540842175193e-01 -0.000000000000000000e+00 -1.710911531623256765e-01
0.000000000000000000e+00 0.000000000000000000e+00 7.176441269890966590e-02 0.000000000000000000e+00 0.000000000000000000e+00 0.000000000000000000e+00 0.000000000000000000e+00 0.000000000000000000e+00 0.000000000000000000e+00 0.000000000000000000e+00 0.000000000000000000e+00 0.000000000000000000e+00 1.118511493115240951e-01 0.000000000000000000e+00 0.000000000000000000e+00 0.000000000000000000e+00 8.363830917128016462e-02 0.000000000000000000e+00 0.000000000000000000e+00 0.000000000000000000e+00 0.000000000000000000e+00 7.881149998755387909e-02 0.000000000000000000e+00 0.000000000000000000e+00 0.000000000000000000e+00 0.000000000000000000e+00 0.000000000000000000e+00 0.000000000000000000e+00 0.000000000000000000e+00 0.000000000000000000e+00 7.464304074345391726e-02 1.017808463386104811e-01 0.000000000000000000e+00 0.000000000000000000e+00 0.000000000000000000e+00 0.000000000000000000e+00 0.000000000000000000e+00 0.000000000000000000e+00 9.059479906660995729e-02 0.000000000000000000e+00 0.000000000000000000e+00 -1.000000000000000000e+00 7.766234579269139238e-02 0.000000000000000000e+00 1.099830460855548836e-01 8.457825475359753709e-02 0.000000000000000000e+00 1.028871062647574858e-01 5.944327870525729918e-02 0.000000000000000000e+00 0.000000000000000000e+00 -1.603675415928010883e-01 -1.487730780293472499e-01 -0.000000000000000000e+00 -0.000000000000000000e+00 -1.518848523928198746e-01 -0.000000000000000000e+00 -1.791032791844207051e-01 -0.000000000000000000e+00 -0.000000000000000000e+00 -0.000000000000000000e+00 -1.504103987870900327e-01 -1.719267508375257325e-01 -0.000000000000000000e+00
0.000000000000000000e+00 6.981814999571972491e-02 0.000000000000000000e+00 0.000000000000000000e+00 8.698668859155517241e-02 0.000000000000000000e+00 0.000000000000000000e+00 0.000000000000000000e+00 0.000000000000000000e+00 0.000000000000000000e+00 0.000000000000000000e+00 0.000000000000000000e+00 0.000000000000000000e+00 0.000000000000000000e+00 0.000000000000000000e+00 1.005107300074332133e-01 0.000000000000000000e+00 5.297449933081976176e-02 9.858978204085735997e-02 0.000000000000000000e+00 0.000000000000000000e+00 0.000000000000000000e+00 0.000000000000000000e+00 0.000000000000000000e+00 0.000000000000000000e+00 0.000000000000000000e+00 0.000000000000000000e+00 8.395403890161774740e-02 0.000000000000000000e+00 0.000000000000000000e+00 8.741911074458910691e-02 0.000000000000000000e+00 0.000000000000000000e+00 0.000000000000000000e+00 1.261375133019057293e-01 0.000000000000000000e+00 0.000000000000000000e+00 0.000000000000000000e+00 0.000000000000000000e+00 7.702736937603210654e-02 0.000000000000000000e+00 0.000000000000000000e+00 -1.000000000000000000e+00 9.607235322438256730e-02 0.000000000000000000e+00 0.000000000000000000e+00 6.701871135635402432e-02 0.000000000000000000e+00 7.689586315768356939e-02 0.000000000000000000e+00 0.000000000000000000e+00 -1.250902924757782420e-01 -0.000000000000000000e+00 -0.000000000000000000e+00 -1.460772704541514755e-01 -1.188506369864006096e-01 -0.000000000000000000e+00 -1.562789688007332756e-01 -0.000000000000000000e+00 -1.716715033531872048e-01 -0.000000000000000000e+00 -0.000000000000000000e+00 -0.000000000000000000e+00 -1.752570581499668378e-01
0.000000000000000000e+00 0.000000000000000000e+00 0.000000000000000000e+00 9.870327891258207087e-02 0.000000000000000000e+00 1.193916943560708877e-01 0.000000000000000000e+00 0.000000000000000000e+00 0.000000000000000000e+00 7.586284877280655148e-02 0.000000000000000000e+00 0.000000000000000000e+00 0.000000000000000000e+00 0.000000000000000000e+00 7.828477683147631871e-02 0.000000000000000000e+00 9.282674650710497077e-02 0.000000000000000000e+00 0.000000000000000000e+00 0.000000000000000000e+00 0.000000000000000000e+00 0.000000000000000000e+00 0.000000000000000000e+00 0.000000000000000000e+00 0.000000000000000000e+00 0.000000000000000000e+00 0.000000000000000000e+00 0.000000000000000000e+00 8.873482560100864891e-02 1.022232086569774268e-01 1.148302384325522868e-01 1.028218432715201219e-01 9.008209458141955284e-02 6.716066260598384241e-02 0.000000000000000000e+00 0.000000000000000000e+00 0.000000000000000000e+00 9.360627280238639769e-02 0.000000000000000000e+00 0.000000000000000000e+00 0.000000000000000000e+00 8.353152397095982284e-02 0.000000000000000000e+00 -1.000000000000000000e+00 0.000000000000000000e+00 1.158614264547881273e-01 0.000000000000000000e+00 0.000000000000000000e+00 6.584563418765937426e-02 0.000000000000000000e+00 0.000000000000000000e+00 -0.000000000000000000e+00 -0.000000000000000000e+00 -1.813292744093367992e-01 -1.578972432310357110e-01 -1.512383558124329175e-01 -0.000000000000000000e+00 -0.000000000000000000e+00 -1.499428818641688477e-01 -1.953950000590167768e-01 -1.821922777480552424e-01 -1.400227740144391331e-01 -1.845511910163218083e-01 -1.546100056529636779e-01
7.103904853767054051e-02 0.000000000000000000e+00 0.000000000000000000e+00 0.000000000000000000e+00 7.883364866027574303e-02 0.000000000000000000e+00 0.000000000000000000e+00 0.000000000000000000e+00 0.000000000000000000e+00 0.000000000000000000e+00 0.000000000000000000e+00 0.000000000000000000e+00 1.017154560289559029e-01 0.000000000000000000e+00 0.000000000000000000e+00 8.475216643512038794e-02 0.000000000000000000e+00 0.000000000000000000e+00 0.000000000000000000e+00 0.000000000000000000e+00 0.000000000000000000e+00 0.000000000000000000e+00 0.000000000000000000e+00 0.000000000000000000e+00 9.229455322214653867e-02 0.000000000000000000e+00 1.002286617584091655e-01 0.000000000000000000e+00 0.000000000000000000e+00 0.000000000000000000e+00 0.000000000000000000e+00 7.091122486107788447e-02 0.000000000000000000e+00 0.000000000000000000e+00 0.000000000000000000e+00 0.000000000000000000e+00 0.000000000000000000e+00 0.000000000000000000e+00 0.000000000000000000e+00 8.825098783787006795e-02 9.778869987324102786e-02 0.000000000000000000e+00 0.000000000000000000e+00 9.340213772192310082e-02 -1.000000000000000000e+00 0.000000000000000000e+00 1.190471621178081918e-01 7.602180469949337827e-02 0.000000000000000000e+00 0.000000000000000000e+00 0.000000000000000000e+00 -0.000000000000000000e+00 -1.629466594628769527e-01 -0.000000000000000000e+00 -0.000000000000000000e+00 -0.000000000000000000e+00 -1.455388429343319745e-01 -1.842839502836487453e-01 -0.000000000000000000e+00 -0.000000000000000000e+00 -1.490345717409765902e-01 -1.656647847722092504e-01 -0.000000000000000000e+00 -0.000000000000000000e+00
0.000000000000000000e+00 0.000000000000000000e+00 0.000000000000000000e+00 0.000000000000000000e+00 0.000000000000000000e+00 0.000000000000000000e+00 0.000000000000000000e+00 0.000000000000000000e+00 0.000000000000000000e+00 0.000000000000000000e+00 1.045516674089243536e-01 0.000000000000000000e+00 0.000000000000000000e+00 0.000000000000000000e+00 0.000000000000000000e+00 7.645790906452509805e-02 0.000000000000000000e+00 0.000000000000000000e+00 8.214913132814213870e-02 9.785299258831856029e-02 1.111421136854479491e-01 0.000000000000000000e+00 0.000000000000000000e+00 0.000000000000000000e+00 1.055577586043901367e-01 0.000000000000000000e+00 0.000000000000000000e+00 8.247522197331577654e-02 0.000000000000000000e+00 0.000000000000000000e+00 0.000000000000000000e+00 1.230289420764185682e-01 0.000000000000000000e+00 0.000000000000000000e+00 0.000000000000000000e+00 0.000000000000000000e+00 0.000000000000000000e+00 0.000000000000000000e+00 0.000000000000000000e+00 0.000000000000000000e+00 0.000000000000000000e+00 0.000000000000000000e+00 0.000000000000000000e+00 0.000000000000000000e+00 0.000000000000000000e+00 -1.000000000000000000e+00 8.894362382080663043e-02 0.000000000000000000e+00 9.588184810963330806e-02 1.040370459503212330e-01 0.000000000000000000e+00 -0.000000000000000000e+00 -1.815955003285654457e-01 -0.000000000000000000e+00 -1.602916290815881717e-01 -1.362447116635828737e-01 -0.000000000000000000e+00 -0.000000000000000000e+00 -1.618700645015302975e-01 -0.000000000000000000e+00 -2.001783914376581985e-01 -1.751280821624844886e-01 -0.000000000000000000e+00 -0.000000000000000000e+00
0.000000000000000000e+00 0.000000000000000000e+00 0.000000000000000000e+00 9.087448203223032206e-02 9.674819319806633733e-02 7.321080169389504455e-02 0.000000000000000000e+00 1.009733674808613590e-01 7.721541014936716962e-02 0.000000000000000000e+00 0.000000000000000000e+00 0.000000000000000000e+00 0.000000000000000000e+00 0.000000000000000000e+00 0.000000000000000000e+00 8.786831194662554634e-02 0.000000000000000000e+00 0.000000000000000000e+00 0.000000000000000000e+00 0.000000000000000000e+00 0.000000000000000000e+00 0.000000000000000000e+00 0.000000000000000000e+00 8.825156568435055249e-02 0.000000000000000000e+00 0.000000000000000000e+00 0.000000000000000000e+00 0.000000000000000000e+00 0.000000000000000000e+00 0.000000000000000000e+00 0.000000000000000000e+00 0.000000000000000000e+00 0.000000000000000000e+00 0.000000000000000000e+00 0.000000000000000000e+00 7.027919328059886728e-02 0.000000000000000000e+00 0.000000000000000000e+00 0.000000000000000000e+00 0.000000000000000000e+00 0.000000000000000000e+00 0.000000000000000000e+00 0.000000000000000000e+00 0.000000000000000000e+00 0.000000000000000000e+00 0.000000000000000000e+00 -1.000000000000000000e+00 0.000000000000000000e+00 0.000000000000000000e+00 0.000000000000000000e+00 0.000000000000000000e+00 -0.000000000000000000e+00 -1.865053927854622984e-01 -1.598625250205925052e-01 -1.672017548676960619e-01 -1.747390324848052956e-01 -1.621008605736952157e-01 -1.600165178729084647e-01 -0.000000000000000000e+00 -0.000000000000000000e+00 -1.868510759004101129e-01 -1.505423153467930764e-01 -1.746173157868668724e-01 -0.000000000000000000e+00
0.000000000000000000e+00 0.000000000000000000e+00 0.000000000000000000e+00 7.262464132559581786e-02 5.699581278842269505e-02 0.000000000000000000e+00 0.000000000000000000e+00 0.000000000000000000e+00 0.000000000000000000e+00 0.000000000000000000e+00 0.000000000000000000e+00 0.000000000000000000e+00 0.000000000000000000e+00 0.000000000000000000e+00 0.000000000000000000e+00 0.000000000000000000e+00 0.000000000000000000e+00 0.000000000000000000e+00 0.000000000000000000e+00 0.000000000000000000e+00 1.191541627547064441e-01 0.000000000000000000e+00 0.000000000000000000e+00 6.567125027379479285e-02 9.027592228497101356e-02 9.121271688669559119e-02 8.305909715176901242e-02 0.000000000000000000e+00 9.019246993123199163e-02 0.000000000000000000e+00 0.000000000000000000e+00 0.000000000000000000e+00 0.000000000000000000e+00 0.000000000000000000e+00 0.000000000000000000e+00 0.000000000000000000e+00 0.000000000000000000e+00 0.000000000000000000e+00 0.000000000000000000e+00 0.000000000000000000e+00 0.000000000000000000e+00 0.000000000000000000e+00 0.000000000000000000e+00 0.000000000000000000e+00 0.000000000000000000e+00 6.822717101149473884e-02 0.000000000000000000e+00 -1.000000000000000000e+00 0.000000000000000000e+00 8.561421182496246896e-02 0.000000000000000000e+00 -1.796688301180729697e-01 -0.000000000000000000e+00 -0.000000000000000000e+00 -1.681175120394741707e-01 -1.736191167347398701e-01 -1.440209783355317075e-01 -1.707424388007286187e-01 -0.000000000000000000e+00 -0.000000000000000000e+00 -0.000000000000000000e+00 -1.713157961234018645e-01 -0.000000000000000000e+00 -1.440800245646627342e-01
0.000000000000000000e+00 0.000000000000000000e+00 8.566638954813235451e-02 0.000000000000000000e+00 0.000000000000000000e+00 0.000000000000000000e+00 0.000000000000000000e+00 0.000000000000000000e+00 6.524938131559129828e-02 0.000000000000000000e+00 0.000000000000000000e+00 7.821996410394757571e-02 0.000000000000000000e+00 0.000000000000000000e+00 0.000000000000000000e+00 8.097188269386640380e-02 0.000000000000000000e+00 0.000000000000000000e+00 0.000000000000000000e+00 0.000000000000000000e+00 0.000000000000000000e+00 0.000000000000000000e+00 0.000000000000000000e+00 0.000000000000000000e+00 9.508043096713306164e-02 0.000000000000000000e+00 0.000000000000000000e+00 0.000000000000000000e+00 0.000000000000000000e+00 0.000000000000000000e+00 1.069460325016837327e-01 0.000000000000000000e+00 1.100895529434963299e-01 0.000000000000000000e+00 0.000000000000000000e+00 0.000000000000000000e+00 0.000000000000000000e+00 0.000000000000000000e+00 0.000000000000000000e+00 0.000000000000000000e+00 0.000000000000000000e+00 0.000000000000000000e+00 0.000000000000000000e+00 0.000000000000000000e+00 0.000000000000000000e+00 7.263085784702789927e-02 0.000000000000000000e+00 0.000000000000000000e+00 -1.000000000000000000e+00 0.000000000000000000e+00 0.000000000000000000e+00 -0.000000000000000000e+00 -1.415218886294497824e-01 -0.000000000000000000e+00 -1.615405408446278224e-01 -1.266661736113728343e-01 -1.526137400174439884e-01 -2.032710814146417300e-01 -0.000000000000000000e+00 -0.000000000000000000e+00 -1.705498691766821895e-01 -0.000000000000000000e+00 -0.000000000000000000e+00 -0.000000000000000000e+00
0.000000000000000000e+00 0.000000000000000000e+00 0.000000000000000000e+00 0.000000000000000000e+00 0.000000000000000000e+00 0.000000000000000000e+00 0.000000000000000000e+00 0.000000000000000000e+00 0.000000000000000000e+00 0.000000000000000000e+00 0.000000000000000000e+00 0.000000000000000000e+00 0.000000000000000000e+00 0.000000000000000000e+00 0.000000000000000000e+00 7.311906598846304450e-02 0.000000000000000000e+00 0.000000000000000000e+00 0.000000000000000000e+00 0.000000000000000000e+00 0.000000000000000000e+00 0.000000000000000000e+00 0.000000000000000000e+00 0.000000000000000000e+00 8.417616595338756058e-02 0.000000000000000000e+00 0.000000000000000000e+00 0.000000000000000000e+00 8.378534184193474343e-02 0.000000000000000000e+00 0.000000000000000000e+00 7.263055325323321265e-02 0.000000000000000000e+00 0.000000000000000000e+00 0.000000000000000000e+00 0.000000000000000000e+00 0.000000000000000000e+00 0.000000000000000000e+00 0.000000000000000000e+00 8.196767383311406863e-02 0.000000000000000000e+00 0.000000000000000000e+00 0.000000000000000000e+00 0.000000000000000000e+00 0.000000000000000000e+00 0.000000000000000000e+00 0.000000000000000000e+00 0.000000000000000000e+00 0.000000000000000000e+00 -1.000000000000000000e+00 1.186617724139487212e-01 -0.000000000000000000e+00 -1.340308857058848668e-01 -1.842355832702631258e-01 -1.561515057978370147e-01 -0.000000000000000000e+00 -1.564197723738880441e-01 -0.000000000000000000e+00 -0.000000000000000000e+00 -0.000000000000000000e+00 -1.964739826741319639e-01 -0.000000000000000000e+00 -0.000000000000000000e+00 -0.000000000000000000e+00
0.000000000000000000e+00 0.000000000000000000e+00 0.000000000000000000e+00 0.000000000000000000e+00 0.000000000000000000e+00 0.000000000000000000e+00 0.000000000000000000e+00 0.000000000000000000e+00 0.000000000000000000e+00 0.000000000000000000e+00 8.309469067018132593e-02 0.000000000000000000e+00 0.000000000000000000e+00 1.003163702213056285e-01 0.000000000000000000e+00 0.000000000000000000e+00 0.000000000000000000e+00 0.000000000000000000e+00 0.000000000000000000e+00 0.000000000000000000e+00 0.000000000000000000e+00 9.116195107973301681e-02 0.000000000000000000e+00 9.972985254121646825e-02 0.000000000000000000e+00 5.951963349320616575e-02 0.000000000000000000e+00 0.000000000000000000e+00 0.000000000000000000e+00 0.000000000000000000e+00 0.000000000000000000e+00 0.000000000000000000e+00 0.000000000000000000e+00 9.176661429292340411e-02 0.000000000000000000e+00 9.848030407170468847e-02 0.000000000000000000e+00 0.000000000000000000e+00 0.000000000000000000e+00 9.982470339218957323e-02 0.000000000000000000e+00 1.029786357640579131e-01 0.000000000000000000e+00 0.000000000000000000e+00 0.000000000000000000e+00 0.000000000000000000e+00 0.000000000000000000e+00 0.000000000000000000e+00 0.000000000000000000e+00 0.000000000000000000e+00 -1.000000000000000000e+00 -0.000000000000000000e+00 -1.973747561066441503e-01 -1.842037149199635127e-01 -1.797573180035429985e-01 -1.568654779647775110e-01 -0.000000000000000000e+00 -1.719795690075804073e-01 -0.000000000000000000e+00 -0.000000000000000000e+00 -1.749010913232986741e-01 -1.356767409558951032e-01 -0.000000000000000000e+00 -1.763247017659795857e-01
0.000000000000000000e+00 0.000000000000000000e+00 1.860690813126986837e-02 0.000000000000000000e+00 0.000000000000000000e+00 0.000000000000000000e+00 0.000000000000000000e+00 4.702132427870555492e-02 4.368249362908371153e-02 6.583639064091582893e-02 2.845089773722005513e-02 0.000000000000000000e+00 0.000000000000000000e+00 3.744726473926944521e-02 0.000000000000000000e+00 0.000000000000000000e+00 2.945864060359705550e-02 0.000000000000000000e+00 6.610508823634544950e-02 0.000000000000000000e+00 0.000000000000000000e+00 3.951962962796073259e-02 4.577263425912042605e-02 4.278167177521208231e-02 4.761995882971399585e-02 0.000000000000000000e+00 0.000000000000000000e+00 0.000000000000000000e+00 5.772432267906973946e-02 0.000000000000000000e+00 4.912282732593716700e-02 3.449317300866774211e-02 4.886100966388513822e-02 6.004434219956998608e-02 0.000000000000000000e+00 3.040642599889872150e-02 0.000000000000000000e+00 0.000000000000000000e+00 0.000000000000000000e+00 5.449411464084644163e-02 0.000000000000000000e+00 0.000000000000000000e+00 3.653200493524224463e-02 3.591496453321713772e-02 4.574306492230224147e-02 0.000000000000000000e+00 5.075121987054752315e-02 0.000000000000000000e+00 4.355974011835996029e-02 0.000000000000000000e+00 0.000000000000000000e+00 -1.000000000000000000e+00 -0.000000000000000000e+00 -0.000000000000000000e+00 -1.636263380951236690e-01 -0.000000000000000000e+00 -0.000000000000000000e+00 -0.000000000000000000e+00 -0.000000000000000000e+00 -0.000000000000000000e+00 -0.000000000000000000e+00 -1.801965013854846531e-01 -1.729434890759227184e-01 -1.746482747988065687e-01
3.656228026105844131e-02 5.423791833998754808e-02 2.416663155130067270e-02 0.000000000000000000e+00 0.000000000000000000e+00 0.000000000000000000e+00 0.000000000000000000e+00 2.980302743538502594e-02 3.686064555016111549e-02 0.000000000000000000e+00 0.000000000000000000e+00 0.000000000000000000e+00 0.000000000000000000e+00 5.071113369762375589e-02 2.048615680350426155e-02 2.656789289036624174e-02 6.947582056349216328e-02 5.013273549640538673e-02 0.000000000000000000e+00 3.502424871450920962e-02 0.000000000000000000e+00 0.000000000000000000e+00 0.000000000000000000e+00 0.000000000000000000e+00 3.655496743281596433e-02 5.875276284707514618e-02 0.000000000000000000e+00 2.889280488598110555e-02 0.000000000000000000e+00 6.065393834455816424e-02 3.094740010073185332e-02 5.044280812899889360e-02 0.000000000000000000e+00 2.668648675040915380e-02 0.000000000000000000e+00 4.745861932411851031e-02 0.000000000000000000e+00 3.177285735951152629e-02 3.926363934215318374e-02 0.000000000000000000e+00 0.000000000000000000e+00 4.981011230632906295e-02 0.000000000000000000e+00 0.000000000000000000e+00 4.508978191128901886e-02 0.000000000000000000e+00 3.628492339738059735e-02 3.485891587693741578e-02 0.000000000000000000e+00 2.925962485587949025e-02 0.000000000000000000e+00 -1.370721266763446911e-01 -1.000000000000000000e+00 -1.736345255047780090e-01 -1.629263682378483125e-01 -1.467224098701575274e-01 -1.664380263118128978e-01 -1.553875128905475855e-01 -0.000000000000000000e+00 -1.613281243195095749e-01 -0.000000000000000000e+00 -1.540618189275625993e-01 -1.515044150435411741e-01 -0.000000000000000000e+00
0.000000000000000000e+00 0.000000000000000000e+00 6.887895513068779951e-02 3.594386657955173092e-02 0.000000000000000000e+00 0.000000000000000000e+00 0.000000000000000000e+00 0.000000000000000000e+00 2.237234837627442505e-02 0.000000000000000000e+00 2.935782465269790031e-02 0.000000000000000000e+00 0.000000000000000000e+00 2.428452557125037464e-02 3.737051417296918115e-02 2.162580813946463759e-02 0.000000000000000000e+00 8.985883976113349936e-03 0.000000000000000000e+00 0.000000000000000000e+00 0.000000000000000000e+00 0.000000000000000000e+00 2.281809556690895385e-02 0.000000000000000000e+00 0.000000000000000000e+00 2.423046195614548745e-02 0.000000000000000000e+00 6.377680485037591496e-02 0.000000000000000000e+00 0.000000000000000000e+00 2.792210539251363879e-02 4.192558792692850644e-02 3.374892690071233659e-02 4.833499183239722830e-02 6.543577278536059916e-02 4.877045161196771200e-02 0.000000000000000000e+00 0.000000000000000000e+00 0.000000000000000000e+00 0.000000000000000000e+00 3.272386975635570294e-02 0.000000000000000000e+00 0.000000000000000000e+00 3.495022889853478115e-02 0.000000000000000000e+00 0.000000000000000000e+00 0.000000000000000000e+00 0.000000000000000000e+00 0.000000000000000000e+00 2.925274526707071290e-02 0.000000000000000000e+00 -1.230916014879427089e-01 -0.000000000000000000e+00 -1.000000000000000000e+00 -1.575986912937260009e-01 -1.616116794102659127e-01 -1.765265302073877329e-01 -1.521528303316265207e-01 -0.000000000000000000e+00 -0.000000000000000000e+00 -1.852417279751901735e-01 -1.805977695921597015e-01 -1.682592337296521523e-01 -0.000000000000000000e+00
0.000000000000000000e+00 3.926492648050200485e-02 0.000000000000000000e+00 3.425309470108264115e-02 6.535800186916965182e-02 0.000000000000000000e+00 0.000000000000000000e+00 4.873956074416167100e-02 0.000000000000000000e+00 4.585808043780884025e-02 3.353791752409802235e-02 2.966411121280784075e-02 6.378692482086285864e-02 2.196110328292568900e-02 5.486467140104470119e-02 0.000000000000000000e+00 0.000000000000000000e+00 3.556203525510193142e-02 3.820684471259491732e-02 6.859059720902431490e-02 4.227557693818653761e-02 0.000000000000000000e+00 4.024604437619472286e-02 4.552062705522313957e-02 0.000000000000000000e+00 0.000000000000000000e+00 0.000000000000000000e+00 0.000000000000000000e+00 0.000000000000000000e+00 4.459484219197758920e-02 5.881179338290029590e-02 0.000000000000000000e+00 0.000000000000000000e+00 1.909546497111012237e-02 3.538816484803663370e-02 3.945978469617296425e-02 4.418389222743657196e-02 0.000000000000000000e+00 5.971706268204468593e-02 0.000000000000000000e+00 5.488951147077756471e-02 0.000000000000000000e+00 0.000000000000000000e+00 0.000000000000000000e+00 9.717319735839884121e-03 5.082145681912670493e-02 0.000000000000000000e+00 5.618389413898821488e-02 0.000000000000000000e+00 0.000000000000000000e+00 3.978593261311658136e-02 -1.786836742486130891e-01 -1.628550482664636867e-01 -0.000000000000000000e+00 -1.000000000000000000e+00 -0.000000000000000000e+00 -1.727002017638078202e-01 -1.514164608856170824e-01 -0.000000000000000000e+00 -1.728694324022823081e-01 -0.000000000000000000e+00 -1.654900458440185518e-01 -0.000000000000000000e+00 -0.000000000000000000e+00
5.108125597270599116e-03 1.376165507971432306e-02 -8.268448232899835992e-03 3.250440622489345760e-02 6.012451408750560389e-02 0.000000000000000000e+00 1.902332576988848695e-02 0.000000000000000000e+00 4.000279384765742519e-02 5.743367376189723039e-02 7.292739216069263342e-02 3.394527832666190820e-02 0.000000000000000000e+00 0.000000000000000000e+00 0.000000000000000000e+00 0.000000000000000000e+00 0.000000000000000000e+00 5.491913555817376502e-02 3.536970989569782758e-02 0.000000000000000000e+00 4.947111120973034237e-03 4.225990535242267476e-02 3.499742191911490996e-02 0.000000000000000000e+00 6.022551946794868494e-02 0.000000000000000000e+00 1.494640969600019229e-02 4.228368799574969139e-02 0.000000000000000000e+00 0.000000000000000000e+00 0.000000000000000000e+00 0.000000000000000000e+00 0.000000000000000000e+00 3.346758950064570443e-02 0.000000000000000000e+00 4.812742196606915185e-02 0.000000000000000000e+00 0.000000000000000000e+00 1.769378646583503675e-02 3.341389975698250137e-02 4.143099827103333133e-02 0.000000000000000000e+00 0.000000000000000000e+00 0.000000000000000000e+00 3.774343541985816092e-02 0.000000000000000000e+00 5.876703011016139178e-02 0.000000000000000000e+00 3.414791329209553722e-02 0.000000000000000000e+00 0.000000000000000000e+00 -1.691822956973664527e-01 -0.000000000000000000e+00 -0.000000000000000000e+00 -1.544535244846134692e-01 -1.000000000000000000e+00 -0.000000000000000000e+00 -0.000000000000000000e+00 -0.000000000000000000e+00 -0.000000000000000000e+00 -1.535811562453042733e-01 -0.000000000000000000e+00 -1.740662344858254218e-01 -0.000000000000000000e+00
0.000000000000000000e+00 0.000000000000000000e+00 4.649746862387778290e-02 2.763411235809976746e-02 4.696537961893422486e-02 1.667946316117034644e-02 5.125315589616408901e-02 0.000000000000000000e+00 6.334710518364636278e-02 4.113929432964100880e-02 5.318186813216101844e-02 6.425249086321574432e-02 3.240742781103203574e-02 0.000000000000000000e+00 0.000000000000000000e+00 2.633184706665162023e-02 3.983237820873029855e-02 0.000000000000000000e+00 4.011909929889499044e-02 0.000000000000000000e+00 4.081691375911865316e-02 0.000000000000000000e+00 0.000000000000000000e+00 3.550162096268476286e-02 3.653166824428401988e-02 5.575839391998663186e-02 0.000000000000000000e+00 0.000000000000000000e+00 0.000000000000000000e+00 3.401452138903570538e-02 0.000000000000000000e+00 5.633317111745252126e-02 0.000000000000000000e+00 0.000000000000000000e+00 0.000000000000000000e+00 4.043835293348882476e-02 4.533088321265820592e-02 0.000000000000000000e+00 3.485410860476587103e-02 3.649398671903945207e-02 2.969829268205407061e-02 0.000000000000000000e+00 3.082105246194009190e-02 6.384124615603989361e-02 4.359532518107355620e-02 5.256400008101850402e-02 0.000000000000000000e+00 5.071047419151201302e-02 0.000000000000000000e+00 2.203536612129545005e-02 2.844678563492072584e-02 -1.581697555830085811e-01 -1.567406245971108281e-01 -0.000000000000000000e+00 -0.000000000000000000e+00 -0.000000000000000000e+00 -1.000000000000000000e+00 -1.671504808502837225e-01 -1.710822033498835826e-01 -0.000000000000000000e+00 -1.552270389298550934e-01 -1.555564781122354689e-01 -1.347765654476791031e-01 -1.760868211237827108e-01
4.524524444936695033e-02 5.477536009977233833e-02 7.564124461944410349e-02 4.873470889614711643e-02 0.000000000000000000e+00 0.000000000000000000e+00 4.677878875736614372e-02 4.800047071324031744e-02 0.000000000000000000e+00 2.818268660217165128e-02 0.000000000000000000e+00 4.483157715649579295e-02 5.785459534312873547e-02 5.195519953779519085e-02 5.314057501476047995e-02 0.000000000000000000e+00 0.000000000000000000e+00 6.292607675938691192e-02 0.000000000000000000e+00 0.000000000000000000e+00 5.742350337682270572e-02 4.345719116768703011e-02 4.725124346237714185e-02 0.000000000000000000e+00 0.000000000000000000e+00 0.000000000000000000e+00 0.000000000000000000e+00 4.598710501563093439e-02 0.000000000000000000e+00 0.000000000000000000e+00 0.000000000000000000e+00 0.000000000000000000e+00 2.472943136332769742e-02 0.000000000000000000e+00 0.000000000000000000e+00 5.632240128206954244e-02 0.000000000000000000e+00 0.000000000000000000e+00 0.000000000000000000e+00 2.259196268311625122e-02 4.067727459898556192e-02 4.015231644289044693e-02 6.378698011322656014e-02 0.000000000000000000e+00 5.057147473824238904e-02 4.461911848628912630e-02 0.000000000000000000e+00 2.881861030711967489e-02 0.000000000000000000e+00 0.000000000000000000e+00 0.000000000000000000e+00 -0.000000000000000000e+00 -1.708451107005084235e-01 -1.627443974901694734e-01 -1.818904132781031802e-01 -1.408113720154174908e-01 -1.531795376676442777e-01 -1.000000000000000000e+00 -0.000000000000000000e+00 -1.434447160213149497e-01 -0.000000000000000000e+00 -1.703474812760705503e-01 -1.839765903139588543e-01 -1.388625663179756942e-01
0.000000000000000000e+00 4.067475638630981688e-02 4.255424027779474566e-02 3.291164939998064004e-02 4.642673720010959126e-02 0.000000000000000000e+00 2.746401727421203531e-02 0.000000000000000000e+00 0.000000000000000000e+00 1.490393786718443095e-02 3.658441054646728585e-02 0.000000000000000000e+00 6.021927580397420238e-02 3.537113917627416476e-02 1.520249549743940901e-02 0.000000000000000000e+00 2.568527937514650250e-02 2.484976083812255251e-02 0.000000000000000000e+00 4.711218231939775375e-02 2.512873962400147265e-02 4.617246450994885038e-02 0.000000000000000000e+00 0.000000000000000000e+00 5.166544708472081693e-02 4.640927830719723812e-02 0.000000000000000000e+00 0.000000000000000000e+00 4.533758641672029632e-02 3.813803575446556710e-02 0.000000000000000000e+00 3.349904700485456521e-02 4.847213095966786123e-02 5.616924544671095948e-02 4.595578218763614331e-03 4.148095039290578684e-02 0.000000000000000000e+00 3.573990771762945023e-02 4.163430381596409241e-02 6.637589731012999428e-02 0.000000000000000000e+00 2.683523580731810021e-03 6.616993233558707277e-02 0.000000000000000000e+00 0.000000000000000000e+00 0.000000000000000000e+00 4.096229362775566374e-03 0.000000000000000000e+00 2.826250233036151083e-02 0.000000000000000000e+00 3.231844994135246035e-02 -0.000000000000000000e+00 -0.000000000000000000e+00 -0.000000000000000000e+00 -1.746123972286305892e-01 -0.000000000000000000e+00 -0.000000000000000000e+00 -0.000000000000000000e+00 -1.000000000000000000e+00 -1.600449619161792014e-01 -1.618842814106786765e-01 -1.890284802651650831e-01 -1.817402746800069191e-01 -0.000000000000000000e+00
4.963715059362285020e-02 2.501058893915044171e-02 6.767979893199443930e-02 4.033201574651146953e-02 0.000000000000000000e+00 0.000000000000000000e+00 0.000000000000000000e+00 3.232460495872063050e-02 0.000000000000000000e+00 0.000000000000000000e+00 0.000000000000000000e+00 1.992068547303492074e-02 2.650958545303993413e-02 2.603756063140344468e-02 8.489906979128415687e-03 4.968804764542119473e-02 0.000000000000000000e+00 0.000000000000000000e+00 0.000000000000000000e+00 0.000000000000000000e+00 3.901295243106454869e-02 0.000000000000000000e+00 0.000000000000000000e+00 0.000000000000000000e+00 2.894766193148645694e-02 0.000000000000000000e+00 0.000000000000000000e+00 0.000000000000000000e+00 2.411934160799102458e-02 8.902656076348935965e-03 0.000000000000000000e+00 0.000000000000000000e+00 4.394253583640955751e-02 0.000000000000000000e+00 4.176810327658544986e-02 5.864858036403652886e-02 0.000000000000000000e+00 0.000000000000000000e+00 0.000000000000000000e+00 0.000000000000000000e+00 3.987233270597590612e-02 4.444114399597655363e-02 3.737536804557559794e-02 6.013187430626128899e-02 1.968876648977898117e-02 4.617697513556687228e-02 0.000000000000000000e+00 6.454270314714874446e-02 3.771565558995942230e-02 0.000000000000000000e+00 4.305145491020906379e-02 -0.000000000000000000e+00 -1.720318779332946357e-01 -0.000000000000000000e+00 -1.706432766357709463e-01 -0.000000000000000000e+00 -0.000000000000000000e+00 -0.000000000000000000e+00 -0.000000000000000000e+00 -1.000000000000000000e+00 -1.426637695437274478e-01 -0.000000000000000000e+00 -0.000000000000000000e+00 -0.000000000000000000e+00
0.000000000000000000e+00 5.726182190961368046e-02 6.150264130571311827e-02 0.000000000000000000e+00 0.000000000000000000e+00 0.000000000000000000e+00 0.000000000000000000e+00 3.712229519793902588e-02 4.122952321020027788e-02 2.851015877984401647e-02 0.000000000000000000e+00 0.000000000000000000e+00 6.278841614803763738e-02 0.000000000000000000e+00 0.000000000000000000e+00 0.000000000000000000e+00 0.000000000000000000e+00 0.000000000000000000e+00 0.000000000000000000e+00 0.000000000000000000e+00 0.000000000000000000e+00 0.000000000000000000e+00 5.600511276109588349e-02 0.000000000000000000e+00 2.691986570878326240e-02 0.000000000000000000e+00 3.239497879601185848e-02 4.949168551531445137e-02 2.417479563919301341e-02 0.000000000000000000e+00 3.341067620853700737e-02 0.000000000000000000e+00 6.447893596087581058e-02 3.708776652664602658e-02 0.000000000000000000e+00 0.000000000000000000e+00 5.386072551960213728e-02 0.000000000000000000e+00 0.000000000000000000e+00 5.119795261198957503e-02 0.000000000000000000e+00 4.636866150148070270e-02 2.741808509806959587e-02 0.000000000000000000e+00 3.396457786759993214e-02 4.047558000568533126e-02 0.000000000000000000e+00 3.909869001717786868e-02 0.000000000000000000e+00 5.517752456787681364e-02 5.637072895461135713e-03 -0.000000000000000000e+00 -1.465340599486547046e-01 -1.653294809461392512e-01 -0.000000000000000000e+00 -1.740157114230896362e-01 -0.000000000000000000e+00 -1.737116007644266269e-01 -1.523632772716486672e-01 -0.000000000000000000e+00 -1.000000000000000000e+00 -1.781364504435502538e-01 -1.724436402240743793e-01 -0.000000000000000000e+00
