-1.000000000000000000e+00 0.000000000000000000e+00 0.000000000000000000e+00 0.000000000000000000e+00 0.000000000000000000e+00 0.000000000000000000e+00 0.000000000000000000e+00 0.000000000000000000e+00 0.000000000000000000e+00 0.000000000000000000e+00 0.000000000000000000e+00 0.000000000000000000e+00 0.000000000000000000e+00 0.000000000000000000e+00 0.000000000000000000e+00 0.000000000000000000e+00 0.000000000000000000e+00 6.124999999999999334e-01 0.000000000000000000e+00 0.000000000000000000e+00 0.000000000000000000e+00 6.124999999999999334e-01 0.000000000000000000e+00 6.124999999999999334e-01 0.000000000000000000e+00 0.000000000000000000e+00 0.000000000000000000e+00 0.000000000000000000e+00 0.000000000000000000e+00 0.000000000000000000e+00 0.000000000000000000e+00 0.000000000000000000e+00 0.000000000000000000e+00 0.000000000000000000e+00 0.000000000000000000e+00 0.000000000000000000e+00 0.000000000000000000e+00 0.000000000000000000e+00 6.124999999999999334e-01 0.000000000000000000e+00 0.000000000000000000e+00 0.000000000000000000e+00 0.000000000000000000e+00 0.000000000000000000e+00 0.000000000000000000e+00 0.000000000000000000e+00 0.000000000000000000e+00 6.124999999999999334e-01 0.000000000000000000e+00 0.000000000000000000e+00 0.000000000000000000e+00 -0.000000000000000000e+00 -0.000000000000000000e+00 -0.000000000000000000e+00 -1.163750000000000062e+00 -0.000000000000000000e+00 -0.000000000000000000e+00 -1.163750000000000062e+00 -1.163750000000000062e+00 -0.000000000000000000e+00 -0.000000000000000000e+00 -0.000000000000000000e+00 -0.000000000000000000e+00 -1.163750000000000062e+00
0.000000000000000000e+00 -1.000000000000000000e+00 0.000000000000000000e+00 0.000000000000000000e+00 0.000000000000000000e+00 0.000000000000000000e+00 6.124999999999999334e-01 0.000000000000000000e+00 0.000000000000000000e+00 0.000000000000000000e+00 0.000000000000000000e+00 0.000000000000000000e+00 0.000000000000000000e+00 0.000000000000000000e+00 6.124999999999999334e-01 6.124999999999999334e-01 6.124999999999999334e-01 0.000000000000000000e+00 0.000000000000000000e+00 6.124999999999999334e-01 6.124999999999999334e-01 0.000000000000000000e+00 0.000000000000000000e+00 0.000000000000000000e+00 0.000000000000000000e+00 0.000000000000000000e+00 0.000000000000000000e+00 0.000000000000000000e+00 0.000000000000000000e+00 0.000000000000000000e+00 0.000000000000000000e+00 0.000000000000000000e+00 6.124999999999999334e-01 0.000000000000000000e+00 0.000000000000000000e+00 0.000000000000000000e+00 6.124999999999999334e-01 0.000000000000000000e+00 0.000000000000000000e+00 0.000000000000000000e+00 0.000000000000000000e+00 0.000000000000000000e+00 0.000000000000000000e+00 0.000000000000000000e+00 0.000000000000000000e+00 0.000000000000000000e+00 0.000000000000000000e+00 6.124999999999999334e-01 0.000000000000000000e+00 6.124999999999999334e-01 0.000000000000000000e+00 -0.000000000000000000e+00 -0.000000000000000000e+00 -0.000000000000000000e+00 -1.163750000000000062e+00 -1.163750000000000062e+00 -1.163750000000000062e+00 -1.163750000000000062e+00 -1.163750000000000062e+00 -0.000000000000000000e+00 -1.163750000000000062e+00 -1.163750000000000062e+00 -0.000000000000000000e+00 -0.000000000000000000e+00
0.000000000000000000e+00 0.000000000000000000e+00 -1.000000000000000000e+00 0.000000000000000000e+00 6.124999999999999334e-01 0.000000000000000000e+00 0.000000000000000000e+00 6.124999999999999334e-01 0.000000000000000000e+00 0.000000000000000000e+00 0.000000000000000000e+00 6.124999999999999334e-01 0.000000000000000000e+00 0.000000000000000000e+00 0.000000000000000000e+00 0.000000000000000000e+00 6.124999999999999334e-01 6.124999999999999334e-01 0.000000000000000000e+00 0.000000000000000000e+00 0.000000000000000000e+00 0.000000000000000000e+00 0.000000000000000000e+00 0.000000000000000000e+00 0.000000000000000000e+00 0.000000000000000000e+00 0.000000000000000000e+00 0.000000000000000000e+00 0.000000000000000000e+00 6.124999999999999334e-01 0.000000000000000000e+00 0.000000000000000000e+00 0.000000000000000000e+00 0.000000000000000000e+00 6.124999999999999334e-01 0.000000000000000000e+00 0.000000000000000000e+00 0.000000000000000000e+00 0.000000000000000000e+00 6.124999999999999334e-01 0.000000000000000000e+00 0.000000000000000000e+00 0.000000000000000000e+00 0.000000000000000000e+00 0.000000000000000000e+00 6.124999999999999334e-01 0.000000000000000000e+00 0.000000000000000000e+00 6.124999999999999334e-01 0.000000000000000000e+00 0.000000000000000000e+00 -0.000000000000000000e+00 -0.000000000000000000e+00 -1.163750000000000062e+00 -1.163750000000000062e+00 -0.000000000000000000e+00 -0.000000000000000000e+00 -0.000000000000000000e+00 -0.000000000000000000e+00 -0.000000000000000000e+00 -0.000000000000000000e+00 -0.000000000000000000e+00 -0.000000000000000000e+00 -1.163750000000000062e+00
6.124999999999999334e-01 0.000000000000000000e+00 0.000000000000000000e+00 -1.000000000000000000e+00 0.000000000000000000e+00 0.000000000000000000e+00 0.000000000000000000e+00 6.124999999999999334e-01 0.000000000000000000e+00 6.124999999999999334e-01 6.124999999999999334e-01 0.000000000000000000e+00 6.124999999999999334e-01 0.000000000000000000e+00 0.000000000000000000e+00 0.000000000000000000e+00 0.000000000000000000e+00 0.000000000000000000e+00 0.000000000000000000e+00 0.000000000000000000e+00 0.000000000000000000e+00 0.000000000000000000e+00 0.000000000000000000e+00 6.124999999999999334e-01 0.000000000000000000e+00 0.000000000000000000e+00 0.000000000000000000e+00 0.000000000000000000e+00 0.000000000000000000e+00 0.000000000000000000e+00 0.000000000000000000e+00 0.000000000000000000e+00 0.000000000000000000e+00 6.124999999999999334e-01 0.000000000000000000e+00 0.000000000000000000e+00 0.000000000000000000e+00 0.000000000000000000e+00 0.000000000000000000e+00 0.000000000000000000e+00 6.124999999999999334e-01 0.000000000000000000e+00 6.124999999999999334e-01 6.124999999999999334e-01 0.000000000000000000e+00 0.000000000000000000e+00 6.124999999999999334e-01 6.124999999999999334e-01 6.124999999999999334e-01 0.000000000000000000e+00 0.000000000000000000e+00 -1.163750000000000062e+00 -0.000000000000000000e+00 -0.000000000000000000e+00 -1.163750000000000062e+00 -1.163750000000000062e+00 -0.000000000000000000e+00 -0.000000000000000000e+00 -1.163750000000000062e+00 -1.163750000000000062e+00 -0.000000000000000000e+00 -0.000000000000000000e+00 -1.163750000000000062e+00 -0.000000000000000000e+00
0.000000000000000000e+00 6.124999999999999334e-01 0.000000000000000000e+00 0.000000000000000000e+00 -1.000000000000000000e+00 6.124999999999999334e-01 0.000000000000000000e+00 0.000000000000000000e+00 0.000000000000000000e+00 0.000000000000000000e+00 0.000000000000000000e+00 6.124999999999999334e-01 0.000000000000000000e+00 0.000000000000000000e+00 0.000000000000000000e+00 6.124999999999999334e-01 0.000000000000000000e+00 0.000000000000000000e+00 6.124999999999999334e-01 0.000000000000000000e+00 0.000000000000000000e+00 0.000000000000000000e+00 6.124999999999999334e-01 0.000000000000000000e+00 0.000000000000000000e+00 0.000000000000000000e+00 0.000000000000000000e+00 0.000000000000000000e+00 0.000000000000000000e+00 0.000000000000000000e+00 0.000000000000000000e+00 0.000000000000000000e+00 0.000000000000000000e+00 6.124999999999999334e-01 0.000000000000000000e+00 0.000000000000000000e+00 0.000000000000000000e+00 0.000000000000000000e+00 0.000000000000000000e+00 6.124999999999999334e-01 0.000000000000000000e+00 0.000000000000000000e+00 6.124999999999999334e-01 0.000000000000000000e+00 0.000000000000000000e+00 0.000000000000000000e+00 0.000000000000000000e+00 0.000000000000000000e+00 0.000000000000000000e+00 6.124999999999999334e-01 0.000000000000000000e+00 -0.000000000000000000e+00 -0.000000000000000000e+00 -1.163750000000000062e+00 -0.000000000000000000e+00 -1.163750000000000062e+00 -1.163750000000000062e+00 -1.163750000000000062e+00 -0.000000000000000000e+00 -1.163750000000000062e+00 -1.163750000000000062e+00 -1.163750000000000062e+00 -0.000000000000000000e+00 -1.163750000000000062e+00
0.000000000000000000e+00 6.124999999999999334e-01 0.000000000000000000e+00 0.000000000000000000e+00 0.000000000000000000e+00 -1.000000000000000000e+00 0.000000000000000000e+00 0.000000000000000000e+00 0.000000000000000000e+00 0.000000000000000000e+00 6.124999999999999334e-01 0.000000000000000000e+00 6.124999999999999334e-01 0.000000000000000000e+00 6.124999999999999334e-01 6.124999999999999334e-01 0.000000000000000000e+00 0.000000000000000000e+00 0.000000000000000000e+00 0.000000000000000000e+00 0.000000000000000000e+00 0.000000000000000000e+00 0.000000000000000000e+00 0.000000000000000000e+00 0.000000000000000000e+00 0.000000000000000000e+00 0.000000000000000000e+00 0.000000000000000000e+00 0.000000000000000000e+00 0.000000000000000000e+00 0.000000000000000000e+00 0.000000000000000000e+00 0.000000000000000000e+00 0.000000000000000000e+00 6.124999999999999334e-01 0.000000000000000000e+00 0.000000000000000000e+00 0.000000000000000000e+00 0.000000000000000000e+00 0.000000000000000000e+00 0.000000000000000000e+00 0.000000000000000000e+00 0.000000000000000000e+00 0.000000000000000000e+00 0.000000000000000000e+00 0.000000000000000000e+00 6.124999999999999334e-01 0.000000000000000000e+00 0.000000000000000000e+00 0.000000000000000000e+00 0.000000000000000000e+00 -1.163750000000000062e+00 -1.163750000000000062e+00 -1.163750000000000062e+00 -0.000000000000000000e+00 -0.000000000000000000e+00 -0.000000000000000000e+00 -0.000000000000000000e+00 -1.163750000000000062e+00 -1.163750000000000062e+00 -1.163750000000000062e+00 -0.000000000000000000e+00 -0.000000000000000000e+00 -0.000000000000000000e+00
0.000000000000000000e+00 0.000000000000000000e+00 0.000000000000000000e+00 0.000000000000000000e+00 0.000000000000000000e+00 0.000000000000000000e+00 -1.000000000000000000e+00 0.000000000000000000e+00 6.124999999999999334e-01 6.124999999999999334e-01 0.000000000000000000e+00 0.000000000000000000e+00 0.000000000000000000e+00 0.000000000000000000e+00 0.000000000000000000e+00 0.000000000000000000e+00 0.000000000000000000e+00 6.124999999999999334e-01 0.000000000000000000e+00 0.000000000000000000e+00 0.000000000000000000e+00 0.000000000000000000e+00 6.124999999999999334e-01 0.000000000000000000e+00 0.000000000000000000e+00 6.124999999999999334e-01 0.000000000000000000e+00 0.000000000000000000e+00 0.000000000000000000e+00 0.000000000000000000e+00 0.000000000000000000e+00 0.000000000000000000e+00 0.000000000000000000e+00 0.000000000000000000e+00 0.000000000000000000e+00 0.000000000000000000e+00 0.000000000000000000e+00 0.000000000000000000e+00 0.000000000000000000e+00 0.000000000000000000e+00 6.124999999999999334e-01 0.000000000000000000e+00 0.000000000000000000e+00 0.000000000000000000e+00 6.124999999999999334e-01 0.000000000000000000e+00 0.000000000000000000e+00 0.000000000000000000e+00 0.000000000000000000e+00 0.000000000000000000e+00 0.000000000000000000e+00 -0.000000000000000000e+00 -0.000000000000000000e+00 -0.000000000000000000e+00 -0.000000000000000000e+00 -1.163750000000000062e+00 -0.000000000000000000e+00 -1.163750000000000062e+00 -0.000000000000000000e+00 -1.163750000000000062e+00 -1.163750000000000062e+00 -0.000000000000000000e+00 -0.000000000000000000e+00 -1.163750000000000062e+00
6.124999999999999334e-01 0.000000000000000000e+00 0.000000000000000000e+00 6.124999999999999334e-01 0.000000000000000000e+00 0.000000000000000000e+00 0.000000000000000000e+00 -1.000000000000000000e+00 0.000000000000000000e+00 0.000000000000000000e+00 0.000000000000000000e+00 0.000000000000000000e+00 0.000000000000000000e+00 6.124999999999999334e-01 0.000000000000000000e+00 0.000000000000000000e+00 0.000000000000000000e+00 0.000000000000000000e+00 6.124999999999999334e-01 0.000000000000000000e+00 0.000000000000000000e+00 0.000000000000000000e+00 0.000000000000000000e+00 0.000000000000000000e+00 0.000000000000000000e+00 0.000000000000000000e+00 0.000000000000000000e+00 6.124999999999999334e-01 6.124999999999999334e-01 0.000000000000000000e+00 0.000000000000000000e+00 0.000000000000000000e+00 0.000000000000000000e+00 0.000000000000000000e+00 0.000000000000000000e+00 6.124999999999999334e-01 0.000000000000000000e+00 0.000000000000000000e+00 6.124999999999999334e-01 0.000000000000000000e+00 0.000000000000000000e+00 6.124999999999999334e-01 0.000000000000000000e+00 0.000000000000000000e+00 0.000000000000000000e+00 0.000000000000000000e+00 0.000000000000000000e+00 0.000000000000000000e+00 0.000000000000000000e+00 0.000000000000000000e+00 0.000000000000000000e+00 -0.000000000000000000e+00 -0.000000000000000000e+00 -0.000000000000000000e+00 -0.000000000000000000e+00 -1.163750000000000062e+00 -1.163750000000000062e+00 -0.000000000000000000e+00 -1.163750000000000062e+00 -0.000000000000000000e+00 -1.163750000000000062e+00 -0.000000000000000000e+00 -1.163750000000000062e+00 -0.000000000000000000e+00
0.000000000000000000e+00 0.000000000000000000e+00 0.000000000000000000e+00 6.124999999999999334e-01 0.000000000000000000e+00 6.124999999999999334e-01 0.000000000000000000e+00 0.000000000000000000e+00 -1.000000000000000000e+00 0.000000000000000000e+00 6.124999999999999334e-01 0.000000000000000000e+00 0.000000000000000000e+00 0.000000000000000000e+00 0.000000000000000000e+00 0.000000000000000000e+00 0.000000000000000000e+00 0.000000000000000000e+00 6.124999999999999334e-01 0.000000000000000000e+00 6.124999999999999334e-01 0.000000000000000000e+00 0.000000000000000000e+00 0.000000000000000000e+00 6.124999999999999334e-01 0.000000000000000000e+00 0.000000000000000000e+00 0.000000000000000000e+00 0.000000000000000000e+00 0.000000000000000000e+00 0.000000000000000000e+00 0.000000000000000000e+00 0.000000000000000000e+00 0.000000000000000000e+00 0.000000000000000000e+00 0.000000000000000000e+00 0.000000000000000000e+00 0.000000000000000000e+00 0.000000000000000000e+00 0.000000000000000000e+00 0.000000000000000000e+00 6.124999999999999334e-01 0.000000000000000000e+00 0.000000000000000000e+00 0.000000000000000000e+00 6.124999999999999334e-01 0.000000000000000000e+00 0.000000000000000000e+00 0.000000000000000000e+00 0.000000000000000000e+00 0.000000000000000000e+00 -1.163750000000000062e+00 -0.000000000000000000e+00 -1.163750000000000062e+00 -0.000000000000000000e+00 -1.163750000000000062e+00 -0.000000000000000000e+00 -1.163750000000000062e+00 -0.000000000000000000e+00 -0.000000000000000000e+00 -1.163750000000000062e+00 -0.000000000000000000e+00 -0.000000000000000000e+00 -1.163750000000000062e+00
0.000000000000000000e+00 0.000000000000000000e+00 0.000000000000000000e+00 6.124999999999999334e-01 0.000000000000000000e+00 0.000000000000000000e+00 0.000000000000000000e+00 0.000000000000000000e+00 0.000000000000000000e+00 -1.000000000000000000e+00 0.000000000000000000e+00 0.000000000000000000e+00 0.000000000000000000e+00 0.000000000000000000e+00 0.000000000000000000e+00 0.000000000000000000e+00 0.000000000000000000e+00 0.000000000000000000e+00 0.000000000000000000e+00 0.000000000000000000e+00 0.000000000000000000e+00 0.000000000000000000e+00 0.000000000000000000e+00 0.000000000000000000e+00 6.124999999999999334e-01 0.000000000000000000e+00 0.000000000000000000e+00 6.124999999999999334e-01 0.000000000000000000e+00 6.124999999999999334e-01 6.124999999999999334e-01 0.000000000000000000e+00 0.000000000000000000e+00 0.000000000000000000e+00 0.000000000000000000e+00 0.000000000000000000e+00 6.124999999999999334e-01 0.000000000000000000e+00 0.000000000000000000e+00 6.124999999999999334e-01 0.000000000000000000e+00 0.000000000000000000e+00 6.124999999999999334e-01 0.000000000000000000e+00 0.000000000000000000e+00 0.000000000000000000e+00 6.124999999999999334e-01 6.124999999999999334e-01 0.000000000000000000e+00 0.000000000000000000e+00 0.000000000000000000e+00 -0.000000000000000000e+00 -0.000000000000000000e+00 -1.163750000000000062e+00 -0.000000000000000000e+00 -1.163750000000000062e+00 -1.163750000000000062e+00 -0.000000000000000000e+00 -0.000000000000000000e+00 -0.000000000000000000e+00 -0.000000000000000000e+00 -0.000000000000000000e+00 -0.000000000000000000e+00 -1.163750000000000062e+00
0.000000000000000000e+00 0.000000000000000000e+00 6.124999999999999334e-01 0.000000000000000000e+00 0.000000000000000000e+00 0.000000000000000000e+00 6.124999999999999334e-01 0.000000000000000000e+00 0.000000000000000000e+00 0.000000000000000000e+00 -1.000000000000000000e+00 0.000000000000000000e+00 0.000000000000000000e+00 6.124999999999999334e-01 0.000000000000000000e+00 0.000000000000000000e+00 0.000000000000000000e+00 0.000000000000000000e+00 6.124999999999999334e-01 6.124999999999999334e-01 0.000000000000000000e+00 0.000000000000000000e+00 0.000000000000000000e+00 0.000000000000000000e+00 0.000000000000000000e+00 0.000000000000000000e+00 0.000000000000000000e+00 0.000000000000000000e+00 0.000000000000000000e+00 0.000000000000000000e+00 0.000000000000000000e+00 0.000000000000000000e+00 0.000000000000000000e+00 0.000000000000000000e+00 0.000000000000000000e+00 0.000000000000000000e+00 0.000000000000000000e+00 0.000000000000000000e+00 0.000000000000000000e+00 0.000000000000000000e+00 0.000000000000000000e+00 6.124999999999999334e-01 0.000000000000000000e+00 0.000000000000000000e+00 0.000000000000000000e+00 0.000000000000000000e+00 0.000000000000000000e+00 0.000000000000000000e+00 0.000000000000000000e+00 0.000000000000000000e+00 6.124999999999999334e-01 -1.163750000000000062e+00 -0.000000000000000000e+00 -1.163750000000000062e+00 -1.163750000000000062e+00 -0.000000000000000000e+00 -0.000000000000000000e+00 -1.163750000000000062e+00 -0.000000000000000000e+00 -0.000000000000000000e+00 -1.163750000000000062e+00 -0.000000000000000000e+00 -0.000000000000000000e+00 -0.000000000000000000e+00
0.000000000000000000e+00 0.000000000000000000e+00 6.124999999999999334e-01 0.000000000000000000e+00 0.000000000000000000e+00 0.000000000000000000e+00 0.000000000000000000e+00 0.000000000000000000e+00 0.000000000000000000e+00 6.124999999999999334e-01 0.000000000000000000e+00 -1.000000000000000000e+00 0.000000000000000000e+00 0.000000000000000000e+00 0.000000000000000000e+00 0.000000000000000000e+00 6.124999999999999334e-01 0.000000000000000000e+00 0.000000000000000000e+00 0.000000000000000000e+00 0.000000000000000000e+00 0.000000000000000000e+00 0.000000000000000000e+00 0.000000000000000000e+00 0.000000000000000000e+00 6.124999999999999334e-01 0.000000000000000000e+00 0.000000000000000000e+00 0.000000000000000000e+00 0.000000000000000000e+00 0.000000000000000000e+00 6.124999999999999334e-01 6.124999999999999334e-01 0.000000000000000000e+00 6.124999999999999334e-01 6.124999999999999334e-01 0.000000000000000000e+00 0.000000000000000000e+00 6.124999999999999334e-01 0.000000000000000000e+00 0.000000000000000000e+00 6.124999999999999334e-01 0.000000000000000000e+00 0.000000000000000000e+00 0.000000000000000000e+00 0.000000000000000000e+00 0.000000000000000000e+00 6.124999999999999334e-01 0.000000000000000000e+00 6.124999999999999334e-01 0.000000000000000000e+00 -1.163750000000000062e+00 -0.000000000000000000e+00 -1.163750000000000062e+00 -0.000000000000000000e+00 -1.163750000000000062e+00 -0.000000000000000000e+00 -1.163750000000000062e+00 -1.163750000000000062e+00 -1.163750000000000062e+00 -0.000000000000000000e+00 -1.163750000000000062e+00 -0.000000000000000000e+00 -1.163750000000000062e+00
0.000000000000000000e+00 0.000000000000000000e+00 6.124999999999999334e-01 0.000000000000000000e+00 6.124999999999999334e-01 0.000000000000000000e+00 6.124999999999999334e-01 0.000000000000000000e+00 0.000000000000000000e+00 0.000000000000000000e+00 0.000000000000000000e+00 0.000000000000000000e+00 -1.000000000000000000e+00 0.000000000000000000e+00 6.124999999999999334e-01 0.000000000000000000e+00 0.000000000000000000e+00 0.000000000000000000e+00 0.000000000000000000e+00 0.000000000000000000e+00 0.000000000000000000e+00 0.000000000000000000e+00 0.000000000000000000e+00 0.000000000000000000e+00 0.000000000000000000e+00 6.124999999999999334e-01 0.000000000000000000e+00 0.000000000000000000e+00 0.000000000000000000e+00 6.124999999999999334e-01 6.124999999999999334e-01 0.000000000000000000e+00 0.000000000000000000e+00 0.000000000000000000e+00 0.000000000000000000e+00 0.000000000000000000e+00 0.000000000000000000e+00 0.000000000000000000e+00 0.000000000000000000e+00 0.000000000000000000e+00 0.000000000000000000e+00 0.000000000000000000e+00 0.000000000000000000e+00 0.000000000000000000e+00 0.000000000000000000e+00 0.000000000000000000e+00 0.000000000000000000e+00 0.000000000000000000e+00 0.000000000000000000e+00 0.000000000000000000e+00 0.000000000000000000e+00 -0.000000000000000000e+00 -1.163750000000000062e+00 -0.000000000000000000e+00 -1.163750000000000062e+00 -0.000000000000000000e+00 -0.000000000000000000e+00 -0.000000000000000000e+00 -1.163750000000000062e+00 -1.163750000000000062e+00 -0.000000000000000000e+00 -1.163750000000000062e+00 -0.000000000000000000e+00 -0.000000000000000000e+00
0.000000000000000000e+00 0.000000000000000000e+00 0.000000000000000000e+00 0.000000000000000000e+00 0.000000000000000000e+00 6.124999999999999334e-01 0.000000000000000000e+00 0.000000000000000000e+00 0.000000000000000000e+00 0.000000000000000000e+00 0.000000000000000000e+00 0.000000000000000000e+00 0.000000000000000000e+00 -1.000000000000000000e+00 0.000000000000000000e+00 6.124999999999999334e-01 0.000000000000000000e+00 0.000000000000000000e+00 0.000000000000000000e+00 0.000000000000000000e+00 0.000000000000000000e+00 0.000000000000000000e+00 0.000000000000000000e+00 0.000000000000000000e+00 6.124999999999999334e-01 0.000000000000000000e+00 0.000000000000000000e+00 0.000000000000000000e+00 0.000000000000000000e+00 0.000000000000000000e+00 0.000000000000000000e+00 0.000000000000000000e+00 0.000000000000000000e+00 0.000000000000000000e+00 6.124999999999999334e-01 0.000000000000000000e+00 0.000000000000000000e+00 0.000000000000000000e+00 0.000000000000000000e+00 6.124999999999999334e-01 6.124999999999999334e-01 0.000000000000000000e+00 0.000000000000000000e+00 0.000000000000000000e+00 0.000000000000000000e+00 0.000000000000000000e+00 6.124999999999999334e-01 0.000000000000000000e+00 0.000000000000000000e+00 0.000000000000000000e+00 0.000000000000000000e+00 -0.000000000000000000e+00 -0.000000000000000000e+00 -0.000000000000000000e+00 -1.163750000000000062e+00 -0.000000000000000000e+00 -0.000000000000000000e+00 -0.000000000000000000e+00 -0.000000000000000000e+00 -1.163750000000000062e+00 -1.163750000000000062e+00 -1.163750000000000062e+00 -0.000000000000000000e+00 -1.163750000000000062e+00
0.000000000000000000e+00 0.000000000000000000e+00 6.124999999999999334e-01 0.000000000000000000e+00 0.000000000000000000e+00 0.000000000000000000e+00 0.000000000000000000e+00 0.000000000000000000e+00 6.124999999999999334e-01 0.000000000000000000e+00 6.124999999999999334e-01 6.124999999999999334e-01 0.000000000000000000e+00 0.000000000000000000e+00 -1.000000000000000000e+00 0.000000000000000000e+00 0.000000000000000000e+00 0.000000000000000000e+00 0.000000000000000000e+00 6.124999999999999334e-01 0.000000000000000000e+00 6.124999999999999334e-01 0.000000000000000000e+00 0.000000000000000000e+00 0.000000000000000000e+00 6.124999999999999334e-01 0.000000000000000000e+00 6.124999999999999334e-01 0.000000000000000000e+00 6.124999999999999334e-01 0.000000000000000000e+00 0.000000000000000000e+00 0.000000000000000000e+00 0.000000000000000000e+00 6.124999999999999334e-01 0.000000000000000000e+00 0.000000000000000000e+00 0.000000000000000000e+00 0.000000000000000000e+00 0.000000000000000000e+00 0.000000000000000000e+00 0.000000000000000000e+00 6.124999999999999334e-01 0.000000000000000000e+00 0.000000000000000000e+00 0.000000000000000000e+00 0.000000000000000000e+00 0.000000000000000000e+00 0.000000000000000000e+00 0.000000000000000000e+00 6.124999999999999334e-01 -0.000000000000000000e+00 -0.000000000000000000e+00 -0.000000000000000000e+00 -1.163750000000000062e+00 -1.163750000000000062e+00 -1.163750000000000062e+00 -1.163750000000000062e+00 -1.163750000000000062e+00 -0.000000000000000000e+00 -0.000000000000000000e+00 -0.000000000000000000e+00 -0.000000000000000000e+00 -1.163750000000000062e+00
6.124999999999999334e-01 0.000000000000000000e+00 0.000000000000000000e+00 0.000000000000000000e+00 0.000000000000000000e+00 0.000000000000000000e+00 0.000000000000000000e+00 0.000000000000000000e+00 0.000000000000000000e+00 6.124999999999999334e-01 6.124999999999999334e-01 0.000000000000000000e+00 6.124999999999999334e-01 0.000000000000000000e+00 0.000000000000000000e+00 -1.000000000000000000e+00 6.124999999999999334e-01 6.124999999999999334e-01 0.000000000000000000e+00 0.000000000000000000e+00 0.000000000000000000e+00 0.000000000000000000e+00 0.000000000000000000e+00 0.000000000000000000e+00 0.000000000000000000e+00 0.000000000000000000e+00 0.000000000000000000e+00 0.000000000000000000e+00 0.000000000000000000e+00 0.000000000000000000e+00 0.000000000000000000e+00 0.000000000000000000e+00 6.124999999999999334e-01 0.000000000000000000e+00 0.000000000000000000e+00 0.000000000000000000e+00 0.000000000000000000e+00 6.124999999999999334e-01 0.000000000000000000e+00 6.124999999999999334e-01 0.000000000000000000e+00 0.000000000000000000e+00 0.000000000000000000e+00 0.000000000000000000e+00 0.000000000000000000e+00 0.000000000000000000e+00 0.000000000000000000e+00 0.000000000000000000e+00 6.124999999999999334e-01 6.124999999999999334e-01 0.000000000000000000e+00 -1.163750000000000062e+00 -1.163750000000000062e+00 -0.000000000000000000e+00 -0.000000000000000000e+00 -0.000000000000000000e+00 -0.000000000000000000e+00 -1.163750000000000062e+00 -0.000000000000000000e+00 -0.000000000000000000e+00 -0.000000000000000000e+00 -1.163750000000000062e+00 -0.000000000000000000e+00 -0.000000000000000000e+00
0.000000000000000000e+00 0.000000000000000000e+00 0.000000000000000000e+00 0.000000000000000000e+00 6.124999999999999334e-01 6.124999999999999334e-01 0.000000000000000000e+00 0.000000000000000000e+00 0.000000000000000000e+00 0.000000000000000000e+00 0.000000000000000000e+00 0.000000000000000000e+00 0.000000000000000000e+00 0.000000000000000000e+00 0.000000000000000000e+00 0.000000000000000000e+00 -1.000000000000000000e+00 0.000000000000000000e+00 0.000000000000000000e+00 0.000000000000000000e+00 0.000000000000000000e+00 6.124999999999999334e-01 6.124999999999999334e-01 0.000000000000000000e+00 0.000000000000000000e+00 0.000000000000000000e+00 6.124999999999999334e-01 0.000000000000000000e+00 6.124999999999999334e-01 0.000000000000000000e+00 0.000000000000000000e+00 0.000000000000000000e+00 0.000000000000000000e+00 6.124999999999999334e-01 6.124999999999999334e-01 0.000000000000000000e+00 6.124999999999999334e-01 0.000000000000000000e+00 0.000000000000000000e+00 6.124999999999999334e-01 0.000000000000000000e+00 0.000000000000000000e+00 0.000000000000000000e+00 0.000000000000000000e+00 0.000000000000000000e+00 0.000000000000000000e+00 0.000000000000000000e+00 0.000000000000000000e+00 0.000000000000000000e+00 0.000000000000000000e+00 0.000000000000000000e+00 -1.163750000000000062e+00 -0.000000000000000000e+00 -1.163750000000000062e+00 -0.000000000000000000e+00 -1.163750000000000062e+00 -0.000000000000000000e+00 -0.000000000000000000e+00 -1.163750000000000062e+00 -0.000000000000000000e+00 -1.163750000000000062e+00 -0.000000000000000000e+00 -1.163750000000000062e+00 -0.000000000000000000e+00
6.124999999999999334e-01 6.124999999999999334e-01 0.000000000000000000e+00 0.000000000000000000e+00 0.000000000000000000e+00 6.124999999999999334e-01 0.000000000000000000e+00 6.124999999999999334e-01 0.000000000000000000e+00 0.000000000000000000e+00 0.000000000000000000e+00 6.124999999999999334e-01 0.000000000000000000e+00 0.000000000000000000e+00 0.000000000000000000e+00 0.000000000000000000e+00 0.000000000000000000e+00 -1.000000000000000000e+00 0.000000000000000000e+00 0.000000000000000000e+00 0.000000000000000000e+00 0.000000000000000000e+00 0.000000000000000000e+00 0.000000000000000000e+00 6.124999999999999334e-01 0.000000000000000000e+00 0.000000000000000000e+00 0.000000000000000000e+00 0.000000000000000000e+00 0.000000000000000000e+00 0.000000000000000000e+00 0.000000000000000000e+00 0.000000000000000000e+00 0.000000000000000000e+00 0.000000000000000000e+00 0.000000000000000000e+00 0.000000000000000000e+00 0.000000000000000000e+00 0.000000000000000000e+00 0.000000000000000000e+00 0.000000000000000000e+00 0.000000000000000000e+00 0.000000000000000000e+00 6.124999999999999334e-01 0.000000000000000000e+00 0.000000000000000000e+00 0.000000000000000000e+00 0.000000000000000000e+00 0.000000000000000000e+00 6.124999999999999334e-01 0.000000000000000000e+00 -0.000000000000000000e+00 -1.163750000000000062e+00 -1.163750000000000062e+00 -0.000000000000000000e+00 -0.000000000000000000e+00 -1.163750000000000062e+00 -0.000000000000000000e+00 -0.000000000000000000e+00 -1.163750000000000062e+00 -0.000000000000000000e+00 -1.163750000000000062e+00 -1.163750000000000062e+00 -1.163750000000000062e+00
0.000000000000000000e+00 0.000000000000000000e+00 0.000000000000000000e+00 6.124999999999999334e-01 0.000000000000000000e+00 0.000000000000000000e+00 0.000000000000000000e+00 0.000000000000000000e+00 0.000000000000000000e+00 0.000000000000000000e+00 6.124999999999999334e-01 0.000000000000000000e+00 0.000000000000000000e+00 0.000000000000000000e+00 6.124999999999999334e-01 0.000000000000000000e+00 0.000000000000000000e+00 0.000000000000000000e+00 -1.000000000000000000e+00 0.000000000000000000e+00 0.000000000000000000e+00 0.000000000000000000e+00 6.124999999999999334e-01 0.000000000000000000e+00 0.000000000000000000e+00 0.000000000000000000e+00 6.124999999999999334e-01 0.000000000000000000e+00 0.000000000000000000e+00 6.124999999999999334e-01 0.000000000000000000e+00 0.000000000000000000e+00 0.000000000000000000e+00 6.124999999999999334e-01 6.124999999999999334e-01 0.000000000000000000e+00 0.000000000000000000e+00 0.000000000000000000e+00 0.000000000000000000e+00 6.124999999999999334e-01 6.124999999999999334e-01 6.124999999999999334e-01 0.000000000000000000e+00 6.124999999999999334e-01 0.000000000000000000e+00 0.000000000000000000e+00 6.124999999999999334e-01 0.000000000000000000e+00 0.000000000000000000e+00 0.000000000000000000e+00 0.000000000000000000e+00 -0.000000000000000000e+00 -0.000000000000000000e+00 -0.000000000000000000e+00 -1.163750000000000062e+00 -1.163750000000000062e+00 -0.000000000000000000e+00 -1.163750000000000062e+00 -0.000000000000000000e+00 -0.000000000000000000e+00 -0.000000000000000000e+00 -0.000000000000000000e+00 -0.000000000000000000e+00 -0.000000000000000000e+00
0.000000000000000000e+00 0.000000000000000000e+00 0.000000000000000000e+00 0.000000000000000000e+00 0.000000000000000000e+00 0.000000000000000000e+00 0.000000000000000000e+00 0.000000000000000000e+00 6.124999999999999334e-01 0.000000000000000000e+00 0.000000000000000000e+00 0.000000000000000000e+00 0.000000000000000000e+00 0.000000000000000000e+00 0.000000000000000000e+00 0.000000000000000000e+00 0.000000000000000000e+00 6.124999999999999334e-01 0.000000000000000000e+00 -1.000000000000000000e+00 0.000000000000000000e+00 0.000000000000000000e+00 6.124999999999999334e-01 0.000000000000000000e+00 0.000000000000000000e+00 0.000000000000000000e+00 0.000000000000000000e+00 0.000000000000000000e+00 0.000000000000000000e+00 0.000000000000000000e+00 0.000000000000000000e+00 0.000000000000000000e+00 0.000000000000000000e+00 0.000000000000000000e+00 6.124999999999999334e-01 0.000000000000000000e+00 0.000000000000000000e+00 0.000000000000000000e+00 0.000000000000000000e+00 6.124999999999999334e-01 0.000000000000000000e+00 0.000000000000000000e+00 6.124999999999999334e-01 0.000000000000000000e+00 6.124999999999999334e-01 0.000000000000000000e+00 0.000000000000000000e+00 6.124999999999999334e-01 6.124999999999999334e-01 6.124999999999999334e-01 6.124999999999999334e-01 -1.163750000000000062e+00 -0.000000000000000000e+00 -1.163750000000000062e+00 -1.163750000000000062e+00 -0.000000000000000000e+00 -1.163750000000000062e+00 -1.163750000000000062e+00 -0.000000000000000000e+00 -0.000000000000000000e+00 -0.000000000000000000e+00 -1.163750000000000062e+00 -1.163750000000000062e+00 -0.000000000000000000e+00
0.000000000000000000e+00 0.000000000000000000e+00 0.000000000000000000e+00 0.000000000000000000e+00 0.000000000000000000e+00 0.000000000000000000e+00 0.000000000000000000e+00 0.000000000000000000e+00 0.000000000000000000e+00 0.000000000000000000e+00 0.000000000000000000e+00 0.000000000000000000e+00 0.000000000000000000e+00 0.000000000000000000e+00 0.000000000000000000e+00 0.000000000000000000e+00 0.000000000000000000e+00 0.000000000000000000e+00 0.000000000000000000e+00 0.000000000000000000e+00 -1.000000000000000000e+00 0.000000000000000000e+00 0.000000000000000000e+00 6.124999999999999334e-01 0.000000000000000000e+00 0.000000000000000000e+00 0.000000000000000000e+00 0.000000000000000000e+00 0.000000000000000000e+00 0.000000000000000000e+00 0.000000000000000000e+00 0.000000000000000000e+00 0.000000000000000000e+00 0.000000000000000000e+00 0.000000000000000000e+00 0.000000000000000000e+00 0.000000000000000000e+00 0.000000000000000000e+00 0.000000000000000000e+00 0.000000000000000000e+00 0.000000000000000000e+00 0.000000000000000000e+00 0.000000000000000000e+00 0.000000000000000000e+00 6.124999999999999334e-01 0.000000000000000000e+00 0.000000000000000000e+00 0.000000000000000000e+00 0.000000000000000000e+00 6.124999999999999334e-01 0.000000000000000000e+00 -1.163750000000000062e+00 -1.163750000000000062e+00 -1.163750000000000062e+00 -1.163750000000000062e+00 -1.163750000000000062e+00 -0.000000000000000000e+00 -0.000000000000000000e+00 -0.000000000000000000e+00 -1.163750000000000062e+00 -1.163750000000000062e+00 -1.163750000000000062e+00 -0.000000000000000000e+00 -1.163750000000000062e+00
0.000000000000000000e+00 0.000000000000000000e+00 0.000000000000000000e+00 0.000000000000000000e+00 6.124999999999999334e-01 6.124999999999999334e-01 0.000000000000000000e+00 0.000000000000000000e+00 6.124999999999999334e-01 0.000000000000000000e+00 0.000000000000000000e+00 0.000000000000000000e+00 0.000000000000000000e+00 6.124999999999999334e-01 0.000000000000000000e+00 0.000000000000000000e+00 0.000000000000000000e+00 0.000000000000000000e+00 0.000000000000000000e+00 0.000000000000000000e+00 6.124999999999999334e-01 -1.000000000000000000e+00 0.000000000000000000e+00 0.000000000000000000e+00 0.000000000000000000e+00 0.000000000000000000e+00 0.000000000000000000e+00 0.000000000000000000e+00 0.000000000000000000e+00 0.000000000000000000e+00 6.124999999999999334e-01 0.000000000000000000e+00 6.124999999999999334e-01 0.000000000000000000e+00 0.000000000000000000e+00 0.000000000000000000e+00 0.000000000000000000e+00 0.000000000000000000e+00 6.124999999999999334e-01 6.124999999999999334e-01 0.000000000000000000e+00 0.000000000000000000e+00 0.000000000000000000e+00 0.000000000000000000e+00 6.124999999999999334e-01 0.000000000000000000e+00 0.000000000000000000e+00 0.000000000000000000e+00 0.000000000000000000e+00 0.000000000000000000e+00 6.124999999999999334e-01 -0.000000000000000000e+00 -1.163750000000000062e+00 -1.163750000000000062e+00 -1.163750000000000062e+00 -0.000000000000000000e+00 -0.000000000000000000e+00 -0.000000000000000000e+00 -1.163750000000000062e+00 -1.163750000000000062e+00 -0.000000000000000000e+00 -0.000000000000000000e+00 -0.000000000000000000e+00 -1.163750000000000062e+00
0.000000000000000000e+00 0.000000000000000000e+00 6.124999999999999334e-01 0.000000000000000000e+00 6.124999999999999334e-01 0.000000000000000000e+00 0.000000000000000000e+00 6.124999999999999334e-01 0.000000000000000000e+00 6.124999999999999334e-01 0.000000000000000000e+00 0.000000000000000000e+00 0.000000000000000000e+00 0.000000000000000000e+00 6.124999999999999334e-01 0.000000000000000000e+00 0.000000000000000000e+00 0.000000000000000000e+00 0.000000000000000000e+00 0.000000000000000000e+00 0.000000000000000000e+00 0.000000000000000000e+00 -1.000000000000000000e+00 0.000000000000000000e+00 6.124999999999999334e-01 0.000000000000000000e+00 0.000000000000000000e+00 0.000000000000000000e+00 0.000000000000000000e+00 0.000000000000000000e+00 6.124999999999999334e-01 0.000000000000000000e+00 0.000000000000000000e+00 0.000000000000000000e+00 0.000000000000000000e+00 0.000000000000000000e+00 6.124999999999999334e-01 0.000000000000000000e+00 0.000000000000000000e+00 0.000000000000000000e+00 0.000000000000000000e+00 6.124999999999999334e-01 6.124999999999999334e-01 0.000000000000000000e+00 0.000000000000000000e+00 0.000000000000000000e+00 0.000000000000000000e+00 0.000000000000000000e+00 0.000000000000000000e+00 0.000000000000000000e+00 6.124999999999999334e-01 -0.000000000000000000e+00 -0.000000000000000000e+00 -0.000000000000000000e+00 -0.000000000000000000e+00 -1.163750000000000062e+00 -1.163750000000000062e+00 -0.000000000000000000e+00 -0.000000000000000000e+00 -0.000000000000000000e+00 -1.163750000000000062e+00 -1.163750000000000062e+00 -0.000000000000000000e+00 -0.000000000000000000e+00
0.000000000000000000e+00 0.000000000000000000e+00 0.000000000000000000e+00 0.000000000000000000e+00 6.124999999999999334e-01 0.000000000000000000e+00 0.000000000000000000e+00 0.000000000000000000e+00 0.000000000000000000e+00 0.000000000000000000e+00 0.000000000000000000e+00 0.000000000000000000e+00 6.124999999999999334e-01 0.000000000000000000e+00 6.124999999999999334e-01 0.000000000000000000e+00 0.000000000000000000e+00 0.000000000000000000e+00 0.000000000000000000e+00 6.124999999999999334e-01 0.000000000000000000e+00 0.000000000000000000e+00 6.124999999999999334e-01 -1.000000000000000000e+00 0.000000000000000000e+00 0.000000000000000000e+00 6.124999999999999334e-01 0.000000000000000000e+00 0.000000000000000000e+00 6.124999999999999334e-01 0.000000000000000000e+00 0.000000000000000000e+00 6.124999999999999334e-01 0.000000000000000000e+00 0.000000000000000000e+00 0.000000000000000000e+00 0.000000000000000000e+00 0.000000000000000000e+00 6.124999999999999334e-01 0.000000000000000000e+00 0.000000000000000000e+00 0.000000000000000000e+00 0.000000000000000000e+00 6.124999999999999334e-01 0.000000000000000000e+00 0.000000000000000000e+00 0.000000000000000000e+00 6.124999999999999334e-01 0.000000000000000000e+00 0.000000000000000000e+00 0.000000000000000000e+00 -0.000000000000000000e+00 -1.163750000000000062e+00 -1.163750000000000062e+00 -1.163750000000000062e+00 -0.000000000000000000e+00 -1.163750000000000062e+00 -1.163750000000000062e+00 -0.000000000000000000e+00 -0.000000000000000000e+00 -1.163750000000000062e+00 -1.163750000000000062e+00 -1.163750000000000062e+00 -0.000000000000000000e+00
0.000000000000000000e+00 0.000000000000000000e+00 0.000000000000000000e+00 0.000000000000000000e+00 6.124999999999999334e-01 0.000000000000000000e+00 0.000000000000000000e+00 0.000000000000000000e+00 0.000000000000000000e+00 0.000000000000000000e+00 6.124999999999999334e-01 0.000000000000000000e+00 0.000000000000000000e+00 6.124999999999999334e-01 0.000000000000000000e+00 0.000000000000000000e+00 0.000000000000000000e+00 6.124999999999999334e-01 0.000000000000000000e+00 0.000000000000000000e+00 0.000000000000000000e+00 0.000000000000000000e+00 0.000000000000000000e+00 0.000000000000000000e+00 -1.000000000000000000e+00 0.000000000000000000e+00 6.124999999999999334e-01 0.000000000000000000e+00 0.000000000000000000e+00 0.000000000000000000e+00 0.000000000000000000e+00 0.000000000000000000e+00 0.000000000000000000e+00 0.000000000000000000e+00 6.124999999999999334e-01 0.000000000000000000e+00 0.000000000000000000e+00 6.124999999999999334e-01 0.000000000000000000e+00 0.000000000000000000e+00 0.000000000000000000e+00 0.000000000000000000e+00 6.124999999999999334e-01 0.000000000000000000e+00 0.000000000000000000e+00 0.000000000000000000e+00 6.124999999999999334e-01 0.000000000000000000e+00 0.000000000000000000e+00 0.000000000000000000e+00 0.000000000000000000e+00 -1.163750000000000062e+00 -0.000000000000000000e+00 -1.163750000000000062e+00 -0.000000000000000000e+00 -1.163750000000000062e+00 -1.163750000000000062e+00 -0.000000000000000000e+00 -1.163750000000000062e+00 -0.000000000000000000e+00 -1.163750000000000062e+00 -1.163750000000000062e+00 -1.163750000000000062e+00 -0.000000000000000000e+00
0.000000000000000000e+00 0.000000000000000000e+00 0.000000000000000000e+00 0.000000000000000000e+00 0.000000000000000000e+00 0.000000000000000000e+00 6.124999999999999334e-01 0.000000000000000000e+00 0.000000000000000000e+00 0.000000000000000000e+00 0.000000000000000000e+00 0.000000000000000000e+00 0.000000000000000000e+00 0.000000000000000000e+00 0.000000000000000000e+00 0.000000000000000000e+00 6.124999999999999334e-01 0.000000000000000000e+00 0.000000000000000000e+00 0.000000000000000000e+00 0.000000000000000000e+00 0.000000000000000000e+00 0.000000000000000000e+00 0.000000000000000000e+00 0.000000000000000000e+00 -1.000000000000000000e+00 0.000000000000000000e+00 0.000000000000000000e+00 0.000000000000000000e+00 0.000000000000000000e+00 6.124999999999999334e-01 0.000000000000000000e+00 0.000000000000000000e+00 0.000000000000000000e+00 0.000000000000000000e+00 0.000000000000000000e+00 0.000000000000000000e+00 6.124999999999999334e-01 0.000000000000000000e+00 0.000000000000000000e+00 0.000000000000000000e+00 0.000000000000000000e+00 6.124999999999999334e-01 6.124999999999999334e-01 0.000000000000000000e+00 6.124999999999999334e-01 0.000000000000000000e+00 6.124999999999999334e-01 0.000000000000000000e+00 6.124999999999999334e-01 6.124999999999999334e-01 -1.163750000000000062e+00 -0.000000000000000000e+00 -1.163750000000000062e+00 -0.000000000000000000e+00 -0.000000000000000000e+00 -0.000000000000000000e+00 -1.163750000000000062e+00 -1.163750000000000062e+00 -1.163750000000000062e+00 -1.163750000000000062e+00 -0.000000000000000000e+00 -1.163750000000000062e+00 -0.000000000000000000e+00
0.000000000000000000e+00 6.124999999999999334e-01 0.000000000000000000e+00 0.000000000000000000e+00 0.000000000000000000e+00 6.124999999999999334e-01 6.124999999999999334e-01 0.000000000000000000e+00 0.000000000000000000e+00 0.000000000000000000e+00 0.000000000000000000e+00 0.000000000000000000e+00 0.000000000000000000e+00 0.000000000000000000e+00 6.124999999999999334e-01 0.000000000000000000e+00 0.000000000000000000e+00 0.000000000000000000e+00 0.000000000000000000e+00 0.000000000000000000e+00 0.000000000000000000e+00 6.124999999999999334e-01 0.000000000000000000e+00 0.000000000000000000e+00 0.000000000000000000e+00 0.000000000000000000e+00 -1.000000000000000000e+00 0.000000000000000000e+00 0.000000000000000000e+00 0.000000000000000000e+00 0.000000000000000000e+00 0.000000000000000000e+00 0.000000000000000000e+00 0.000000000000000000e+00 6.124999999999999334e-01 0.000000000000000000e+00 0.000000000000000000e+00 6.124999999999999334e-01 0.000000000000000000e+00 6.124999999999999334e-01 0.000000000000000000e+00 0.000000000000000000e+00 0.000000000000000000e+00 0.000000000000000000e+00 0.000000000000000000e+00 6.124999999999999334e-01 0.000000000000000000e+00 0.000000000000000000e+00 0.000000000000000000e+00 0.000000000000000000e+00 0.000000000000000000e+00 -0.000000000000000000e+00 -1.163750000000000062e+00 -1.163750000000000062e+00 -1.163750000000000062e+00 -1.163750000000000062e+00 -1.163750000000000062e+00 -1.163750000000000062e+00 -1.163750000000000062e+00 -0.000000000000000000e+00 -0.000000000000000000e+00 -1.163750000000000062e+00 -1.163750000000000062e+00 -0.000000000000000000e+00
6.124999999999999334e-01 6.124999999999999334e-01 6.124999999999999334e-01 6.124999999999999334e-01 0.000000000000000000e+00 0.000000000000000000e+00 0.000000000000000000e+00 0.000000000000000000e+00 0.000000000000000000e+00 6.124999999999999334e-01 0.000000000000000000e+00 0.000000000000000000e+00 0.000000000000000000e+00 0.000000000000000000e+00 0.000000000000000000e+00 0.000000000000000000e+00 6.124999999999999334e-01 0.000000000000000000e+00 0.000000000000000000e+00 0.000000000000000000e+00 0.000000000000000000e+00 0.000000000000000000e+00 0.000000000000000000e+00 0.000000000000000000e+00 0.000000000000000000e+00 0.000000000000000000e+00 0.000000000000000000e+00 -1.000000000000000000e+00 6.124999999999999334e-01 6.124999999999999334e-01 0.000000000000000000e+00 0.000000000000000000e+00 0.000000000000000000e+00 6.124999999999999334e-01 0.000000000000000000e+00 6.124999999999999334e-01 6.124999999999999334e-01 0.000000000000000000e+00 6.124999999999999334e-01 0.000000000000000000e+00 0.000000000000000000e+00 6.124999999999999334e-01 0.000000000000000000e+00 0.000000000000000000e+00 6.124999999999999334e-01 0.000000000000000000e+00 0.000000000000000000e+00 0.000000000000000000e+00 0.000000000000000000e+00 6.124999999999999334e-01 0.000000000000000000e+00 -1.163750000000000062e+00 -1.163750000000000062e+00 -1.163750000000000062e+00 -1.163750000000000062e+00 -1.163750000000000062e+00 -1.163750000000000062e+00 -1.163750000000000062e+00 -0.000000000000000000e+00 -0.000000000000000000e+00 -0.000000000000000000e+00 -0.000000000000000000e+00 -1.163750000000000062e+00 -1.163750000000000062e+00
0.000000000000000000e+00 6.124999999999999334e-01 0.000000000000000000e+00 0.000000000000000000e+00 6.124999999999999334e-01 6.124999999999999334e-01 6.124999999999999334e-01 0.000000000000000000e+00 0.000000000000000000e+00 6.124999999999999334e-01 0.000000000000000000e+00 6.124999999999999334e-01 6.124999999999999334e-01 6.124999999999999334e-01 0.000000000000000000e+00 0.000000000000000000e+00 0.000000000000000000e+00 0.000000000000000000e+00 0.000000000000000000e+00 0.000000000000000000e+00 0.000000000000000000e+00 0.000000000000000000e+00 0.000000000000000000e+00 6.124999999999999334e-01 0.000000000000000000e+00 0.000000000000000000e+00 6.124999999999999334e-01 0.000000000000000000e+00 -1.000000000000000000e+00 0.000000000000000000e+00 0.000000000000000000e+00 0.000000000000000000e+00 0.000000000000000000e+00 0.000000000000000000e+00 0.000000000000000000e+00 0.000000000000000000e+00 0.000000000000000000e+00 6.124999999999999334e-01 0.000000000000000000e+00 0.000000000000000000e+00 6.124999999999999334e-01 6.124999999999999334e-01 0.000000000000000000e+00 0.000000000000000000e+00 0.000000000000000000e+00 0.000000000000000000e+00 0.000000000000000000e+00 0.000000000000000000e+00 0.000000000000000000e+00 0.000000000000000000e+00 0.000000000000000000e+00 -1.163750000000000062e+00 -0.000000000000000000e+00 -0.000000000000000000e+00 -1.163750000000000062e+00 -1.163750000000000062e+00 -0.000000000000000000e+00 -1.163750000000000062e+00 -0.000000000000000000e+00 -0.000000000000000000e+00 -1.163750000000000062e+00 -1.163750000000000062e+00 -1.163750000000000062e+00 -1.163750000000000062e+00
0.000000000000000000e+00 0.000000000000000000e+00 0.000000000000000000e+00 0.000000000000000000e+00 0.000000000000000000e+00 0.000000000000000000e+00 0.000000000000000000e+00 0.000000000000000000e+00 0.000000000000000000e+00 0.000000000000000000e+00 0.000000000000000000e+00 0.000000000000000000e+00 0.000000000000000000e+00 0.000000000000000000e+00 0.000000000000000000e+00 0.000000000000000000e+00 0.000000000000000000e+00 0.000000000000000000e+00 6.124999999999999334e-01 0.000000000000000000e+00 6.124999999999999334e-01 0.000000000000000000e+00 0.000000000000000000e+00 0.000000000000000000e+00 0.000000000000000000e+00 6.124999999999999334e-01 0.000000000000000000e+00 0.000000000000000000e+00 0.000000000000000000e+00 -1.000000000000000000e+00 6.124999999999999334e-01 0.000000000000000000e+00 0.000000000000000000e+00 0.000000000000000000e+00 0.000000000000000000e+00 0.000000000000000000e+00 0.000000000000000000e+00 0.000000000000000000e+00 0.000000000000000000e+00 0.000000000000000000e+00 6.124999999999999334e-01 0.000000000000000000e+00 0.000000000000000000e+00 0.000000000000000000e+00 0.000000000000000000e+00 0.000000000000000000e+00 0.000000000000000000e+00 6.124999999999999334e-01 0.000000000000000000e+00 0.000000000000000000e+00 0.000000000000000000e+00 -0.000000000000000000e+00 -1.163750000000000062e+00 -0.000000000000000000e+00 -1.163750000000000062e+00 -0.000000000000000000e+00 -1.163750000000000062e+00 -0.000000000000000000e+00 -0.000000000000000000e+00 -0.000000000000000000e+00 -0.000000000000000000e+00 -1.163750000000000062e+00 -0.000000000000000000e+00 -1.163750000000000062e+00
6.124999999999999334e-01 6.124999999999999334e-01 0.000000000000000000e+00 0.000000000000000000e+00 0.000000000000000000e+00 0.000000000000000000e+00 0.000000000000000000e+00 0.000000000000000000e+00 0.000000000000000000e+00 0.000000000000000000e+00 0.000000000000000000e+00 0.000000000000000000e+00 0.000000000000000000e+00 0.000000000000000000e+00 0.000000000000000000e+00 0.000000000000000000e+00 0.000000000000000000e+00 0.000000000000000000e+00 0.000000000000000000e+00 0.000000000000000000e+00 0.000000000000000000e+00 0.000000000000000000e+00 6.124999999999999334e-01 0.000000000000000000e+00 0.000000000000000000e+00 0.000000000000000000e+00 0.000000000000000000e+00 0.000000000000000000e+00 6.124999999999999334e-01 0.000000000000000000e+00 -1.000000000000000000e+00 0.000000000000000000e+00 0.000000000000000000e+00 0.000000000000000000e+00 6.124999999999999334e-01 6.124999999999999334e-01 0.000000000000000000e+00 0.000000000000000000e+00 0.000000000000000000e+00 6.124999999999999334e-01 6.124999999999999334e-01 0.000000000000000000e+00 0.000000000000000000e+00 0.000000000000000000e+00 0.000000000000000000e+00 0.000000000000000000e+00 6.124999999999999334e-01 0.000000000000000000e+00 0.000000000000000000e+00 0.000000000000000000e+00 6.124999999999999334e-01 -1.163750000000000062e+00 -1.163750000000000062e+00 -0.000000000000000000e+00 -1.163750000000000062e+00 -1.163750000000000062e+00 -0.000000000000000000e+00 -1.163750000000000062e+00 -1.163750000000000062e+00 -0.000000000000000000e+00 -0.000000000000000000e+00 -1.163750000000000062e+00 -0.000000000000000000e+00 -1.163750000000000062e+00
0.000000000000000000e+00 0.000000000000000000e+00 0.000000000000000000e+00 0.000000000000000000e+00 0.000000000000000000e+00 6.124999999999999334e-01 6.124999999999999334e-01 0.000000000000000000e+00 0.000000000000000000e+00 0.000000000000000000e+00 0.000000000000000000e+00 0.000000000000000000e+00 6.124999999999999334e-01 0.000000000000000000e+00 0.000000000000000000e+00 0.000000000000000000e+00 0.000000000000000000e+00 0.000000000000000000e+00 0.000000000000000000e+00 0.000000000000000000e+00 0.000000000000000000e+00 0.000000000000000000e+00 0.000000000000000000e+00 0.000000000000000000e+00 0.000000000000000000e+00 6.124999999999999334e-01 0.000000000000000000e+00 0.000000000000000000e+00 0.000000000000000000e+00 6.124999999999999334e-01 0.000000000000000000e+00 -1.000000000000000000e+00 0.000000000000000000e+00 0.000000000000000000e+00 0.000000000000000000e+00 0.000000000000000000e+00 6.124999999999999334e-01 0.000000000000000000e+00 6.124999999999999334e-01 0.000000000000000000e+00 0.000000000000000000e+00 0.000000000000000000e+00 6.124999999999999334e-01 0.000000000000000000e+00 0.000000000000000000e+00 0.000000000000000000e+00 0.000000000000000000e+00 0.000000000000000000e+00 0.000000000000000000e+00 0.000000000000000000e+00 0.000000000000000000e+00 -0.000000000000000000e+00 -0.000000000000000000e+00 -0.000000000000000000e+00 -0.000000000000000000e+00 -1.163750000000000062e+00 -1.163750000000000062e+00 -0.000000000000000000e+00 -0.000000000000000000e+00 -1.163750000000000062e+00 -1.163750000000000062e+00 -0.000000000000000000e+00 -1.163750000000000062e+00 -1.163750000000000062e+00
0.000000000000000000e+00 0.000000000000000000e+00 0.000000000000000000e+00 0.000000000000000000e+00 0.000000000000000000e+00 0.000000000000000000e+00 0.000000000000000000e+00 0.000000000000000000e+00 0.000000000000000000e+00 0.000000000000000000e+00 0.000000000000000000e+00 0.000000000000000000e+00 0.000000000000000000e+00 0.000000000000000000e+00 0.000000000000000000e+00 6.124999999999999334e-01 0.000000000000000000e+00 0.000000000000000000e+00 6.124999999999999334e-01 0.000000000000000000e+00 0.000000000000000000e+00 0.000000000000000000e+00 0.000000000000000000e+00 6.124999999999999334e-01 0.000000000000000000e+00 0.000000000000000000e+00 0.000000000000000000e+00 0.000000000000000000e+00 6.124999999999999334e-01 0.000000000000000000e+00 0.000000000000000000e+00 0.000000000000000000e+00 -1.000000000000000000e+00 0.000000000000000000e+00 0.000000000000000000e+00 0.000000000000000000e+00 6.124999999999999334e-01 0.000000000000000000e+00 0.000000000000000000e+00 6.124999999999999334e-01 0.000000000000000000e+00 6.124999999999999334e-01 0.000000000000000000e+00 6.124999999999999334e-01 0.000000000000000000e+00 6.124999999999999334e-01 0.000000000000000000e+00 0.000000000000000000e+00 0.000000000000000000e+00 0.000000000000000000e+00 0.000000000000000000e+00 -0.000000000000000000e+00 -1.163750000000000062e+00 -1.163750000000000062e+00 -1.163750000000000062e+00 -1.163750000000000062e+00 -0.000000000000000000e+00 -1.163750000000000062e+00 -0.000000000000000000e+00 -0.000000000000000000e+00 -1.163750000000000062e+00 -1.163750000000000062e+00 -0.000000000000000000e+00 -0.000000000000000000e+00
0.000000000000000000e+00 0.000000000000000000e+00 0.000000000000000000e+00 0.000000000000000000e+00 6.124999999999999334e-01 0.000000000000000000e+00 0.000000000000000000e+00 6.124999999999999334e-01 0.000000000000000000e+00 6.124999999999999334e-01 6.124999999999999334e-01 0.000000000000000000e+00 0.000000000000000000e+00 0.000000000000000000e+00 0.000000000000000000e+00 0.000000000000000000e+00 0.000000000000000000e+00 0.000000000000000000e+00 6.124999999999999334e-01 6.124999999999999334e-01 0.000000000000000000e+00 0.000000000000000000e+00 0.000000000000000000e+00 0.000000000000000000e+00 0.000000000000000000e+00 0.000000000000000000e+00 6.124999999999999334e-01 0.000000000000000000e+00 0.000000000000000000e+00 0.000000000000000000e+00 6.124999999999999334e-01 0.000000000000000000e+00 0.000000000000000000e+00 -1.000000000000000000e+00 0.000000000000000000e+00 0.000000000000000000e+00 0.000000000000000000e+00 6.124999999999999334e-01 6.124999999999999334e-01 0.000000000000000000e+00 6.124999999999999334e-01 0.000000000000000000e+00 0.000000000000000000e+00 0.000000000000000000e+00 0.000000000000000000e+00 0.000000000000000000e+00 0.000000000000000000e+00 0.000000000000000000e+00 6.124999999999999334e-01 0.000000000000000000e+00 0.000000000000000000e+00 -1.163750000000000062e+00 -0.000000000000000000e+00 -0.000000000000000000e+00 -1.163750000000000062e+00 -0.000000000000000000e+00 -1.163750000000000062e+00 -0.000000000000000000e+00 -0.000000000000000000e+00 -1.163750000000000062e+00 -0.000000000000000000e+00 -1.163750000000000062e+00 -0.000000000000000000e+00 -1.163750000000000062e+00
0.000000000000000000e+00 0.000000000000000000e+00 0.000000000000000000e+00 0.000000000000000000e+00 0.000000000000000000e+00 0.000000000000000000e+00 0.000000000000000000e+00 0.000000000000000000e+00 0.000000000000000000e+00 0.000000000000000000e+00 0.000000000000000000e+00 0.000000000000000000e+00 6.124999999999999334e-01 0.000000000000000000e+00 0.000000000000000000e+00 0.000000000000000000e+00 0.000000000000000000e+00 0.000000000000000000e+00 0.000000000000000000e+00 0.000000000000000000e+00 0.000000000000000000e+00 0.000000000000000000e+00 0.000000000000000000e+00 6.124999999999999334e-01 6.124999999999999334e-01 0.000000000000000000e+00 6.124999999999999334e-01 6.124999999999999334e-01 0.000000000000000000e+00 0.000000000000000000e+00 0.000000000000000000e+00 6.124999999999999334e-01 0.000000000000000000e+00 0.000000000000000000e+00 -1.000000000000000000e+00 6.124999999999999334e-01 0.000000000000000000e+00 0.000000000000000000e+00 0.000000000000000000e+00 0.000000000000000000e+00 0.000000000000000000e+00 0.000000000000000000e+00 0.000000000000000000e+00 0.000000000000000000e+00 0.000000000000000000e+00 0.000000000000000000e+00 0.000000000000000000e+00 0.000000000000000000e+00 0.000000000000000000e+00 0.000000000000000000e+00 6.124999999999999334e-01 -1.163750000000000062e+00 -1.163750000000000062e+00 -0.000000000000000000e+00 -0.000000000000000000e+00 -1.163750000000000062e+00 -0.000000000000000000e+00 -0.000000000000000000e+00 -0.000000000000000000e+00 -1.163750000000000062e+00 -0.000000000000000000e+00 -0.000000000000000000e+00 -1.163750000000000062e+00 -0.000000000000000000e+00
0.000000000000000000e+00 0.000000000000000000e+00 0.000000000000000000e+00 0.000000000000000000e+00 0.000000000000000000e+00 0.000000000000000000e+00 0.000000000000000000e+00 0.000000000000000000e+00 6.124999999999999334e-01 0.000000000000000000e+00 0.000000000000000000e+00 0.000000000000000000e+00 0.000000000000000000e+00 0.000000000000000000e+00 0.000000000000000000e+00 0.000000000000000000e+00 0.000000000000000000e+00 0.000000000000000000e+00 0.000000000000000000e+00 0.000000000000000000e+00 0.000000000000000000e+00 0.000000000000000000e+00 0.000000000000000000e+00 0.000000000000000000e+00 0.000000000000000000e+00 0.000000000000000000e+00 0.000000000000000000e+00 6.124999999999999334e-01 6.124999999999999334e-01 0.000000000000000000e+00 0.000000000000000000e+00 0.000000000000000000e+00 0.000000000000000000e+00 0.000000000000000000e+00 6.124999999999999334e-01 -1.000000000000000000e+00 6.124999999999999334e-01 0.000000000000000000e+00 6.124999999999999334e-01 0.000000000000000000e+00 0.000000000000000000e+00 6.124999999999999334e-01 0.000000000000000000e+00 0.000000000000000000e+00 0.000000000000000000e+00 6.124999999999999334e-01 0.000000000000000000e+00 6.124999999999999334e-01 0.000000000000000000e+00 0.000000000000000000e+00 6.124999999999999334e-01 -1.163750000000000062e+00 -0.000000000000000000e+00 -0.000000000000000000e+00 -1.163750000000000062e+00 -1.163750000000000062e+00 -1.163750000000000062e+00 -0.000000000000000000e+00 -1.163750000000000062e+00 -0.000000000000000000e+00 -0.000000000000000000e+00 -1.163750000000000062e+00 -1.163750000000000062e+00 -0.000000000000000000e+00
6.124999999999999334e-01 0.000000000000000000e+00 0.000000000000000000e+00 0.000000000000000000e+00 0.000000000000000000e+00 6.124999999999999334e-01 0.000000000000000000e+00 0.000000000000000000e+00 0.000000000000000000e+00 0.000000000000000000e+00 6.124999999999999334e-01 0.000000000000000000e+00 0.000000000000000000e+00 0.000000000000000000e+00 6.124999999999999334e-01 0.000000000000000000e+00 0.000000000000000000e+00 0.000000000000000000e+00 0.000000000000000000e+00 0.000000000000000000e+00 0.000000000000000000e+00 0.000000000000000000e+00 6.124999999999999334e-01 0.000000000000000000e+00 0.000000000000000000e+00 0.000000000000000000e+00 6.124999999999999334e-01 6.124999999999999334e-01 0.000000000000000000e+00 0.000000000000000000e+00 6.124999999999999334e-01 0.000000000000000000e+00 0.000000000000000000e+00 6.124999999999999334e-01 6.124999999999999334e-01 0.000000000000000000e+00 -1.000000000000000000e+00 0.000000000000000000e+00 0.000000000000000000e+00 0.000000000000000000e+00 0.000000000000000000e+00 0.000000000000000000e+00 0.000000000000000000e+00 0.000000000000000000e+00 6.124999999999999334e-01 0.000000000000000000e+00 6.124999999999999334e-01 0.000000000000000000e+00 0.000000000000000000e+00 0.000000000000000000e+00 0.000000000000000000e+00 -1.163750000000000062e+00 -0.000000000000000000e+00 -0.000000000000000000e+00 -1.163750000000000062e+00 -0.000000000000000000e+00 -1.163750000000000062e+00 -0.000000000000000000e+00 -0.000000000000000000e+00 -0.000000000000000000e+00 -1.163750000000000062e+00 -0.000000000000000000e+00 -0.000000000000000000e+00 -1.163750000000000062e+00
0.000000000000000000e+00 0.000000000000000000e+00 6.124999999999999334e-01 0.000000000000000000e+00 0.000000000000000000e+00 6.124999999999999334e-01 0.000000000000000000e+00 0.000000000000000000e+00 6.124999999999999334e-01 0.000000000000000000e+00 0.000000000000000000e+00 0.000000000000000000e+00 0.000000000000000000e+00 0.000000000000000000e+00 0.000000000000000000e+00 0.000000000000000000e+00 0.000000000000000000e+00 6.124999999999999334e-01 0.000000000000000000e+00 0.000000000000000000e+00 0.000000000000000000e+00 0.000000000000000000e+00 0.000000000000000000e+00 0.000000000000000000e+00 0.000000000000000000e+00 0.000000000000000000e+00 0.000000000000000000e+00 0.000000000000000000e+00 0.000000000000000000e+00 0.000000000000000000e+00 0.000000000000000000e+00 0.000000000000000000e+00 6.124999999999999334e-01 0.000000000000000000e+00 0.000000000000000000e+00 0.000000000000000000e+00 0.000000000000000000e+00 -1.000000000000000000e+00 6.124999999999999334e-01 6.124999999999999334e-01 0.000000000000000000e+00 0.000000000000000000e+00 6.124999999999999334e-01 0.000000000000000000e+00 0.000000000000000000e+00 0.000000000000000000e+00 0.000000000000000000e+00 0.000000000000000000e+00 0.000000000000000000e+00 0.000000000000000000e+00 0.000000000000000000e+00 -0.000000000000000000e+00 -0.000000000000000000e+00 -1.163750000000000062e+00 -1.163750000000000062e+00 -0.000000000000000000e+00 -1.163750000000000062e+00 -1.163750000000000062e+00 -1.163750000000000062e+00 -0.000000000000000000e+00 -0.000000000000000000e+00 -0.000000000000000000e+00 -0.000000000000000000e+00 -0.000000000000000000e+00
0.000000000000000000e+00 0.000000000000000000e+00 0.000000000000000000e+00 6.124999999999999334e-01 0.000000000000000000e+00 0.000000000000000000e+00 0.000000000000000000e+00 6.124999999999999334e-01 0.000000000000000000e+00 0.000000000000000000e+00 0.000000000000000000e+00 6.124999999999999334e-01 6.124999999999999334e-01 0.000000000000000000e+00 0.000000000000000000e+00 0.000000000000000000e+00 6.124999999999999334e-01 0.000000000000000000e+00 0.000000000000000000e+00 0.000000000000000000e+00 0.000000000000000000e+00 0.000000000000000000e+00 6.124999999999999334e-01 0.000000000000000000e+00 0.000000000000000000e+00 6.124999999999999334e-01 0.000000000000000000e+00 0.000000000000000000e+00 0.000000000000000000e+00 0.000000000000000000e+00 0.000000000000000000e+00 0.000000000000000000e+00 0.000000000000000000e+00 0.000000000000000000e+00 0.000000000000000000e+00 0.000000000000000000e+00 0.000000000000000000e+00 0.000000000000000000e+00 -1.000000000000000000e+00 0.000000000000000000e+00 0.000000000000000000e+00 0.000000000000000000e+00 0.000000000000000000e+00 0.000000000000000000e+00 6.124999999999999334e-01 0.000000000000000000e+00 0.000000000000000000e+00 6.124999999999999334e-01 0.000000000000000000e+00 0.000000000000000000e+00 6.124999999999999334e-01 -0.000000000000000000e+00 -1.163750000000000062e+00 -1.163750000000000062e+00 -0.000000000000000000e+00 -1.163750000000000062e+00 -0.000000000000000000e+00 -0.000000000000000000e+00 -0.000000000000000000e+00 -1.163750000000000062e+00 -1.163750000000000062e+00 -1.163750000000000062e+00 -0.000000000000000000e+00 -0.000000000000000000e+00
0.000000000000000000e+00 0.000000000000000000e+00 0.000000000000000000e+00 0.000000000000000000e+00 0.000000000000000000e+00 0.000000000000000000e+00 6.124999999999999334e-01 0.000000000000000000e+00 6.124999999999999334e-01 0.000000000000000000e+00 6.124999999999999334e-01 0.000000000000000000e+00 0.000000000000000000e+00 0.000000000000000000e+00 0.000000000000000000e+00 6.124999999999999334e-01 0.000000000000000000e+00 0.000000000000000000e+00 0.000000000000000000e+00 0.000000000000000000e+00 0.000000000000000000e+00 0.000000000000000000e+00 0.000000000000000000e+00 0.000000000000000000e+00 0.000000000000000000e+00 0.000000000000000000e+00 0.000000000000000000e+00 0.000000000000000000e+00 0.000000000000000000e+00 0.000000000000000000e+00 0.000000000000000000e+00 0.000000000000000000e+00 6.124999999999999334e-01 0.000000000000000000e+00 6.124999999999999334e-01 0.000000000000000000e+00 0.000000000000000000e+00 6.124999999999999334e-01 6.124999999999999334e-01 -1.000000000000000000e+00 6.124999999999999334e-01 0.000000000000000000e+00 0.000000000000000000e+00 0.000000000000000000e+00 0.000000000000000000e+00 0.000000000000000000e+00 0.000000000000000000e+00 0.000000000000000000e+00 0.000000000000000000e+00 0.000000000000000000e+00 0.000000000000000000e+00 -0.000000000000000000e+00 -0.000000000000000000e+00 -1.163750000000000062e+00 -1.163750000000000062e+00 -1.163750000000000062e+00 -0.000000000000000000e+00 -1.163750000000000062e+00 -0.000000000000000000e+00 -1.163750000000000062e+00 -1.163750000000000062e+00 -1.163750000000000062e+00 -0.000000000000000000e+00 -0.000000000000000000e+00
0.000000000000000000e+00 0.000000000000000000e+00 0.000000000000000000e+00 0.000000000000000000e+00 0.000000000000000000e+00 0.000000000000000000e+00 6.124999999999999334e-01 0.000000000000000000e+00 0.000000000000000000e+00 0.000000000000000000e+00 0.000000000000000000e+00 0.000000000000000000e+00 0.000000000000000000e+00 6.124999999999999334e-01 0.000000000000000000e+00 6.124999999999999334e-01 0.000000000000000000e+00 0.000000000000000000e+00 0.000000000000000000e+00 0.000000000000000000e+00 0.000000000000000000e+00 0.000000000000000000e+00 6.124999999999999334e-01 0.000000000000000000e+00 0.000000000000000000e+00 0.000000000000000000e+00 0.000000000000000000e+00 6.124999999999999334e-01 0.000000000000000000e+00 0.000000000000000000e+00 0.000000000000000000e+00 6.124999999999999334e-01 0.000000000000000000e+00 6.124999999999999334e-01 0.000000000000000000e+00 0.000000000000000000e+00 6.124999999999999334e-01 6.124999999999999334e-01 0.000000000000000000e+00 0.000000000000000000e+00 -1.000000000000000000e+00 0.000000000000000000e+00 0.000000000000000000e+00 0.000000000000000000e+00 0.000000000000000000e+00 0.000000000000000000e+00 0.000000000000000000e+00 0.000000000000000000e+00 6.124999999999999334e-01 0.000000000000000000e+00 6.124999999999999334e-01 -0.000000000000000000e+00 -0.000000000000000000e+00 -0.000000000000000000e+00 -1.163750000000000062e+00 -1.163750000000000062e+00 -1.163750000000000062e+00 -1.163750000000000062e+00 -0.000000000000000000e+00 -1.163750000000000062e+00 -1.163750000000000062e+00 -0.000000000000000000e+00 -0.000000000000000000e+00 -1.163750000000000062e+00
0.000000000000000000e+00 0.000000000000000000e+00 0.000000000000000000e+00 0.000000000000000000e+00 0.000000000000000000e+00 0.000000000000000000e+00 0.000000000000000000e+00 0.000000000000000000e+00 0.000000000000000000e+00 0.000000000000000000e+00 0.000000000000000000e+00 0.000000000000000000e+00 0.000000000000000000e+00 0.000000000000000000e+00 0.000000000000000000e+00 0.000000000000000000e+00 0.000000000000000000e+00 0.000000000000000000e+00 0.000000000000000000e+00 6.124999999999999334e-01 0.000000000000000000e+00 6.124999999999999334e-01 0.000000000000000000e+00 0.000000000000000000e+00 0.000000000000000000e+00 0.000000000000000000e+00 0.000000000000000000e+00 6.124999999999999334e-01 0.000000000000000000e+00 0.000000000000000000e+00 0.000000000000000000e+00 0.000000000000000000e+00 0.000000000000000000e+00 0.000000000000000000e+00 0.000000000000000000e+00 0.000000000000000000e+00 0.000000000000000000e+00 0.000000000000000000e+00 0.000000000000000000e+00 0.000000000000000000e+00 0.000000000000000000e+00 -1.000000000000000000e+00 0.000000000000000000e+00 0.000000000000000000e+00 6.124999999999999334e-01 0.000000000000000000e+00 0.000000000000000000e+00 0.000000000000000000e+00 6.124999999999999334e-01 0.000000000000000000e+00 0.000000000000000000e+00 -0.000000000000000000e+00 -0.000000000000000000e+00 -1.163750000000000062e+00 -0.000000000000000000e+00 -0.000000000000000000e+00 -1.163750000000000062e+00 -0.000000000000000000e+00 -0.000000000000000000e+00 -0.000000000000000000e+00 -0.000000000000000000e+00 -1.163750000000000062e+00 -1.163750000000000062e+00 -1.163750000000000062e+00
0.000000000000000000e+00 0.000000000000000000e+00 0.000000000000000000e+00 0.000000000000000000e+00 0.000000000000000000e+00 0.000000000000000000e+00 0.000000000000000000e+00 0.000000000000000000e+00 0.000000000000000000e+00 0.000000000000000000e+00 0.000000000000000000e+00 6.124999999999999334e-01 0.000000000000000000e+00 6.124999999999999334e-01 6.124999999999999334e-01 0.000000000000000000e+00 6.124999999999999334e-01 6.124999999999999334e-01 6.124999999999999334e-01 6.124999999999999334e-01 6.124999999999999334e-01 0.000000000000000000e+00 0.000000000000000000e+00 0.000000000000000000e+00 0.000000000000000000e+00 0.000000000000000000e+00 0.000000000000000000e+00 0.000000000000000000e+00 0.000000000000000000e+00 0.000000000000000000e+00 0.000000000000000000e+00 0.000000000000000000e+00 6.124999999999999334e-01 0.000000000000000000e+00 6.124999999999999334e-01 0.000000000000000000e+00 0.000000000000000000e+00 0.000000000000000000e+00 0.000000000000000000e+00 0.000000000000000000e+00 0.000000000000000000e+00 6.124999999999999334e-01 -1.000000000000000000e+00 0.000000000000000000e+00 0.000000000000000000e+00 0.000000000000000000e+00 0.000000000000000000e+00 0.000000000000000000e+00 0.000000000000000000e+00 6.124999999999999334e-01 6.124999999999999334e-01 -1.163750000000000062e+00 -1.163750000000000062e+00 -0.000000000000000000e+00 -0.000000000000000000e+00 -0.000000000000000000e+00 -0.000000000000000000e+00 -0.000000000000000000e+00 -0.000000000000000000e+00 -1.163750000000000062e+00 -0.000000000000000000e+00 -1.163750000000000062e+00 -0.000000000000000000e+00 -1.163750000000000062e+00
0.000000000000000000e+00 0.000000000000000000e+00 6.124999999999999334e-01 0.000000000000000000e+00 0.000000000000000000e+00 0.000000000000000000e+00 0.000000000000000000e+00 0.000000000000000000e+00 0.000000000000000000e+00 0.000000000000000000e+00 6.124999999999999334e-01 6.124999999999999334e-01 0.000000000000000000e+00 0.000000000000000000e+00 0.000000000000000000e+00 0.000000000000000000e+00 6.124999999999999334e-01 6.124999999999999334e-01 0.000000000000000000e+00 0.000000000000000000e+00 0.000000000000000000e+00 0.000000000000000000e+00 0.000000000000000000e+00 0.000000000000000000e+00 0.000000000000000000e+00 0.000000000000000000e+00 0.000000000000000000e+00 0.000000000000000000e+00 6.124999999999999334e-01 0.000000000000000000e+00 6.124999999999999334e-01 0.000000000000000000e+00 0.000000000000000000e+00 0.000000000000000000e+00 0.000000000000000000e+00 0.000000000000000000e+00 0.000000000000000000e+00 6.124999999999999334e-01 0.000000000000000000e+00 0.000000000000000000e+00 6.124999999999999334e-01 0.000000000000000000e+00 0.000000000000000000e+00 -1.000000000000000000e+00 0.000000000000000000e+00 0.000000000000000000e+00 6.124999999999999334e-01 0.000000000000000000e+00 0.000000000000000000e+00 0.000000000000000000e+00 6.124999999999999334e-01 -0.000000000000000000e+00 -0.000000000000000000e+00 -0.000000000000000000e+00 -1.163750000000000062e+00 -0.000000000000000000e+00 -0.000000000000000000e+00 -1.163750000000000062e+00 -1.163750000000000062e+00 -1.163750000000000062e+00 -0.000000000000000000e+00 -0.000000000000000000e+00 -0.000000000000000000e+00 -1.163750000000000062e+00
0.000000000000000000e+00 0.000000000000000000e+00 0.000000000000000000e+00 0.000000000000000000e+00 6.124999999999999334e-01 0.000000000000000000e+00 0.000000000000000000e+00 6.124999999999999334e-01 0.000000000000000000e+00 0.000000000000000000e+00 0.000000000000000000e+00 0.000000000000000000e+00 0.000000000000000000e+00 0.000000000000000000e+00 6.124999999999999334e-01 0.000000000000000000e+00 0.000000000000000000e+00 0.000000000000000000e+00 0.000000000000000000e+00 0.000000000000000000e+00 0.000000000000000000e+00 0.000000000000000000e+00 0.000000000000000000e+00 0.000000000000000000e+00 0.000000000000000000e+00 0.000000000000000000e+00 0.000000000000000000e+00 0.000000000000000000e+00 6.124999999999999334e-01 0.000000000000000000e+00 0.000000000000000000e+00 6.124999999999999334e-01 0.000000000000000000e+00 0.000000000000000000e+00 0.000000000000000000e+00 0.000000000000000000e+00 0.000000000000000000e+00 0.000000000000000000e+00 6.124999999999999334e-01 0.000000000000000000e+00 0.000000000000000000e+00 0.000000000000000000e+00 0.000000000000000000e+00 0.000000000000000000e+00 -1.000000000000000000e+00 6.124999999999999334e-01 6.124999999999999334e-01 6.124999999999999334e-01 0.000000000000000000e+00 0.000000000000000000e+00 0.000000000000000000e+00 -1.163750000000000062e+00 -1.163750000000000062e+00 -1.163750000000000062e+00 -0.000000000000000000e+00 -0.000000000000000000e+00 -1.163750000000000062e+00 -0.000000000000000000e+00 -0.000000000000000000e+00 -1.163750000000000062e+00 -1.163750000000000062e+00 -0.000000000000000000e+00 -1.163750000000000062e+00 -1.163750000000000062e+00
0.000000000000000000e+00 0.000000000000000000e+00 0.000000000000000000e+00 0.000000000000000000e+00 0.000000000000000000e+00 0.000000000000000000e+00 6.124999999999999334e-01 0.000000000000000000e+00 0.000000000000000000e+00 0.000000000000000000e+00 0.000000000000000000e+00 6.124999999999999334e-01 0.000000000000000000e+00 6.124999999999999334e-01 0.000000000000000000e+00 0.000000000000000000e+00 0.000000000000000000e+00 6.124999999999999334e-01 6.124999999999999334e-01 0.000000000000000000e+00 0.000000000000000000e+00 6.124999999999999334e-01 6.124999999999999334e-01 0.000000000000000000e+00 6.124999999999999334e-01 0.000000000000000000e+00 6.124999999999999334e-01 0.000000000000000000e+00 0.000000000000000000e+00 0.000000000000000000e+00 0.000000000000000000e+00 6.124999999999999334e-01 6.124999999999999334e-01 0.000000000000000000e+00 0.000000000000000000e+00 0.000000000000000000e+00 0.000000000000000000e+00 0.000000000000000000e+00 0.000000000000000000e+00 0.000000000000000000e+00 0.000000000000000000e+00 0.000000000000000000e+00 0.000000000000000000e+00 0.000000000000000000e+00 0.000000000000000000e+00 -1.000000000000000000e+00 0.000000000000000000e+00 0.000000000000000000e+00 0.000000000000000000e+00 0.000000000000000000e+00 6.124999999999999334e-01 -0.000000000000000000e+00 -1.163750000000000062e+00 -0.000000000000000000e+00 -0.000000000000000000e+00 -0.000000000000000000e+00 -1.163750000000000062e+00 -1.163750000000000062e+00 -0.000000000000000000e+00 -0.000000000000000000e+00 -0.000000000000000000e+00 -0.000000000000000000e+00 -0.000000000000000000e+00 -1.163750000000000062e+00
0.000000000000000000e+00 0.000000000000000000e+00 0.000000000000000000e+00 0.000000000000000000e+00 6.124999999999999334e-01 0.000000000000000000e+00 0.000000000000000000e+00 0.000000000000000000e+00 0.000000000000000000e+00 0.000000000000000000e+00 0.000000000000000000e+00 0.000000000000000000e+00 6.124999999999999334e-01 0.000000000000000000e+00 0.000000000000000000e+00 0.000000000000000000e+00 0.000000000000000000e+00 0.000000000000000000e+00 0.000000000000000000e+00 0.000000000000000000e+00 6.124999999999999334e-01 6.124999999999999334e-01 0.000000000000000000e+00 6.124999999999999334e-01 0.000000000000000000e+00 0.000000000000000000e+00 0.000000000000000000e+00 0.000000000000000000e+00 6.124999999999999334e-01 0.000000000000000000e+00 6.124999999999999334e-01 0.000000000000000000e+00 0.000000000000000000e+00 6.124999999999999334e-01 0.000000000000000000e+00 0.000000000000000000e+00 6.124999999999999334e-01 0.000000000000000000e+00 0.000000000000000000e+00 0.000000000000000000e+00 0.000000000000000000e+00 6.124999999999999334e-01 0.000000000000000000e+00 0.000000000000000000e+00 0.000000000000000000e+00 0.000000000000000000e+00 -1.000000000000000000e+00 0.000000000000000000e+00 0.000000000000000000e+00 6.124999999999999334e-01 0.000000000000000000e+00 -1.163750000000000062e+00 -1.163750000000000062e+00 -1.163750000000000062e+00 -0.000000000000000000e+00 -1.163750000000000062e+00 -0.000000000000000000e+00 -1.163750000000000062e+00 -0.000000000000000000e+00 -1.163750000000000062e+00 -1.163750000000000062e+00 -0.000000000000000000e+00 -1.163750000000000062e+00 -1.163750000000000062e+00
0.000000000000000000e+00 0.000000000000000000e+00 0.000000000000000000e+00 0.000000000000000000e+00 0.000000000000000000e+00 6.124999999999999334e-01 0.000000000000000000e+00 0.000000000000000000e+00 0.000000000000000000e+00 0.000000000000000000e+00 0.000000000000000000e+00 0.000000000000000000e+00 0.000000000000000000e+00 0.000000000000000000e+00 0.000000000000000000e+00 0.000000000000000000e+00 6.124999999999999334e-01 0.000000000000000000e+00 0.000000000000000000e+00 0.000000000000000000e+00 0.000000000000000000e+00 0.000000000000000000e+00 6.124999999999999334e-01 0.000000000000000000e+00 6.124999999999999334e-01 0.000000000000000000e+00 6.124999999999999334e-01 6.124999999999999334e-01 0.000000000000000000e+00 0.000000000000000000e+00 6.124999999999999334e-01 0.000000000000000000e+00 0.000000000000000000e+00 6.124999999999999334e-01 0.000000000000000000e+00 0.000000000000000000e+00 0.000000000000000000e+00 0.000000000000000000e+00 0.000000000000000000e+00 0.000000000000000000e+00 0.000000000000000000e+00 0.000000000000000000e+00 0.000000000000000000e+00 6.124999999999999334e-01 0.000000000000000000e+00 6.124999999999999334e-01 6.124999999999999334e-01 -1.000000000000000000e+00 0.000000000000000000e+00 0.000000000000000000e+00 0.000000000000000000e+00 -1.163750000000000062e+00 -0.000000000000000000e+00 -1.163750000000000062e+00 -1.163750000000000062e+00 -0.000000000000000000e+00 -1.163750000000000062e+00 -0.000000000000000000e+00 -1.163750000000000062e+00 -0.000000000000000000e+00 -1.163750000000000062e+00 -0.000000000000000000e+00 -0.000000000000000000e+00 -0.000000000000000000e+00
0.000000000000000000e+00 0.000000000000000000e+00 0.000000000000000000e+00 6.124999999999999334e-01 6.124999999999999334e-01 0.000000000000000000e+00 0.000000000000000000e+00 0.000000000000000000e+00 6.124999999999999334e-01 6.124999999999999334e-01 0.000000000000000000e+00 0.000000000000000000e+00 0.000000000000000000e+00 0.000000000000000000e+00 0.000000000000000000e+00 0.000000000000000000e+00 0.000000000000000000e+00 0.000000000000000000e+00 0.000000000000000000e+00 0.000000000000000000e+00 6.124999999999999334e-01 6.124999999999999334e-01 0.000000000000000000e+00 0.000000000000000000e+00 0.000000000000000000e+00 0.000000000000000000e+00 6.124999999999999334e-01 0.000000000000000000e+00 6.124999999999999334e-01 0.000000000000000000e+00 0.000000000000000000e+00 0.000000000000000000e+00 0.000000000000000000e+00 6.124999999999999334e-01 0.000000000000000000e+00 0.000000000000000000e+00 6.124999999999999334e-01 0.000000000000000000e+00 0.000000000000000000e+00 0.000000000000000000e+00 0.000000000000000000e+00 0.000000000000000000e+00 0.000000000000000000e+00 0.000000000000000000e+00 0.000000000000000000e+00 6.124999999999999334e-01 0.000000000000000000e+00 6.124999999999999334e-01 -1.000000000000000000e+00 0.000000000000000000e+00 0.000000000000000000e+00 -0.000000000000000000e+00 -0.000000000000000000e+00 -1.163750000000000062e+00 -1.163750000000000062e+00 -1.163750000000000062e+00 -1.163750000000000062e+00 -0.000000000000000000e+00 -0.000000000000000000e+00 -0.000000000000000000e+00 -1.163750000000000062e+00 -0.000000000000000000e+00 -1.163750000000000062e+00 -1.163750000000000062e+00
0.000000000000000000e+00 0.000000000000000000e+00 0.000000000000000000e+00 0.000000000000000000e+00 0.000000000000000000e+00 0.000000000000000000e+00 0.000000000000000000e+00 0.000000000000000000e+00 0.000000000000000000e+00 0.000000000000000000e+00 0.000000000000000000e+00 0.000000000000000000e+00 6.124999999999999334e-01 0.000000000000000000e+00 0.000000000000000000e+00 0.000000000000000000e+00 6.124999999999999334e-01 0.000000000000000000e+00 0.000000000000000000e+00 0.000000000000000000e+00 0.000000000000000000e+00 0.000000000000000000e+00 0.000000000000000000e+00 0.000000000000000000e+00 6.124999999999999334e-01 6.124999999999999334e-01 0.000000000000000000e+00 0.000000000000000000e+00 6.124999999999999334e-01 0.000000000000000000e+00 6.124999999999999334e-01 0.000000000000000000e+00 0.000000000000000000e+00 6.124999999999999334e-01 0.000000000000000000e+00 0.000000000000000000e+00 0.000000000000000000e+00 0.000000000000000000e+00 0.000000000000000000e+00 0.000000000000000000e+00 0.000000000000000000e+00 0.000000000000000000e+00 6.124999999999999334e-01 6.124999999999999334e-01 6.124999999999999334e-01 0.000000000000000000e+00 0.000000000000000000e+00 0.000000000000000000e+00 0.000000000000000000e+00 -1.000000000000000000e+00 0.000000000000000000e+00 -0.000000000000000000e+00 -0.000000000000000000e+00 -0.000000000000000000e+00 -0.000000000000000000e+00 -1.163750000000000062e+00 -1.163750000000000062e+00 -0.000000000000000000e+00 -1.163750000000000062e+00 -0.000000000000000000e+00 -0.000000000000000000e+00 -0.000000000000000000e+00 -1.163750000000000062e+00 -0.000000000000000000e+00
0.000000000000000000e+00 0.000000000000000000e+00 0.000000000000000000e+00 0.000000000000000000e+00 6.124999999999999334e-01 0.000000000000000000e+00 0.000000000000000000e+00 0.000000000000000000e+00 0.000000000000000000e+00 6.124999999999999334e-01 0.000000000000000000e+00 0.000000000000000000e+00 0.000000000000000000e+00 0.000000000000000000e+00 0.000000000000000000e+00 0.000000000000000000e+00 0.000000000000000000e+00 0.000000000000000000e+00 0.000000000000000000e+00 6.124999999999999334e-01 0.000000000000000000e+00 0.000000000000000000e+00 0.000000000000000000e+00 0.000000000000000000e+00 6.124999999999999334e-01 6.124999999999999334e-01 0.000000000000000000e+00 0.000000000000000000e+00 0.000000000000000000e+00 0.000000000000000000e+00 6.124999999999999334e-01 0.000000000000000000e+00 6.124999999999999334e-01 0.000000000000000000e+00 0.000000000000000000e+00 0.000000000000000000e+00 0.000000000000000000e+00 0.000000000000000000e+00 0.000000000000000000e+00 6.124999999999999334e-01 0.000000000000000000e+00 0.000000000000000000e+00 0.000000000000000000e+00 0.000000000000000000e+00 0.000000000000000000e+00 0.000000000000000000e+00 0.000000000000000000e+00 0.000000000000000000e+00 6.124999999999999334e-01 6.124999999999999334e-01 -1.000000000000000000e+00 -0.000000000000000000e+00 -0.000000000000000000e+00 -0.000000000000000000e+00 -1.163750000000000062e+00 -0.000000000000000000e+00 -1.163750000000000062e+00 -0.000000000000000000e+00 -1.163750000000000062e+00 -1.163750000000000062e+00 -1.163750000000000062e+00 -1.163750000000000062e+00 -0.000000000000000000e+00 -1.163750000000000062e+00
2.887500000000000067e-01 2.887500000000000067e-01 0.000000000000000000e+00 0.000000000000000000e+00 2.887500000000000067e-01 0.000000000000000000e+00 0.000000000000000000e+00 0.000000000000000000e+00 2.887500000000000067e-01 2.887500000000000067e-01 2.887500000000000067e-01 0.000000000000000000e+00 0.000000000000000000e+00 2.887500000000000067e-01 0.000000000000000000e+00 2.887500000000000067e-01 2.887500000000000067e-01 2.887500000000000067e-01 2.887500000000000067e-01 0.000000000000000000e+00 2.887500000000000067e-01 2.887500000000000067e-01 2.887500000000000067e-01 2.887500000000000067e-01 2.887500000000000067e-01 2.887500000000000067e-01 0.000000000000000000e+00 2.887500000000000067e-01 2.887500000000000067e-01 0.000000000000000000e+00 2.887500000000000067e-01 0.000000000000000000e+00 2.887500000000000067e-01 0.000000000000000000e+00 2.887500000000000067e-01 0.000000000000000000e+00 0.000000000000000000e+00 2.887500000000000067e-01 2.887500000000000067e-01 2.887500000000000067e-01 0.000000000000000000e+00 2.887500000000000067e-01 0.000000000000000000e+00 0.000000000000000000e+00 0.000000000000000000e+00 0.000000000000000000e+00 2.887500000000000067e-01 0.000000000000000000e+00 2.887500000000000067e-01 2.887500000000000067e-01 2.887500000000000067e-01 -1.000000000000000000e+00 -1.163750000000000062e+00 -0.000000000000000000e+00 -1.163750000000000062e+00 -0.000000000000000000e+00 -1.163750000000000062e+00 -1.163750000000000062e+00 -1.163750000000000062e+00 -1.163750000000000062e+00 -1.163750000000000062e+00 -0.000000000000000000e+00 -0.000000000000000000e+00 -0.000000000000000000e+00
0.000000000000000000e+00 2.887500000000000067e-01 2.887500000000000067e-01 2.887500000000000067e-01 2.887500000000000067e-01 0.000000000000000000e+00 0.000000000000000000e+00 0.000000000000000000e+00 2.887500000000000067e-01 2.887500000000000067e-01 2.887500000000000067e-01 0.000000000000000000e+00 2.887500000000000067e-01 0.000000000000000000e+00 0.000000000000000000e+00 2.887500000000000067e-01 0.000000000000000000e+00 0.000000000000000000e+00 2.887500000000000067e-01 0.000000000000000000e+00 2.887500000000000067e-01 0.000000000000000000e+00 2.887500000000000067e-01 2.887500000000000067e-01 0.000000000000000000e+00 2.887500000000000067e-01 0.000000000000000000e+00 2.887500000000000067e-01 0.000000000000000000e+00 0.000000000000000000e+00 0.000000000000000000e+00 2.887500000000000067e-01 0.000000000000000000e+00 0.000000000000000000e+00 2.887500000000000067e-01 2.887500000000000067e-01 2.887500000000000067e-01 0.000000000000000000e+00 0.000000000000000000e+00 0.000000000000000000e+00 0.000000000000000000e+00 0.000000000000000000e+00 0.000000000000000000e+00 2.887500000000000067e-01 2.887500000000000067e-01 0.000000000000000000e+00 0.000000000000000000e+00 2.887500000000000067e-01 0.000000000000000000e+00 0.000000000000000000e+00 0.000000000000000000e+00 -1.163750000000000062e+00 -1.000000000000000000e+00 -0.000000000000000000e+00 -1.163750000000000062e+00 -0.000000000000000000e+00 -0.000000000000000000e+00 -0.000000000000000000e+00 -0.000000000000000000e+00 -0.000000000000000000e+00 -0.000000000000000000e+00 -0.000000000000000000e+00 -1.163750000000000062e+00 -1.163750000000000062e+00
2.887500000000000067e-01 2.887500000000000067e-01 0.000000000000000000e+00 0.000000000000000000e+00 2.887500000000000067e-01 0.000000000000000000e+00 0.000000000000000000e+00 0.000000000000000000e+00 2.887500000000000067e-01 0.000000000000000000e+00 0.000000000000000000e+00 0.000000000000000000e+00 2.887500000000000067e-01 0.000000000000000000e+00 2.887500000000000067e-01 2.887500000000000067e-01 2.887500000000000067e-01 2.887500000000000067e-01 2.887500000000000067e-01 2.887500000000000067e-01 0.000000000000000000e+00 2.887500000000000067e-01 2.887500000000000067e-01 2.887500000000000067e-01 0.000000000000000000e+00 2.887500000000000067e-01 0.000000000000000000e+00 0.000000000000000000e+00 0.000000000000000000e+00 2.887500000000000067e-01 2.887500000000000067e-01 0.000000000000000000e+00 2.887500000000000067e-01 2.887500000000000067e-01 2.887500000000000067e-01 0.000000000000000000e+00 2.887500000000000067e-01 2.887500000000000067e-01 0.000000000000000000e+00 2.887500000000000067e-01 2.887500000000000067e-01 2.887500000000000067e-01 0.000000000000000000e+00 0.000000000000000000e+00 2.887500000000000067e-01 2.887500000000000067e-01 0.000000000000000000e+00 2.887500000000000067e-01 0.000000000000000000e+00 0.000000000000000000e+00 0.000000000000000000e+00 -1.163750000000000062e+00 -1.163750000000000062e+00 -1.000000000000000000e+00 -1.163750000000000062e+00 -0.000000000000000000e+00 -0.000000000000000000e+00 -1.163750000000000062e+00 -1.163750000000000062e+00 -1.163750000000000062e+00 -0.000000000000000000e+00 -1.163750000000000062e+00 -1.163750000000000062e+00 -1.163750000000000062e+00
0.000000000000000000e+00 0.000000000000000000e+00 2.887500000000000067e-01 0.000000000000000000e+00 2.887500000000000067e-01 0.000000000000000000e+00 0.000000000000000000e+00 0.000000000000000000e+00 0.000000000000000000e+00 2.887500000000000067e-01 2.887500000000000067e-01 2.887500000000000067e-01 2.887500000000000067e-01 0.000000000000000000e+00 2.887500000000000067e-01 2.887500000000000067e-01 2.887500000000000067e-01 2.887500000000000067e-01 0.000000000000000000e+00 2.887500000000000067e-01 2.887500000000000067e-01 2.887500000000000067e-01 0.000000000000000000e+00 0.000000000000000000e+00 2.887500000000000067e-01 2.887500000000000067e-01 0.000000000000000000e+00 0.000000000000000000e+00 2.887500000000000067e-01 0.000000000000000000e+00 2.887500000000000067e-01 0.000000000000000000e+00 0.000000000000000000e+00 0.000000000000000000e+00 2.887500000000000067e-01 0.000000000000000000e+00 0.000000000000000000e+00 0.000000000000000000e+00 0.000000000000000000e+00 0.000000000000000000e+00 2.887500000000000067e-01 2.887500000000000067e-01 2.887500000000000067e-01 0.000000000000000000e+00 0.000000000000000000e+00 0.000000000000000000e+00 0.000000000000000000e+00 0.000000000000000000e+00 0.000000000000000000e+00 0.000000000000000000e+00 2.887500000000000067e-01 -0.000000000000000000e+00 -0.000000000000000000e+00 -1.163750000000000062e+00 -1.000000000000000000e+00 -0.000000000000000000e+00 -1.163750000000000062e+00 -0.000000000000000000e+00 -0.000000000000000000e+00 -1.163750000000000062e+00 -0.000000000000000000e+00 -0.000000000000000000e+00 -1.163750000000000062e+00 -1.163750000000000062e+00
0.000000000000000000e+00 0.000000000000000000e+00 2.887500000000000067e-01 0.000000000000000000e+00 0.000000000000000000e+00 0.000000000000000000e+00 2.887500000000000067e-01 2.887500000000000067e-01 0.000000000000000000e+00 0.000000000000000000e+00 0.000000000000000000e+00 2.887500000000000067e-01 2.887500000000000067e-01 2.887500000000000067e-01 2.887500000000000067e-01 0.000000000000000000e+00 2.887500000000000067e-01 0.000000000000000000e+00 0.000000000000000000e+00 2.887500000000000067e-01 2.887500000000000067e-01 0.000000000000000000e+00 0.000000000000000000e+00 0.000000000000000000e+00 0.000000000000000000e+00 0.000000000000000000e+00 0.000000000000000000e+00 0.000000000000000000e+00 2.887500000000000067e-01 0.000000000000000000e+00 0.000000000000000000e+00 0.000000000000000000e+00 2.887500000000000067e-01 2.887500000000000067e-01 2.887500000000000067e-01 2.887500000000000067e-01 2.887500000000000067e-01 2.887500000000000067e-01 2.887500000000000067e-01 2.887500000000000067e-01 0.000000000000000000e+00 0.000000000000000000e+00 2.887500000000000067e-01 2.887500000000000067e-01 2.887500000000000067e-01 2.887500000000000067e-01 2.887500000000000067e-01 2.887500000000000067e-01 2.887500000000000067e-01 0.000000000000000000e+00 0.000000000000000000e+00 -1.163750000000000062e+00 -0.000000000000000000e+00 -1.163750000000000062e+00 -0.000000000000000000e+00 -1.000000000000000000e+00 -0.000000000000000000e+00 -0.000000000000000000e+00 -1.163750000000000062e+00 -1.163750000000000062e+00 -0.000000000000000000e+00 -0.000000000000000000e+00 -0.000000000000000000e+00 -0.000000000000000000e+00
0.000000000000000000e+00 0.000000000000000000e+00 0.000000000000000000e+00 2.887500000000000067e-01 0.000000000000000000e+00 0.000000000000000000e+00 0.000000000000000000e+00 2.887500000000000067e-01 0.000000000000000000e+00 2.887500000000000067e-01 0.000000000000000000e+00 2.887500000000000067e-01 2.887500000000000067e-01 2.887500000000000067e-01 0.000000000000000000e+00 0.000000000000000000e+00 2.887500000000000067e-01 2.887500000000000067e-01 2.887500000000000067e-01 0.000000000000000000e+00 0.000000000000000000e+00 2.887500000000000067e-01 0.000000000000000000e+00 0.000000000000000000e+00 2.887500000000000067e-01 2.887500000000000067e-01 0.000000000000000000e+00 0.000000000000000000e+00 2.887500000000000067e-01 2.887500000000000067e-01 0.000000000000000000e+00 2.887500000000000067e-01 2.887500000000000067e-01 0.000000000000000000e+00 2.887500000000000067e-01 2.887500000000000067e-01 0.000000000000000000e+00 2.887500000000000067e-01 0.000000000000000000e+00 0.000000000000000000e+00 0.000000000000000000e+00 2.887500000000000067e-01 2.887500000000000067e-01 2.887500000000000067e-01 0.000000000000000000e+00 0.000000000000000000e+00 2.887500000000000067e-01 0.000000000000000000e+00 0.000000000000000000e+00 0.000000000000000000e+00 0.000000000000000000e+00 -1.163750000000000062e+00 -1.163750000000000062e+00 -0.000000000000000000e+00 -0.000000000000000000e+00 -1.163750000000000062e+00 -1.000000000000000000e+00 -0.000000000000000000e+00 -1.163750000000000062e+00 -0.000000000000000000e+00 -0.000000000000000000e+00 -0.000000000000000000e+00 -1.163750000000000062e+00 -1.163750000000000062e+00
2.887500000000000067e-01 0.000000000000000000e+00 2.887500000000000067e-01 0.000000000000000000e+00 0.000000000000000000e+00 0.000000000000000000e+00 0.000000000000000000e+00 0.000000000000000000e+00 0.000000000000000000e+00 0.000000000000000000e+00 0.000000000000000000e+00 2.887500000000000067e-01 0.000000000000000000e+00 0.000000000000000000e+00 0.000000000000000000e+00 2.887500000000000067e-01 0.000000000000000000e+00 2.887500000000000067e-01 0.000000000000000000e+00 2.887500000000000067e-01 0.000000000000000000e+00 2.887500000000000067e-01 2.887500000000000067e-01 0.000000000000000000e+00 0.000000000000000000e+00 2.887500000000000067e-01 0.000000000000000000e+00 2.887500000000000067e-01 0.000000000000000000e+00 2.887500000000000067e-01 2.887500000000000067e-01 2.887500000000000067e-01 0.000000000000000000e+00 2.887500000000000067e-01 0.000000000000000000e+00 2.887500000000000067e-01 0.000000000000000000e+00 2.887500000000000067e-01 0.000000000000000000e+00 0.000000000000000000e+00 2.887500000000000067e-01 0.000000000000000000e+00 2.887500000000000067e-01 2.887500000000000067e-01 2.887500000000000067e-01 2.887500000000000067e-01 2.887500000000000067e-01 0.000000000000000000e+00 0.000000000000000000e+00 0.000000000000000000e+00 0.000000000000000000e+00 -0.000000000000000000e+00 -0.000000000000000000e+00 -1.163750000000000062e+00 -0.000000000000000000e+00 -1.163750000000000062e+00 -1.163750000000000062e+00 -1.000000000000000000e+00 -1.163750000000000062e+00 -1.163750000000000062e+00 -0.000000000000000000e+00 -1.163750000000000062e+00 -0.000000000000000000e+00 -0.000000000000000000e+00
0.000000000000000000e+00 2.887500000000000067e-01 2.887500000000000067e-01 2.887500000000000067e-01 0.000000000000000000e+00 0.000000000000000000e+00 0.000000000000000000e+00 2.887500000000000067e-01 0.000000000000000000e+00 2.887500000000000067e-01 0.000000000000000000e+00 2.887500000000000067e-01 2.887500000000000067e-01 2.887500000000000067e-01 0.000000000000000000e+00 2.887500000000000067e-01 2.887500000000000067e-01 0.000000000000000000e+00 0.000000000000000000e+00 2.887500000000000067e-01 0.000000000000000000e+00 0.000000000000000000e+00 2.887500000000000067e-01 0.000000000000000000e+00 0.000000000000000000e+00 2.887500000000000067e-01 0.000000000000000000e+00 2.887500000000000067e-01 2.887500000000000067e-01 2.887500000000000067e-01 2.887500000000000067e-01 0.000000000000000000e+00 0.000000000000000000e+00 2.887500000000000067e-01 2.887500000000000067e-01 0.000000000000000000e+00 2.887500000000000067e-01 0.000000000000000000e+00 2.887500000000000067e-01 0.000000000000000000e+00 2.887500000000000067e-01 2.887500000000000067e-01 2.887500000000000067e-01 2.887500000000000067e-01 2.887500000000000067e-01 0.000000000000000000e+00 0.000000000000000000e+00 2.887500000000000067e-01 2.887500000000000067e-01 0.000000000000000000e+00 0.000000000000000000e+00 -1.163750000000000062e+00 -0.000000000000000000e+00 -0.000000000000000000e+00 -0.000000000000000000e+00 -1.163750000000000062e+00 -1.163750000000000062e+00 -0.000000000000000000e+00 -1.000000000000000000e+00 -1.163750000000000062e+00 -1.163750000000000062e+00 -1.163750000000000062e+00 -0.000000000000000000e+00 -0.000000000000000000e+00
2.887500000000000067e-01 2.887500000000000067e-01 0.000000000000000000e+00 2.887500000000000067e-01 2.887500000000000067e-01 2.887500000000000067e-01 2.887500000000000067e-01 0.000000000000000000e+00 2.887500000000000067e-01 2.887500000000000067e-01 2.887500000000000067e-01 2.887500000000000067e-01 2.887500000000000067e-01 2.887500000000000067e-01 0.000000000000000000e+00 0.000000000000000000e+00 0.000000000000000000e+00 2.887500000000000067e-01 0.000000000000000000e+00 2.887500000000000067e-01 2.887500000000000067e-01 2.887500000000000067e-01 0.000000000000000000e+00 2.887500000000000067e-01 0.000000000000000000e+00 2.887500000000000067e-01 0.000000000000000000e+00 0.000000000000000000e+00 2.887500000000000067e-01 2.887500000000000067e-01 2.887500000000000067e-01 2.887500000000000067e-01 2.887500000000000067e-01 0.000000000000000000e+00 2.887500000000000067e-01 0.000000000000000000e+00 2.887500000000000067e-01 0.000000000000000000e+00 2.887500000000000067e-01 2.887500000000000067e-01 2.887500000000000067e-01 2.887500000000000067e-01 0.000000000000000000e+00 0.000000000000000000e+00 0.000000000000000000e+00 0.000000000000000000e+00 0.000000000000000000e+00 0.000000000000000000e+00 2.887500000000000067e-01 2.887500000000000067e-01 0.000000000000000000e+00 -1.163750000000000062e+00 -1.163750000000000062e+00 -0.000000000000000000e+00 -1.163750000000000062e+00 -1.163750000000000062e+00 -1.163750000000000062e+00 -0.000000000000000000e+00 -0.000000000000000000e+00 -1.000000000000000000e+00 -0.000000000000000000e+00 -0.000000000000000000e+00 -1.163750000000000062e+00 -0.000000000000000000e+00
2.887500000000000067e-01 0.000000000000000000e+00 2.887500000000000067e-01 0.000000000000000000e+00 0.000000000000000000e+00 2.887500000000000067e-01 2.887500000000000067e-01 2.887500000000000067e-01 2.887500000000000067e-01 0.000000000000000000e+00 0.000000000000000000e+00 0.000000000000000000e+00 2.887500000000000067e-01 2.887500000000000067e-01 2.887500000000000067e-01 2.887500000000000067e-01 2.887500000000000067e-01 2.887500000000000067e-01 2.887500000000000067e-01 2.887500000000000067e-01 0.000000000000000000e+00 2.887500000000000067e-01 0.000000000000000000e+00 2.887500000000000067e-01 2.887500000000000067e-01 0.000000000000000000e+00 2.887500000000000067e-01 0.000000000000000000e+00 0.000000000000000000e+00 2.887500000000000067e-01 0.000000000000000000e+00 2.887500000000000067e-01 2.887500000000000067e-01 0.000000000000000000e+00 2.887500000000000067e-01 0.000000000000000000e+00 2.887500000000000067e-01 2.887500000000000067e-01 2.887500000000000067e-01 0.000000000000000000e+00 0.000000000000000000e+00 2.887500000000000067e-01 2.887500000000000067e-01 2.887500000000000067e-01 0.000000000000000000e+00 2.887500000000000067e-01 2.887500000000000067e-01 2.887500000000000067e-01 2.887500000000000067e-01 0.000000000000000000e+00 0.000000000000000000e+00 -1.163750000000000062e+00 -0.000000000000000000e+00 -0.000000000000000000e+00 -0.000000000000000000e+00 -1.163750000000000062e+00 -0.000000000000000000e+00 -1.163750000000000062e+00 -0.000000000000000000e+00 -1.163750000000000062e+00 -1.000000000000000000e+00 -0.000000000000000000e+00 -1.163750000000000062e+00 -0.000000000000000000e+00
