-1.000000000000000000e+00 0.000000000000000000e+00 0.000000000000000000e+00 0.000000000000000000e+00 0.000000000000000000e+00 0.000000000000000000e+00 0.000000000000000000e+00 1.093749999999999931e-02 0.000000000000000000e+00 0.000000000000000000e+00 0.000000000000000000e+00 0.000000000000000000e+00 0.000000000000000000e+00 0.000000000000000000e+00 0.000000000000000000e+00 0.000000000000000000e+00 0.000000000000000000e+00 1.093749999999999931e-02 0.000000000000000000e+00 0.000000000000000000e+00 1.093749999999999931e-02 1.093749999999999931e-02 0.000000000000000000e+00 0.000000000000000000e+00 0.000000000000000000e+00 0.000000000000000000e+00 1.093749999999999931e-02 0.000000000000000000e+00 0.000000000000000000e+00 0.000000000000000000e+00 0.000000000000000000e+00 0.000000000000000000e+00 0.000000000000000000e+00 0.000000000000000000e+00 0.000000000000000000e+00 0.000000000000000000e+00 0.000000000000000000e+00 0.000000000000000000e+00 0.000000000000000000e+00 1.093749999999999931e-02 0.000000000000000000e+00 0.000000000000000000e+00 0.000000000000000000e+00 1.093749999999999931e-02 1.093749999999999931e-02 1.093749999999999931e-02 0.000000000000000000e+00 0.000000000000000000e+00 0.000000000000000000e+00 0.000000000000000000e+00 0.000000000000000000e+00 -0.000000000000000000e+00 -0.000000000000000000e+00 -2.078125000000000111e-02 -2.078125000000000111e-02 -0.000000000000000000e+00 -0.000000000000000000e+00 -2.078125000000000111e-02 -2.078125000000000111e-02 -0.000000000000000000e+00 -0.000000000000000000e+00 -2.078125000000000111e-02 -0.000000000000000000e+00 -2.078125000000000111e-02
1.093749999999999931e-02 -1.000000000000000000e+00 1.093749999999999931e-02 0.000000000000000000e+00 0.000000000000000000e+00 0.000000000000000000e+00 1.093749999999999931e-02 0.000000000000000000e+00 1.093749999999999931e-02 1.093749999999999931e-02 1.093749999999999931e-02 0.000000000000000000e+00 0.000000000000000000e+00 0.000000000000000000e+00 0.000000000000000000e+00 0.000000000000000000e+00 0.000000000000000000e+00 0.000000000000000000e+00 0.000000000000000000e+00 0.000000000000000000e+00 1.093749999999999931e-02 0.000000000000000000e+00 0.000000000000000000e+00 1.093749999999999931e-02 0.000000000000000000e+00 1.093749999999999931e-02 0.000000000000000000e+00 0.000000000000000000e+00 0.000000000000000000e+00 1.093749999999999931e-02 0.000000000000000000e+00 0.000000000000000000e+00 0.000000000000000000e+00 0.000000000000000000e+00 0.000000000000000000e+00 0.000000000000000000e+00 0.000000000000000000e+00 0.000000000000000000e+00 0.000000000000000000e+00 0.000000000000000000e+00 1.093749999999999931e-02 0.000000000000000000e+00 0.000000000000000000e+00 0.000000000000000000e+00 0.000000000000000000e+00 0.000000000000000000e+00 0.000000000000000000e+00 0.000000000000000000e+00 0.000000000000000000e+00 0.000000000000000000e+00 1.093749999999999931e-02 -2.078125000000000111e-02 -0.000000000000000000e+00 -0.000000000000000000e+00 -0.000000000000000000e+00 -0.000000000000000000e+00 -2.078125000000000111e-02 -0.000000000000000000e+00 -0.000000000000000000e+00 -0.000000000000000000e+00 -0.000000000000000000e+00 -2.078125000000000111e-02 -2.078125000000000111e-02 -0.000000000000000000e+00
0.000000000000000000e+00 0.000000000000000000e+00 -1.000000000000000000e+00 1.093749999999999931e-02 0.000000000000000000e+00 0.000000000000000000e+00 1.093749999999999931e-02 0.000000000000000000e+00 0.000000000000000000e+00 0.000000000000000000e+00 0.000000000000000000e+00 0.000000000000000000e+00 0.000000000000000000e+00 0.000000000000000000e+00 0.000000000000000000e+00 0.000000000000000000e+00 0.000000000000000000e+00 0.000000000000000000e+00 0.000000000000000000e+00 0.000000000000000000e+00 0.000000000000000000e+00 0.000000000000000000e+00 0.000000000000000000e+00 0.000000000000000000e+00 0.000000000000000000e+00 0.000000000000000000e+00 0.000000000000000000e+00 0.000000000000000000e+00 0.000000000000000000e+00 0.000000000000000000e+00 1.093749999999999931e-02 0.000000000000000000e+00 0.000000000000000000e+00 0.000000000000000000e+00 0.000000000000000000e+00 0.000000000000000000e+00 1.093749999999999931e-02 0.000000000000000000e+00 0.000000000000000000e+00 0.000000000000000000e+00 0.000000000000000000e+00 0.000000000000000000e+00 0.000000000000000000e+00 1.093749999999999931e-02 1.093749999999999931e-02 0.000000000000000000e+00 0.000000000000000000e+00 1.093749999999999931e-02 0.000000000000000000e+00 0.000000000000000000e+00 0.000000000000000000e+00 -0.000000000000000000e+00 -0.000000000000000000e+00 -0.000000000000000000e+00 -0.000000000000000000e+00 -0.000000000000000000e+00 -0.000000000000000000e+00 -0.000000000000000000e+00 -0.000000000000000000e+00 -0.000000000000000000e+00 -0.000000000000000000e+00 -0.000000000000000000e+00 -2.078125000000000111e-02 -2.078125000000000111e-02
0.000000000000000000e+00 0.000000000000000000e+00 0.000000000000000000e+00 -1.000000000000000000e+00 0.000000000000000000e+00 0.000000000000000000e+00 0.000000000000000000e+00 0.000000000000000000e+00 0.000000000000000000e+00 0.000000000000000000e+00 0.000000000000000000e+00 0.000000000000000000e+00 0.000000000000000000e+00 0.000000000000000000e+00 0.000000000000000000e+00 0.000000000000000000e+00 0.000000000000000000e+00 1.093749999999999931e-02 0.000000000000000000e+00 0.000000000000000000e+00 1.093749999999999931e-02 0.000000000000000000e+00 0.000000000000000000e+00 0.000000000000000000e+00 0.000000000000000000e+00 1.093749999999999931e-02 0.000000000000000000e+00 0.000000000000000000e+00 0.000000000000000000e+00 0.000000000000000000e+00 0.000000000000000000e+00 1.093749999999999931e-02 0.000000000000000000e+00 1.093749999999999931e-02 0.000000000000000000e+00 0.000000000000000000e+00 0.000000000000000000e+00 1.093749999999999931e-02 0.000000000000000000e+00 0.000000000000000000e+00 0.000000000000000000e+00 0.000000000000000000e+00 0.000000000000000000e+00 1.093749999999999931e-02 1.093749999999999931e-02 0.000000000000000000e+00 0.000000000000000000e+00 0.000000000000000000e+00 0.000000000000000000e+00 0.000000000000000000e+00 0.000000000000000000e+00 -2.078125000000000111e-02 -0.000000000000000000e+00 -0.000000000000000000e+00 -2.078125000000000111e-02 -2.078125000000000111e-02 -0.000000000000000000e+00 -2.078125000000000111e-02 -0.000000000000000000e+00 -2.078125000000000111e-02 -0.000000000000000000e+00 -2.078125000000000111e-02 -2.078125000000000111e-02 -2.078125000000000111e-02
0.000000000000000000e+00 0.000000000000000000e+00 0.000000000000000000e+00 0.000000000000000000e+00 -1.000000000000000000e+00 0.000000000000000000e+00 1.093749999999999931e-02 0.000000000000000000e+00 0.000000000000000000e+00 0.000000000000000000e+00 0.000000000000000000e+00 0.000000000000000000e+00 1.093749999999999931e-02 0.000000000000000000e+00 0.000000000000000000e+00 0.000000000000000000e+00 0.000000000000000000e+00 0.000000000000000000e+00 0.000000000000000000e+00 0.000000000000000000e+00 0.000000000000000000e+00 0.000000000000000000e+00 0.000000000000000000e+00 0.000000000000000000e+00 1.093749999999999931e-02 0.000000000000000000e+00 0.000000000000000000e+00 1.093749999999999931e-02 1.093749999999999931e-02 0.000000000000000000e+00 0.000000000000000000e+00 1.093749999999999931e-02 0.000000000000000000e+00 0.000000000000000000e+00 1.093749999999999931e-02 0.000000000000000000e+00 0.000000000000000000e+00 1.093749999999999931e-02 0.000000000000000000e+00 0.000000000000000000e+00 0.000000000000000000e+00 0.000000000000000000e+00 0.000000000000000000e+00 0.000000000000000000e+00 1.093749999999999931e-02 0.000000000000000000e+00 0.000000000000000000e+00 0.000000000000000000e+00 1.093749999999999931e-02 1.093749999999999931e-02 0.000000000000000000e+00 -0.000000000000000000e+00 -2.078125000000000111e-02 -0.000000000000000000e+00 -0.000000000000000000e+00 -0.000000000000000000e+00 -0.000000000000000000e+00 -0.000000000000000000e+00 -0.000000000000000000e+00 -2.078125000000000111e-02 -0.000000000000000000e+00 -0.000000000000000000e+00 -2.078125000000000111e-02 -0.000000000000000000e+00
0.000000000000000000e+00 0.000000000000000000e+00 0.000000000000000000e+00 1.093749999999999931e-02 0.000000000000000000e+00 -1.000000000000000000e+00 0.000000000000000000e+00 0.000000000000000000e+00 0.000000000000000000e+00 1.093749999999999931e-02 0.000000000000000000e+00 1.093749999999999931e-02 0.000000000000000000e+00 0.000000000000000000e+00 0.000000000000000000e+00 0.000000000000000000e+00 0.000000000000000000e+00 0.000000000000000000e+00 0.000000000000000000e+00 0.000000000000000000e+00 0.000000000000000000e+00 0.000000000000000000e+00 0.000000000000000000e+00 0.000000000000000000e+00 0.000000000000000000e+00 0.000000000000000000e+00 0.000000000000000000e+00 0.000000000000000000e+00 1.093749999999999931e-02 0.000000000000000000e+00 0.000000000000000000e+00 0.000000000000000000e+00 0.000000000000000000e+00 0.000000000000000000e+00 0.000000000000000000e+00 0.000000000000000000e+00 0.000000000000000000e+00 0.000000000000000000e+00 0.000000000000000000e+00 0.000000000000000000e+00 1.093749999999999931e-02 0.000000000000000000e+00 0.000000000000000000e+00 1.093749999999999931e-02 1.093749999999999931e-02 0.000000000000000000e+00 1.093749999999999931e-02 0.000000000000000000e+00 0.000000000000000000e+00 0.000000000000000000e+00 0.000000000000000000e+00 -0.000000000000000000e+00 -0.000000000000000000e+00 -2.078125000000000111e-02 -0.000000000000000000e+00 -0.000000000000000000e+00 -0.000000000000000000e+00 -2.078125000000000111e-02 -2.078125000000000111e-02 -2.078125000000000111e-02 -2.078125000000000111e-02 -0.000000000000000000e+00 -2.078125000000000111e-02 -0.000000000000000000e+00
0.000000000000000000e+00 1.093749999999999931e-02 1.093749999999999931e-02 0.000000000000000000e+00 0.000000000000000000e+00 0.000000000000000000e+00 -1.000000000000000000e+00 0.000000000000000000e+00 0.000000000000000000e+00 0.000000000000000000e+00 0.000000000000000000e+00 0.000000000000000000e+00 0.000000000000000000e+00 1.093749999999999931e-02 0.000000000000000000e+00 0.000000000000000000e+00 0.000000000000000000e+00 0.000000000000000000e+00 0.000000000000000000e+00 1.093749999999999931e-02 0.000000000000000000e+00 0.000000000000000000e+00 0.000000000000000000e+00 1.093749999999999931e-02 0.000000000000000000e+00 1.093749999999999931e-02 0.000000000000000000e+00 0.000000000000000000e+00 0.000000000000000000e+00 1.093749999999999931e-02 0.000000000000000000e+00 0.000000000000000000e+00 0.000000000000000000e+00 0.000000000000000000e+00 0.000000000000000000e+00 0.000000000000000000e+00 0.000000000000000000e+00 0.000000000000000000e+00 0.000000000000000000e+00 0.000000000000000000e+00 1.093749999999999931e-02 0.000000000000000000e+00 0.000000000000000000e+00 0.000000000000000000e+00 1.093749999999999931e-02 0.000000000000000000e+00 0.000000000000000000e+00 1.093749999999999931e-02 1.093749999999999931e-02 0.000000000000000000e+00 1.093749999999999931e-02 -0.000000000000000000e+00 -2.078125000000000111e-02 -2.078125000000000111e-02 -0.000000000000000000e+00 -2.078125000000000111e-02 -2.078125000000000111e-02 -0.000000000000000000e+00 -0.000000000000000000e+00 -0.000000000000000000e+00 -2.078125000000000111e-02 -0.000000000000000000e+00 -2.078125000000000111e-02 -2.078125000000000111e-02
0.000000000000000000e+00 0.000000000000000000e+00 0.000000000000000000e+00 1.093749999999999931e-02 0.000000000000000000e+00 0.000000000000000000e+00 0.000000000000000000e+00 -1.000000000000000000e+00 0.000000000000000000e+00 0.000000000000000000e+00 0.000000000000000000e+00 0.000000000000000000e+00 1.093749999999999931e-02 0.000000000000000000e+00 0.000000000000000000e+00 0.000000000000000000e+00 0.000000000000000000e+00 0.000000000000000000e+00 1.093749999999999931e-02 0.000000000000000000e+00 1.093749999999999931e-02 0.000000000000000000e+00 0.000000000000000000e+00 0.000000000000000000e+00 1.093749999999999931e-02 0.000000000000000000e+00 0.000000000000000000e+00 0.000000000000000000e+00 0.000000000000000000e+00 0.000000000000000000e+00 0.000000000000000000e+00 0.000000000000000000e+00 0.000000000000000000e+00 0.000000000000000000e+00 1.093749999999999931e-02 1.093749999999999931e-02 0.000000000000000000e+00 0.000000000000000000e+00 0.000000000000000000e+00 0.000000000000000000e+00 1.093749999999999931e-02 0.000000000000000000e+00 0.000000000000000000e+00 0.000000000000000000e+00 0.000000000000000000e+00 0.000000000000000000e+00 0.000000000000000000e+00 0.000000000000000000e+00 0.000000000000000000e+00 1.093749999999999931e-02 0.000000000000000000e+00 -2.078125000000000111e-02 -0.000000000000000000e+00 -2.078125000000000111e-02 -0.000000000000000000e+00 -0.000000000000000000e+00 -2.078125000000000111e-02 -0.000000000000000000e+00 -2.078125000000000111e-02 -2.078125000000000111e-02 -0.000000000000000000e+00 -2.078125000000000111e-02 -2.078125000000000111e-02 -0.000000000000000000e+00
0.000000000000000000e+00 0.000000000000000000e+00 1.093749999999999931e-02 0.000000000000000000e+00 0.000000000000000000e+00 1.093749999999999931e-02 1.093749999999999931e-02 0.000000000000000000e+00 -1.000000000000000000e+00 0.000000000000000000e+00 0.000000000000000000e+00 0.000000000000000000e+00 1.093749999999999931e-02 0.000000000000000000e+00 0.000000000000000000e+00 0.000000000000000000e+00 0.000000000000000000e+00 0.000000000000000000e+00 0.000000000000000000e+00 0.000000000000000000e+00 0.000000000000000000e+00 0.000000000000000000e+00 0.000000000000000000e+00 0.000000000000000000e+00 0.000000000000000000e+00 0.000000000000000000e+00 0.000000000000000000e+00 0.000000000000000000e+00 0.000000000000000000e+00 0.000000000000000000e+00 0.000000000000000000e+00 0.000000000000000000e+00 1.093749999999999931e-02 0.000000000000000000e+00 0.000000000000000000e+00 0.000000000000000000e+00 1.093749999999999931e-02 0.000000000000000000e+00 1.093749999999999931e-02 0.000000000000000000e+00 0.000000000000000000e+00 0.000000000000000000e+00 0.000000000000000000e+00 1.093749999999999931e-02 0.000000000000000000e+00 1.093749999999999931e-02 0.000000000000000000e+00 1.093749999999999931e-02 1.093749999999999931e-02 0.000000000000000000e+00 0.000000000000000000e+00 -0.000000000000000000e+00 -2.078125000000000111e-02 -0.000000000000000000e+00 -2.078125000000000111e-02 -0.000000000000000000e+00 -0.000000000000000000e+00 -0.000000000000000000e+00 -2.078125000000000111e-02 -2.078125000000000111e-02 -0.000000000000000000e+00 -2.078125000000000111e-02 -0.000000000000000000e+00 -2.078125000000000111e-02
0.000000000000000000e+00 0.000000000000000000e+00 1.093749999999999931e-02 1.093749999999999931e-02 0.000000000000000000e+00 0.000000000000000000e+00 0.000000000000000000e+00 0.000000000000000000e+00 0.000000000000000000e+00 -1.000000000000000000e+00 0.000000000000000000e+00 0.000000000000000000e+00 0.000000000000000000e+00 0.000000000000000000e+00 0.000000000000000000e+00 0.000000000000000000e+00 0.000000000000000000e+00 0.000000000000000000e+00 0.000000000000000000e+00 0.000000000000000000e+00 1.093749999999999931e-02 0.000000000000000000e+00 1.093749999999999931e-02 0.000000000000000000e+00 0.000000000000000000e+00 0.000000000000000000e+00 1.093749999999999931e-02 0.000000000000000000e+00 0.000000000000000000e+00 0.000000000000000000e+00 0.000000000000000000e+00 0.000000000000000000e+00 0.000000000000000000e+00 0.000000000000000000e+00 0.000000000000000000e+00 0.000000000000000000e+00 0.000000000000000000e+00 0.000000000000000000e+00 0.000000000000000000e+00 0.000000000000000000e+00 0.000000000000000000e+00 0.000000000000000000e+00 0.000000000000000000e+00 0.000000000000000000e+00 1.093749999999999931e-02 0.000000000000000000e+00 0.000000000000000000e+00 0.000000000000000000e+00 0.000000000000000000e+00 0.000000000000000000e+00 1.093749999999999931e-02 -0.000000000000000000e+00 -2.078125000000000111e-02 -0.000000000000000000e+00 -2.078125000000000111e-02 -0.000000000000000000e+00 -2.078125000000000111e-02 -0.000000000000000000e+00 -0.000000000000000000e+00 -2.078125000000000111e-02 -0.000000000000000000e+00 -2.078125000000000111e-02 -2.078125000000000111e-02 -2.078125000000000111e-02
0.000000000000000000e+00 0.000000000000000000e+00 0.000000000000000000e+00 0.000000000000000000e+00 0.000000000000000000e+00 0.000000000000000000e+00 0.000000000000000000e+00 0.000000000000000000e+00 0.000000000000000000e+00 1.093749999999999931e-02 -1.000000000000000000e+00 0.000000000000000000e+00 1.093749999999999931e-02 0.000000000000000000e+00 0.000000000000000000e+00 0.000000000000000000e+00 0.000000000000000000e+00 0.000000000000000000e+00 0.000000000000000000e+00 0.000000000000000000e+00 0.000000000000000000e+00 0.000000000000000000e+00 1.093749999999999931e-02 0.000000000000000000e+00 0.000000000000000000e+00 1.093749999999999931e-02 0.000000000000000000e+00 1.093749999999999931e-02 0.000000000000000000e+00 1.093749999999999931e-02 0.000000000000000000e+00 1.093749999999999931e-02 0.000000000000000000e+00 1.093749999999999931e-02 0.000000000000000000e+00 0.000000000000000000e+00 0.000000000000000000e+00 0.000000000000000000e+00 0.000000000000000000e+00 0.000000000000000000e+00 0.000000000000000000e+00 0.000000000000000000e+00 0.000000000000000000e+00 0.000000000000000000e+00 0.000000000000000000e+00 0.000000000000000000e+00 1.093749999999999931e-02 0.000000000000000000e+00 0.000000000000000000e+00 0.000000000000000000e+00 1.093749999999999931e-02 -2.078125000000000111e-02 -0.000000000000000000e+00 -0.000000000000000000e+00 -0.000000000000000000e+00 -0.000000000000000000e+00 -0.000000000000000000e+00 -2.078125000000000111e-02 -0.000000000000000000e+00 -0.000000000000000000e+00 -2.078125000000000111e-02 -2.078125000000000111e-02 -2.078125000000000111e-02 -2.078125000000000111e-02
1.093749999999999931e-02 1.093749999999999931e-02 0.000000000000000000e+00 0.000000000000000000e+00 0.000000000000000000e+00 0.000000000000000000e+00 0.000000000000000000e+00 0.000000000000000000e+00 0.000000000000000000e+00 0.000000000000000000e+00 0.000000000000000000e+00 -1.000000000000000000e+00 0.000000000000000000e+00 0.000000000000000000e+00 0.000000000000000000e+00 0.000000000000000000e+00 0.000000000000000000e+00 0.000000000000000000e+00 0.000000000000000000e+00 0.000000000000000000e+00 0.000000000000000000e+00 0.000000000000000000e+00 0.000000000000000000e+00 0.000000000000000000e+00 0.000000000000000000e+00 1.093749999999999931e-02 0.000000000000000000e+00 0.000000000000000000e+00 1.093749999999999931e-02 0.000000000000000000e+00 0.000000000000000000e+00 0.000000000000000000e+00 0.000000000000000000e+00 1.093749999999999931e-02 0.000000000000000000e+00 0.000000000000000000e+00 0.000000000000000000e+00 1.093749999999999931e-02 0.000000000000000000e+00 0.000000000000000000e+00 0.000000000000000000e+00 0.000000000000000000e+00 0.000000000000000000e+00 0.000000000000000000e+00 1.093749999999999931e-02 0.000000000000000000e+00 0.000000000000000000e+00 0.000000000000000000e+00 0.000000000000000000e+00 0.000000000000000000e+00 1.093749999999999931e-02 -0.000000000000000000e+00 -0.000000000000000000e+00 -2.078125000000000111e-02 -2.078125000000000111e-02 -0.000000000000000000e+00 -2.078125000000000111e-02 -2.078125000000000111e-02 -2.078125000000000111e-02 -2.078125000000000111e-02 -0.000000000000000000e+00 -2.078125000000000111e-02 -2.078125000000000111e-02 -0.000000000000000000e+00
1.093749999999999931e-02 0.000000000000000000e+00 1.093749999999999931e-02 0.000000000000000000e+00 0.000000000000000000e+00 0.000000000000000000e+00 0.000000000000000000e+00 0.000000000000000000e+00 0.000000000000000000e+00 0.000000000000000000e+00 1.093749999999999931e-02 0.000000000000000000e+00 -1.000000000000000000e+00 1.093749999999999931e-02 0.000000000000000000e+00 0.000000000000000000e+00 0.000000000000000000e+00 1.093749999999999931e-02 1.093749999999999931e-02 0.000000000000000000e+00 0.000000000000000000e+00 0.000000000000000000e+00 0.000000000000000000e+00 0.000000000000000000e+00 0.000000000000000000e+00 0.000000000000000000e+00 0.000000000000000000e+00 0.000000000000000000e+00 1.093749999999999931e-02 1.093749999999999931e-02 0.000000000000000000e+00 1.093749999999999931e-02 0.000000000000000000e+00 1.093749999999999931e-02 1.093749999999999931e-02 0.000000000000000000e+00 0.000000000000000000e+00 0.000000000000000000e+00 0.000000000000000000e+00 0.000000000000000000e+00 0.000000000000000000e+00 0.000000000000000000e+00 0.000000000000000000e+00 0.000000000000000000e+00 0.000000000000000000e+00 0.000000000000000000e+00 1.093749999999999931e-02 0.000000000000000000e+00 0.000000000000000000e+00 1.093749999999999931e-02 0.000000000000000000e+00 -2.078125000000000111e-02 -2.078125000000000111e-02 -0.000000000000000000e+00 -2.078125000000000111e-02 -0.000000000000000000e+00 -0.000000000000000000e+00 -2.078125000000000111e-02 -0.000000000000000000e+00 -0.000000000000000000e+00 -0.000000000000000000e+00 -0.000000000000000000e+00 -0.000000000000000000e+00 -2.078125000000000111e-02
0.000000000000000000e+00 0.000000000000000000e+00 0.000000000000000000e+00 1.093749999999999931e-02 0.000000000000000000e+00 0.000000000000000000e+00 0.000000000000000000e+00 1.093749999999999931e-02 0.000000000000000000e+00 0.000000000000000000e+00 1.093749999999999931e-02 0.000000000000000000e+00 1.093749999999999931e-02 -1.000000000000000000e+00 0.000000000000000000e+00 0.000000000000000000e+00 0.000000000000000000e+00 0.000000000000000000e+00 0.000000000000000000e+00 0.000000000000000000e+00 0.000000000000000000e+00 0.000000000000000000e+00 0.000000000000000000e+00 0.000000000000000000e+00 0.000000000000000000e+00 0.000000000000000000e+00 0.000000000000000000e+00 0.000000000000000000e+00 0.000000000000000000e+00 0.000000000000000000e+00 0.000000000000000000e+00 0.000000000000000000e+00 0.000000000000000000e+00 0.000000000000000000e+00 0.000000000000000000e+00 0.000000000000000000e+00 1.093749999999999931e-02 0.000000000000000000e+00 0.000000000000000000e+00 0.000000000000000000e+00 0.000000000000000000e+00 0.000000000000000000e+00 0.000000000000000000e+00 1.093749999999999931e-02 0.000000000000000000e+00 0.000000000000000000e+00 1.093749999999999931e-02 0.000000000000000000e+00 0.000000000000000000e+00 0.000000000000000000e+00 0.000000000000000000e+00 -0.000000000000000000e+00 -0.000000000000000000e+00 -2.078125000000000111e-02 -2.078125000000000111e-02 -2.078125000000000111e-02 -2.078125000000000111e-02 -0.000000000000000000e+00 -2.078125000000000111e-02 -0.000000000000000000e+00 -0.000000000000000000e+00 -2.078125000000000111e-02 -2.078125000000000111e-02 -0.000000000000000000e+00
0.000000000000000000e+00 0.000000000000000000e+00 0.000000000000000000e+00 0.000000000000000000e+00 0.000000000000000000e+00 0.000000000000000000e+00 1.093749999999999931e-02 1.093749999999999931e-02 1.093749999999999931e-02 0.000000000000000000e+00 0.000000000000000000e+00 0.000000000000000000e+00 0.000000000000000000e+00 0.000000000000000000e+00 -1.000000000000000000e+00 0.000000000000000000e+00 0.000000000000000000e+00 0.000000000000000000e+00 0.000000000000000000e+00 0.000000000000000000e+00 1.093749999999999931e-02 1.093749999999999931e-02 0.000000000000000000e+00 0.000000000000000000e+00 0.000000000000000000e+00 0.000000000000000000e+00 0.000000000000000000e+00 0.000000000000000000e+00 0.000000000000000000e+00 0.000000000000000000e+00 0.000000000000000000e+00 0.000000000000000000e+00 0.000000000000000000e+00 1.093749999999999931e-02 0.000000000000000000e+00 1.093749999999999931e-02 0.000000000000000000e+00 0.000000000000000000e+00 0.000000000000000000e+00 1.093749999999999931e-02 0.000000000000000000e+00 0.000000000000000000e+00 0.000000000000000000e+00 0.000000000000000000e+00 0.000000000000000000e+00 0.000000000000000000e+00 1.093749999999999931e-02 0.000000000000000000e+00 1.093749999999999931e-02 0.000000000000000000e+00 0.000000000000000000e+00 -2.078125000000000111e-02 -2.078125000000000111e-02 -2.078125000000000111e-02 -2.078125000000000111e-02 -2.078125000000000111e-02 -0.000000000000000000e+00 -0.000000000000000000e+00 -2.078125000000000111e-02 -0.000000000000000000e+00 -0.000000000000000000e+00 -0.000000000000000000e+00 -2.078125000000000111e-02 -0.000000000000000000e+00
0.000000000000000000e+00 0.000000000000000000e+00 0.000000000000000000e+00 1.093749999999999931e-02 0.000000000000000000e+00 1.093749999999999931e-02 0.000000000000000000e+00 0.000000000000000000e+00 0.000000000000000000e+00 0.000000000000000000e+00 0.000000000000000000e+00 0.000000000000000000e+00 1.093749999999999931e-02 0.000000000000000000e+00 0.000000000000000000e+00 -1.000000000000000000e+00 0.000000000000000000e+00 0.000000000000000000e+00 0.000000000000000000e+00 0.000000000000000000e+00 0.000000000000000000e+00 1.093749999999999931e-02 0.000000000000000000e+00 0.000000000000000000e+00 0.000000000000000000e+00 0.000000000000000000e+00 0.000000000000000000e+00 0.000000000000000000e+00 0.000000000000000000e+00 0.000000000000000000e+00 0.000000000000000000e+00 0.000000000000000000e+00 0.000000000000000000e+00 0.000000000000000000e+00 0.000000000000000000e+00 1.093749999999999931e-02 1.093749999999999931e-02 0.000000000000000000e+00 0.000000000000000000e+00 1.093749999999999931e-02 1.093749999999999931e-02 0.000000000000000000e+00 0.000000000000000000e+00 1.093749999999999931e-02 1.093749999999999931e-02 0.000000000000000000e+00 1.093749999999999931e-02 0.000000000000000000e+00 0.000000000000000000e+00 0.000000000000000000e+00 1.093749999999999931e-02 -0.000000000000000000e+00 -2.078125000000000111e-02 -0.000000000000000000e+00 -0.000000000000000000e+00 -2.078125000000000111e-02 -2.078125000000000111e-02 -0.000000000000000000e+00 -2.078125000000000111e-02 -2.078125000000000111e-02 -2.078125000000000111e-02 -0.000000000000000000e+00 -0.000000000000000000e+00 -2.078125000000000111e-02
0.000000000000000000e+00 0.000000000000000000e+00 0.000000000000000000e+00 0.000000000000000000e+00 0.000000000000000000e+00 0.000000000000000000e+00 0.000000000000000000e+00 1.093749999999999931e-02 0.000000000000000000e+00 0.000000000000000000e+00 1.093749999999999931e-02 0.000000000000000000e+00 0.000000000000000000e+00 0.000000000000000000e+00 0.000000000000000000e+00 0.000000000000000000e+00 -1.000000000000000000e+00 0.000000000000000000e+00 0.000000000000000000e+00 0.000000000000000000e+00 0.000000000000000000e+00 0.000000000000000000e+00 0.000000000000000000e+00 0.000000000000000000e+00 0.000000000000000000e+00 0.000000000000000000e+00 0.000000000000000000e+00 0.000000000000000000e+00 0.000000000000000000e+00 1.093749999999999931e-02 0.000000000000000000e+00 0.000000000000000000e+00 0.000000000000000000e+00 0.000000000000000000e+00 0.000000000000000000e+00 0.000000000000000000e+00 0.000000000000000000e+00 1.093749999999999931e-02 0.000000000000000000e+00 0.000000000000000000e+00 1.093749999999999931e-02 0.000000000000000000e+00 0.000000000000000000e+00 0.000000000000000000e+00 0.000000000000000000e+00 0.000000000000000000e+00 1.093749999999999931e-02 0.000000000000000000e+00 1.093749999999999931e-02 0.000000000000000000e+00 0.000000000000000000e+00 -2.078125000000000111e-02 -0.000000000000000000e+00 -0.000000000000000000e+00 -0.000000000000000000e+00 -0.000000000000000000e+00 -0.000000000000000000e+00 -0.000000000000000000e+00 -0.000000000000000000e+00 -2.078125000000000111e-02 -2.078125000000000111e-02 -0.000000000000000000e+00 -0.000000000000000000e+00 -2.078125000000000111e-02
0.000000000000000000e+00 1.093749999999999931e-02 0.000000000000000000e+00 0.000000000000000000e+00 0.000000000000000000e+00 0.000000000000000000e+00 0.000000000000000000e+00 0.000000000000000000e+00 0.000000000000000000e+00 1.093749999999999931e-02 0.000000000000000000e+00 0.000000000000000000e+00 0.000000000000000000e+00 0.000000000000000000e+00 0.000000000000000000e+00 0.000000000000000000e+00 1.093749999999999931e-02 -1.000000000000000000e+00 0.000000000000000000e+00 0.000000000000000000e+00 0.000000000000000000e+00 0.000000000000000000e+00 0.000000000000000000e+00 0.000000000000000000e+00 0.000000000000000000e+00 0.000000000000000000e+00 0.000000000000000000e+00 0.000000000000000000e+00 0.000000000000000000e+00 0.000000000000000000e+00 0.000000000000000000e+00 0.000000000000000000e+00 0.000000000000000000e+00 0.000000000000000000e+00 0.000000000000000000e+00 0.000000000000000000e+00 0.000000000000000000e+00 1.093749999999999931e-02 0.000000000000000000e+00 1.093749999999999931e-02 0.000000000000000000e+00 0.000000000000000000e+00 0.000000000000000000e+00 1.093749999999999931e-02 0.000000000000000000e+00 0.000000000000000000e+00 0.000000000000000000e+00 0.000000000000000000e+00 1.093749999999999931e-02 0.000000000000000000e+00 0.000000000000000000e+00 -0.000000000000000000e+00 -2.078125000000000111e-02 -2.078125000000000111e-02 -2.078125000000000111e-02 -2.078125000000000111e-02 -0.000000000000000000e+00 -2.078125000000000111e-02 -2.078125000000000111e-02 -2.078125000000000111e-02 -0.000000000000000000e+00 -2.078125000000000111e-02 -2.078125000000000111e-02 -0.000000000000000000e+00
0.000000000000000000e+00 0.000000000000000000e+00 1.093749999999999931e-02 0.000000000000000000e+00 0.000000000000000000e+00 0.000000000000000000e+00 0.000000000000000000e+00 0.000000000000000000e+00 0.000000000000000000e+00 0.000000000000000000e+00 0.000000000000000000e+00 1.093749999999999931e-02 0.000000000000000000e+00 0.000000000000000000e+00 0.000000000000000000e+00 0.000000000000000000e+00 0.000000000000000000e+00 0.000000000000000000e+00 -1.000000000000000000e+00 0.000000000000000000e+00 0.000000000000000000e+00 0.000000000000000000e+00 0.000000000000000000e+00 1.093749999999999931e-02 1.093749999999999931e-02 0.000000000000000000e+00 0.000000000000000000e+00 0.000000000000000000e+00 0.000000000000000000e+00 1.093749999999999931e-02 0.000000000000000000e+00 0.000000000000000000e+00 0.000000000000000000e+00 0.000000000000000000e+00 0.000000000000000000e+00 0.000000000000000000e+00 0.000000000000000000e+00 0.000000000000000000e+00 0.000000000000000000e+00 0.000000000000000000e+00 1.093749999999999931e-02 0.000000000000000000e+00 0.000000000000000000e+00 0.000000000000000000e+00 0.000000000000000000e+00 0.000000000000000000e+00 0.000000000000000000e+00 0.000000000000000000e+00 0.000000000000000000e+00 0.000000000000000000e+00 0.000000000000000000e+00 -2.078125000000000111e-02 -2.078125000000000111e-02 -2.078125000000000111e-02 -0.000000000000000000e+00 -2.078125000000000111e-02 -2.078125000000000111e-02 -2.078125000000000111e-02 -0.000000000000000000e+00 -2.078125000000000111e-02 -0.000000000000000000e+00 -2.078125000000000111e-02 -0.000000000000000000e+00 -2.078125000000000111e-02
0.000000000000000000e+00 0.000000000000000000e+00 0.000000000000000000e+00 0.000000000000000000e+00 0.000000000000000000e+00 0.000000000000000000e+00 0.000000000000000000e+00 0.000000000000000000e+00 0.000000000000000000e+00 0.000000000000000000e+00 1.093749999999999931e-02 1.093749999999999931e-02 0.000000000000000000e+00 1.093749999999999931e-02 0.000000000000000000e+00 0.000000000000000000e+00 0.000000000000000000e+00 0.000000000000000000e+00 0.000000000000000000e+00 -1.000000000000000000e+00 0.000000000000000000e+00 1.093749999999999931e-02 0.000000000000000000e+00 0.000000000000000000e+00 0.000000000000000000e+00 0.000000000000000000e+00 0.000000000000000000e+00 0.000000000000000000e+00 1.093749999999999931e-02 0.000000000000000000e+00 0.000000000000000000e+00 0.000000000000000000e+00 0.000000000000000000e+00 0.000000000000000000e+00 1.093749999999999931e-02 0.000000000000000000e+00 0.000000000000000000e+00 0.000000000000000000e+00 0.000000000000000000e+00 0.000000000000000000e+00 1.093749999999999931e-02 0.000000000000000000e+00 0.000000000000000000e+00 0.000000000000000000e+00 0.000000000000000000e+00 0.000000000000000000e+00 0.000000000000000000e+00 0.000000000000000000e+00 0.000000000000000000e+00 0.000000000000000000e+00 0.000000000000000000e+00 -2.078125000000000111e-02 -2.078125000000000111e-02 -0.000000000000000000e+00 -2.078125000000000111e-02 -0.000000000000000000e+00 -0.000000000000000000e+00 -0.000000000000000000e+00 -2.078125000000000111e-02 -0.000000000000000000e+00 -0.000000000000000000e+00 -2.078125000000000111e-02 -0.000000000000000000e+00 -2.078125000000000111e-02
0.000000000000000000e+00 0.000000000000000000e+00 1.093749999999999931e-02 0.000000000000000000e+00 0.000000000000000000e+00 0.000000000000000000e+00 0.000000000000000000e+00 0.000000000000000000e+00 0.000000000000000000e+00 0.000000000000000000e+00 1.093749999999999931e-02 0.000000000000000000e+00 1.093749999999999931e-02 1.093749999999999931e-02 0.000000000000000000e+00 0.000000000000000000e+00 1.093749999999999931e-02 0.000000000000000000e+00 0.000000000000000000e+00 0.000000000000000000e+00 -1.000000000000000000e+00 0.000000000000000000e+00 0.000000000000000000e+00 0.000000000000000000e+00 1.093749999999999931e-02 1.093749999999999931e-02 1.093749999999999931e-02 0.000000000000000000e+00 0.000000000000000000e+00 1.093749999999999931e-02 0.000000000000000000e+00 0.000000000000000000e+00 0.000000000000000000e+00 1.093749999999999931e-02 0.000000000000000000e+00 0.000000000000000000e+00 0.000000000000000000e+00 1.093749999999999931e-02 0.000000000000000000e+00 0.000000000000000000e+00 0.000000000000000000e+00 1.093749999999999931e-02 1.093749999999999931e-02 1.093749999999999931e-02 0.000000000000000000e+00 0.000000000000000000e+00 0.000000000000000000e+00 0.000000000000000000e+00 0.000000000000000000e+00 0.000000000000000000e+00 0.000000000000000000e+00 -2.078125000000000111e-02 -0.000000000000000000e+00 -0.000000000000000000e+00 -2.078125000000000111e-02 -2.078125000000000111e-02 -0.000000000000000000e+00 -2.078125000000000111e-02 -0.000000000000000000e+00 -0.000000000000000000e+00 -0.000000000000000000e+00 -2.078125000000000111e-02 -2.078125000000000111e-02 -0.000000000000000000e+00
0.000000000000000000e+00 0.000000000000000000e+00 0.000000000000000000e+00 0.000000000000000000e+00 0.000000000000000000e+00 1.093749999999999931e-02 0.000000000000000000e+00 0.000000000000000000e+00 1.093749999999999931e-02 0.000000000000000000e+00 0.000000000000000000e+00 0.000000000000000000e+00 0.000000000000000000e+00 0.000000000000000000e+00 1.093749999999999931e-02 0.000000000000000000e+00 0.000000000000000000e+00 1.093749999999999931e-02 0.000000000000000000e+00 0.000000000000000000e+00 0.000000000000000000e+00 -1.000000000000000000e+00 0.000000000000000000e+00 0.000000000000000000e+00 0.000000000000000000e+00 0.000000000000000000e+00 0.000000000000000000e+00 0.000000000000000000e+00 0.000000000000000000e+00 0.000000000000000000e+00 0.000000000000000000e+00 0.000000000000000000e+00 0.000000000000000000e+00 1.093749999999999931e-02 0.000000000000000000e+00 0.000000000000000000e+00 1.093749999999999931e-02 0.000000000000000000e+00 0.000000000000000000e+00 0.000000000000000000e+00 0.000000000000000000e+00 0.000000000000000000e+00 0.000000000000000000e+00 0.000000000000000000e+00 1.093749999999999931e-02 0.000000000000000000e+00 0.000000000000000000e+00 0.000000000000000000e+00 0.000000000000000000e+00 0.000000000000000000e+00 0.000000000000000000e+00 -0.000000000000000000e+00 -2.078125000000000111e-02 -0.000000000000000000e+00 -2.078125000000000111e-02 -2.078125000000000111e-02 -2.078125000000000111e-02 -0.000000000000000000e+00 -2.078125000000000111e-02 -2.078125000000000111e-02 -2.078125000000000111e-02 -0.000000000000000000e+00 -2.078125000000000111e-02 -0.000000000000000000e+00
0.000000000000000000e+00 0.000000000000000000e+00 0.000000000000000000e+00 0.000000000000000000e+00 0.000000000000000000e+00 0.000000000000000000e+00 0.000000000000000000e+00 1.093749999999999931e-02 0.000000000000000000e+00 0.000000000000000000e+00 0.000000000000000000e+00 0.000000000000000000e+00 0.000000000000000000e+00 0.000000000000000000e+00 0.000000000000000000e+00 1.093749999999999931e-02 1.093749999999999931e-02 0.000000000000000000e+00 0.000000000000000000e+00 0.000000000000000000e+00 0.000000000000000000e+00 0.000000000000000000e+00 -1.000000000000000000e+00 1.093749999999999931e-02 0.000000000000000000e+00 0.000000000000000000e+00 0.000000000000000000e+00 0.000000000000000000e+00 0.000000000000000000e+00 0.000000000000000000e+00 0.000000000000000000e+00 0.000000000000000000e+00 1.093749999999999931e-02 0.000000000000000000e+00 0.000000000000000000e+00 0.000000000000000000e+00 0.000000000000000000e+00 0.000000000000000000e+00 0.000000000000000000e+00 0.000000000000000000e+00 0.000000000000000000e+00 0.000000000000000000e+00 0.000000000000000000e+00 1.093749999999999931e-02 0.000000000000000000e+00 1.093749999999999931e-02 0.000000000000000000e+00 1.093749999999999931e-02 0.000000000000000000e+00 0.000000000000000000e+00 0.000000000000000000e+00 -0.000000000000000000e+00 -0.000000000000000000e+00 -2.078125000000000111e-02 -0.000000000000000000e+00 -2.078125000000000111e-02 -0.000000000000000000e+00 -2.078125000000000111e-02 -2.078125000000000111e-02 -0.000000000000000000e+00 -0.000000000000000000e+00 -2.078125000000000111e-02 -2.078125000000000111e-02 -0.000000000000000000e+00
0.000000000000000000e+00 1.093749999999999931e-02 0.000000000000000000e+00 0.000000000000000000e+00 1.093749999999999931e-02 0.000000000000000000e+00 0.000000000000000000e+00 1.093749999999999931e-02 1.093749999999999931e-02 0.000000000000000000e+00 0.000000000000000000e+00 1.093749999999999931e-02 0.000000000000000000e+00 0.000000000000000000e+00 0.000000000000000000e+00 0.000000000000000000e+00 0.000000000000000000e+00 0.000000000000000000e+00 0.000000000000000000e+00 1.093749999999999931e-02 0.000000000000000000e+00 0.000000000000000000e+00 0.000000000000000000e+00 -1.000000000000000000e+00 0.000000000000000000e+00 0.000000000000000000e+00 0.000000000000000000e+00 0.000000000000000000e+00 0.000000000000000000e+00 1.093749999999999931e-02 0.000000000000000000e+00 0.000000000000000000e+00 0.000000000000000000e+00 0.000000000000000000e+00 0.000000000000000000e+00 0.000000000000000000e+00 0.000000000000000000e+00 0.000000000000000000e+00 0.000000000000000000e+00 0.000000000000000000e+00 0.000000000000000000e+00 0.000000000000000000e+00 0.000000000000000000e+00 1.093749999999999931e-02 0.000000000000000000e+00 0.000000000000000000e+00 0.000000000000000000e+00 0.000000000000000000e+00 0.000000000000000000e+00 1.093749999999999931e-02 0.000000000000000000e+00 -2.078125000000000111e-02 -2.078125000000000111e-02 -0.000000000000000000e+00 -2.078125000000000111e-02 -0.000000000000000000e+00 -2.078125000000000111e-02 -0.000000000000000000e+00 -0.000000000000000000e+00 -2.078125000000000111e-02 -0.000000000000000000e+00 -0.000000000000000000e+00 -0.000000000000000000e+00 -2.078125000000000111e-02
0.000000000000000000e+00 0.000000000000000000e+00 0.000000000000000000e+00 0.000000000000000000e+00 0.000000000000000000e+00 0.000000000000000000e+00 0.000000000000000000e+00 0.000000000000000000e+00 1.093749999999999931e-02 0.000000000000000000e+00 0.000000000000000000e+00 0.000000000000000000e+00 0.000000000000000000e+00 0.000000000000000000e+00 0.000000000000000000e+00 0.000000000000000000e+00 0.000000000000000000e+00 1.093749999999999931e-02 0.000000000000000000e+00 0.000000000000000000e+00 0.000000000000000000e+00 0.000000000000000000e+00 0.000000000000000000e+00 0.000000000000000000e+00 -1.000000000000000000e+00 0.000000000000000000e+00 1.093749999999999931e-02 0.000000000000000000e+00 0.000000000000000000e+00 0.000000000000000000e+00 0.000000000000000000e+00 0.000000000000000000e+00 0.000000000000000000e+00 1.093749999999999931e-02 1.093749999999999931e-02 1.093749999999999931e-02 0.000000000000000000e+00 0.000000000000000000e+00 0.000000000000000000e+00 0.000000000000000000e+00 0.000000000000000000e+00 0.000000000000000000e+00 0.000000000000000000e+00 0.000000000000000000e+00 0.000000000000000000e+00 0.000000000000000000e+00 0.000000000000000000e+00 1.093749999999999931e-02 0.000000000000000000e+00 1.093749999999999931e-02 0.000000000000000000e+00 -0.000000000000000000e+00 -2.078125000000000111e-02 -2.078125000000000111e-02 -0.000000000000000000e+00 -2.078125000000000111e-02 -0.000000000000000000e+00 -0.000000000000000000e+00 -2.078125000000000111e-02 -0.000000000000000000e+00 -2.078125000000000111e-02 -0.000000000000000000e+00 -2.078125000000000111e-02 -2.078125000000000111e-02
0.000000000000000000e+00 0.000000000000000000e+00 0.000000000000000000e+00 0.000000000000000000e+00 0.000000000000000000e+00 0.000000000000000000e+00 0.000000000000000000e+00 1.093749999999999931e-02 0.000000000000000000e+00 0.000000000000000000e+00 0.000000000000000000e+00 0.000000000000000000e+00 0.000000000000000000e+00 0.000000000000000000e+00 0.000000000000000000e+00 0.000000000000000000e+00 0.000000000000000000e+00 0.000000000000000000e+00 1.093749999999999931e-02 0.000000000000000000e+00 0.000000000000000000e+00 1.093749999999999931e-02 0.000000000000000000e+00 1.093749999999999931e-02 0.000000000000000000e+00 -1.000000000000000000e+00 0.000000000000000000e+00 0.000000000000000000e+00 0.000000000000000000e+00 0.000000000000000000e+00 0.000000000000000000e+00 0.000000000000000000e+00 0.000000000000000000e+00 0.000000000000000000e+00 0.000000000000000000e+00 0.000000000000000000e+00 0.000000000000000000e+00 0.000000000000000000e+00 0.000000000000000000e+00 0.000000000000000000e+00 0.000000000000000000e+00 0.000000000000000000e+00 0.000000000000000000e+00 0.000000000000000000e+00 0.000000000000000000e+00 0.000000000000000000e+00 0.000000000000000000e+00 0.000000000000000000e+00 0.000000000000000000e+00 0.000000000000000000e+00 1.093749999999999931e-02 -0.000000000000000000e+00 -0.000000000000000000e+00 -2.078125000000000111e-02 -0.000000000000000000e+00 -2.078125000000000111e-02 -2.078125000000000111e-02 -0.000000000000000000e+00 -2.078125000000000111e-02 -2.078125000000000111e-02 -2.078125000000000111e-02 -0.000000000000000000e+00 -0.000000000000000000e+00 -0.000000000000000000e+00
0.000000000000000000e+00 0.000000000000000000e+00 1.093749999999999931e-02 0.000000000000000000e+00 1.093749999999999931e-02 0.000000000000000000e+00 0.000000000000000000e+00 0.000000000000000000e+00 0.000000000000000000e+00 0.000000000000000000e+00 0.000000000000000000e+00 0.000000000000000000e+00 0.000000000000000000e+00 0.000000000000000000e+00 0.000000000000000000e+00 0.000000000000000000e+00 0.000000000000000000e+00 0.000000000000000000e+00 0.000000000000000000e+00 0.000000000000000000e+00 0.000000000000000000e+00 0.000000000000000000e+00 0.000000000000000000e+00 0.000000000000000000e+00 0.000000000000000000e+00 0.000000000000000000e+00 -1.000000000000000000e+00 0.000000000000000000e+00 0.000000000000000000e+00 0.000000000000000000e+00 1.093749999999999931e-02 0.000000000000000000e+00 0.000000000000000000e+00 0.000000000000000000e+00 0.000000000000000000e+00 0.000000000000000000e+00 0.000000000000000000e+00 1.093749999999999931e-02 1.093749999999999931e-02 1.093749999999999931e-02 0.000000000000000000e+00 0.000000000000000000e+00 0.000000000000000000e+00 0.000000000000000000e+00 0.000000000000000000e+00 0.000000000000000000e+00 1.093749999999999931e-02 0.000000000000000000e+00 0.000000000000000000e+00 0.000000000000000000e+00 0.000000000000000000e+00 -2.078125000000000111e-02 -2.078125000000000111e-02 -0.000000000000000000e+00 -0.000000000000000000e+00 -0.000000000000000000e+00 -2.078125000000000111e-02 -2.078125000000000111e-02 -2.078125000000000111e-02 -2.078125000000000111e-02 -2.078125000000000111e-02 -2.078125000000000111e-02 -0.000000000000000000e+00 -0.000000000000000000e+00
0.000000000000000000e+00 0.000000000000000000e+00 0.000000000000000000e+00 0.000000000000000000e+00 0.000000000000000000e+00 0.000000000000000000e+00 0.000000000000000000e+00 0.000000000000000000e+00 0.000000000000000000e+00 0.000000000000000000e+00 0.000000000000000000e+00 0.000000000000000000e+00 0.000000000000000000e+00 1.093749999999999931e-02 0.000000000000000000e+00 1.093749999999999931e-02 0.000000000000000000e+00 0.000000000000000000e+00 0.000000000000000000e+00 1.093749999999999931e-02 0.000000000000000000e+00 0.000000000000000000e+00 0.000000000000000000e+00 0.000000000000000000e+00 0.000000000000000000e+00 0.000000000000000000e+00 1.093749999999999931e-02 -1.000000000000000000e+00 0.000000000000000000e+00 0.000000000000000000e+00 0.000000000000000000e+00 0.000000000000000000e+00 0.000000000000000000e+00 0.000000000000000000e+00 0.000000000000000000e+00 0.000000000000000000e+00 0.000000000000000000e+00 0.000000000000000000e+00 0.000000000000000000e+00 0.000000000000000000e+00 1.093749999999999931e-02 1.093749999999999931e-02 1.093749999999999931e-02 1.093749999999999931e-02 1.093749999999999931e-02 0.000000000000000000e+00 0.000000000000000000e+00 1.093749999999999931e-02 0.000000000000000000e+00 0.000000000000000000e+00 0.000000000000000000e+00 -0.000000000000000000e+00 -2.078125000000000111e-02 -2.078125000000000111e-02 -2.078125000000000111e-02 -2.078125000000000111e-02 -0.000000000000000000e+00 -2.078125000000000111e-02 -0.000000000000000000e+00 -0.000000000000000000e+00 -2.078125000000000111e-02 -2.078125000000000111e-02 -0.000000000000000000e+00 -0.000000000000000000e+00
0.000000000000000000e+00 0.000000000000000000e+00 1.093749999999999931e-02 0.000000000000000000e+00 0.000000000000000000e+00 0.000000000000000000e+00 0.000000000000000000e+00 0.000000000000000000e+00 1.093749999999999931e-02 0.000000000000000000e+00 0.000000000000000000e+00 0.000000000000000000e+00 0.000000000000000000e+00 0.000000000000000000e+00 0.000000000000000000e+00 1.093749999999999931e-02 1.093749999999999931e-02 0.000000000000000000e+00 0.000000000000000000e+00 0.000000000000000000e+00 0.000000000000000000e+00 0.000000000000000000e+00 1.093749999999999931e-02 0.000000000000000000e+00 1.093749999999999931e-02 1.093749999999999931e-02 1.093749999999999931e-02 0.000000000000000000e+00 -1.000000000000000000e+00 1.093749999999999931e-02 0.000000000000000000e+00 0.000000000000000000e+00 0.000000000000000000e+00 0.000000000000000000e+00 0.000000000000000000e+00 1.093749999999999931e-02 0.000000000000000000e+00 0.000000000000000000e+00 0.000000000000000000e+00 0.000000000000000000e+00 1.093749999999999931e-02 0.000000000000000000e+00 0.000000000000000000e+00 0.000000000000000000e+00 0.000000000000000000e+00 0.000000000000000000e+00 0.000000000000000000e+00 0.000000000000000000e+00 1.093749999999999931e-02 0.000000000000000000e+00 0.000000000000000000e+00 -2.078125000000000111e-02 -0.000000000000000000e+00 -2.078125000000000111e-02 -2.078125000000000111e-02 -0.000000000000000000e+00 -2.078125000000000111e-02 -2.078125000000000111e-02 -2.078125000000000111e-02 -0.000000000000000000e+00 -0.000000000000000000e+00 -2.078125000000000111e-02 -2.078125000000000111e-02 -2.078125000000000111e-02
1.093749999999999931e-02 0.000000000000000000e+00 0.000000000000000000e+00 0.000000000000000000e+00 1.093749999999999931e-02 0.000000000000000000e+00 1.093749999999999931e-02 0.000000000000000000e+00 0.000000000000000000e+00 0.000000000000000000e+00 0.000000000000000000e+00 0.000000000000000000e+00 0.000000000000000000e+00 0.000000000000000000e+00 0.000000000000000000e+00 0.000000000000000000e+00 1.093749999999999931e-02 0.000000000000000000e+00 0.000000000000000000e+00 1.093749999999999931e-02 0.000000000000000000e+00 0.000000000000000000e+00 0.000000000000000000e+00 0.000000000000000000e+00 0.000000000000000000e+00 0.000000000000000000e+00 1.093749999999999931e-02 0.000000000000000000e+00 0.000000000000000000e+00 -1.000000000000000000e+00 0.000000000000000000e+00 0.000000000000000000e+00 0.000000000000000000e+00 0.000000000000000000e+00 1.093749999999999931e-02 0.000000000000000000e+00 0.000000000000000000e+00 0.000000000000000000e+00 0.000000000000000000e+00 0.000000000000000000e+00 0.000000000000000000e+00 1.093749999999999931e-02 0.000000000000000000e+00 0.000000000000000000e+00 0.000000000000000000e+00 0.000000000000000000e+00 0.000000000000000000e+00 0.000000000000000000e+00 0.000000000000000000e+00 1.093749999999999931e-02 0.000000000000000000e+00 -2.078125000000000111e-02 -2.078125000000000111e-02 -0.000000000000000000e+00 -2.078125000000000111e-02 -2.078125000000000111e-02 -2.078125000000000111e-02 -2.078125000000000111e-02 -0.000000000000000000e+00 -2.078125000000000111e-02 -0.000000000000000000e+00 -2.078125000000000111e-02 -0.000000000000000000e+00 -0.000000000000000000e+00
0.000000000000000000e+00 0.000000000000000000e+00 1.093749999999999931e-02 1.093749999999999931e-02 0.000000000000000000e+00 0.000000000000000000e+00 0.000000000000000000e+00 1.093749999999999931e-02 0.000000000000000000e+00 0.000000000000000000e+00 0.000000000000000000e+00 0.000000000000000000e+00 0.000000000000000000e+00 0.000000000000000000e+00 0.000000000000000000e+00 0.000000000000000000e+00 1.093749999999999931e-02 0.000000000000000000e+00 0.000000000000000000e+00 0.000000000000000000e+00 0.000000000000000000e+00 0.000000000000000000e+00 1.093749999999999931e-02 0.000000000000000000e+00 0.000000000000000000e+00 0.000000000000000000e+00 0.000000000000000000e+00 0.000000000000000000e+00 1.093749999999999931e-02 1.093749999999999931e-02 -1.000000000000000000e+00 0.000000000000000000e+00 1.093749999999999931e-02 0.000000000000000000e+00 0.000000000000000000e+00 0.000000000000000000e+00 0.000000000000000000e+00 1.093749999999999931e-02 0.000000000000000000e+00 0.000000000000000000e+00 1.093749999999999931e-02 0.000000000000000000e+00 0.000000000000000000e+00 1.093749999999999931e-02 0.000000000000000000e+00 0.000000000000000000e+00 1.093749999999999931e-02 1.093749999999999931e-02 0.000000000000000000e+00 0.000000000000000000e+00 0.000000000000000000e+00 -0.000000000000000000e+00 -2.078125000000000111e-02 -2.078125000000000111e-02 -0.000000000000000000e+00 -0.000000000000000000e+00 -0.000000000000000000e+00 -0.000000000000000000e+00 -2.078125000000000111e-02 -2.078125000000000111e-02 -2.078125000000000111e-02 -0.000000000000000000e+00 -0.000000000000000000e+00 -0.000000000000000000e+00
1.093749999999999931e-02 0.000000000000000000e+00 0.000000000000000000e+00 0.000000000000000000e+00 0.000000000000000000e+00 0.000000000000000000e+00 0.000000000000000000e+00 1.093749999999999931e-02 0.000000000000000000e+00 0.000000000000000000e+00 0.000000000000000000e+00 0.000000000000000000e+00 0.000000000000000000e+00 0.000000000000000000e+00 0.000000000000000000e+00 1.093749999999999931e-02 1.093749999999999931e-02 0.000000000000000000e+00 0.000000000000000000e+00 0.000000000000000000e+00 0.000000000000000000e+00 0.000000000000000000e+00 1.093749999999999931e-02 0.000000000000000000e+00 0.000000000000000000e+00 1.093749999999999931e-02 0.000000000000000000e+00 1.093749999999999931e-02 1.093749999999999931e-02 0.000000000000000000e+00 1.093749999999999931e-02 -1.000000000000000000e+00 1.093749999999999931e-02 0.000000000000000000e+00 0.000000000000000000e+00 0.000000000000000000e+00 0.000000000000000000e+00 0.000000000000000000e+00 0.000000000000000000e+00 0.000000000000000000e+00 0.000000000000000000e+00 0.000000000000000000e+00 0.000000000000000000e+00 0.000000000000000000e+00 0.000000000000000000e+00 0.000000000000000000e+00 0.000000000000000000e+00 0.000000000000000000e+00 0.000000000000000000e+00 0.000000000000000000e+00 0.000000000000000000e+00 -0.000000000000000000e+00 -0.000000000000000000e+00 -0.000000000000000000e+00 -0.000000000000000000e+00 -2.078125000000000111e-02 -2.078125000000000111e-02 -2.078125000000000111e-02 -0.000000000000000000e+00 -2.078125000000000111e-02 -0.000000000000000000e+00 -2.078125000000000111e-02 -2.078125000000000111e-02 -0.000000000000000000e+00
0.000000000000000000e+00 0.000000000000000000e+00 0.000000000000000000e+00 1.093749999999999931e-02 0.000000000000000000e+00 0.000000000000000000e+00 0.000000000000000000e+00 1.093749999999999931e-02 0.000000000000000000e+00 0.000000000000000000e+00 0.000000000000000000e+00 0.000000000000000000e+00 0.000000000000000000e+00 0.000000000000000000e+00 0.000000000000000000e+00 1.093749999999999931e-02 0.000000000000000000e+00 0.000000000000000000e+00 1.093749999999999931e-02 1.093749999999999931e-02 0.000000000000000000e+00 0.000000000000000000e+00 0.000000000000000000e+00 0.000000000000000000e+00 0.000000000000000000e+00 0.000000000000000000e+00 0.000000000000000000e+00 0.000000000000000000e+00 1.093749999999999931e-02 0.000000000000000000e+00 0.000000000000000000e+00 0.000000000000000000e+00 -1.000000000000000000e+00 0.000000000000000000e+00 1.093749999999999931e-02 0.000000000000000000e+00 0.000000000000000000e+00 0.000000000000000000e+00 0.000000000000000000e+00 0.000000000000000000e+00 0.000000000000000000e+00 0.000000000000000000e+00 0.000000000000000000e+00 0.000000000000000000e+00 0.000000000000000000e+00 0.000000000000000000e+00 0.000000000000000000e+00 0.000000000000000000e+00 0.000000000000000000e+00 0.000000000000000000e+00 1.093749999999999931e-02 -2.078125000000000111e-02 -2.078125000000000111e-02 -0.000000000000000000e+00 -0.000000000000000000e+00 -0.000000000000000000e+00 -0.000000000000000000e+00 -0.000000000000000000e+00 -2.078125000000000111e-02 -0.000000000000000000e+00 -0.000000000000000000e+00 -0.000000000000000000e+00 -0.000000000000000000e+00 -0.000000000000000000e+00
0.000000000000000000e+00 0.000000000000000000e+00 1.093749999999999931e-02 0.000000000000000000e+00 0.000000000000000000e+00 1.093749999999999931e-02 1.093749999999999931e-02 0.000000000000000000e+00 1.093749999999999931e-02 0.000000000000000000e+00 1.093749999999999931e-02 0.000000000000000000e+00 0.000000000000000000e+00 0.000000000000000000e+00 1.093749999999999931e-02 0.000000000000000000e+00 0.000000000000000000e+00 0.000000000000000000e+00 0.000000000000000000e+00 0.000000000000000000e+00 0.000000000000000000e+00 0.000000000000000000e+00 0.000000000000000000e+00 0.000000000000000000e+00 0.000000000000000000e+00 0.000000000000000000e+00 0.000000000000000000e+00 1.093749999999999931e-02 0.000000000000000000e+00 0.000000000000000000e+00 0.000000000000000000e+00 1.093749999999999931e-02 0.000000000000000000e+00 -1.000000000000000000e+00 0.000000000000000000e+00 0.000000000000000000e+00 0.000000000000000000e+00 0.000000000000000000e+00 0.000000000000000000e+00 0.000000000000000000e+00 0.000000000000000000e+00 1.093749999999999931e-02 0.000000000000000000e+00 0.000000000000000000e+00 0.000000000000000000e+00 0.000000000000000000e+00 0.000000000000000000e+00 0.000000000000000000e+00 0.000000000000000000e+00 0.000000000000000000e+00 1.093749999999999931e-02 -2.078125000000000111e-02 -2.078125000000000111e-02 -0.000000000000000000e+00 -2.078125000000000111e-02 -0.000000000000000000e+00 -2.078125000000000111e-02 -2.078125000000000111e-02 -2.078125000000000111e-02 -0.000000000000000000e+00 -2.078125000000000111e-02 -2.078125000000000111e-02 -0.000000000000000000e+00 -2.078125000000000111e-02
1.093749999999999931e-02 0.000000000000000000e+00 0.000000000000000000e+00 0.000000000000000000e+00 1.093749999999999931e-02 0.000000000000000000e+00 0.000000000000000000e+00 0.000000000000000000e+00 0.000000000000000000e+00 0.000000000000000000e+00 0.000000000000000000e+00 0.000000000000000000e+00 0.000000000000000000e+00 0.000000000000000000e+00 0.000000000000000000e+00 0.000000000000000000e+00 0.000000000000000000e+00 0.000000000000000000e+00 0.000000000000000000e+00 1.093749999999999931e-02 0.000000000000000000e+00 0.000000000000000000e+00 0.000000000000000000e+00 0.000000000000000000e+00 0.000000000000000000e+00 0.000000000000000000e+00 0.000000000000000000e+00 0.000000000000000000e+00 0.000000000000000000e+00 1.093749999999999931e-02 0.000000000000000000e+00 0.000000000000000000e+00 0.000000000000000000e+00 0.000000000000000000e+00 -1.000000000000000000e+00 0.000000000000000000e+00 1.093749999999999931e-02 0.000000000000000000e+00 0.000000000000000000e+00 0.000000000000000000e+00 0.000000000000000000e+00 0.000000000000000000e+00 0.000000000000000000e+00 0.000000000000000000e+00 0.000000000000000000e+00 0.000000000000000000e+00 0.000000000000000000e+00 0.000000000000000000e+00 0.000000000000000000e+00 0.000000000000000000e+00 0.000000000000000000e+00 -2.078125000000000111e-02 -0.000000000000000000e+00 -0.000000000000000000e+00 -2.078125000000000111e-02 -0.000000000000000000e+00 -0.000000000000000000e+00 -2.078125000000000111e-02 -0.000000000000000000e+00 -0.000000000000000000e+00 -0.000000000000000000e+00 -0.000000000000000000e+00 -0.000000000000000000e+00 -2.078125000000000111e-02
0.000000000000000000e+00 0.000000000000000000e+00 1.093749999999999931e-02 0.000000000000000000e+00 0.000000000000000000e+00 0.000000000000000000e+00 0.000000000000000000e+00 1.093749999999999931e-02 0.000000000000000000e+00 1.093749999999999931e-02 0.000000000000000000e+00 0.000000000000000000e+00 0.000000000000000000e+00 0.000000000000000000e+00 0.000000000000000000e+00 0.000000000000000000e+00 0.000000000000000000e+00 0.000000000000000000e+00 0.000000000000000000e+00 0.000000000000000000e+00 0.000000000000000000e+00 0.000000000000000000e+00 0.000000000000000000e+00 0.000000000000000000e+00 0.000000000000000000e+00 0.000000000000000000e+00 0.000000000000000000e+00 0.000000000000000000e+00 0.000000000000000000e+00 0.000000000000000000e+00 0.000000000000000000e+00 0.000000000000000000e+00 0.000000000000000000e+00 0.000000000000000000e+00 0.000000000000000000e+00 -1.000000000000000000e+00 1.093749999999999931e-02 1.093749999999999931e-02 0.000000000000000000e+00 1.093749999999999931e-02 0.000000000000000000e+00 0.000000000000000000e+00 0.000000000000000000e+00 0.000000000000000000e+00 0.000000000000000000e+00 0.000000000000000000e+00 0.000000000000000000e+00 0.000000000000000000e+00 0.000000000000000000e+00 0.000000000000000000e+00 0.000000000000000000e+00 -0.000000000000000000e+00 -2.078125000000000111e-02 -0.000000000000000000e+00 -2.078125000000000111e-02 -2.078125000000000111e-02 -2.078125000000000111e-02 -2.078125000000000111e-02 -2.078125000000000111e-02 -2.078125000000000111e-02 -0.000000000000000000e+00 -0.000000000000000000e+00 -2.078125000000000111e-02 -2.078125000000000111e-02
0.000000000000000000e+00 1.093749999999999931e-02 1.093749999999999931e-02 0.000000000000000000e+00 1.093749999999999931e-02 0.000000000000000000e+00 0.000000000000000000e+00 0.000000000000000000e+00 0.000000000000000000e+00 0.000000000000000000e+00 0.000000000000000000e+00 0.000000000000000000e+00 0.000000000000000000e+00 1.093749999999999931e-02 0.000000000000000000e+00 1.093749999999999931e-02 0.000000000000000000e+00 0.000000000000000000e+00 0.000000000000000000e+00 0.000000000000000000e+00 0.000000000000000000e+00 1.093749999999999931e-02 0.000000000000000000e+00 0.000000000000000000e+00 0.000000000000000000e+00 1.093749999999999931e-02 0.000000000000000000e+00 1.093749999999999931e-02 0.000000000000000000e+00 0.000000000000000000e+00 0.000000000000000000e+00 1.093749999999999931e-02 0.000000000000000000e+00 0.000000000000000000e+00 0.000000000000000000e+00 0.000000000000000000e+00 -1.000000000000000000e+00 1.093749999999999931e-02 0.000000000000000000e+00 1.093749999999999931e-02 0.000000000000000000e+00 0.000000000000000000e+00 1.093749999999999931e-02 0.000000000000000000e+00 0.000000000000000000e+00 0.000000000000000000e+00 0.000000000000000000e+00 0.000000000000000000e+00 0.000000000000000000e+00 1.093749999999999931e-02 0.000000000000000000e+00 -2.078125000000000111e-02 -2.078125000000000111e-02 -2.078125000000000111e-02 -0.000000000000000000e+00 -2.078125000000000111e-02 -0.000000000000000000e+00 -2.078125000000000111e-02 -0.000000000000000000e+00 -2.078125000000000111e-02 -2.078125000000000111e-02 -0.000000000000000000e+00 -0.000000000000000000e+00 -2.078125000000000111e-02
0.000000000000000000e+00 1.093749999999999931e-02 0.000000000000000000e+00 0.000000000000000000e+00 0.000000000000000000e+00 0.000000000000000000e+00 0.000000000000000000e+00 0.000000000000000000e+00 0.000000000000000000e+00 0.000000000000000000e+00 0.000000000000000000e+00 0.000000000000000000e+00 0.000000000000000000e+00 0.000000000000000000e+00 1.093749999999999931e-02 1.093749999999999931e-02 0.000000000000000000e+00 0.000000000000000000e+00 0.000000000000000000e+00 0.000000000000000000e+00 1.093749999999999931e-02 1.093749999999999931e-02 0.000000000000000000e+00 1.093749999999999931e-02 0.000000000000000000e+00 0.000000000000000000e+00 0.000000000000000000e+00 0.000000000000000000e+00 0.000000000000000000e+00 0.000000000000000000e+00 1.093749999999999931e-02 0.000000000000000000e+00 0.000000000000000000e+00 0.000000000000000000e+00 0.000000000000000000e+00 0.000000000000000000e+00 0.000000000000000000e+00 -1.000000000000000000e+00 0.000000000000000000e+00 1.093749999999999931e-02 0.000000000000000000e+00 0.000000000000000000e+00 0.000000000000000000e+00 1.093749999999999931e-02 0.000000000000000000e+00 0.000000000000000000e+00 0.000000000000000000e+00 0.000000000000000000e+00 0.000000000000000000e+00 1.093749999999999931e-02 1.093749999999999931e-02 -2.078125000000000111e-02 -0.000000000000000000e+00 -0.000000000000000000e+00 -2.078125000000000111e-02 -2.078125000000000111e-02 -0.000000000000000000e+00 -2.078125000000000111e-02 -0.000000000000000000e+00 -2.078125000000000111e-02 -0.000000000000000000e+00 -0.000000000000000000e+00 -0.000000000000000000e+00 -2.078125000000000111e-02
0.000000000000000000e+00 1.093749999999999931e-02 1.093749999999999931e-02 0.000000000000000000e+00 0.000000000000000000e+00 0.000000000000000000e+00 0.000000000000000000e+00 0.000000000000000000e+00 1.093749999999999931e-02 0.000000000000000000e+00 0.000000000000000000e+00 0.000000000000000000e+00 0.000000000000000000e+00 0.000000000000000000e+00 0.000000000000000000e+00 0.000000000000000000e+00 0.000000000000000000e+00 0.000000000000000000e+00 0.000000000000000000e+00 0.000000000000000000e+00 0.000000000000000000e+00 0.000000000000000000e+00 0.000000000000000000e+00 1.093749999999999931e-02 0.000000000000000000e+00 0.000000000000000000e+00 0.000000000000000000e+00 1.093749999999999931e-02 0.000000000000000000e+00 1.093749999999999931e-02 1.093749999999999931e-02 0.000000000000000000e+00 1.093749999999999931e-02 1.093749999999999931e-02 0.000000000000000000e+00 0.000000000000000000e+00 0.000000000000000000e+00 0.000000000000000000e+00 -1.000000000000000000e+00 0.000000000000000000e+00 1.093749999999999931e-02 0.000000000000000000e+00 0.000000000000000000e+00 0.000000000000000000e+00 1.093749999999999931e-02 0.000000000000000000e+00 0.000000000000000000e+00 1.093749999999999931e-02 0.000000000000000000e+00 1.093749999999999931e-02 0.000000000000000000e+00 -2.078125000000000111e-02 -0.000000000000000000e+00 -0.000000000000000000e+00 -2.078125000000000111e-02 -2.078125000000000111e-02 -0.000000000000000000e+00 -2.078125000000000111e-02 -2.078125000000000111e-02 -0.000000000000000000e+00 -0.000000000000000000e+00 -0.000000000000000000e+00 -2.078125000000000111e-02 -0.000000000000000000e+00
0.000000000000000000e+00 1.093749999999999931e-02 0.000000000000000000e+00 1.093749999999999931e-02 0.000000000000000000e+00 0.000000000000000000e+00 0.000000000000000000e+00 0.000000000000000000e+00 0.000000000000000000e+00 0.000000000000000000e+00 0.000000000000000000e+00 0.000000000000000000e+00 0.000000000000000000e+00 0.000000000000000000e+00 0.000000000000000000e+00 0.000000000000000000e+00 1.093749999999999931e-02 1.093749999999999931e-02 1.093749999999999931e-02 0.000000000000000000e+00 0.000000000000000000e+00 0.000000000000000000e+00 0.000000000000000000e+00 0.000000000000000000e+00 0.000000000000000000e+00 0.000000000000000000e+00 0.000000000000000000e+00 0.000000000000000000e+00 0.000000000000000000e+00 1.093749999999999931e-02 0.000000000000000000e+00 0.000000000000000000e+00 0.000000000000000000e+00 0.000000000000000000e+00 0.000000000000000000e+00 0.000000000000000000e+00 0.000000000000000000e+00 1.093749999999999931e-02 0.000000000000000000e+00 -1.000000000000000000e+00 0.000000000000000000e+00 0.000000000000000000e+00 0.000000000000000000e+00 0.000000000000000000e+00 0.000000000000000000e+00 1.093749999999999931e-02 0.000000000000000000e+00 0.000000000000000000e+00 0.000000000000000000e+00 0.000000000000000000e+00 0.000000000000000000e+00 -2.078125000000000111e-02 -0.000000000000000000e+00 -0.000000000000000000e+00 -0.000000000000000000e+00 -0.000000000000000000e+00 -0.000000000000000000e+00 -2.078125000000000111e-02 -0.000000000000000000e+00 -0.000000000000000000e+00 -0.000000000000000000e+00 -0.000000000000000000e+00 -0.000000000000000000e+00 -2.078125000000000111e-02
1.093749999999999931e-02 0.000000000000000000e+00 0.000000000000000000e+00 0.000000000000000000e+00 0.000000000000000000e+00 0.000000000000000000e+00 0.000000000000000000e+00 0.000000000000000000e+00 0.000000000000000000e+00 0.000000000000000000e+00 0.000000000000000000e+00 0.000000000000000000e+00 0.000000000000000000e+00 0.000000000000000000e+00 0.000000000000000000e+00 0.000000000000000000e+00 0.000000000000000000e+00 1.093749999999999931e-02 0.000000000000000000e+00 0.000000000000000000e+00 0.000000000000000000e+00 0.000000000000000000e+00 0.000000000000000000e+00 0.000000000000000000e+00 0.000000000000000000e+00 0.000000000000000000e+00 0.000000000000000000e+00 1.093749999999999931e-02 1.093749999999999931e-02 0.000000000000000000e+00 0.000000000000000000e+00 0.000000000000000000e+00 0.000000000000000000e+00 0.000000000000000000e+00 0.000000000000000000e+00 0.000000000000000000e+00 0.000000000000000000e+00 1.093749999999999931e-02 1.093749999999999931e-02 0.000000000000000000e+00 -1.000000000000000000e+00 1.093749999999999931e-02 0.000000000000000000e+00 0.000000000000000000e+00 1.093749999999999931e-02 0.000000000000000000e+00 1.093749999999999931e-02 0.000000000000000000e+00 0.000000000000000000e+00 0.000000000000000000e+00 0.000000000000000000e+00 -2.078125000000000111e-02 -0.000000000000000000e+00 -2.078125000000000111e-02 -2.078125000000000111e-02 -2.078125000000000111e-02 -0.000000000000000000e+00 -0.000000000000000000e+00 -2.078125000000000111e-02 -0.000000000000000000e+00 -2.078125000000000111e-02 -0.000000000000000000e+00 -0.000000000000000000e+00 -0.000000000000000000e+00
0.000000000000000000e+00 0.000000000000000000e+00 0.000000000000000000e+00 1.093749999999999931e-02 0.000000000000000000e+00 0.000000000000000000e+00 0.000000000000000000e+00 0.000000000000000000e+00 0.000000000000000000e+00 0.000000000000000000e+00 0.000000000000000000e+00 1.093749999999999931e-02 0.000000000000000000e+00 0.000000000000000000e+00 0.000000000000000000e+00 0.000000000000000000e+00 0.000000000000000000e+00 0.000000000000000000e+00 0.000000000000000000e+00 0.000000000000000000e+00 0.000000000000000000e+00 1.093749999999999931e-02 0.000000000000000000e+00 1.093749999999999931e-02 1.093749999999999931e-02 0.000000000000000000e+00 0.000000000000000000e+00 0.000000000000000000e+00 1.093749999999999931e-02 0.000000000000000000e+00 0.000000000000000000e+00 0.000000000000000000e+00 0.000000000000000000e+00 0.000000000000000000e+00 0.000000000000000000e+00 1.093749999999999931e-02 0.000000000000000000e+00 0.000000000000000000e+00 1.093749999999999931e-02 0.000000000000000000e+00 1.093749999999999931e-02 -1.000000000000000000e+00 0.000000000000000000e+00 0.000000000000000000e+00 0.000000000000000000e+00 0.000000000000000000e+00 1.093749999999999931e-02 0.000000000000000000e+00 0.000000000000000000e+00 0.000000000000000000e+00 0.000000000000000000e+00 -0.000000000000000000e+00 -2.078125000000000111e-02 -2.078125000000000111e-02 -2.078125000000000111e-02 -2.078125000000000111e-02 -0.000000000000000000e+00 -2.078125000000000111e-02 -2.078125000000000111e-02 -2.078125000000000111e-02 -2.078125000000000111e-02 -0.000000000000000000e+00 -2.078125000000000111e-02 -2.078125000000000111e-02
1.093749999999999931e-02 0.000000000000000000e+00 0.000000000000000000e+00 0.000000000000000000e+00 0.000000000000000000e+00 1.093749999999999931e-02 0.000000000000000000e+00 0.000000000000000000e+00 0.000000000000000000e+00 0.000000000000000000e+00 1.093749999999999931e-02 0.000000000000000000e+00 0.000000000000000000e+00 0.000000000000000000e+00 0.000000000000000000e+00 0.000000000000000000e+00 0.000000000000000000e+00 0.000000000000000000e+00 0.000000000000000000e+00 0.000000000000000000e+00 0.000000000000000000e+00 1.093749999999999931e-02 0.000000000000000000e+00 0.000000000000000000e+00 1.093749999999999931e-02 0.000000000000000000e+00 1.093749999999999931e-02 0.000000000000000000e+00 0.000000000000000000e+00 0.000000000000000000e+00 0.000000000000000000e+00 1.093749999999999931e-02 0.000000000000000000e+00 1.093749999999999931e-02 0.000000000000000000e+00 1.093749999999999931e-02 0.000000000000000000e+00 0.000000000000000000e+00 0.000000000000000000e+00 0.000000000000000000e+00 0.000000000000000000e+00 0.000000000000000000e+00 -1.000000000000000000e+00 0.000000000000000000e+00 0.000000000000000000e+00 1.093749999999999931e-02 0.000000000000000000e+00 0.000000000000000000e+00 0.000000000000000000e+00 0.000000000000000000e+00 0.000000000000000000e+00 -2.078125000000000111e-02 -2.078125000000000111e-02 -0.000000000000000000e+00 -2.078125000000000111e-02 -0.000000000000000000e+00 -0.000000000000000000e+00 -2.078125000000000111e-02 -2.078125000000000111e-02 -0.000000000000000000e+00 -0.000000000000000000e+00 -2.078125000000000111e-02 -2.078125000000000111e-02 -0.000000000000000000e+00
0.000000000000000000e+00 1.093749999999999931e-02 0.000000000000000000e+00 0.000000000000000000e+00 0.000000000000000000e+00 0.000000000000000000e+00 0.000000000000000000e+00 0.000000000000000000e+00 0.000000000000000000e+00 0.000000000000000000e+00 0.000000000000000000e+00 0.000000000000000000e+00 0.000000000000000000e+00 0.000000000000000000e+00 0.000000000000000000e+00 1.093749999999999931e-02 0.000000000000000000e+00 0.000000000000000000e+00 0.000000000000000000e+00 0.000000000000000000e+00 0.000000000000000000e+00 0.000000000000000000e+00 0.000000000000000000e+00 0.000000000000000000e+00 1.093749999999999931e-02 1.093749999999999931e-02 0.000000000000000000e+00 0.000000000000000000e+00 0.000000000000000000e+00 0.000000000000000000e+00 0.000000000000000000e+00 0.000000000000000000e+00 1.093749999999999931e-02 0.000000000000000000e+00 0.000000000000000000e+00 0.000000000000000000e+00 0.000000000000000000e+00 1.093749999999999931e-02 0.000000000000000000e+00 0.000000000000000000e+00 0.000000000000000000e+00 0.000000000000000000e+00 0.000000000000000000e+00 -1.000000000000000000e+00 0.000000000000000000e+00 0.000000000000000000e+00 0.000000000000000000e+00 0.000000000000000000e+00 0.000000000000000000e+00 1.093749999999999931e-02 1.093749999999999931e-02 -0.000000000000000000e+00 -0.000000000000000000e+00 -0.000000000000000000e+00 -0.000000000000000000e+00 -2.078125000000000111e-02 -2.078125000000000111e-02 -0.000000000000000000e+00 -2.078125000000000111e-02 -2.078125000000000111e-02 -0.000000000000000000e+00 -2.078125000000000111e-02 -2.078125000000000111e-02 -2.078125000000000111e-02
0.000000000000000000e+00 0.000000000000000000e+00 0.000000000000000000e+00 0.000000000000000000e+00 0.000000000000000000e+00 0.000000000000000000e+00 0.000000000000000000e+00 1.093749999999999931e-02 0.000000000000000000e+00 0.000000000000000000e+00 0.000000000000000000e+00 1.093749999999999931e-02 0.000000000000000000e+00 0.000000000000000000e+00 0.000000000000000000e+00 0.000000000000000000e+00 0.000000000000000000e+00 0.000000000000000000e+00 0.000000000000000000e+00 0.000000000000000000e+00 0.000000000000000000e+00 1.093749999999999931e-02 1.093749999999999931e-02 1.093749999999999931e-02 0.000000000000000000e+00 0.000000000000000000e+00 1.093749999999999931e-02 0.000000000000000000e+00 0.000000000000000000e+00 0.000000000000000000e+00 0.000000000000000000e+00 0.000000000000000000e+00 0.000000000000000000e+00 1.093749999999999931e-02 1.093749999999999931e-02 0.000000000000000000e+00 0.000000000000000000e+00 0.000000000000000000e+00 0.000000000000000000e+00 0.000000000000000000e+00 0.000000000000000000e+00 0.000000000000000000e+00 1.093749999999999931e-02 0.000000000000000000e+00 -1.000000000000000000e+00 0.000000000000000000e+00 0.000000000000000000e+00 0.000000000000000000e+00 0.000000000000000000e+00 0.000000000000000000e+00 0.000000000000000000e+00 -0.000000000000000000e+00 -2.078125000000000111e-02 -2.078125000000000111e-02 -0.000000000000000000e+00 -2.078125000000000111e-02 -2.078125000000000111e-02 -0.000000000000000000e+00 -0.000000000000000000e+00 -2.078125000000000111e-02 -2.078125000000000111e-02 -0.000000000000000000e+00 -0.000000000000000000e+00 -2.078125000000000111e-02
0.000000000000000000e+00 0.000000000000000000e+00 0.000000000000000000e+00 0.000000000000000000e+00 0.000000000000000000e+00 0.000000000000000000e+00 1.093749999999999931e-02 0.000000000000000000e+00 0.000000000000000000e+00 0.000000000000000000e+00 1.093749999999999931e-02 0.000000000000000000e+00 0.000000000000000000e+00 0.000000000000000000e+00 0.000000000000000000e+00 1.093749999999999931e-02 0.000000000000000000e+00 0.000000000000000000e+00 0.000000000000000000e+00 1.093749999999999931e-02 0.000000000000000000e+00 0.000000000000000000e+00 0.000000000000000000e+00 0.000000000000000000e+00 0.000000000000000000e+00 0.000000000000000000e+00 0.000000000000000000e+00 0.000000000000000000e+00 0.000000000000000000e+00 0.000000000000000000e+00 1.093749999999999931e-02 0.000000000000000000e+00 0.000000000000000000e+00 1.093749999999999931e-02 1.093749999999999931e-02 0.000000000000000000e+00 0.000000000000000000e+00 1.093749999999999931e-02 0.000000000000000000e+00 0.000000000000000000e+00 1.093749999999999931e-02 0.000000000000000000e+00 0.000000000000000000e+00 0.000000000000000000e+00 0.000000000000000000e+00 -1.000000000000000000e+00 0.000000000000000000e+00 0.000000000000000000e+00 0.000000000000000000e+00 0.000000000000000000e+00 1.093749999999999931e-02 -2.078125000000000111e-02 -2.078125000000000111e-02 -0.000000000000000000e+00 -0.000000000000000000e+00 -0.000000000000000000e+00 -0.000000000000000000e+00 -2.078125000000000111e-02 -2.078125000000000111e-02 -2.078125000000000111e-02 -0.000000000000000000e+00 -0.000000000000000000e+00 -0.000000000000000000e+00 -0.000000000000000000e+00
1.093749999999999931e-02 0.000000000000000000e+00 0.000000000000000000e+00 1.093749999999999931e-02 0.000000000000000000e+00 0.000000000000000000e+00 0.000000000000000000e+00 0.000000000000000000e+00 1.093749999999999931e-02 0.000000000000000000e+00 0.000000000000000000e+00 0.000000000000000000e+00 0.000000000000000000e+00 0.000000000000000000e+00 0.000000000000000000e+00 1.093749999999999931e-02 0.000000000000000000e+00 0.000000000000000000e+00 0.000000000000000000e+00 1.093749999999999931e-02 1.093749999999999931e-02 0.000000000000000000e+00 0.000000000000000000e+00 0.000000000000000000e+00 0.000000000000000000e+00 0.000000000000000000e+00 0.000000000000000000e+00 0.000000000000000000e+00 0.000000000000000000e+00 0.000000000000000000e+00 0.000000000000000000e+00 0.000000000000000000e+00 0.000000000000000000e+00 1.093749999999999931e-02 0.000000000000000000e+00 0.000000000000000000e+00 0.000000000000000000e+00 0.000000000000000000e+00 1.093749999999999931e-02 0.000000000000000000e+00 1.093749999999999931e-02 0.000000000000000000e+00 0.000000000000000000e+00 0.000000000000000000e+00 0.000000000000000000e+00 0.000000000000000000e+00 -1.000000000000000000e+00 0.000000000000000000e+00 0.000000000000000000e+00 1.093749999999999931e-02 1.093749999999999931e-02 -2.078125000000000111e-02 -2.078125000000000111e-02 -0.000000000000000000e+00 -0.000000000000000000e+00 -2.078125000000000111e-02 -2.078125000000000111e-02 -2.078125000000000111e-02 -2.078125000000000111e-02 -2.078125000000000111e-02 -2.078125000000000111e-02 -2.078125000000000111e-02 -2.078125000000000111e-02 -2.078125000000000111e-02
0.000000000000000000e+00 0.000000000000000000e+00 1.093749999999999931e-02 0.000000000000000000e+00 0.000000000000000000e+00 0.000000000000000000e+00 0.000000000000000000e+00 0.000000000000000000e+00 0.000000000000000000e+00 0.000000000000000000e+00 0.000000000000000000e+00 0.000000000000000000e+00 1.093749999999999931e-02 0.000000000000000000e+00 0.000000000000000000e+00 0.000000000000000000e+00 0.000000000000000000e+00 0.000000000000000000e+00 0.000000000000000000e+00 1.093749999999999931e-02 0.000000000000000000e+00 0.000000000000000000e+00 0.000000000000000000e+00 1.093749999999999931e-02 0.000000000000000000e+00 0.000000000000000000e+00 0.000000000000000000e+00 0.000000000000000000e+00 1.093749999999999931e-02 1.093749999999999931e-02 0.000000000000000000e+00 1.093749999999999931e-02 0.000000000000000000e+00 0.000000000000000000e+00 0.000000000000000000e+00 1.093749999999999931e-02 0.000000000000000000e+00 0.000000000000000000e+00 0.000000000000000000e+00 0.000000000000000000e+00 0.000000000000000000e+00 1.093749999999999931e-02 1.093749999999999931e-02 0.000000000000000000e+00 1.093749999999999931e-02 0.000000000000000000e+00 0.000000000000000000e+00 -1.000000000000000000e+00 1.093749999999999931e-02 1.093749999999999931e-02 0.000000000000000000e+00 -0.000000000000000000e+00 -0.000000000000000000e+00 -2.078125000000000111e-02 -2.078125000000000111e-02 -0.000000000000000000e+00 -2.078125000000000111e-02 -0.000000000000000000e+00 -0.000000000000000000e+00 -2.078125000000000111e-02 -2.078125000000000111e-02 -2.078125000000000111e-02 -2.078125000000000111e-02 -0.000000000000000000e+00
0.000000000000000000e+00 0.000000000000000000e+00 0.000000000000000000e+00 0.000000000000000000e+00 1.093749999999999931e-02 0.000000000000000000e+00 0.000000000000000000e+00 0.000000000000000000e+00 0.000000000000000000e+00 0.000000000000000000e+00 0.000000000000000000e+00 1.093749999999999931e-02 1.093749999999999931e-02 0.000000000000000000e+00 0.000000000000000000e+00 0.000000000000000000e+00 0.000000000000000000e+00 0.000000000000000000e+00 0.000000000000000000e+00 0.000000000000000000e+00 1.093749999999999931e-02 0.000000000000000000e+00 0.000000000000000000e+00 0.000000000000000000e+00 0.000000000000000000e+00 0.000000000000000000e+00 1.093749999999999931e-02 0.000000000000000000e+00 1.093749999999999931e-02 0.000000000000000000e+00 0.000000000000000000e+00 0.000000000000000000e+00 0.000000000000000000e+00 0.000000000000000000e+00 1.093749999999999931e-02 0.000000000000000000e+00 0.000000000000000000e+00 0.000000000000000000e+00 0.000000000000000000e+00 0.000000000000000000e+00 0.000000000000000000e+00 1.093749999999999931e-02 1.093749999999999931e-02 0.000000000000000000e+00 1.093749999999999931e-02 0.000000000000000000e+00 0.000000000000000000e+00 0.000000000000000000e+00 -1.000000000000000000e+00 1.093749999999999931e-02 0.000000000000000000e+00 -0.000000000000000000e+00 -2.078125000000000111e-02 -0.000000000000000000e+00 -2.078125000000000111e-02 -2.078125000000000111e-02 -2.078125000000000111e-02 -2.078125000000000111e-02 -2.078125000000000111e-02 -2.078125000000000111e-02 -0.000000000000000000e+00 -2.078125000000000111e-02 -0.000000000000000000e+00 -2.078125000000000111e-02
0.000000000000000000e+00 0.000000000000000000e+00 0.000000000000000000e+00 0.000000000000000000e+00 0.000000000000000000e+00 0.000000000000000000e+00 0.000000000000000000e+00 0.000000000000000000e+00 0.000000000000000000e+00 0.000000000000000000e+00 0.000000000000000000e+00 0.000000000000000000e+00 0.000000000000000000e+00 0.000000000000000000e+00 0.000000000000000000e+00 0.000000000000000000e+00 0.000000000000000000e+00 0.000000000000000000e+00 0.000000000000000000e+00 0.000000000000000000e+00 0.000000000000000000e+00 0.000000000000000000e+00 0.000000000000000000e+00 0.000000000000000000e+00 0.000000000000000000e+00 1.093749999999999931e-02 1.093749999999999931e-02 0.000000000000000000e+00 0.000000000000000000e+00 0.000000000000000000e+00 0.000000000000000000e+00 0.000000000000000000e+00 0.000000000000000000e+00 1.093749999999999931e-02 1.093749999999999931e-02 0.000000000000000000e+00 1.093749999999999931e-02 0.000000000000000000e+00 0.000000000000000000e+00 0.000000000000000000e+00 0.000000000000000000e+00 0.000000000000000000e+00 0.000000000000000000e+00 0.000000000000000000e+00 1.093749999999999931e-02 1.093749999999999931e-02 1.093749999999999931e-02 0.000000000000000000e+00 0.000000000000000000e+00 -1.000000000000000000e+00 0.000000000000000000e+00 -0.000000000000000000e+00 -0.000000000000000000e+00 -0.000000000000000000e+00 -0.000000000000000000e+00 -0.000000000000000000e+00 -2.078125000000000111e-02 -0.000000000000000000e+00 -0.000000000000000000e+00 -0.000000000000000000e+00 -2.078125000000000111e-02 -2.078125000000000111e-02 -2.078125000000000111e-02 -2.078125000000000111e-02
0.000000000000000000e+00 0.000000000000000000e+00 1.093749999999999931e-02 0.000000000000000000e+00 1.093749999999999931e-02 0.000000000000000000e+00 0.000000000000000000e+00 0.000000000000000000e+00 0.000000000000000000e+00 0.000000000000000000e+00 0.000000000000000000e+00 0.000000000000000000e+00 0.000000000000000000e+00 1.093749999999999931e-02 0.000000000000000000e+00 0.000000000000000000e+00 0.000000000000000000e+00 1.093749999999999931e-02 0.000000000000000000e+00 1.093749999999999931e-02 0.000000000000000000e+00 0.000000000000000000e+00 1.093749999999999931e-02 0.000000000000000000e+00 1.093749999999999931e-02 0.000000000000000000e+00 0.000000000000000000e+00 0.000000000000000000e+00 0.000000000000000000e+00 0.000000000000000000e+00 1.093749999999999931e-02 1.093749999999999931e-02 0.000000000000000000e+00 0.000000000000000000e+00 1.093749999999999931e-02 1.093749999999999931e-02 0.000000000000000000e+00 1.093749999999999931e-02 0.000000000000000000e+00 0.000000000000000000e+00 1.093749999999999931e-02 0.000000000000000000e+00 0.000000000000000000e+00 0.000000000000000000e+00 1.093749999999999931e-02 0.000000000000000000e+00 0.000000000000000000e+00 0.000000000000000000e+00 0.000000000000000000e+00 0.000000000000000000e+00 -1.000000000000000000e+00 -0.000000000000000000e+00 -0.000000000000000000e+00 -0.000000000000000000e+00 -0.000000000000000000e+00 -0.000000000000000000e+00 -0.000000000000000000e+00 -0.000000000000000000e+00 -0.000000000000000000e+00 -2.078125000000000111e-02 -0.000000000000000000e+00 -2.078125000000000111e-02 -2.078125000000000111e-02 -2.078125000000000111e-02
0.000000000000000000e+00 5.156250000000000243e-03 5.156250000000000243e-03 5.156250000000000243e-03 0.000000000000000000e+00 0.000000000000000000e+00 0.000000000000000000e+00 5.156250000000000243e-03 0.000000000000000000e+00 0.000000000000000000e+00 5.156250000000000243e-03 0.000000000000000000e+00 5.156250000000000243e-03 0.000000000000000000e+00 5.156250000000000243e-03 5.156250000000000243e-03 0.000000000000000000e+00 5.156250000000000243e-03 5.156250000000000243e-03 0.000000000000000000e+00 5.156250000000000243e-03 0.000000000000000000e+00 0.000000000000000000e+00 5.156250000000000243e-03 5.156250000000000243e-03 0.000000000000000000e+00 0.000000000000000000e+00 5.156250000000000243e-03 5.156250000000000243e-03 0.000000000000000000e+00 5.156250000000000243e-03 5.156250000000000243e-03 5.156250000000000243e-03 0.000000000000000000e+00 0.000000000000000000e+00 0.000000000000000000e+00 5.156250000000000243e-03 0.000000000000000000e+00 0.000000000000000000e+00 0.000000000000000000e+00 5.156250000000000243e-03 5.156250000000000243e-03 0.000000000000000000e+00 0.000000000000000000e+00 0.000000000000000000e+00 0.000000000000000000e+00 0.000000000000000000e+00 5.156250000000000243e-03 0.000000000000000000e+00 5.156250000000000243e-03 0.000000000000000000e+00 -1.000000000000000000e+00 -0.000000000000000000e+00 -0.000000000000000000e+00 -2.078125000000000111e-02 -2.078125000000000111e-02 -2.078125000000000111e-02 -2.078125000000000111e-02 -0.000000000000000000e+00 -0.000000000000000000e+00 -0.000000000000000000e+00 -0.000000000000000000e+00 -2.078125000000000111e-02 -0.000000000000000000e+00
0.000000000000000000e+00 0.000000000000000000e+00 0.000000000000000000e+00 0.000000000000000000e+00 5.156250000000000243e-03 5.156250000000000243e-03 5.156250000000000243e-03 5.156250000000000243e-03 5.156250000000000243e-03 0.000000000000000000e+00 5.156250000000000243e-03 0.000000000000000000e+00 0.000000000000000000e+00 5.156250000000000243e-03 5.156250000000000243e-03 5.156250000000000243e-03 5.156250000000000243e-03 0.000000000000000000e+00 5.156250000000000243e-03 5.156250000000000243e-03 0.000000000000000000e+00 5.156250000000000243e-03 5.156250000000000243e-03 0.000000000000000000e+00 0.000000000000000000e+00 0.000000000000000000e+00 5.156250000000000243e-03 5.156250000000000243e-03 5.156250000000000243e-03 5.156250000000000243e-03 5.156250000000000243e-03 0.000000000000000000e+00 0.000000000000000000e+00 0.000000000000000000e+00 0.000000000000000000e+00 0.000000000000000000e+00 5.156250000000000243e-03 5.156250000000000243e-03 5.156250000000000243e-03 5.156250000000000243e-03 0.000000000000000000e+00 5.156250000000000243e-03 5.156250000000000243e-03 0.000000000000000000e+00 5.156250000000000243e-03 5.156250000000000243e-03 0.000000000000000000e+00 5.156250000000000243e-03 5.156250000000000243e-03 0.000000000000000000e+00 5.156250000000000243e-03 -0.000000000000000000e+00 -1.000000000000000000e+00 -2.078125000000000111e-02 -0.000000000000000000e+00 -2.078125000000000111e-02 -0.000000000000000000e+00 -0.000000000000000000e+00 -0.000000000000000000e+00 -2.078125000000000111e-02 -2.078125000000000111e-02 -0.000000000000000000e+00 -2.078125000000000111e-02 -2.078125000000000111e-02
0.000000000000000000e+00 0.000000000000000000e+00 5.156250000000000243e-03 5.156250000000000243e-03 0.000000000000000000e+00 0.000000000000000000e+00 0.000000000000000000e+00 0.000000000000000000e+00 5.156250000000000243e-03 5.156250000000000243e-03 0.000000000000000000e+00 5.156250000000000243e-03 5.156250000000000243e-03 0.000000000000000000e+00 0.000000000000000000e+00 0.000000000000000000e+00 5.156250000000000243e-03 0.000000000000000000e+00 0.000000000000000000e+00 0.000000000000000000e+00 0.000000000000000000e+00 0.000000000000000000e+00 0.000000000000000000e+00 5.156250000000000243e-03 0.000000000000000000e+00 5.156250000000000243e-03 0.000000000000000000e+00 5.156250000000000243e-03 5.156250000000000243e-03 0.000000000000000000e+00 5.156250000000000243e-03 5.156250000000000243e-03 5.156250000000000243e-03 0.000000000000000000e+00 5.156250000000000243e-03 5.156250000000000243e-03 5.156250000000000243e-03 0.000000000000000000e+00 0.000000000000000000e+00 0.000000000000000000e+00 0.000000000000000000e+00 5.156250000000000243e-03 5.156250000000000243e-03 0.000000000000000000e+00 0.000000000000000000e+00 0.000000000000000000e+00 5.156250000000000243e-03 5.156250000000000243e-03 0.000000000000000000e+00 5.156250000000000243e-03 0.000000000000000000e+00 -2.078125000000000111e-02 -2.078125000000000111e-02 -1.000000000000000000e+00 -0.000000000000000000e+00 -0.000000000000000000e+00 -0.000000000000000000e+00 -2.078125000000000111e-02 -2.078125000000000111e-02 -2.078125000000000111e-02 -0.000000000000000000e+00 -2.078125000000000111e-02 -2.078125000000000111e-02 -0.000000000000000000e+00
0.000000000000000000e+00 5.156250000000000243e-03 5.156250000000000243e-03 0.000000000000000000e+00 5.156250000000000243e-03 0.000000000000000000e+00 0.000000000000000000e+00 0.000000000000000000e+00 0.000000000000000000e+00 5.156250000000000243e-03 0.000000000000000000e+00 0.000000000000000000e+00 5.156250000000000243e-03 0.000000000000000000e+00 0.000000000000000000e+00 0.000000000000000000e+00 0.000000000000000000e+00 0.000000000000000000e+00 0.000000000000000000e+00 0.000000000000000000e+00 0.000000000000000000e+00 0.000000000000000000e+00 0.000000000000000000e+00 5.156250000000000243e-03 0.000000000000000000e+00 5.156250000000000243e-03 0.000000000000000000e+00 5.156250000000000243e-03 0.000000000000000000e+00 5.156250000000000243e-03 5.156250000000000243e-03 5.156250000000000243e-03 0.000000000000000000e+00 5.156250000000000243e-03 5.156250000000000243e-03 5.156250000000000243e-03 5.156250000000000243e-03 0.000000000000000000e+00 5.156250000000000243e-03 5.156250000000000243e-03 0.000000000000000000e+00 0.000000000000000000e+00 5.156250000000000243e-03 5.156250000000000243e-03 0.000000000000000000e+00 0.000000000000000000e+00 5.156250000000000243e-03 5.156250000000000243e-03 0.000000000000000000e+00 0.000000000000000000e+00 0.000000000000000000e+00 -0.000000000000000000e+00 -2.078125000000000111e-02 -0.000000000000000000e+00 -1.000000000000000000e+00 -2.078125000000000111e-02 -2.078125000000000111e-02 -2.078125000000000111e-02 -2.078125000000000111e-02 -2.078125000000000111e-02 -0.000000000000000000e+00 -0.000000000000000000e+00 -2.078125000000000111e-02 -2.078125000000000111e-02
5.156250000000000243e-03 0.000000000000000000e+00 5.156250000000000243e-03 0.000000000000000000e+00 0.000000000000000000e+00 5.156250000000000243e-03 5.156250000000000243e-03 5.156250000000000243e-03 5.156250000000000243e-03 5.156250000000000243e-03 0.000000000000000000e+00 0.000000000000000000e+00 0.000000000000000000e+00 5.156250000000000243e-03 5.156250000000000243e-03 0.000000000000000000e+00 0.000000000000000000e+00 0.000000000000000000e+00 0.000000000000000000e+00 0.000000000000000000e+00 5.156250000000000243e-03 5.156250000000000243e-03 0.000000000000000000e+00 5.156250000000000243e-03 0.000000000000000000e+00 0.000000000000000000e+00 0.000000000000000000e+00 5.156250000000000243e-03 0.000000000000000000e+00 0.000000000000000000e+00 5.156250000000000243e-03 5.156250000000000243e-03 5.156250000000000243e-03 5.156250000000000243e-03 5.156250000000000243e-03 0.000000000000000000e+00 5.156250000000000243e-03 5.156250000000000243e-03 0.000000000000000000e+00 5.156250000000000243e-03 0.000000000000000000e+00 5.156250000000000243e-03 5.156250000000000243e-03 0.000000000000000000e+00 0.000000000000000000e+00 5.156250000000000243e-03 5.156250000000000243e-03 5.156250000000000243e-03 5.156250000000000243e-03 0.000000000000000000e+00 0.000000000000000000e+00 -0.000000000000000000e+00 -0.000000000000000000e+00 -0.000000000000000000e+00 -0.000000000000000000e+00 -1.000000000000000000e+00 -0.000000000000000000e+00 -0.000000000000000000e+00 -2.078125000000000111e-02 -0.000000000000000000e+00 -2.078125000000000111e-02 -2.078125000000000111e-02 -0.000000000000000000e+00 -2.078125000000000111e-02
5.156250000000000243e-03 0.000000000000000000e+00 5.156250000000000243e-03 0.000000000000000000e+00 5.156250000000000243e-03 5.156250000000000243e-03 0.000000000000000000e+00 5.156250000000000243e-03 0.000000000000000000e+00 5.156250000000000243e-03 5.156250000000000243e-03 5.156250000000000243e-03 0.000000000000000000e+00 5.156250000000000243e-03 0.000000000000000000e+00 0.000000000000000000e+00 0.000000000000000000e+00 5.156250000000000243e-03 0.000000000000000000e+00 5.156250000000000243e-03 5.156250000000000243e-03 5.156250000000000243e-03 0.000000000000000000e+00 5.156250000000000243e-03 0.000000000000000000e+00 0.000000000000000000e+00 5.156250000000000243e-03 0.000000000000000000e+00 5.156250000000000243e-03 0.000000000000000000e+00 5.156250000000000243e-03 0.000000000000000000e+00 0.000000000000000000e+00 0.000000000000000000e+00 5.156250000000000243e-03 5.156250000000000243e-03 5.156250000000000243e-03 5.156250000000000243e-03 5.156250000000000243e-03 0.000000000000000000e+00 0.000000000000000000e+00 5.156250000000000243e-03 0.000000000000000000e+00 5.156250000000000243e-03 0.000000000000000000e+00 5.156250000000000243e-03 0.000000000000000000e+00 0.000000000000000000e+00 5.156250000000000243e-03 0.000000000000000000e+00 5.156250000000000243e-03 -0.000000000000000000e+00 -2.078125000000000111e-02 -2.078125000000000111e-02 -2.078125000000000111e-02 -0.000000000000000000e+00 -1.000000000000000000e+00 -0.000000000000000000e+00 -2.078125000000000111e-02 -2.078125000000000111e-02 -0.000000000000000000e+00 -2.078125000000000111e-02 -0.000000000000000000e+00 -0.000000000000000000e+00
5.156250000000000243e-03 0.000000000000000000e+00 5.156250000000000243e-03 0.000000000000000000e+00 0.000000000000000000e+00 0.000000000000000000e+00 0.000000000000000000e+00 0.000000000000000000e+00 5.156250000000000243e-03 5.156250000000000243e-03 0.000000000000000000e+00 5.156250000000000243e-03 0.000000000000000000e+00 5.156250000000000243e-03 0.000000000000000000e+00 0.000000000000000000e+00 5.156250000000000243e-03 5.156250000000000243e-03 5.156250000000000243e-03 5.156250000000000243e-03 0.000000000000000000e+00 5.156250000000000243e-03 0.000000000000000000e+00 0.000000000000000000e+00 5.156250000000000243e-03 0.000000000000000000e+00 5.156250000000000243e-03 0.000000000000000000e+00 5.156250000000000243e-03 0.000000000000000000e+00 0.000000000000000000e+00 5.156250000000000243e-03 0.000000000000000000e+00 0.000000000000000000e+00 0.000000000000000000e+00 5.156250000000000243e-03 0.000000000000000000e+00 0.000000000000000000e+00 0.000000000000000000e+00 0.000000000000000000e+00 5.156250000000000243e-03 0.000000000000000000e+00 5.156250000000000243e-03 0.000000000000000000e+00 5.156250000000000243e-03 5.156250000000000243e-03 5.156250000000000243e-03 0.000000000000000000e+00 0.000000000000000000e+00 0.000000000000000000e+00 0.000000000000000000e+00 -2.078125000000000111e-02 -2.078125000000000111e-02 -0.000000000000000000e+00 -2.078125000000000111e-02 -0.000000000000000000e+00 -2.078125000000000111e-02 -1.000000000000000000e+00 -2.078125000000000111e-02 -0.000000000000000000e+00 -0.000000000000000000e+00 -2.078125000000000111e-02 -0.000000000000000000e+00 -2.078125000000000111e-02
0.000000000000000000e+00 5.156250000000000243e-03 5.156250000000000243e-03 0.000000000000000000e+00 5.156250000000000243e-03 5.156250000000000243e-03 0.000000000000000000e+00 5.156250000000000243e-03 0.000000000000000000e+00 5.156250000000000243e-03 0.000000000000000000e+00 5.156250000000000243e-03 5.156250000000000243e-03 5.156250000000000243e-03 0.000000000000000000e+00 0.000000000000000000e+00 0.000000000000000000e+00 5.156250000000000243e-03 5.156250000000000243e-03 5.156250000000000243e-03 0.000000000000000000e+00 5.156250000000000243e-03 0.000000000000000000e+00 0.000000000000000000e+00 5.156250000000000243e-03 0.000000000000000000e+00 0.000000000000000000e+00 0.000000000000000000e+00 0.000000000000000000e+00 0.000000000000000000e+00 5.156250000000000243e-03 5.156250000000000243e-03 0.000000000000000000e+00 5.156250000000000243e-03 5.156250000000000243e-03 5.156250000000000243e-03 0.000000000000000000e+00 5.156250000000000243e-03 0.000000000000000000e+00 5.156250000000000243e-03 5.156250000000000243e-03 0.000000000000000000e+00 0.000000000000000000e+00 5.156250000000000243e-03 5.156250000000000243e-03 5.156250000000000243e-03 0.000000000000000000e+00 0.000000000000000000e+00 5.156250000000000243e-03 0.000000000000000000e+00 0.000000000000000000e+00 -2.078125000000000111e-02 -0.000000000000000000e+00 -0.000000000000000000e+00 -0.000000000000000000e+00 -2.078125000000000111e-02 -2.078125000000000111e-02 -2.078125000000000111e-02 -1.000000000000000000e+00 -0.000000000000000000e+00 -0.000000000000000000e+00 -2.078125000000000111e-02 -0.000000000000000000e+00 -0.000000000000000000e+00
5.156250000000000243e-03 5.156250000000000243e-03 0.000000000000000000e+00 0.000000000000000000e+00 5.156250000000000243e-03 5.156250000000000243e-03 5.156250000000000243e-03 0.000000000000000000e+00 0.000000000000000000e+00 5.156250000000000243e-03 0.000000000000000000e+00 0.000000000000000000e+00 5.156250000000000243e-03 5.156250000000000243e-03 5.156250000000000243e-03 0.000000000000000000e+00 0.000000000000000000e+00 5.156250000000000243e-03 0.000000000000000000e+00 5.156250000000000243e-03 5.156250000000000243e-03 0.000000000000000000e+00 5.156250000000000243e-03 5.156250000000000243e-03 0.000000000000000000e+00 5.156250000000000243e-03 0.000000000000000000e+00 0.000000000000000000e+00 5.156250000000000243e-03 5.156250000000000243e-03 5.156250000000000243e-03 0.000000000000000000e+00 5.156250000000000243e-03 5.156250000000000243e-03 5.156250000000000243e-03 0.000000000000000000e+00 5.156250000000000243e-03 5.156250000000000243e-03 5.156250000000000243e-03 5.156250000000000243e-03 0.000000000000000000e+00 5.156250000000000243e-03 5.156250000000000243e-03 0.000000000000000000e+00 5.156250000000000243e-03 0.000000000000000000e+00 0.000000000000000000e+00 0.000000000000000000e+00 0.000000000000000000e+00 0.000000000000000000e+00 5.156250000000000243e-03 -0.000000000000000000e+00 -2.078125000000000111e-02 -0.000000000000000000e+00 -2.078125000000000111e-02 -0.000000000000000000e+00 -0.000000000000000000e+00 -0.000000000000000000e+00 -0.000000000000000000e+00 -1.000000000000000000e+00 -0.000000000000000000e+00 -0.000000000000000000e+00 -0.000000000000000000e+00 -0.000000000000000000e+00
0.000000000000000000e+00 5.156250000000000243e-03 0.000000000000000000e+00 5.156250000000000243e-03 5.156250000000000243e-03 5.156250000000000243e-03 0.000000000000000000e+00 0.000000000000000000e+00 5.156250000000000243e-03 0.000000000000000000e+00 0.000000000000000000e+00 5.156250000000000243e-03 5.156250000000000243e-03 0.000000000000000000e+00 5.156250000000000243e-03 0.000000000000000000e+00 5.156250000000000243e-03 0.000000000000000000e+00 0.000000000000000000e+00 0.000000000000000000e+00 5.156250000000000243e-03 0.000000000000000000e+00 5.156250000000000243e-03 5.156250000000000243e-03 0.000000000000000000e+00 5.156250000000000243e-03 0.000000000000000000e+00 5.156250000000000243e-03 5.156250000000000243e-03 0.000000000000000000e+00 0.000000000000000000e+00 5.156250000000000243e-03 0.000000000000000000e+00 0.000000000000000000e+00 5.156250000000000243e-03 5.156250000000000243e-03 0.000000000000000000e+00 5.156250000000000243e-03 5.156250000000000243e-03 0.000000000000000000e+00 0.000000000000000000e+00 5.156250000000000243e-03 5.156250000000000243e-03 5.156250000000000243e-03 5.156250000000000243e-03 0.000000000000000000e+00 5.156250000000000243e-03 5.156250000000000243e-03 0.000000000000000000e+00 5.156250000000000243e-03 5.156250000000000243e-03 -2.078125000000000111e-02 -2.078125000000000111e-02 -0.000000000000000000e+00 -2.078125000000000111e-02 -2.078125000000000111e-02 -2.078125000000000111e-02 -0.000000000000000000e+00 -2.078125000000000111e-02 -0.000000000000000000e+00 -1.000000000000000000e+00 -0.000000000000000000e+00 -2.078125000000000111e-02 -0.000000000000000000e+00
