-1.000000000000000000e+00 0.000000000000000000e+00 0.000000000000000000e+00 0.000000000000000000e+00 0.000000000000000000e+00 0.000000000000000000e+00 0.000000000000000000e+00 0.000000000000000000e+00 0.000000000000000000e+00 0.000000000000000000e+00 0.000000000000000000e+00 0.000000000000000000e+00 0.000000000000000000e+00 0.000000000000000000e+00 0.000000000000000000e+00 0.000000000000000000e+00 0.000000000000000000e+00 8.749999999999999445e-02 0.000000000000000000e+00 0.000000000000000000e+00 0.000000000000000000e+00 8.749999999999999445e-02 0.000000000000000000e+00 8.749999999999999445e-02 0.000000000000000000e+00 0.000000000000000000e+00 0.000000000000000000e+00 0.000000000000000000e+00 0.000000000000000000e+00 0.000000000000000000e+00 0.000000000000000000e+00 0.000000000000000000e+00 0.000000000000000000e+00 0.000000000000000000e+00 0.000000000000000000e+00 0.000000000000000000e+00 0.000000000000000000e+00 0.000000000000000000e+00 8.749999999999999445e-02 0.000000000000000000e+00 0.000000000000000000e+00 0.000000000000000000e+00 0.000000000000000000e+00 0.000000000000000000e+00 0.000000000000000000e+00 0.000000000000000000e+00 0.000000000000000000e+00 8.749999999999999445e-02 0.000000000000000000e+00 0.000000000000000000e+00 0.000000000000000000e+00 -0.000000000000000000e+00 -0.000000000000000000e+00 -0.000000000000000000e+00 -1.662500000000000089e-01 -0.000000000000000000e+00 -0.000000000000000000e+00 -1.662500000000000089e-01 -1.662500000000000089e-01 -0.000000000000000000e+00 -0.000000000000000000e+00 -0.000000000000000000e+00 -0.000000000000000000e+00 -1.662500000000000089e-01
0.000000000000000000e+00 -1.000000000000000000e+00 0.000000000000000000e+00 0.000000000000000000e+00 0.000000000000000000e+00 0.000000000000000000e+00 8.749999999999999445e-02 0.000000000000000000e+00 0.000000000000000000e+00 0.000000000000000000e+00 0.000000000000000000e+00 0.000000000000000000e+00 0.000000000000000000e+00 0.000000000000000000e+00 8.749999999999999445e-02 8.749999999999999445e-02 8.749999999999999445e-02 0.000000000000000000e+00 0.000000000000000000e+00 8.749999999999999445e-02 8.749999999999999445e-02 0.000000000000000000e+00 0.000000000000000000e+00 0.000000000000000000e+00 0.000000000000000000e+00 0.000000000000000000e+00 0.000000000000000000e+00 0.000000000000000000e+00 0.000000000000000000e+00 0.000000000000000000e+00 0.000000000000000000e+00 0.000000000000000000e+00 8.749999999999999445e-02 0.000000000000000000e+00 0.000000000000000000e+00 0.000000000000000000e+00 8.749999999999999445e-02 0.000000000000000000e+00 0.000000000000000000e+00 0.000000000000000000e+00 0.000000000000000000e+00 0.000000000000000000e+00 0.000000000000000000e+00 0.000000000000000000e+00 0.000000000000000000e+00 0.000000000000000000e+00 0.000000000000000000e+00 8.749999999999999445e-02 0.000000000000000000e+00 8.749999999999999445e-02 0.000000000000000000e+00 -0.000000000000000000e+00 -0.000000000000000000e+00 -0.000000000000000000e+00 -1.662500000000000089e-01 -1.662500000000000089e-01 -1.662500000000000089e-01 -1.662500000000000089e-01 -1.662500000000000089e-01 -0.000000000000000000e+00 -1.662500000000000089e-01 -1.662500000000000089e-01 -0.000000000000000000e+00 -0.000000000000000000e+00
0.000000000000000000e+00 0.000000000000000000e+00 -1.000000000000000000e+00 0.000000000000000000e+00 8.749999999999999445e-02 0.000000000000000000e+00 0.000000000000000000e+00 8.749999999999999445e-02 0.000000000000000000e+00 0.000000000000000000e+00 0.000000000000000000e+00 8.749999999999999445e-02 0.000000000000000000e+00 0.000000000000000000e+00 0.000000000000000000e+00 0.000000000000000000e+00 8.749999999999999445e-02 8.749999999999999445e-02 0.000000000000000000e+00 0.000000000000000000e+00 0.000000000000000000e+00 0.000000000000000000e+00 0.000000000000000000e+00 0.000000000000000000e+00 0.000000000000000000e+00 0.000000000000000000e+00 0.000000000000000000e+00 0.000000000000000000e+00 0.000000000000000000e+00 8.749999999999999445e-02 0.000000000000000000e+00 0.000000000000000000e+00 0.000000000000000000e+00 0.000000000000000000e+00 8.749999999999999445e-02 0.000000000000000000e+00 0.000000000000000000e+00 0.000000000000000000e+00 0.000000000000000000e+00 8.749999999999999445e-02 0.000000000000000000e+00 0.000000000000000000e+00 0.000000000000000000e+00 0.000000000000000000e+00 0.000000000000000000e+00 8.749999999999999445e-02 0.000000000000000000e+00 0.000000000000000000e+00 8.749999999999999445e-02 0.000000000000000000e+00 0.000000000000000000e+00 -0.000000000000000000e+00 -0.000000000000000000e+00 -1.662500000000000089e-01 -1.662500000000000089e-01 -0.000000000000000000e+00 -0.000000000000000000e+00 -0.000000000000000000e+00 -0.000000000000000000e+00 -0.000000000000000000e+00 -0.000000000000000000e+00 -0.000000000000000000e+00 -0.000000000000000000e+00 -1.662500000000000089e-01
8.749999999999999445e-02 0.000000000000000000e+00 0.000000000000000000e+00 -1.000000000000000000e+00 0.000000000000000000e+00 0.000000000000000000e+00 0.000000000000000000e+00 8.749999999999999445e-02 0.000000000000000000e+00 8.749999999999999445e-02 8.749999999999999445e-02 0.000000000000000000e+00 8.749999999999999445e-02 0.000000000000000000e+00 0.000000000000000000e+00 0.000000000000000000e+00 0.000000000000000000e+00 0.000000000000000000e+00 0.000000000000000000e+00 0.000000000000000000e+00 0.000000000000000000e+00 0.000000000000000000e+00 0.000000000000000000e+00 8.749999999999999445e-02 0.000000000000000000e+00 0.000000000000000000e+00 0.000000000000000000e+00 0.000000000000000000e+00 0.000000000000000000e+00 0.000000000000000000e+00 0.000000000000000000e+00 0.000000000000000000e+00 0.000000000000000000e+00 8.749999999999999445e-02 0.000000000000000000e+00 0.000000000000000000e+00 0.000000000000000000e+00 0.000000000000000000e+00 0.000000000000000000e+00 0.000000000000000000e+00 8.749999999999999445e-02 0.000000000000000000e+00 8.749999999999999445e-02 8.749999999999999445e-02 0.000000000000000000e+00 0.000000000000000000e+00 8.749999999999999445e-02 8.749999999999999445e-02 8.749999999999999445e-02 0.000000000000000000e+00 0.000000000000000000e+00 -1.662500000000000089e-01 -0.000000000000000000e+00 -0.000000000000000000e+00 -1.662500000000000089e-01 -1.662500000000000089e-01 -0.000000000000000000e+00 -0.000000000000000000e+00 -1.662500000000000089e-01 -1.662500000000000089e-01 -0.000000000000000000e+00 -0.000000000000000000e+00 -1.662500000000000089e-01 -0.000000000000000000e+00
0.000000000000000000e+00 8.749999999999999445e-02 0.000000000000000000e+00 0.000000000000000000e+00 -1.000000000000000000e+00 8.749999999999999445e-02 0.000000000000000000e+00 0.000000000000000000e+00 0.000000000000000000e+00 0.000000000000000000e+00 0.000000000000000000e+00 8.749999999999999445e-02 0.000000000000000000e+00 0.000000000000000000e+00 0.000000000000000000e+00 8.749999999999999445e-02 0.000000000000000000e+00 0.000000000000000000e+00 8.749999999999999445e-02 0.000000000000000000e+00 0.000000000000000000e+00 0.000000000000000000e+00 8.749999999999999445e-02 0.000000000000000000e+00 0.000000000000000000e+00 0.000000000000000000e+00 0.000000000000000000e+00 0.000000000000000000e+00 0.000000000000000000e+00 0.000000000000000000e+00 0.000000000000000000e+00 0.000000000000000000e+00 0.000000000000000000e+00 8.749999999999999445e-02 0.000000000000000000e+00 0.000000000000000000e+00 0.000000000000000000e+00 0.000000000000000000e+00 0.000000000000000000e+00 8.749999999999999445e-02 0.000000000000000000e+00 0.000000000000000000e+00 8.749999999999999445e-02 0.000000000000000000e+00 0.000000000000000000e+00 0.000000000000000000e+00 0.000000000000000000e+00 0.000000000000000000e+00 0.000000000000000000e+00 8.749999999999999445e-02 0.000000000000000000e+00 -0.000000000000000000e+00 -0.000000000000000000e+00 -1.662500000000000089e-01 -0.000000000000000000e+00 -1.662500000000000089e-01 -1.662500000000000089e-01 -1.662500000000000089e-01 -0.000000000000000000e+00 -1.662500000000000089e-01 -1.662500000000000089e-01 -1.662500000000000089e-01 -0.000000000000000000e+00 -1.662500000000000089e-01
0.000000000000000000e+00 8.749999999999999445e-02 0.000000000000000000e+00 0.000000000000000000e+00 0.000000000000000000e+00 -1.000000000000000000e+00 0.000000000000000000e+00 0.000000000000000000e+00 0.000000000000000000e+00 0.000000000000000000e+00 8.749999999999999445e-02 0.000000000000000000e+00 8.749999999999999445e-02 0.000000000000000000e+00 8.749999999999999445e-02 8.749999999999999445e-02 0.000000000000000000e+00 0.000000000000000000e+00 0.000000000000000000e+00 0.000000000000000000e+00 0.000000000000000000e+00 0.000000000000000000e+00 0.000000000000000000e+00 0.000000000000000000e+00 0.000000000000000000e+00 0.000000000000000000e+00 0.000000000000000000e+00 0.000000000000000000e+00 0.000000000000000000e+00 0.000000000000000000e+00 0.000000000000000000e+00 0.000000000000000000e+00 0.000000000000000000e+00 0.000000000000000000e+00 8.749999999999999445e-02 0.000000000000000000e+00 0.000000000000000000e+00 0.000000000000000000e+00 0.000000000000000000e+00 0.000000000000000000e+00 0.000000000000000000e+00 0.000000000000000000e+00 0.000000000000000000e+00 0.000000000000000000e+00 0.000000000000000000e+00 0.000000000000000000e+00 8.749999999999999445e-02 0.000000000000000000e+00 0.000000000000000000e+00 0.000000000000000000e+00 0.000000000000000000e+00 -1.662500000000000089e-01 -1.662500000000000089e-01 -1.662500000000000089e-01 -0.000000000000000000e+00 -0.000000000000000000e+00 -0.000000000000000000e+00 -0.000000000000000000e+00 -1.662500000000000089e-01 -1.662500000000000089e-01 -1.662500000000000089e-01 -0.000000000000000000e+00 -0.000000000000000000e+00 -0.000000000000000000e+00
0.000000000000000000e+00 0.000000000000000000e+00 0.000000000000000000e+00 0.000000000000000000e+00 0.000000000000000000e+00 0.000000000000000000e+00 -1.000000000000000000e+00 0.000000000000000000e+00 8.749999999999999445e-02 8.749999999999999445e-02 0.000000000000000000e+00 0.000000000000000000e+00 0.000000000000000000e+00 0.000000000000000000e+00 0.000000000000000000e+00 0.000000000000000000e+00 0.000000000000000000e+00 8.749999999999999445e-02 0.000000000000000000e+00 0.000000000000000000e+00 0.000000000000000000e+00 0.000000000000000000e+00 8.749999999999999445e-02 0.000000000000000000e+00 0.000000000000000000e+00 8.749999999999999445e-02 0.000000000000000000e+00 0.000000000000000000e+00 0.000000000000000000e+00 0.000000000000000000e+00 0.000000000000000000e+00 0.000000000000000000e+00 0.000000000000000000e+00 0.000000000000000000e+00 0.000000000000000000e+00 0.000000000000000000e+00 0.000000000000000000e+00 0.000000000000000000e+00 0.000000000000000000e+00 0.000000000000000000e+00 8.749999999999999445e-02 0.000000000000000000e+00 0.000000000000000000e+00 0.000000000000000000e+00 8.749999999999999445e-02 0.000000000000000000e+00 0.000000000000000000e+00 0.000000000000000000e+00 0.000000000000000000e+00 0.000000000000000000e+00 0.000000000000000000e+00 -0.000000000000000000e+00 -0.000000000000000000e+00 -0.000000000000000000e+00 -0.000000000000000000e+00 -1.662500000000000089e-01 -0.000000000000000000e+00 -1.662500000000000089e-01 -0.000000000000000000e+00 -1.662500000000000089e-01 -1.662500000000000089e-01 -0.000000000000000000e+00 -0.000000000000000000e+00 -1.662500000000000089e-01
8.749999999999999445e-02 0.000000000000000000e+00 0.000000000000000000e+00 8.749999999999999445e-02 0.000000000000000000e+00 0.000000000000000000e+00 0.000000000000000000e+00 -1.000000000000000000e+00 0.000000000000000000e+00 0.000000000000000000e+00 0.000000000000000000e+00 0.000000000000000000e+00 0.000000000000000000e+00 8.749999999999999445e-02 0.000000000000000000e+00 0.000000000000000000e+00 0.000000000000000000e+00 0.000000000000000000e+00 8.749999999999999445e-02 0.000000000000000000e+00 0.000000000000000000e+00 0.000000000000000000e+00 0.000000000000000000e+00 0.000000000000000000e+00 0.000000000000000000e+00 0.000000000000000000e+00 0.000000000000000000e+00 8.749999999999999445e-02 8.749999999999999445e-02 0.000000000000000000e+00 0.000000000000000000e+00 0.000000000000000000e+00 0.000000000000000000e+00 0.000000000000000000e+00 0.000000000000000000e+00 8.749999999999999445e-02 0.000000000000000000e+00 0.000000000000000000e+00 8.749999999999999445e-02 0.000000000000000000e+00 0.000000000000000000e+00 8.749999999999999445e-02 0.000000000000000000e+00 0.000000000000000000e+00 0.000000000000000000e+00 0.000000000000000000e+00 0.000000000000000000e+00 0.000000000000000000e+00 0.000000000000000000e+00 0.000000000000000000e+00 0.000000000000000000e+00 -0.000000000000000000e+00 -0.000000000000000000e+00 -0.000000000000000000e+00 -0.000000000000000000e+00 -1.662500000000000089e-01 -1.662500000000000089e-01 -0.000000000000000000e+00 -1.662500000000000089e-01 -0.000000000000000000e+00 -1.662500000000000089e-01 -0.000000000000000000e+00 -1.662500000000000089e-01 -0.000000000000000000e+00
0.000000000000000000e+00 0.000000000000000000e+00 0.000000000000000000e+00 8.749999999999999445e-02 0.000000000000000000e+00 8.749999999999999445e-02 0.000000000000000000e+00 0.000000000000000000e+00 -1.000000000000000000e+00 0.000000000000000000e+00 8.749999999999999445e-02 0.000000000000000000e+00 0.000000000000000000e+00 0.000000000000000000e+00 0.000000000000000000e+00 0.000000000000000000e+00 0.000000000000000000e+00 0.000000000000000000e+00 8.749999999999999445e-02 0.000000000000000000e+00 8.749999999999999445e-02 0.000000000000000000e+00 0.000000000000000000e+00 0.000000000000000000e+00 8.749999999999999445e-02 0.000000000000000000e+00 0.000000000000000000e+00 0.000000000000000000e+00 0.000000000000000000e+00 0.000000000000000000e+00 0.000000000000000000e+00 0.000000000000000000e+00 0.000000000000000000e+00 0.000000000000000000e+00 0.000000000000000000e+00 0.000000000000000000e+00 0.000000000000000000e+00 0.000000000000000000e+00 0.000000000000000000e+00 0.000000000000000000e+00 0.000000000000000000e+00 8.749999999999999445e-02 0.000000000000000000e+00 0.000000000000000000e+00 0.000000000000000000e+00 8.749999999999999445e-02 0.000000000000000000e+00 0.000000000000000000e+00 0.000000000000000000e+00 0.000000000000000000e+00 0.000000000000000000e+00 -1.662500000000000089e-01 -0.000000000000000000e+00 -1.662500000000000089e-01 -0.000000000000000000e+00 -1.662500000000000089e-01 -0.000000000000000000e+00 -1.662500000000000089e-01 -0.000000000000000000e+00 -0.000000000000000000e+00 -1.662500000000000089e-01 -0.000000000000000000e+00 -0.000000000000000000e+00 -1.662500000000000089e-01
0.000000000000000000e+00 0.000000000000000000e+00 0.000000000000000000e+00 8.749999999999999445e-02 0.000000000000000000e+00 0.000000000000000000e+00 0.000000000000000000e+00 0.000000000000000000e+00 0.000000000000000000e+00 -1.000000000000000000e+00 0.000000000000000000e+00 0.000000000000000000e+00 0.000000000000000000e+00 0.000000000000000000e+00 0.000000000000000000e+00 0.000000000000000000e+00 0.000000000000000000e+00 0.000000000000000000e+00 0.000000000000000000e+00 0.000000000000000000e+00 0.000000000000000000e+00 0.000000000000000000e+00 0.000000000000000000e+00 0.000000000000000000e+00 8.749999999999999445e-02 0.000000000000000000e+00 0.000000000000000000e+00 8.749999999999999445e-02 0.000000000000000000e+00 8.749999999999999445e-02 8.749999999999999445e-02 0.000000000000000000e+00 0.000000000000000000e+00 0.000000000000000000e+00 0.000000000000000000e+00 0.000000000000000000e+00 8.749999999999999445e-02 0.000000000000000000e+00 0.000000000000000000e+00 8.749999999999999445e-02 0.000000000000000000e+00 0.000000000000000000e+00 8.749999999999999445e-02 0.000000000000000000e+00 0.000000000000000000e+00 0.000000000000000000e+00 8.749999999999999445e-02 8.749999999999999445e-02 0.000000000000000000e+00 0.000000000000000000e+00 0.000000000000000000e+00 -0.000000000000000000e+00 -0.000000000000000000e+00 -1.662500000000000089e-01 -0.000000000000000000e+00 -1.662500000000000089e-01 -1.662500000000000089e-01 -0.000000000000000000e+00 -0.000000000000000000e+00 -0.000000000000000000e+00 -0.000000000000000000e+00 -0.000000000000000000e+00 -0.000000000000000000e+00 -1.662500000000000089e-01
0.000000000000000000e+00 0.000000000000000000e+00 8.749999999999999445e-02 0.000000000000000000e+00 0.000000000000000000e+00 0.000000000000000000e+00 8.749999999999999445e-02 0.000000000000000000e+00 0.000000000000000000e+00 0.000000000000000000e+00 -1.000000000000000000e+00 0.000000000000000000e+00 0.000000000000000000e+00 8.749999999999999445e-02 0.000000000000000000e+00 0.000000000000000000e+00 0.000000000000000000e+00 0.000000000000000000e+00 8.749999999999999445e-02 8.749999999999999445e-02 0.000000000000000000e+00 0.000000000000000000e+00 0.000000000000000000e+00 0.000000000000000000e+00 0.000000000000000000e+00 0.000000000000000000e+00 0.000000000000000000e+00 0.000000000000000000e+00 0.000000000000000000e+00 0.000000000000000000e+00 0.000000000000000000e+00 0.000000000000000000e+00 0.000000000000000000e+00 0.000000000000000000e+00 0.000000000000000000e+00 0.000000000000000000e+00 0.000000000000000000e+00 0.000000000000000000e+00 0.000000000000000000e+00 0.000000000000000000e+00 0.000000000000000000e+00 8.749999999999999445e-02 0.000000000000000000e+00 0.000000000000000000e+00 0.000000000000000000e+00 0.000000000000000000e+00 0.000000000000000000e+00 0.000000000000000000e+00 0.000000000000000000e+00 0.000000000000000000e+00 8.749999999999999445e-02 -1.662500000000000089e-01 -0.000000000000000000e+00 -1.662500000000000089e-01 -1.662500000000000089e-01 -0.000000000000000000e+00 -0.000000000000000000e+00 -1.662500000000000089e-01 -0.000000000000000000e+00 -0.000000000000000000e+00 -1.662500000000000089e-01 -0.000000000000000000e+00 -0.000000000000000000e+00 -0.000000000000000000e+00
0.000000000000000000e+00 0.000000000000000000e+00 8.749999999999999445e-02 0.000000000000000000e+00 0.000000000000000000e+00 0.000000000000000000e+00 0.000000000000000000e+00 0.000000000000000000e+00 0.000000000000000000e+00 8.749999999999999445e-02 0.000000000000000000e+00 -1.000000000000000000e+00 0.000000000000000000e+00 0.000000000000000000e+00 0.000000000000000000e+00 0.000000000000000000e+00 8.749999999999999445e-02 0.000000000000000000e+00 0.000000000000000000e+00 0.000000000000000000e+00 0.000000000000000000e+00 0.000000000000000000e+00 0.000000000000000000e+00 0.000000000000000000e+00 0.000000000000000000e+00 8.749999999999999445e-02 0.000000000000000000e+00 0.000000000000000000e+00 0.000000000000000000e+00 0.000000000000000000e+00 0.000000000000000000e+00 8.749999999999999445e-02 8.749999999999999445e-02 0.000000000000000000e+00 8.749999999999999445e-02 8.749999999999999445e-02 0.000000000000000000e+00 0.000000000000000000e+00 8.749999999999999445e-02 0.000000000000000000e+00 0.000000000000000000e+00 8.749999999999999445e-02 0.000000000000000000e+00 0.000000000000000000e+00 0.000000000000000000e+00 0.000000000000000000e+00 0.000000000000000000e+00 8.749999999999999445e-02 0.000000000000000000e+00 8.749999999999999445e-02 0.000000000000000000e+00 -1.662500000000000089e-01 -0.000000000000000000e+00 -1.662500000000000089e-01 -0.000000000000000000e+00 -1.662500000000000089e-01 -0.000000000000000000e+00 -1.662500000000000089e-01 -1.662500000000000089e-01 -1.662500000000000089e-01 -0.000000000000000000e+00 -1.662500000000000089e-01 -0.000000000000000000e+00 -1.662500000000000089e-01
0.000000000000000000e+00 0.000000000000000000e+00 8.749999999999999445e-02 0.000000000000000000e+00 8.749999999999999445e-02 0.000000000000000000e+00 8.749999999999999445e-02 0.000000000000000000e+00 0.000000000000000000e+00 0.000000000000000000e+00 0.000000000000000000e+00 0.000000000000000000e+00 -1.000000000000000000e+00 0.000000000000000000e+00 8.749999999999999445e-02 0.000000000000000000e+00 0.000000000000000000e+00 0.000000000000000000e+00 0.000000000000000000e+00 0.000000000000000000e+00 0.000000000000000000e+00 0.000000000000000000e+00 0.000000000000000000e+00 0.000000000000000000e+00 0.000000000000000000e+00 8.749999999999999445e-02 0.000000000000000000e+00 0.000000000000000000e+00 0.000000000000000000e+00 8.749999999999999445e-02 8.749999999999999445e-02 0.000000000000000000e+00 0.000000000000000000e+00 0.000000000000000000e+00 0.000000000000000000e+00 0.000000000000000000e+00 0.000000000000000000e+00 0.000000000000000000e+00 0.000000000000000000e+00 0.000000000000000000e+00 0.000000000000000000e+00 0.000000000000000000e+00 0.000000000000000000e+00 0.000000000000000000e+00 0.000000000000000000e+00 0.000000000000000000e+00 0.000000000000000000e+00 0.000000000000000000e+00 0.000000000000000000e+00 0.000000000000000000e+00 0.000000000000000000e+00 -0.000000000000000000e+00 -1.662500000000000089e-01 -0.000000000000000000e+00 -1.662500000000000089e-01 -0.000000000000000000e+00 -0.000000000000000000e+00 -0.000000000000000000e+00 -1.662500000000000089e-01 -1.662500000000000089e-01 -0.000000000000000000e+00 -1.662500000000000089e-01 -0.000000000000000000e+00 -0.000000000000000000e+00
0.000000000000000000e+00 0.000000000000000000e+00 0.000000000000000000e+00 0.000000000000000000e+00 0.000000000000000000e+00 8.749999999999999445e-02 0.000000000000000000e+00 0.000000000000000000e+00 0.000000000000000000e+00 0.000000000000000000e+00 0.000000000000000000e+00 0.000000000000000000e+00 0.000000000000000000e+00 -1.000000000000000000e+00 0.000000000000000000e+00 8.749999999999999445e-02 0.000000000000000000e+00 0.000000000000000000e+00 0.000000000000000000e+00 0.000000000000000000e+00 0.000000000000000000e+00 0.000000000000000000e+00 0.000000000000000000e+00 0.000000000000000000e+00 8.749999999999999445e-02 0.000000000000000000e+00 0.000000000000000000e+00 0.000000000000000000e+00 0.000000000000000000e+00 0.000000000000000000e+00 0.000000000000000000e+00 0.000000000000000000e+00 0.000000000000000000e+00 0.000000000000000000e+00 8.749999999999999445e-02 0.000000000000000000e+00 0.000000000000000000e+00 0.000000000000000000e+00 0.000000000000000000e+00 8.749999999999999445e-02 8.749999999999999445e-02 0.000000000000000000e+00 0.000000000000000000e+00 0.000000000000000000e+00 0.000000000000000000e+00 0.000000000000000000e+00 8.749999999999999445e-02 0.000000000000000000e+00 0.000000000000000000e+00 0.000000000000000000e+00 0.000000000000000000e+00 -0.000000000000000000e+00 -0.000000000000000000e+00 -0.000000000000000000e+00 -1.662500000000000089e-01 -0.000000000000000000e+00 -0.000000000000000000e+00 -0.000000000000000000e+00 -0.000000000000000000e+00 -1.662500000000000089e-01 -1.662500000000000089e-01 -1.662500000000000089e-01 -0.000000000000000000e+00 -1.662500000000000089e-01
0.000000000000000000e+00 0.000000000000000000e+00 8.749999999999999445e-02 0.000000000000000000e+00 0.000000000000000000e+00 0.000000000000000000e+00 0.000000000000000000e+00 0.000000000000000000e+00 8.749999999999999445e-02 0.000000000000000000e+00 8.749999999999999445e-02 8.749999999999999445e-02 0.000000000000000000e+00 0.000000000000000000e+00 -1.000000000000000000e+00 0.000000000000000000e+00 0.000000000000000000e+00 0.000000000000000000e+00 0.000000000000000000e+00 8.749999999999999445e-02 0.000000000000000000e+00 8.749999999999999445e-02 0.000000000000000000e+00 0.000000000000000000e+00 0.000000000000000000e+00 8.749999999999999445e-02 0.000000000000000000e+00 8.749999999999999445e-02 0.000000000000000000e+00 8.749999999999999445e-02 0.000000000000000000e+00 0.000000000000000000e+00 0.000000000000000000e+00 0.000000000000000000e+00 8.749999999999999445e-02 0.000000000000000000e+00 0.000000000000000000e+00 0.000000000000000000e+00 0.000000000000000000e+00 0.000000000000000000e+00 0.000000000000000000e+00 0.000000000000000000e+00 8.749999999999999445e-02 0.000000000000000000e+00 0.000000000000000000e+00 0.000000000000000000e+00 0.000000000000000000e+00 0.000000000000000000e+00 0.000000000000000000e+00 0.000000000000000000e+00 8.749999999999999445e-02 -0.000000000000000000e+00 -0.000000000000000000e+00 -0.000000000000000000e+00 -1.662500000000000089e-01 -1.662500000000000089e-01 -1.662500000000000089e-01 -1.662500000000000089e-01 -1.662500000000000089e-01 -0.000000000000000000e+00 -0.000000000000000000e+00 -0.000000000000000000e+00 -0.000000000000000000e+00 -1.662500000000000089e-01
8.749999999999999445e-02 0.000000000000000000e+00 0.000000000000000000e+00 0.000000000000000000e+00 0.000000000000000000e+00 0.000000000000000000e+00 0.000000000000000000e+00 0.000000000000000000e+00 0.000000000000000000e+00 8.749999999999999445e-02 8.749999999999999445e-02 0.000000000000000000e+00 8.749999999999999445e-02 0.000000000000000000e+00 0.000000000000000000e+00 -1.000000000000000000e+00 8.749999999999999445e-02 8.749999999999999445e-02 0.000000000000000000e+00 0.000000000000000000e+00 0.000000000000000000e+00 0.000000000000000000e+00 0.000000000000000000e+00 0.000000000000000000e+00 0.000000000000000000e+00 0.000000000000000000e+00 0.000000000000000000e+00 0.000000000000000000e+00 0.000000000000000000e+00 0.000000000000000000e+00 0.000000000000000000e+00 0.000000000000000000e+00 8.749999999999999445e-02 0.000000000000000000e+00 0.000000000000000000e+00 0.000000000000000000e+00 0.000000000000000000e+00 8.749999999999999445e-02 0.000000000000000000e+00 8.749999999999999445e-02 0.000000000000000000e+00 0.000000000000000000e+00 0.000000000000000000e+00 0.000000000000000000e+00 0.000000000000000000e+00 0.000000000000000000e+00 0.000000000000000000e+00 0.000000000000000000e+00 8.749999999999999445e-02 8.749999999999999445e-02 0.000000000000000000e+00 -1.662500000000000089e-01 -1.662500000000000089e-01 -0.000000000000000000e+00 -0.000000000000000000e+00 -0.000000000000000000e+00 -0.000000000000000000e+00 -1.662500000000000089e-01 -0.000000000000000000e+00 -0.000000000000000000e+00 -0.000000000000000000e+00 -1.662500000000000089e-01 -0.000000000000000000e+00 -0.000000000000000000e+00
0.000000000000000000e+00 0.000000000000000000e+00 0.000000000000000000e+00 0.000000000000000000e+00 8.749999999999999445e-02 8.749999999999999445e-02 0.000000000000000000e+00 0.000000000000000000e+00 0.000000000000000000e+00 0.000000000000000000e+00 0.000000000000000000e+00 0.000000000000000000e+00 0.000000000000000000e+00 0.000000000000000000e+00 0.000000000000000000e+00 0.000000000000000000e+00 -1.000000000000000000e+00 0.000000000000000000e+00 0.000000000000000000e+00 0.000000000000000000e+00 0.000000000000000000e+00 8.749999999999999445e-02 8.749999999999999445e-02 0.000000000000000000e+00 0.000000000000000000e+00 0.000000000000000000e+00 8.749999999999999445e-02 0.000000000000000000e+00 8.749999999999999445e-02 0.000000000000000000e+00 0.000000000000000000e+00 0.000000000000000000e+00 0.000000000000000000e+00 8.749999999999999445e-02 8.749999999999999445e-02 0.000000000000000000e+00 8.749999999999999445e-02 0.000000000000000000e+00 0.000000000000000000e+00 8.749999999999999445e-02 0.000000000000000000e+00 0.000000000000000000e+00 0.000000000000000000e+00 0.000000000000000000e+00 0.000000000000000000e+00 0.000000000000000000e+00 0.000000000000000000e+00 0.000000000000000000e+00 0.000000000000000000e+00 0.000000000000000000e+00 0.000000000000000000e+00 -1.662500000000000089e-01 -0.000000000000000000e+00 -1.662500000000000089e-01 -0.000000000000000000e+00 -1.662500000000000089e-01 -0.000000000000000000e+00 -0.000000000000000000e+00 -1.662500000000000089e-01 -0.000000000000000000e+00 -1.662500000000000089e-01 -0.000000000000000000e+00 -1.662500000000000089e-01 -0.000000000000000000e+00
8.749999999999999445e-02 8.749999999999999445e-02 0.000000000000000000e+00 0.000000000000000000e+00 0.000000000000000000e+00 8.749999999999999445e-02 0.000000000000000000e+00 8.749999999999999445e-02 0.000000000000000000e+00 0.000000000000000000e+00 0.000000000000000000e+00 8.749999999999999445e-02 0.000000000000000000e+00 0.000000000000000000e+00 0.000000000000000000e+00 0.000000000000000000e+00 0.000000000000000000e+00 -1.000000000000000000e+00 0.000000000000000000e+00 0.000000000000000000e+00 0.000000000000000000e+00 0.000000000000000000e+00 0.000000000000000000e+00 0.000000000000000000e+00 8.749999999999999445e-02 0.000000000000000000e+00 0.000000000000000000e+00 0.000000000000000000e+00 0.000000000000000000e+00 0.000000000000000000e+00 0.000000000000000000e+00 0.000000000000000000e+00 0.000000000000000000e+00 0.000000000000000000e+00 0.000000000000000000e+00 0.000000000000000000e+00 0.000000000000000000e+00 0.000000000000000000e+00 0.000000000000000000e+00 0.000000000000000000e+00 0.000000000000000000e+00 0.000000000000000000e+00 0.000000000000000000e+00 8.749999999999999445e-02 0.000000000000000000e+00 0.000000000000000000e+00 0.000000000000000000e+00 0.000000000000000000e+00 0.000000000000000000e+00 8.749999999999999445e-02 0.000000000000000000e+00 -0.000000000000000000e+00 -1.662500000000000089e-01 -1.662500000000000089e-01 -0.000000000000000000e+00 -0.000000000000000000e+00 -1.662500000000000089e-01 -0.000000000000000000e+00 -0.000000000000000000e+00 -1.662500000000000089e-01 -0.000000000000000000e+00 -1.662500000000000089e-01 -1.662500000000000089e-01 -1.662500000000000089e-01
0.000000000000000000e+00 0.000000000000000000e+00 0.000000000000000000e+00 8.749999999999999445e-02 0.000000000000000000e+00 0.000000000000000000e+00 0.000000000000000000e+00 0.000000000000000000e+00 0.000000000000000000e+00 0.000000000000000000e+00 8.749999999999999445e-02 0.000000000000000000e+00 0.000000000000000000e+00 0.000000000000000000e+00 8.749999999999999445e-02 0.000000000000000000e+00 0.000000000000000000e+00 0.000000000000000000e+00 -1.000000000000000000e+00 0.000000000000000000e+00 0.000000000000000000e+00 0.000000000000000000e+00 8.749999999999999445e-02 0.000000000000000000e+00 0.000000000000000000e+00 0.000000000000000000e+00 8.749999999999999445e-02 0.000000000000000000e+00 0.000000000000000000e+00 8.749999999999999445e-02 0.000000000000000000e+00 0.000000000000000000e+00 0.000000000000000000e+00 8.749999999999999445e-02 8.749999999999999445e-02 0.000000000000000000e+00 0.000000000000000000e+00 0.000000000000000000e+00 0.000000000000000000e+00 8.749999999999999445e-02 8.749999999999999445e-02 8.749999999999999445e-02 0.000000000000000000e+00 8.749999999999999445e-02 0.000000000000000000e+00 0.000000000000000000e+00 8.749999999999999445e-02 0.000000000000000000e+00 0.000000000000000000e+00 0.000000000000000000e+00 0.000000000000000000e+00 -0.000000000000000000e+00 -0.000000000000000000e+00 -0.000000000000000000e+00 -1.662500000000000089e-01 -1.662500000000000089e-01 -0.000000000000000000e+00 -1.662500000000000089e-01 -0.000000000000000000e+00 -0.000000000000000000e+00 -0.000000000000000000e+00 -0.000000000000000000e+00 -0.000000000000000000e+00 -0.000000000000000000e+00
0.000000000000000000e+00 0.000000000000000000e+00 0.000000000000000000e+00 0.000000000000000000e+00 0.000000000000000000e+00 0.000000000000000000e+00 0.000000000000000000e+00 0.000000000000000000e+00 8.749999999999999445e-02 0.000000000000000000e+00 0.000000000000000000e+00 0.000000000000000000e+00 0.000000000000000000e+00 0.000000000000000000e+00 0.000000000000000000e+00 0.000000000000000000e+00 0.000000000000000000e+00 8.749999999999999445e-02 0.000000000000000000e+00 -1.000000000000000000e+00 0.000000000000000000e+00 0.000000000000000000e+00 8.749999999999999445e-02 0.000000000000000000e+00 0.000000000000000000e+00 0.000000000000000000e+00 0.000000000000000000e+00 0.000000000000000000e+00 0.000000000000000000e+00 0.000000000000000000e+00 0.000000000000000000e+00 0.000000000000000000e+00 0.000000000000000000e+00 0.000000000000000000e+00 8.749999999999999445e-02 0.000000000000000000e+00 0.000000000000000000e+00 0.000000000000000000e+00 0.000000000000000000e+00 8.749999999999999445e-02 0.000000000000000000e+00 0.000000000000000000e+00 8.749999999999999445e-02 0.000000000000000000e+00 8.749999999999999445e-02 0.000000000000000000e+00 0.000000000000000000e+00 8.749999999999999445e-02 8.749999999999999445e-02 8.749999999999999445e-02 8.749999999999999445e-02 -1.662500000000000089e-01 -0.000000000000000000e+00 -1.662500000000000089e-01 -1.662500000000000089e-01 -0.000000000000000000e+00 -1.662500000000000089e-01 -1.662500000000000089e-01 -0.000000000000000000e+00 -0.000000000000000000e+00 -0.000000000000000000e+00 -1.662500000000000089e-01 -1.662500000000000089e-01 -0.000000000000000000e+00
0.000000000000000000e+00 0.000000000000000000e+00 0.000000000000000000e+00 0.000000000000000000e+00 0.000000000000000000e+00 0.000000000000000000e+00 0.000000000000000000e+00 0.000000000000000000e+00 0.000000000000000000e+00 0.000000000000000000e+00 0.000000000000000000e+00 0.000000000000000000e+00 0.000000000000000000e+00 0.000000000000000000e+00 0.000000000000000000e+00 0.000000000000000000e+00 0.000000000000000000e+00 0.000000000000000000e+00 0.000000000000000000e+00 0.000000000000000000e+00 -1.000000000000000000e+00 0.000000000000000000e+00 0.000000000000000000e+00 8.749999999999999445e-02 0.000000000000000000e+00 0.000000000000000000e+00 0.000000000000000000e+00 0.000000000000000000e+00 0.000000000000000000e+00 0.000000000000000000e+00 0.000000000000000000e+00 0.000000000000000000e+00 0.000000000000000000e+00 0.000000000000000000e+00 0.000000000000000000e+00 0.000000000000000000e+00 0.000000000000000000e+00 0.000000000000000000e+00 0.000000000000000000e+00 0.000000000000000000e+00 0.000000000000000000e+00 0.000000000000000000e+00 0.000000000000000000e+00 0.000000000000000000e+00 8.749999999999999445e-02 0.000000000000000000e+00 0.000000000000000000e+00 0.000000000000000000e+00 0.000000000000000000e+00 8.749999999999999445e-02 0.000000000000000000e+00 -1.662500000000000089e-01 -1.662500000000000089e-01 -1.662500000000000089e-01 -1.662500000000000089e-01 -1.662500000000000089e-01 -0.000000000000000000e+00 -0.000000000000000000e+00 -0.000000000000000000e+00 -1.662500000000000089e-01 -1.662500000000000089e-01 -1.662500000000000089e-01 -0.000000000000000000e+00 -1.662500000000000089e-01
0.000000000000000000e+00 0.000000000000000000e+00 0.000000000000000000e+00 0.000000000000000000e+00 8.749999999999999445e-02 8.749999999999999445e-02 0.000000000000000000e+00 0.000000000000000000e+00 8.749999999999999445e-02 0.000000000000000000e+00 0.000000000000000000e+00 0.000000000000000000e+00 0.000000000000000000e+00 8.749999999999999445e-02 0.000000000000000000e+00 0.000000000000000000e+00 0.000000000000000000e+00 0.000000000000000000e+00 0.000000000000000000e+00 0.000000000000000000e+00 8.749999999999999445e-02 -1.000000000000000000e+00 0.000000000000000000e+00 0.000000000000000000e+00 0.000000000000000000e+00 0.000000000000000000e+00 0.000000000000000000e+00 0.000000000000000000e+00 0.000000000000000000e+00 0.000000000000000000e+00 8.749999999999999445e-02 0.000000000000000000e+00 8.749999999999999445e-02 0.000000000000000000e+00 0.000000000000000000e+00 0.000000000000000000e+00 0.000000000000000000e+00 0.000000000000000000e+00 8.749999999999999445e-02 8.749999999999999445e-02 0.000000000000000000e+00 0.000000000000000000e+00 0.000000000000000000e+00 0.000000000000000000e+00 8.749999999999999445e-02 0.000000000000000000e+00 0.000000000000000000e+00 0.000000000000000000e+00 0.000000000000000000e+00 0.000000000000000000e+00 8.749999999999999445e-02 -0.000000000000000000e+00 -1.662500000000000089e-01 -1.662500000000000089e-01 -1.662500000000000089e-01 -0.000000000000000000e+00 -0.000000000000000000e+00 -0.000000000000000000e+00 -1.662500000000000089e-01 -1.662500000000000089e-01 -0.000000000000000000e+00 -0.000000000000000000e+00 -0.000000000000000000e+00 -1.662500000000000089e-01
0.000000000000000000e+00 0.000000000000000000e+00 8.749999999999999445e-02 0.000000000000000000e+00 8.749999999999999445e-02 0.000000000000000000e+00 0.000000000000000000e+00 8.749999999999999445e-02 0.000000000000000000e+00 8.749999999999999445e-02 0.000000000000000000e+00 0.000000000000000000e+00 0.000000000000000000e+00 0.000000000000000000e+00 8.749999999999999445e-02 0.000000000000000000e+00 0.000000000000000000e+00 0.000000000000000000e+00 0.000000000000000000e+00 0.000000000000000000e+00 0.000000000000000000e+00 0.000000000000000000e+00 -1.000000000000000000e+00 0.000000000000000000e+00 8.749999999999999445e-02 0.000000000000000000e+00 0.000000000000000000e+00 0.000000000000000000e+00 0.000000000000000000e+00 0.000000000000000000e+00 8.749999999999999445e-02 0.000000000000000000e+00 0.000000000000000000e+00 0.000000000000000000e+00 0.000000000000000000e+00 0.000000000000000000e+00 8.749999999999999445e-02 0.000000000000000000e+00 0.000000000000000000e+00 0.000000000000000000e+00 0.000000000000000000e+00 8.749999999999999445e-02 8.749999999999999445e-02 0.000000000000000000e+00 0.000000000000000000e+00 0.000000000000000000e+00 0.000000000000000000e+00 0.000000000000000000e+00 0.000000000000000000e+00 0.000000000000000000e+00 8.749999999999999445e-02 -0.000000000000000000e+00 -0.000000000000000000e+00 -0.000000000000000000e+00 -0.000000000000000000e+00 -1.662500000000000089e-01 -1.662500000000000089e-01 -0.000000000000000000e+00 -0.000000000000000000e+00 -0.000000000000000000e+00 -1.662500000000000089e-01 -1.662500000000000089e-01 -0.000000000000000000e+00 -0.000000000000000000e+00
0.000000000000000000e+00 0.000000000000000000e+00 0.000000000000000000e+00 0.000000000000000000e+00 8.749999999999999445e-02 0.000000000000000000e+00 0.000000000000000000e+00 0.000000000000000000e+00 0.000000000000000000e+00 0.000000000000000000e+00 0.000000000000000000e+00 0.000000000000000000e+00 8.749999999999999445e-02 0.000000000000000000e+00 8.749999999999999445e-02 0.000000000000000000e+00 0.000000000000000000e+00 0.000000000000000000e+00 0.000000000000000000e+00 8.749999999999999445e-02 0.000000000000000000e+00 0.000000000000000000e+00 8.749999999999999445e-02 -1.000000000000000000e+00 0.000000000000000000e+00 0.000000000000000000e+00 8.749999999999999445e-02 0.000000000000000000e+00 0.000000000000000000e+00 8.749999999999999445e-02 0.000000000000000000e+00 0.000000000000000000e+00 8.749999999999999445e-02 0.000000000000000000e+00 0.000000000000000000e+00 0.000000000000000000e+00 0.000000000000000000e+00 0.000000000000000000e+00 8.749999999999999445e-02 0.000000000000000000e+00 0.000000000000000000e+00 0.000000000000000000e+00 0.000000000000000000e+00 8.749999999999999445e-02 0.000000000000000000e+00 0.000000000000000000e+00 0.000000000000000000e+00 8.749999999999999445e-02 0.000000000000000000e+00 0.000000000000000000e+00 0.000000000000000000e+00 -0.000000000000000000e+00 -1.662500000000000089e-01 -1.662500000000000089e-01 -1.662500000000000089e-01 -0.000000000000000000e+00 -1.662500000000000089e-01 -1.662500000000000089e-01 -0.000000000000000000e+00 -0.000000000000000000e+00 -1.662500000000000089e-01 -1.662500000000000089e-01 -1.662500000000000089e-01 -0.000000000000000000e+00
0.000000000000000000e+00 0.000000000000000000e+00 0.000000000000000000e+00 0.000000000000000000e+00 8.749999999999999445e-02 0.000000000000000000e+00 0.000000000000000000e+00 0.000000000000000000e+00 0.000000000000000000e+00 0.000000000000000000e+00 8.749999999999999445e-02 0.000000000000000000e+00 0.000000000000000000e+00 8.749999999999999445e-02 0.000000000000000000e+00 0.000000000000000000e+00 0.000000000000000000e+00 8.749999999999999445e-02 0.000000000000000000e+00 0.000000000000000000e+00 0.000000000000000000e+00 0.000000000000000000e+00 0.000000000000000000e+00 0.000000000000000000e+00 -1.000000000000000000e+00 0.000000000000000000e+00 8.749999999999999445e-02 0.000000000000000000e+00 0.000000000000000000e+00 0.000000000000000000e+00 0.000000000000000000e+00 0.000000000000000000e+00 0.000000000000000000e+00 0.000000000000000000e+00 8.749999999999999445e-02 0.000000000000000000e+00 0.000000000000000000e+00 8.749999999999999445e-02 0.000000000000000000e+00 0.000000000000000000e+00 0.000000000000000000e+00 0.000000000000000000e+00 8.749999999999999445e-02 0.000000000000000000e+00 0.000000000000000000e+00 0.000000000000000000e+00 8.749999999999999445e-02 0.000000000000000000e+00 0.000000000000000000e+00 0.000000000000000000e+00 0.000000000000000000e+00 -1.662500000000000089e-01 -0.000000000000000000e+00 -1.662500000000000089e-01 -0.000000000000000000e+00 -1.662500000000000089e-01 -1.662500000000000089e-01 -0.000000000000000000e+00 -1.662500000000000089e-01 -0.000000000000000000e+00 -1.662500000000000089e-01 -1.662500000000000089e-01 -1.662500000000000089e-01 -0.000000000000000000e+00
0.000000000000000000e+00 0.000000000000000000e+00 0.000000000000000000e+00 0.000000000000000000e+00 0.000000000000000000e+00 0.000000000000000000e+00 8.749999999999999445e-02 0.000000000000000000e+00 0.000000000000000000e+00 0.000000000000000000e+00 0.000000000000000000e+00 0.000000000000000000e+00 0.000000000000000000e+00 0.000000000000000000e+00 0.000000000000000000e+00 0.000000000000000000e+00 8.749999999999999445e-02 0.000000000000000000e+00 0.000000000000000000e+00 0.000000000000000000e+00 0.000000000000000000e+00 0.000000000000000000e+00 0.000000000000000000e+00 0.000000000000000000e+00 0.000000000000000000e+00 -1.000000000000000000e+00 0.000000000000000000e+00 0.000000000000000000e+00 0.000000000000000000e+00 0.000000000000000000e+00 8.749999999999999445e-02 0.000000000000000000e+00 0.000000000000000000e+00 0.000000000000000000e+00 0.000000000000000000e+00 0.000000000000000000e+00 0.000000000000000000e+00 8.749999999999999445e-02 0.000000000000000000e+00 0.000000000000000000e+00 0.000000000000000000e+00 0.000000000000000000e+00 8.749999999999999445e-02 8.749999999999999445e-02 0.000000000000000000e+00 8.749999999999999445e-02 0.000000000000000000e+00 8.749999999999999445e-02 0.000000000000000000e+00 8.749999999999999445e-02 8.749999999999999445e-02 -1.662500000000000089e-01 -0.000000000000000000e+00 -1.662500000000000089e-01 -0.000000000000000000e+00 -0.000000000000000000e+00 -0.000000000000000000e+00 -1.662500000000000089e-01 -1.662500000000000089e-01 -1.662500000000000089e-01 -1.662500000000000089e-01 -0.000000000000000000e+00 -1.662500000000000089e-01 -0.000000000000000000e+00
0.000000000000000000e+00 8.749999999999999445e-02 0.000000000000000000e+00 0.000000000000000000e+00 0.000000000000000000e+00 8.749999999999999445e-02 8.749999999999999445e-02 0.000000000000000000e+00 0.000000000000000000e+00 0.000000000000000000e+00 0.000000000000000000e+00 0.000000000000000000e+00 0.000000000000000000e+00 0.000000000000000000e+00 8.749999999999999445e-02 0.000000000000000000e+00 0.000000000000000000e+00 0.000000000000000000e+00 0.000000000000000000e+00 0.000000000000000000e+00 0.000000000000000000e+00 8.749999999999999445e-02 0.000000000000000000e+00 0.000000000000000000e+00 0.000000000000000000e+00 0.000000000000000000e+00 -1.000000000000000000e+00 0.000000000000000000e+00 0.000000000000000000e+00 0.000000000000000000e+00 0.000000000000000000e+00 0.000000000000000000e+00 0.000000000000000000e+00 0.000000000000000000e+00 8.749999999999999445e-02 0.000000000000000000e+00 0.000000000000000000e+00 8.749999999999999445e-02 0.000000000000000000e+00 8.749999999999999445e-02 0.000000000000000000e+00 0.000000000000000000e+00 0.000000000000000000e+00 0.000000000000000000e+00 0.000000000000000000e+00 8.749999999999999445e-02 0.000000000000000000e+00 0.000000000000000000e+00 0.000000000000000000e+00 0.000000000000000000e+00 0.000000000000000000e+00 -0.000000000000000000e+00 -1.662500000000000089e-01 -1.662500000000000089e-01 -1.662500000000000089e-01 -1.662500000000000089e-01 -1.662500000000000089e-01 -1.662500000000000089e-01 -1.662500000000000089e-01 -0.000000000000000000e+00 -0.000000000000000000e+00 -1.662500000000000089e-01 -1.662500000000000089e-01 -0.000000000000000000e+00
8.749999999999999445e-02 8.749999999999999445e-02 8.749999999999999445e-02 8.749999999999999445e-02 0.000000000000000000e+00 0.000000000000000000e+00 0.000000000000000000e+00 0.000000000000000000e+00 0.000000000000000000e+00 8.749999999999999445e-02 0.000000000000000000e+00 0.000000000000000000e+00 0.000000000000000000e+00 0.000000000000000000e+00 0.000000000000000000e+00 0.000000000000000000e+00 8.749999999999999445e-02 0.000000000000000000e+00 0.000000000000000000e+00 0.000000000000000000e+00 0.000000000000000000e+00 0.000000000000000000e+00 0.000000000000000000e+00 0.000000000000000000e+00 0.000000000000000000e+00 0.000000000000000000e+00 0.000000000000000000e+00 -1.000000000000000000e+00 8.749999999999999445e-02 8.749999999999999445e-02 0.000000000000000000e+00 0.000000000000000000e+00 0.000000000000000000e+00 8.749999999999999445e-02 0.000000000000000000e+00 8.749999999999999445e-02 8.749999999999999445e-02 0.000000000000000000e+00 8.749999999999999445e-02 0.000000000000000000e+00 0.000000000000000000e+00 8.749999999999999445e-02 0.000000000000000000e+00 0.000000000000000000e+00 8.749999999999999445e-02 0.000000000000000000e+00 0.000000000000000000e+00 0.000000000000000000e+00 0.000000000000000000e+00 8.749999999999999445e-02 0.000000000000000000e+00 -1.662500000000000089e-01 -1.662500000000000089e-01 -1.662500000000000089e-01 -1.662500000000000089e-01 -1.662500000000000089e-01 -1.662500000000000089e-01 -1.662500000000000089e-01 -0.000000000000000000e+00 -0.000000000000000000e+00 -0.000000000000000000e+00 -0.000000000000000000e+00 -1.662500000000000089e-01 -1.662500000000000089e-01
0.000000000000000000e+00 8.749999999999999445e-02 0.000000000000000000e+00 0.000000000000000000e+00 8.749999999999999445e-02 8.749999999999999445e-02 8.749999999999999445e-02 0.000000000000000000e+00 0.000000000000000000e+00 8.749999999999999445e-02 0.000000000000000000e+00 8.749999999999999445e-02 8.749999999999999445e-02 8.749999999999999445e-02 0.000000000000000000e+00 0.000000000000000000e+00 0.000000000000000000e+00 0.000000000000000000e+00 0.000000000000000000e+00 0.000000000000000000e+00 0.000000000000000000e+00 0.000000000000000000e+00 0.000000000000000000e+00 8.749999999999999445e-02 0.000000000000000000e+00 0.000000000000000000e+00 8.749999999999999445e-02 0.000000000000000000e+00 -1.000000000000000000e+00 0.000000000000000000e+00 0.000000000000000000e+00 0.000000000000000000e+00 0.000000000000000000e+00 0.000000000000000000e+00 0.000000000000000000e+00 0.000000000000000000e+00 0.000000000000000000e+00 8.749999999999999445e-02 0.000000000000000000e+00 0.000000000000000000e+00 8.749999999999999445e-02 8.749999999999999445e-02 0.000000000000000000e+00 0.000000000000000000e+00 0.000000000000000000e+00 0.000000000000000000e+00 0.000000000000000000e+00 0.000000000000000000e+00 0.000000000000000000e+00 0.000000000000000000e+00 0.000000000000000000e+00 -1.662500000000000089e-01 -0.000000000000000000e+00 -0.000000000000000000e+00 -1.662500000000000089e-01 -1.662500000000000089e-01 -0.000000000000000000e+00 -1.662500000000000089e-01 -0.000000000000000000e+00 -0.000000000000000000e+00 -1.662500000000000089e-01 -1.662500000000000089e-01 -1.662500000000000089e-01 -1.662500000000000089e-01
0.000000000000000000e+00 0.000000000000000000e+00 0.000000000000000000e+00 0.000000000000000000e+00 0.000000000000000000e+00 0.000000000000000000e+00 0.000000000000000000e+00 0.000000000000000000e+00 0.000000000000000000e+00 0.000000000000000000e+00 0.000000000000000000e+00 0.000000000000000000e+00 0.000000000000000000e+00 0.000000000000000000e+00 0.000000000000000000e+00 0.000000000000000000e+00 0.000000000000000000e+00 0.000000000000000000e+00 8.749999999999999445e-02 0.000000000000000000e+00 8.749999999999999445e-02 0.000000000000000000e+00 0.000000000000000000e+00 0.000000000000000000e+00 0.000000000000000000e+00 8.749999999999999445e-02 0.000000000000000000e+00 0.000000000000000000e+00 0.000000000000000000e+00 -1.000000000000000000e+00 8.749999999999999445e-02 0.000000000000000000e+00 0.000000000000000000e+00 0.000000000000000000e+00 0.000000000000000000e+00 0.000000000000000000e+00 0.000000000000000000e+00 0.000000000000000000e+00 0.000000000000000000e+00 0.000000000000000000e+00 8.749999999999999445e-02 0.000000000000000000e+00 0.000000000000000000e+00 0.000000000000000000e+00 0.000000000000000000e+00 0.000000000000000000e+00 0.000000000000000000e+00 8.749999999999999445e-02 0.000000000000000000e+00 0.000000000000000000e+00 0.000000000000000000e+00 -0.000000000000000000e+00 -1.662500000000000089e-01 -0.000000000000000000e+00 -1.662500000000000089e-01 -0.000000000000000000e+00 -1.662500000000000089e-01 -0.000000000000000000e+00 -0.000000000000000000e+00 -0.000000000000000000e+00 -0.000000000000000000e+00 -1.662500000000000089e-01 -0.000000000000000000e+00 -1.662500000000000089e-01
8.749999999999999445e-02 8.749999999999999445e-02 0.000000000000000000e+00 0.000000000000000000e+00 0.000000000000000000e+00 0.000000000000000000e+00 0.000000000000000000e+00 0.000000000000000000e+00 0.000000000000000000e+00 0.000000000000000000e+00 0.000000000000000000e+00 0.000000000000000000e+00 0.000000000000000000e+00 0.000000000000000000e+00 0.000000000000000000e+00 0.000000000000000000e+00 0.000000000000000000e+00 0.000000000000000000e+00 0.000000000000000000e+00 0.000000000000000000e+00 0.000000000000000000e+00 0.000000000000000000e+00 8.749999999999999445e-02 0.000000000000000000e+00 0.000000000000000000e+00 0.000000000000000000e+00 0.000000000000000000e+00 0.000000000000000000e+00 8.749999999999999445e-02 0.000000000000000000e+00 -1.000000000000000000e+00 0.000000000000000000e+00 0.000000000000000000e+00 0.000000000000000000e+00 8.749999999999999445e-02 8.749999999999999445e-02 0.000000000000000000e+00 0.000000000000000000e+00 0.000000000000000000e+00 8.749999999999999445e-02 8.749999999999999445e-02 0.000000000000000000e+00 0.000000000000000000e+00 0.000000000000000000e+00 0.000000000000000000e+00 0.000000000000000000e+00 8.749999999999999445e-02 0.000000000000000000e+00 0.000000000000000000e+00 0.000000000000000000e+00 8.749999999999999445e-02 -1.662500000000000089e-01 -1.662500000000000089e-01 -0.000000000000000000e+00 -1.662500000000000089e-01 -1.662500000000000089e-01 -0.000000000000000000e+00 -1.662500000000000089e-01 -1.662500000000000089e-01 -0.000000000000000000e+00 -0.000000000000000000e+00 -1.662500000000000089e-01 -0.000000000000000000e+00 -1.662500000000000089e-01
0.000000000000000000e+00 0.000000000000000000e+00 0.000000000000000000e+00 0.000000000000000000e+00 0.000000000000000000e+00 8.749999999999999445e-02 8.749999999999999445e-02 0.000000000000000000e+00 0.000000000000000000e+00 0.000000000000000000e+00 0.000000000000000000e+00 0.000000000000000000e+00 8.749999999999999445e-02 0.000000000000000000e+00 0.000000000000000000e+00 0.000000000000000000e+00 0.000000000000000000e+00 0.000000000000000000e+00 0.000000000000000000e+00 0.000000000000000000e+00 0.000000000000000000e+00 0.000000000000000000e+00 0.000000000000000000e+00 0.000000000000000000e+00 0.000000000000000000e+00 8.749999999999999445e-02 0.000000000000000000e+00 0.000000000000000000e+00 0.000000000000000000e+00 8.749999999999999445e-02 0.000000000000000000e+00 -1.000000000000000000e+00 0.000000000000000000e+00 0.000000000000000000e+00 0.000000000000000000e+00 0.000000000000000000e+00 8.749999999999999445e-02 0.000000000000000000e+00 8.749999999999999445e-02 0.000000000000000000e+00 0.000000000000000000e+00 0.000000000000000000e+00 8.749999999999999445e-02 0.000000000000000000e+00 0.000000000000000000e+00 0.000000000000000000e+00 0.000000000000000000e+00 0.000000000000000000e+00 0.000000000000000000e+00 0.000000000000000000e+00 0.000000000000000000e+00 -0.000000000000000000e+00 -0.000000000000000000e+00 -0.000000000000000000e+00 -0.000000000000000000e+00 -1.662500000000000089e-01 -1.662500000000000089e-01 -0.000000000000000000e+00 -0.000000000000000000e+00 -1.662500000000000089e-01 -1.662500000000000089e-01 -0.000000000000000000e+00 -1.662500000000000089e-01 -1.662500000000000089e-01
0.000000000000000000e+00 0.000000000000000000e+00 0.000000000000000000e+00 0.000000000000000000e+00 0.000000000000000000e+00 0.000000000000000000e+00 0.000000000000000000e+00 0.000000000000000000e+00 0.000000000000000000e+00 0.000000000000000000e+00 0.000000000000000000e+00 0.000000000000000000e+00 0.000000000000000000e+00 0.000000000000000000e+00 0.000000000000000000e+00 8.749999999999999445e-02 0.000000000000000000e+00 0.000000000000000000e+00 8.749999999999999445e-02 0.000000000000000000e+00 0.000000000000000000e+00 0.000000000000000000e+00 0.000000000000000000e+00 8.749999999999999445e-02 0.000000000000000000e+00 0.000000000000000000e+00 0.000000000000000000e+00 0.000000000000000000e+00 8.749999999999999445e-02 0.000000000000000000e+00 0.000000000000000000e+00 0.000000000000000000e+00 -1.000000000000000000e+00 0.000000000000000000e+00 0.000000000000000000e+00 0.000000000000000000e+00 8.749999999999999445e-02 0.000000000000000000e+00 0.000000000000000000e+00 8.749999999999999445e-02 0.000000000000000000e+00 8.749999999999999445e-02 0.000000000000000000e+00 8.749999999999999445e-02 0.000000000000000000e+00 8.749999999999999445e-02 0.000000000000000000e+00 0.000000000000000000e+00 0.000000000000000000e+00 0.000000000000000000e+00 0.000000000000000000e+00 -0.000000000000000000e+00 -1.662500000000000089e-01 -1.662500000000000089e-01 -1.662500000000000089e-01 -1.662500000000000089e-01 -0.000000000000000000e+00 -1.662500000000000089e-01 -0.000000000000000000e+00 -0.000000000000000000e+00 -1.662500000000000089e-01 -1.662500000000000089e-01 -0.000000000000000000e+00 -0.000000000000000000e+00
0.000000000000000000e+00 0.000000000000000000e+00 0.000000000000000000e+00 0.000000000000000000e+00 8.749999999999999445e-02 0.000000000000000000e+00 0.000000000000000000e+00 8.749999999999999445e-02 0.000000000000000000e+00 8.749999999999999445e-02 8.749999999999999445e-02 0.000000000000000000e+00 0.000000000000000000e+00 0.000000000000000000e+00 0.000000000000000000e+00 0.000000000000000000e+00 0.000000000000000000e+00 0.000000000000000000e+00 8.749999999999999445e-02 8.749999999999999445e-02 0.000000000000000000e+00 0.000000000000000000e+00 0.000000000000000000e+00 0.000000000000000000e+00 0.000000000000000000e+00 0.000000000000000000e+00 8.749999999999999445e-02 0.000000000000000000e+00 0.000000000000000000e+00 0.000000000000000000e+00 8.749999999999999445e-02 0.000000000000000000e+00 0.000000000000000000e+00 -1.000000000000000000e+00 0.000000000000000000e+00 0.000000000000000000e+00 0.000000000000000000e+00 8.749999999999999445e-02 8.749999999999999445e-02 0.000000000000000000e+00 8.749999999999999445e-02 0.000000000000000000e+00 0.000000000000000000e+00 0.000000000000000000e+00 0.000000000000000000e+00 0.000000000000000000e+00 0.000000000000000000e+00 0.000000000000000000e+00 8.749999999999999445e-02 0.000000000000000000e+00 0.000000000000000000e+00 -1.662500000000000089e-01 -0.000000000000000000e+00 -0.000000000000000000e+00 -1.662500000000000089e-01 -0.000000000000000000e+00 -1.662500000000000089e-01 -0.000000000000000000e+00 -0.000000000000000000e+00 -1.662500000000000089e-01 -0.000000000000000000e+00 -1.662500000000000089e-01 -0.000000000000000000e+00 -1.662500000000000089e-01
0.000000000000000000e+00 0.000000000000000000e+00 0.000000000000000000e+00 0.000000000000000000e+00 0.000000000000000000e+00 0.000000000000000000e+00 0.000000000000000000e+00 0.000000000000000000e+00 0.000000000000000000e+00 0.000000000000000000e+00 0.000000000000000000e+00 0.000000000000000000e+00 8.749999999999999445e-02 0.000000000000000000e+00 0.000000000000000000e+00 0.000000000000000000e+00 0.000000000000000000e+00 0.000000000000000000e+00 0.000000000000000000e+00 0.000000000000000000e+00 0.000000000000000000e+00 0.000000000000000000e+00 0.000000000000000000e+00 8.749999999999999445e-02 8.749999999999999445e-02 0.000000000000000000e+00 8.749999999999999445e-02 8.749999999999999445e-02 0.000000000000000000e+00 0.000000000000000000e+00 0.000000000000000000e+00 8.749999999999999445e-02 0.000000000000000000e+00 0.000000000000000000e+00 -1.000000000000000000e+00 8.749999999999999445e-02 0.000000000000000000e+00 0.000000000000000000e+00 0.000000000000000000e+00 0.000000000000000000e+00 0.000000000000000000e+00 0.000000000000000000e+00 0.000000000000000000e+00 0.000000000000000000e+00 0.000000000000000000e+00 0.000000000000000000e+00 0.000000000000000000e+00 0.000000000000000000e+00 0.000000000000000000e+00 0.000000000000000000e+00 8.749999999999999445e-02 -1.662500000000000089e-01 -1.662500000000000089e-01 -0.000000000000000000e+00 -0.000000000000000000e+00 -1.662500000000000089e-01 -0.000000000000000000e+00 -0.000000000000000000e+00 -0.000000000000000000e+00 -1.662500000000000089e-01 -0.000000000000000000e+00 -0.000000000000000000e+00 -1.662500000000000089e-01 -0.000000000000000000e+00
0.000000000000000000e+00 0.000000000000000000e+00 0.000000000000000000e+00 0.000000000000000000e+00 0.000000000000000000e+00 0.000000000000000000e+00 0.000000000000000000e+00 0.000000000000000000e+00 8.749999999999999445e-02 0.000000000000000000e+00 0.000000000000000000e+00 0.000000000000000000e+00 0.000000000000000000e+00 0.000000000000000000e+00 0.000000000000000000e+00 0.000000000000000000e+00 0.000000000000000000e+00 0.000000000000000000e+00 0.000000000000000000e+00 0.000000000000000000e+00 0.000000000000000000e+00 0.000000000000000000e+00 0.000000000000000000e+00 0.000000000000000000e+00 0.000000000000000000e+00 0.000000000000000000e+00 0.000000000000000000e+00 8.749999999999999445e-02 8.749999999999999445e-02 0.000000000000000000e+00 0.000000000000000000e+00 0.000000000000000000e+00 0.000000000000000000e+00 0.000000000000000000e+00 8.749999999999999445e-02 -1.000000000000000000e+00 8.749999999999999445e-02 0.000000000000000000e+00 8.749999999999999445e-02 0.000000000000000000e+00 0.000000000000000000e+00 8.749999999999999445e-02 0.000000000000000000e+00 0.000000000000000000e+00 0.000000000000000000e+00 8.749999999999999445e-02 0.000000000000000000e+00 8.749999999999999445e-02 0.000000000000000000e+00 0.000000000000000000e+00 8.749999999999999445e-02 -1.662500000000000089e-01 -0.000000000000000000e+00 -0.000000000000000000e+00 -1.662500000000000089e-01 -1.662500000000000089e-01 -1.662500000000000089e-01 -0.000000000000000000e+00 -1.662500000000000089e-01 -0.000000000000000000e+00 -0.000000000000000000e+00 -1.662500000000000089e-01 -1.662500000000000089e-01 -0.000000000000000000e+00
8.749999999999999445e-02 0.000000000000000000e+00 0.000000000000000000e+00 0.000000000000000000e+00 0.000000000000000000e+00 8.749999999999999445e-02 0.000000000000000000e+00 0.000000000000000000e+00 0.000000000000000000e+00 0.000000000000000000e+00 8.749999999999999445e-02 0.000000000000000000e+00 0.000000000000000000e+00 0.000000000000000000e+00 8.749999999999999445e-02 0.000000000000000000e+00 0.000000000000000000e+00 0.000000000000000000e+00 0.000000000000000000e+00 0.000000000000000000e+00 0.000000000000000000e+00 0.000000000000000000e+00 8.749999999999999445e-02 0.000000000000000000e+00 0.000000000000000000e+00 0.000000000000000000e+00 8.749999999999999445e-02 8.749999999999999445e-02 0.000000000000000000e+00 0.000000000000000000e+00 8.749999999999999445e-02 0.000000000000000000e+00 0.000000000000000000e+00 8.749999999999999445e-02 8.749999999999999445e-02 0.000000000000000000e+00 -1.000000000000000000e+00 0.000000000000000000e+00 0.000000000000000000e+00 0.000000000000000000e+00 0.000000000000000000e+00 0.000000000000000000e+00 0.000000000000000000e+00 0.000000000000000000e+00 8.749999999999999445e-02 0.000000000000000000e+00 8.749999999999999445e-02 0.000000000000000000e+00 0.000000000000000000e+00 0.000000000000000000e+00 0.000000000000000000e+00 -1.662500000000000089e-01 -0.000000000000000000e+00 -0.000000000000000000e+00 -1.662500000000000089e-01 -0.000000000000000000e+00 -1.662500000000000089e-01 -0.000000000000000000e+00 -0.000000000000000000e+00 -0.000000000000000000e+00 -1.662500000000000089e-01 -0.000000000000000000e+00 -0.000000000000000000e+00 -1.662500000000000089e-01
0.000000000000000000e+00 0.000000000000000000e+00 8.749999999999999445e-02 0.000000000000000000e+00 0.000000000000000000e+00 8.749999999999999445e-02 0.000000000000000000e+00 0.000000000000000000e+00 8.749999999999999445e-02 0.000000000000000000e+00 0.000000000000000000e+00 0.000000000000000000e+00 0.000000000000000000e+00 0.000000000000000000e+00 0.000000000000000000e+00 0.000000000000000000e+00 0.000000000000000000e+00 8.749999999999999445e-02 0.000000000000000000e+00 0.000000000000000000e+00 0.000000000000000000e+00 0.000000000000000000e+00 0.000000000000000000e+00 0.000000000000000000e+00 0.000000000000000000e+00 0.000000000000000000e+00 0.000000000000000000e+00 0.000000000000000000e+00 0.000000000000000000e+00 0.000000000000000000e+00 0.000000000000000000e+00 0.000000000000000000e+00 8.749999999999999445e-02 0.000000000000000000e+00 0.000000000000000000e+00 0.000000000000000000e+00 0.000000000000000000e+00 -1.000000000000000000e+00 8.749999999999999445e-02 8.749999999999999445e-02 0.000000000000000000e+00 0.000000000000000000e+00 8.749999999999999445e-02 0.000000000000000000e+00 0.000000000000000000e+00 0.000000000000000000e+00 0.000000000000000000e+00 0.000000000000000000e+00 0.000000000000000000e+00 0.000000000000000000e+00 0.000000000000000000e+00 -0.000000000000000000e+00 -0.000000000000000000e+00 -1.662500000000000089e-01 -1.662500000000000089e-01 -0.000000000000000000e+00 -1.662500000000000089e-01 -1.662500000000000089e-01 -1.662500000000000089e-01 -0.000000000000000000e+00 -0.000000000000000000e+00 -0.000000000000000000e+00 -0.000000000000000000e+00 -0.000000000000000000e+00
0.000000000000000000e+00 0.000000000000000000e+00 0.000000000000000000e+00 8.749999999999999445e-02 0.000000000000000000e+00 0.000000000000000000e+00 0.000000000000000000e+00 8.749999999999999445e-02 0.000000000000000000e+00 0.000000000000000000e+00 0.000000000000000000e+00 8.749999999999999445e-02 8.749999999999999445e-02 0.000000000000000000e+00 0.000000000000000000e+00 0.000000000000000000e+00 8.749999999999999445e-02 0.000000000000000000e+00 0.000000000000000000e+00 0.000000000000000000e+00 0.000000000000000000e+00 0.000000000000000000e+00 8.749999999999999445e-02 0.000000000000000000e+00 0.000000000000000000e+00 8.749999999999999445e-02 0.000000000000000000e+00 0.000000000000000000e+00 0.000000000000000000e+00 0.000000000000000000e+00 0.000000000000000000e+00 0.000000000000000000e+00 0.000000000000000000e+00 0.000000000000000000e+00 0.000000000000000000e+00 0.000000000000000000e+00 0.000000000000000000e+00 0.000000000000000000e+00 -1.000000000000000000e+00 0.000000000000000000e+00 0.000000000000000000e+00 0.000000000000000000e+00 0.000000000000000000e+00 0.000000000000000000e+00 8.749999999999999445e-02 0.000000000000000000e+00 0.000000000000000000e+00 8.749999999999999445e-02 0.000000000000000000e+00 0.000000000000000000e+00 8.749999999999999445e-02 -0.000000000000000000e+00 -1.662500000000000089e-01 -1.662500000000000089e-01 -0.000000000000000000e+00 -1.662500000000000089e-01 -0.000000000000000000e+00 -0.000000000000000000e+00 -0.000000000000000000e+00 -1.662500000000000089e-01 -1.662500000000000089e-01 -1.662500000000000089e-01 -0.000000000000000000e+00 -0.000000000000000000e+00
0.000000000000000000e+00 0.000000000000000000e+00 0.000000000000000000e+00 0.000000000000000000e+00 0.000000000000000000e+00 0.000000000000000000e+00 8.749999999999999445e-02 0.000000000000000000e+00 8.749999999999999445e-02 0.000000000000000000e+00 8.749999999999999445e-02 0.000000000000000000e+00 0.000000000000000000e+00 0.000000000000000000e+00 0.000000000000000000e+00 8.749999999999999445e-02 0.000000000000000000e+00 0.000000000000000000e+00 0.000000000000000000e+00 0.000000000000000000e+00 0.000000000000000000e+00 0.000000000000000000e+00 0.000000000000000000e+00 0.000000000000000000e+00 0.000000000000000000e+00 0.000000000000000000e+00 0.000000000000000000e+00 0.000000000000000000e+00 0.000000000000000000e+00 0.000000000000000000e+00 0.000000000000000000e+00 0.000000000000000000e+00 8.749999999999999445e-02 0.000000000000000000e+00 8.749999999999999445e-02 0.000000000000000000e+00 0.000000000000000000e+00 8.749999999999999445e-02 8.749999999999999445e-02 -1.000000000000000000e+00 8.749999999999999445e-02 0.000000000000000000e+00 0.000000000000000000e+00 0.000000000000000000e+00 0.000000000000000000e+00 0.000000000000000000e+00 0.000000000000000000e+00 0.000000000000000000e+00 0.000000000000000000e+00 0.000000000000000000e+00 0.000000000000000000e+00 -0.000000000000000000e+00 -0.000000000000000000e+00 -1.662500000000000089e-01 -1.662500000000000089e-01 -1.662500000000000089e-01 -0.000000000000000000e+00 -1.662500000000000089e-01 -0.000000000000000000e+00 -1.662500000000000089e-01 -1.662500000000000089e-01 -1.662500000000000089e-01 -0.000000000000000000e+00 -0.000000000000000000e+00
0.000000000000000000e+00 0.000000000000000000e+00 0.000000000000000000e+00 0.000000000000000000e+00 0.000000000000000000e+00 0.000000000000000000e+00 8.749999999999999445e-02 0.000000000000000000e+00 0.000000000000000000e+00 0.000000000000000000e+00 0.000000000000000000e+00 0.000000000000000000e+00 0.000000000000000000e+00 8.749999999999999445e-02 0.000000000000000000e+00 8.749999999999999445e-02 0.000000000000000000e+00 0.000000000000000000e+00 0.000000000000000000e+00 0.000000000000000000e+00 0.000000000000000000e+00 0.000000000000000000e+00 8.749999999999999445e-02 0.000000000000000000e+00 0.000000000000000000e+00 0.000000000000000000e+00 0.000000000000000000e+00 8.749999999999999445e-02 0.000000000000000000e+00 0.000000000000000000e+00 0.000000000000000000e+00 8.749999999999999445e-02 0.000000000000000000e+00 8.749999999999999445e-02 0.000000000000000000e+00 0.000000000000000000e+00 8.749999999999999445e-02 8.749999999999999445e-02 0.000000000000000000e+00 0.000000000000000000e+00 -1.000000000000000000e+00 0.000000000000000000e+00 0.000000000000000000e+00 0.000000000000000000e+00 0.000000000000000000e+00 0.000000000000000000e+00 0.000000000000000000e+00 0.000000000000000000e+00 8.749999999999999445e-02 0.000000000000000000e+00 8.749999999999999445e-02 -0.000000000000000000e+00 -0.000000000000000000e+00 -0.000000000000000000e+00 -1.662500000000000089e-01 -1.662500000000000089e-01 -1.662500000000000089e-01 -1.662500000000000089e-01 -0.000000000000000000e+00 -1.662500000000000089e-01 -1.662500000000000089e-01 -0.000000000000000000e+00 -0.000000000000000000e+00 -1.662500000000000089e-01
0.000000000000000000e+00 0.000000000000000000e+00 0.000000000000000000e+00 0.000000000000000000e+00 0.000000000000000000e+00 0.000000000000000000e+00 0.000000000000000000e+00 0.000000000000000000e+00 0.000000000000000000e+00 0.000000000000000000e+00 0.000000000000000000e+00 0.000000000000000000e+00 0.000000000000000000e+00 0.000000000000000000e+00 0.000000000000000000e+00 0.000000000000000000e+00 0.000000000000000000e+00 0.000000000000000000e+00 0.000000000000000000e+00 8.749999999999999445e-02 0.000000000000000000e+00 8.749999999999999445e-02 0.000000000000000000e+00 0.000000000000000000e+00 0.000000000000000000e+00 0.000000000000000000e+00 0.000000000000000000e+00 8.749999999999999445e-02 0.000000000000000000e+00 0.000000000000000000e+00 0.000000000000000000e+00 0.000000000000000000e+00 0.000000000000000000e+00 0.000000000000000000e+00 0.000000000000000000e+00 0.000000000000000000e+00 0.000000000000000000e+00 0.000000000000000000e+00 0.000000000000000000e+00 0.000000000000000000e+00 0.000000000000000000e+00 -1.000000000000000000e+00 0.000000000000000000e+00 0.000000000000000000e+00 8.749999999999999445e-02 0.000000000000000000e+00 0.000000000000000000e+00 0.000000000000000000e+00 8.749999999999999445e-02 0.000000000000000000e+00 0.000000000000000000e+00 -0.000000000000000000e+00 -0.000000000000000000e+00 -1.662500000000000089e-01 -0.000000000000000000e+00 -0.000000000000000000e+00 -1.662500000000000089e-01 -0.000000000000000000e+00 -0.000000000000000000e+00 -0.000000000000000000e+00 -0.000000000000000000e+00 -1.662500000000000089e-01 -1.662500000000000089e-01 -1.662500000000000089e-01
0.000000000000000000e+00 0.000000000000000000e+00 0.000000000000000000e+00 0.000000000000000000e+00 0.000000000000000000e+00 0.000000000000000000e+00 0.000000000000000000e+00 0.000000000000000000e+00 0.000000000000000000e+00 0.000000000000000000e+00 0.000000000000000000e+00 8.749999999999999445e-02 0.000000000000000000e+00 8.749999999999999445e-02 8.749999999999999445e-02 0.000000000000000000e+00 8.749999999999999445e-02 8.749999999999999445e-02 8.749999999999999445e-02 8.749999999999999445e-02 8.749999999999999445e-02 0.000000000000000000e+00 0.000000000000000000e+00 0.000000000000000000e+00 0.000000000000000000e+00 0.000000000000000000e+00 0.000000000000000000e+00 0.000000000000000000e+00 0.000000000000000000e+00 0.000000000000000000e+00 0.000000000000000000e+00 0.000000000000000000e+00 8.749999999999999445e-02 0.000000000000000000e+00 8.749999999999999445e-02 0.000000000000000000e+00 0.000000000000000000e+00 0.000000000000000000e+00 0.000000000000000000e+00 0.000000000000000000e+00 0.000000000000000000e+00 8.749999999999999445e-02 -1.000000000000000000e+00 0.000000000000000000e+00 0.000000000000000000e+00 0.000000000000000000e+00 0.000000000000000000e+00 0.000000000000000000e+00 0.000000000000000000e+00 8.749999999999999445e-02 8.749999999999999445e-02 -1.662500000000000089e-01 -1.662500000000000089e-01 -0.000000000000000000e+00 -0.000000000000000000e+00 -0.000000000000000000e+00 -0.000000000000000000e+00 -0.000000000000000000e+00 -0.000000000000000000e+00 -1.662500000000000089e-01 -0.000000000000000000e+00 -1.662500000000000089e-01 -0.000000000000000000e+00 -1.662500000000000089e-01
0.000000000000000000e+00 0.000000000000000000e+00 8.749999999999999445e-02 0.000000000000000000e+00 0.000000000000000000e+00 0.000000000000000000e+00 0.000000000000000000e+00 0.000000000000000000e+00 0.000000000000000000e+00 0.000000000000000000e+00 8.749999999999999445e-02 8.749999999999999445e-02 0.000000000000000000e+00 0.000000000000000000e+00 0.000000000000000000e+00 0.000000000000000000e+00 8.749999999999999445e-02 8.749999999999999445e-02 0.000000000000000000e+00 0.000000000000000000e+00 0.000000000000000000e+00 0.000000000000000000e+00 0.000000000000000000e+00 0.000000000000000000e+00 0.000000000000000000e+00 0.000000000000000000e+00 0.000000000000000000e+00 0.000000000000000000e+00 8.749999999999999445e-02 0.000000000000000000e+00 8.749999999999999445e-02 0.000000000000000000e+00 0.000000000000000000e+00 0.000000000000000000e+00 0.000000000000000000e+00 0.000000000000000000e+00 0.000000000000000000e+00 8.749999999999999445e-02 0.000000000000000000e+00 0.000000000000000000e+00 8.749999999999999445e-02 0.000000000000000000e+00 0.000000000000000000e+00 -1.000000000000000000e+00 0.000000000000000000e+00 0.000000000000000000e+00 8.749999999999999445e-02 0.000000000000000000e+00 0.000000000000000000e+00 0.000000000000000000e+00 8.749999999999999445e-02 -0.000000000000000000e+00 -0.000000000000000000e+00 -0.000000000000000000e+00 -1.662500000000000089e-01 -0.000000000000000000e+00 -0.000000000000000000e+00 -1.662500000000000089e-01 -1.662500000000000089e-01 -1.662500000000000089e-01 -0.000000000000000000e+00 -0.000000000000000000e+00 -0.000000000000000000e+00 -1.662500000000000089e-01
0.000000000000000000e+00 0.000000000000000000e+00 0.000000000000000000e+00 0.000000000000000000e+00 8.749999999999999445e-02 0.000000000000000000e+00 0.000000000000000000e+00 8.749999999999999445e-02 0.000000000000000000e+00 0.000000000000000000e+00 0.000000000000000000e+00 0.000000000000000000e+00 0.000000000000000000e+00 0.000000000000000000e+00 8.749999999999999445e-02 0.000000000000000000e+00 0.000000000000000000e+00 0.000000000000000000e+00 0.000000000000000000e+00 0.000000000000000000e+00 0.000000000000000000e+00 0.000000000000000000e+00 0.000000000000000000e+00 0.000000000000000000e+00 0.000000000000000000e+00 0.000000000000000000e+00 0.000000000000000000e+00 0.000000000000000000e+00 8.749999999999999445e-02 0.000000000000000000e+00 0.000000000000000000e+00 8.749999999999999445e-02 0.000000000000000000e+00 0.000000000000000000e+00 0.000000000000000000e+00 0.000000000000000000e+00 0.000000000000000000e+00 0.000000000000000000e+00 8.749999999999999445e-02 0.000000000000000000e+00 0.000000000000000000e+00 0.000000000000000000e+00 0.000000000000000000e+00 0.000000000000000000e+00 -1.000000000000000000e+00 8.749999999999999445e-02 8.749999999999999445e-02 8.749999999999999445e-02 0.000000000000000000e+00 0.000000000000000000e+00 0.000000000000000000e+00 -1.662500000000000089e-01 -1.662500000000000089e-01 -1.662500000000000089e-01 -0.000000000000000000e+00 -0.000000000000000000e+00 -1.662500000000000089e-01 -0.000000000000000000e+00 -0.000000000000000000e+00 -1.662500000000000089e-01 -1.662500000000000089e-01 -0.000000000000000000e+00 -1.662500000000000089e-01 -1.662500000000000089e-01
0.000000000000000000e+00 0.000000000000000000e+00 0.000000000000000000e+00 0.000000000000000000e+00 0.000000000000000000e+00 0.000000000000000000e+00 8.749999999999999445e-02 0.000000000000000000e+00 0.000000000000000000e+00 0.000000000000000000e+00 0.000000000000000000e+00 8.749999999999999445e-02 0.000000000000000000e+00 8.749999999999999445e-02 0.000000000000000000e+00 0.000000000000000000e+00 0.000000000000000000e+00 8.749999999999999445e-02 8.749999999999999445e-02 0.000000000000000000e+00 0.000000000000000000e+00 8.749999999999999445e-02 8.749999999999999445e-02 0.000000000000000000e+00 8.749999999999999445e-02 0.000000000000000000e+00 8.749999999999999445e-02 0.000000000000000000e+00 0.000000000000000000e+00 0.000000000000000000e+00 0.000000000000000000e+00 8.749999999999999445e-02 8.749999999999999445e-02 0.000000000000000000e+00 0.000000000000000000e+00 0.000000000000000000e+00 0.000000000000000000e+00 0.000000000000000000e+00 0.000000000000000000e+00 0.000000000000000000e+00 0.000000000000000000e+00 0.000000000000000000e+00 0.000000000000000000e+00 0.000000000000000000e+00 0.000000000000000000e+00 -1.000000000000000000e+00 0.000000000000000000e+00 0.000000000000000000e+00 0.000000000000000000e+00 0.000000000000000000e+00 8.749999999999999445e-02 -0.000000000000000000e+00 -1.662500000000000089e-01 -0.000000000000000000e+00 -0.000000000000000000e+00 -0.000000000000000000e+00 -1.662500000000000089e-01 -1.662500000000000089e-01 -0.000000000000000000e+00 -0.000000000000000000e+00 -0.000000000000000000e+00 -0.000000000000000000e+00 -0.000000000000000000e+00 -1.662500000000000089e-01
0.000000000000000000e+00 0.000000000000000000e+00 0.000000000000000000e+00 0.000000000000000000e+00 8.749999999999999445e-02 0.000000000000000000e+00 0.000000000000000000e+00 0.000000000000000000e+00 0.000000000000000000e+00 0.000000000000000000e+00 0.000000000000000000e+00 0.000000000000000000e+00 8.749999999999999445e-02 0.000000000000000000e+00 0.000000000000000000e+00 0.000000000000000000e+00 0.000000000000000000e+00 0.000000000000000000e+00 0.000000000000000000e+00 0.000000000000000000e+00 8.749999999999999445e-02 8.749999999999999445e-02 0.000000000000000000e+00 8.749999999999999445e-02 0.000000000000000000e+00 0.000000000000000000e+00 0.000000000000000000e+00 0.000000000000000000e+00 8.749999999999999445e-02 0.000000000000000000e+00 8.749999999999999445e-02 0.000000000000000000e+00 0.000000000000000000e+00 8.749999999999999445e-02 0.000000000000000000e+00 0.000000000000000000e+00 8.749999999999999445e-02 0.000000000000000000e+00 0.000000000000000000e+00 0.000000000000000000e+00 0.000000000000000000e+00 8.749999999999999445e-02 0.000000000000000000e+00 0.000000000000000000e+00 0.000000000000000000e+00 0.000000000000000000e+00 -1.000000000000000000e+00 0.000000000000000000e+00 0.000000000000000000e+00 8.749999999999999445e-02 0.000000000000000000e+00 -1.662500000000000089e-01 -1.662500000000000089e-01 -1.662500000000000089e-01 -0.000000000000000000e+00 -1.662500000000000089e-01 -0.000000000000000000e+00 -1.662500000000000089e-01 -0.000000000000000000e+00 -1.662500000000000089e-01 -1.662500000000000089e-01 -0.000000000000000000e+00 -1.662500000000000089e-01 -1.662500000000000089e-01
0.000000000000000000e+00 0.000000000000000000e+00 0.000000000000000000e+00 0.000000000000000000e+00 0.000000000000000000e+00 8.749999999999999445e-02 0.000000000000000000e+00 0.000000000000000000e+00 0.000000000000000000e+00 0.000000000000000000e+00 0.000000000000000000e+00 0.000000000000000000e+00 0.000000000000000000e+00 0.000000000000000000e+00 0.000000000000000000e+00 0.000000000000000000e+00 8.749999999999999445e-02 0.000000000000000000e+00 0.000000000000000000e+00 0.000000000000000000e+00 0.000000000000000000e+00 0.000000000000000000e+00 8.749999999999999445e-02 0.000000000000000000e+00 8.749999999999999445e-02 0.000000000000000000e+00 8.749999999999999445e-02 8.749999999999999445e-02 0.000000000000000000e+00 0.000000000000000000e+00 8.749999999999999445e-02 0.000000000000000000e+00 0.000000000000000000e+00 8.749999999999999445e-02 0.000000000000000000e+00 0.000000000000000000e+00 0.000000000000000000e+00 0.000000000000000000e+00 0.000000000000000000e+00 0.000000000000000000e+00 0.000000000000000000e+00 0.000000000000000000e+00 0.000000000000000000e+00 8.749999999999999445e-02 0.000000000000000000e+00 8.749999999999999445e-02 8.749999999999999445e-02 -1.000000000000000000e+00 0.000000000000000000e+00 0.000000000000000000e+00 0.000000000000000000e+00 -1.662500000000000089e-01 -0.000000000000000000e+00 -1.662500000000000089e-01 -1.662500000000000089e-01 -0.000000000000000000e+00 -1.662500000000000089e-01 -0.000000000000000000e+00 -1.662500000000000089e-01 -0.000000000000000000e+00 -1.662500000000000089e-01 -0.000000000000000000e+00 -0.000000000000000000e+00 -0.000000000000000000e+00
0.000000000000000000e+00 0.000000000000000000e+00 0.000000000000000000e+00 8.749999999999999445e-02 8.749999999999999445e-02 0.000000000000000000e+00 0.000000000000000000e+00 0.000000000000000000e+00 8.749999999999999445e-02 8.749999999999999445e-02 0.000000000000000000e+00 0.000000000000000000e+00 0.000000000000000000e+00 0.000000000000000000e+00 0.000000000000000000e+00 0.000000000000000000e+00 0.000000000000000000e+00 0.000000000000000000e+00 0.000000000000000000e+00 0.000000000000000000e+00 8.749999999999999445e-02 8.749999999999999445e-02 0.000000000000000000e+00 0.000000000000000000e+00 0.000000000000000000e+00 0.000000000000000000e+00 8.749999999999999445e-02 0.000000000000000000e+00 8.749999999999999445e-02 0.000000000000000000e+00 0.000000000000000000e+00 0.000000000000000000e+00 0.000000000000000000e+00 8.749999999999999445e-02 0.000000000000000000e+00 0.000000000000000000e+00 8.749999999999999445e-02 0.000000000000000000e+00 0.000000000000000000e+00 0.000000000000000000e+00 0.000000000000000000e+00 0.000000000000000000e+00 0.000000000000000000e+00 0.000000000000000000e+00 0.000000000000000000e+00 8.749999999999999445e-02 0.000000000000000000e+00 8.749999999999999445e-02 -1.000000000000000000e+00 0.000000000000000000e+00 0.000000000000000000e+00 -0.000000000000000000e+00 -0.000000000000000000e+00 -1.662500000000000089e-01 -1.662500000000000089e-01 -1.662500000000000089e-01 -1.662500000000000089e-01 -0.000000000000000000e+00 -0.000000000000000000e+00 -0.000000000000000000e+00 -1.662500000000000089e-01 -0.000000000000000000e+00 -1.662500000000000089e-01 -1.662500000000000089e-01
0.000000000000000000e+00 0.000000000000000000e+00 0.000000000000000000e+00 0.000000000000000000e+00 0.000000000000000000e+00 0.000000000000000000e+00 0.000000000000000000e+00 0.000000000000000000e+00 0.000000000000000000e+00 0.000000000000000000e+00 0.000000000000000000e+00 0.000000000000000000e+00 8.749999999999999445e-02 0.000000000000000000e+00 0.000000000000000000e+00 0.000000000000000000e+00 8.749999999999999445e-02 0.000000000000000000e+00 0.000000000000000000e+00 0.000000000000000000e+00 0.000000000000000000e+00 0.000000000000000000e+00 0.000000000000000000e+00 0.000000000000000000e+00 8.749999999999999445e-02 8.749999999999999445e-02 0.000000000000000000e+00 0.000000000000000000e+00 8.749999999999999445e-02 0.000000000000000000e+00 8.749999999999999445e-02 0.000000000000000000e+00 0.000000000000000000e+00 8.749999999999999445e-02 0.000000000000000000e+00 0.000000000000000000e+00 0.000000000000000000e+00 0.000000000000000000e+00 0.000000000000000000e+00 0.000000000000000000e+00 0.000000000000000000e+00 0.000000000000000000e+00 8.749999999999999445e-02 8.749999999999999445e-02 8.749999999999999445e-02 0.000000000000000000e+00 0.000000000000000000e+00 0.000000000000000000e+00 0.000000000000000000e+00 -1.000000000000000000e+00 0.000000000000000000e+00 -0.000000000000000000e+00 -0.000000000000000000e+00 -0.000000000000000000e+00 -0.000000000000000000e+00 -1.662500000000000089e-01 -1.662500000000000089e-01 -0.000000000000000000e+00 -1.662500000000000089e-01 -0.000000000000000000e+00 -0.000000000000000000e+00 -0.000000000000000000e+00 -1.662500000000000089e-01 -0.000000000000000000e+00
0.000000000000000000e+00 0.000000000000000000e+00 0.000000000000000000e+00 0.000000000000000000e+00 8.749999999999999445e-02 0.000000000000000000e+00 0.000000000000000000e+00 0.000000000000000000e+00 0.000000000000000000e+00 8.749999999999999445e-02 0.000000000000000000e+00 0.000000000000000000e+00 0.000000000000000000e+00 0.000000000000000000e+00 0.000000000000000000e+00 0.000000000000000000e+00 0.000000000000000000e+00 0.000000000000000000e+00 0.000000000000000000e+00 8.749999999999999445e-02 0.000000000000000000e+00 0.000000000000000000e+00 0.000000000000000000e+00 0.000000000000000000e+00 8.749999999999999445e-02 8.749999999999999445e-02 0.000000000000000000e+00 0.000000000000000000e+00 0.000000000000000000e+00 0.000000000000000000e+00 8.749999999999999445e-02 0.000000000000000000e+00 8.749999999999999445e-02 0.000000000000000000e+00 0.000000000000000000e+00 0.000000000000000000e+00 0.000000000000000000e+00 0.000000000000000000e+00 0.000000000000000000e+00 8.749999999999999445e-02 0.000000000000000000e+00 0.000000000000000000e+00 0.000000000000000000e+00 0.000000000000000000e+00 0.000000000000000000e+00 0.000000000000000000e+00 0.000000000000000000e+00 0.000000000000000000e+00 8.749999999999999445e-02 8.749999999999999445e-02 -1.000000000000000000e+00 -0.000000000000000000e+00 -0.000000000000000000e+00 -0.000000000000000000e+00 -1.662500000000000089e-01 -0.000000000000000000e+00 -1.662500000000000089e-01 -0.000000000000000000e+00 -1.662500000000000089e-01 -1.662500000000000089e-01 -1.662500000000000089e-01 -1.662500000000000089e-01 -0.000000000000000000e+00 -1.662500000000000089e-01
4.125000000000000194e-02 4.125000000000000194e-02 0.000000000000000000e+00 0.000000000000000000e+00 4.125000000000000194e-02 0.000000000000000000e+00 0.000000000000000000e+00 0.000000000000000000e+00 4.125000000000000194e-02 4.125000000000000194e-02 4.125000000000000194e-02 0.000000000000000000e+00 0.000000000000000000e+00 4.125000000000000194e-02 0.000000000000000000e+00 4.125000000000000194e-02 4.125000000000000194e-02 4.125000000000000194e-02 4.125000000000000194e-02 0.000000000000000000e+00 4.125000000000000194e-02 4.125000000000000194e-02 4.125000000000000194e-02 4.125000000000000194e-02 4.125000000000000194e-02 4.125000000000000194e-02 0.000000000000000000e+00 4.125000000000000194e-02 4.125000000000000194e-02 0.000000000000000000e+00 4.125000000000000194e-02 0.000000000000000000e+00 4.125000000000000194e-02 0.000000000000000000e+00 4.125000000000000194e-02 0.000000000000000000e+00 0.000000000000000000e+00 4.125000000000000194e-02 4.125000000000000194e-02 4.125000000000000194e-02 0.000000000000000000e+00 4.125000000000000194e-02 0.000000000000000000e+00 0.000000000000000000e+00 0.000000000000000000e+00 0.000000000000000000e+00 4.125000000000000194e-02 0.000000000000000000e+00 4.125000000000000194e-02 4.125000000000000194e-02 4.125000000000000194e-02 -1.000000000000000000e+00 -1.662500000000000089e-01 -0.000000000000000000e+00 -1.662500000000000089e-01 -0.000000000000000000e+00 -1.662500000000000089e-01 -1.662500000000000089e-01 -1.662500000000000089e-01 -1.662500000000000089e-01 -1.662500000000000089e-01 -0.000000000000000000e+00 -0.000000000000000000e+00 -0.000000000000000000e+00
0.000000000000000000e+00 4.125000000000000194e-02 4.125000000000000194e-02 4.125000000000000194e-02 4.125000000000000194e-02 0.000000000000000000e+00 0.000000000000000000e+00 0.000000000000000000e+00 4.125000000000000194e-02 4.125000000000000194e-02 4.125000000000000194e-02 0.000000000000000000e+00 4.125000000000000194e-02 0.000000000000000000e+00 0.000000000000000000e+00 4.125000000000000194e-02 0.000000000000000000e+00 0.000000000000000000e+00 4.125000000000000194e-02 0.000000000000000000e+00 4.125000000000000194e-02 0.000000000000000000e+00 4.125000000000000194e-02 4.125000000000000194e-02 0.000000000000000000e+00 4.125000000000000194e-02 0.000000000000000000e+00 4.125000000000000194e-02 0.000000000000000000e+00 0.000000000000000000e+00 0.000000000000000000e+00 4.125000000000000194e-02 0.000000000000000000e+00 0.000000000000000000e+00 4.125000000000000194e-02 4.125000000000000194e-02 4.125000000000000194e-02 0.000000000000000000e+00 0.000000000000000000e+00 0.000000000000000000e+00 0.000000000000000000e+00 0.000000000000000000e+00 0.000000000000000000e+00 4.125000000000000194e-02 4.125000000000000194e-02 0.000000000000000000e+00 0.000000000000000000e+00 4.125000000000000194e-02 0.000000000000000000e+00 0.000000000000000000e+00 0.000000000000000000e+00 -1.662500000000000089e-01 -1.000000000000000000e+00 -0.000000000000000000e+00 -1.662500000000000089e-01 -0.000000000000000000e+00 -0.000000000000000000e+00 -0.000000000000000000e+00 -0.000000000000000000e+00 -0.000000000000000000e+00 -0.000000000000000000e+00 -0.000000000000000000e+00 -1.662500000000000089e-01 -1.662500000000000089e-01
4.125000000000000194e-02 4.125000000000000194e-02 0.000000000000000000e+00 0.000000000000000000e+00 4.125000000000000194e-02 0.000000000000000000e+00 0.000000000000000000e+00 0.000000000000000000e+00 4.125000000000000194e-02 0.000000000000000000e+00 0.000000000000000000e+00 0.000000000000000000e+00 4.125000000000000194e-02 0.000000000000000000e+00 4.125000000000000194e-02 4.125000000000000194e-02 4.125000000000000194e-02 4.125000000000000194e-02 4.125000000000000194e-02 4.125000000000000194e-02 0.000000000000000000e+00 4.125000000000000194e-02 4.125000000000000194e-02 4.125000000000000194e-02 0.000000000000000000e+00 4.125000000000000194e-02 0.000000000000000000e+00 0.000000000000000000e+00 0.000000000000000000e+00 4.125000000000000194e-02 4.125000000000000194e-02 0.000000000000000000e+00 4.125000000000000194e-02 4.125000000000000194e-02 4.125000000000000194e-02 0.000000000000000000e+00 4.125000000000000194e-02 4.125000000000000194e-02 0.000000000000000000e+00 4.125000000000000194e-02 4.125000000000000194e-02 4.125000000000000194e-02 0.000000000000000000e+00 0.000000000000000000e+00 4.125000000000000194e-02 4.125000000000000194e-02 0.000000000000000000e+00 4.125000000000000194e-02 0.000000000000000000e+00 0.000000000000000000e+00 0.000000000000000000e+00 -1.662500000000000089e-01 -1.662500000000000089e-01 -1.000000000000000000e+00 -1.662500000000000089e-01 -0.000000000000000000e+00 -0.000000000000000000e+00 -1.662500000000000089e-01 -1.662500000000000089e-01 -1.662500000000000089e-01 -0.000000000000000000e+00 -1.662500000000000089e-01 -1.662500000000000089e-01 -1.662500000000000089e-01
0.000000000000000000e+00 0.000000000000000000e+00 4.125000000000000194e-02 0.000000000000000000e+00 4.125000000000000194e-02 0.000000000000000000e+00 0.000000000000000000e+00 0.000000000000000000e+00 0.000000000000000000e+00 4.125000000000000194e-02 4.125000000000000194e-02 4.125000000000000194e-02 4.125000000000000194e-02 0.000000000000000000e+00 4.125000000000000194e-02 4.125000000000000194e-02 4.125000000000000194e-02 4.125000000000000194e-02 0.000000000000000000e+00 4.125000000000000194e-02 4.125000000000000194e-02 4.125000000000000194e-02 0.000000000000000000e+00 0.000000000000000000e+00 4.125000000000000194e-02 4.125000000000000194e-02 0.000000000000000000e+00 0.000000000000000000e+00 4.125000000000000194e-02 0.000000000000000000e+00 4.125000000000000194e-02 0.000000000000000000e+00 0.000000000000000000e+00 0.000000000000000000e+00 4.125000000000000194e-02 0.000000000000000000e+00 0.000000000000000000e+00 0.000000000000000000e+00 0.000000000000000000e+00 0.000000000000000000e+00 4.125000000000000194e-02 4.125000000000000194e-02 4.125000000000000194e-02 0.000000000000000000e+00 0.000000000000000000e+00 0.000000000000000000e+00 0.000000000000000000e+00 0.000000000000000000e+00 0.000000000000000000e+00 0.000000000000000000e+00 4.125000000000000194e-02 -0.000000000000000000e+00 -0.000000000000000000e+00 -1.662500000000000089e-01 -1.000000000000000000e+00 -0.000000000000000000e+00 -1.662500000000000089e-01 -0.000000000000000000e+00 -0.000000000000000000e+00 -1.662500000000000089e-01 -0.000000000000000000e+00 -0.000000000000000000e+00 -1.662500000000000089e-01 -1.662500000000000089e-01
0.000000000000000000e+00 0.000000000000000000e+00 4.125000000000000194e-02 0.000000000000000000e+00 0.000000000000000000e+00 0.000000000000000000e+00 4.125000000000000194e-02 4.125000000000000194e-02 0.000000000000000000e+00 0.000000000000000000e+00 0.000000000000000000e+00 4.125000000000000194e-02 4.125000000000000194e-02 4.125000000000000194e-02 4.125000000000000194e-02 0.000000000000000000e+00 4.125000000000000194e-02 0.000000000000000000e+00 0.000000000000000000e+00 4.125000000000000194e-02 4.125000000000000194e-02 0.000000000000000000e+00 0.000000000000000000e+00 0.000000000000000000e+00 0.000000000000000000e+00 0.000000000000000000e+00 0.000000000000000000e+00 0.000000000000000000e+00 4.125000000000000194e-02 0.000000000000000000e+00 0.000000000000000000e+00 0.000000000000000000e+00 4.125000000000000194e-02 4.125000000000000194e-02 4.125000000000000194e-02 4.125000000000000194e-02 4.125000000000000194e-02 4.125000000000000194e-02 4.125000000000000194e-02 4.125000000000000194e-02 0.000000000000000000e+00 0.000000000000000000e+00 4.125000000000000194e-02 4.125000000000000194e-02 4.125000000000000194e-02 4.125000000000000194e-02 4.125000000000000194e-02 4.125000000000000194e-02 4.125000000000000194e-02 0.000000000000000000e+00 0.000000000000000000e+00 -1.662500000000000089e-01 -0.000000000000000000e+00 -1.662500000000000089e-01 -0.000000000000000000e+00 -1.000000000000000000e+00 -0.000000000000000000e+00 -0.000000000000000000e+00 -1.662500000000000089e-01 -1.662500000000000089e-01 -0.000000000000000000e+00 -0.000000000000000000e+00 -0.000000000000000000e+00 -0.000000000000000000e+00
0.000000000000000000e+00 0.000000000000000000e+00 0.000000000000000000e+00 4.125000000000000194e-02 0.000000000000000000e+00 0.000000000000000000e+00 0.000000000000000000e+00 4.125000000000000194e-02 0.000000000000000000e+00 4.125000000000000194e-02 0.000000000000000000e+00 4.125000000000000194e-02 4.125000000000000194e-02 4.125000000000000194e-02 0.000000000000000000e+00 0.000000000000000000e+00 4.125000000000000194e-02 4.125000000000000194e-02 4.125000000000000194e-02 0.000000000000000000e+00 0.000000000000000000e+00 4.125000000000000194e-02 0.000000000000000000e+00 0.000000000000000000e+00 4.125000000000000194e-02 4.125000000000000194e-02 0.000000000000000000e+00 0.000000000000000000e+00 4.125000000000000194e-02 4.125000000000000194e-02 0.000000000000000000e+00 4.125000000000000194e-02 4.125000000000000194e-02 0.000000000000000000e+00 4.125000000000000194e-02 4.125000000000000194e-02 0.000000000000000000e+00 4.125000000000000194e-02 0.000000000000000000e+00 0.000000000000000000e+00 0.000000000000000000e+00 4.125000000000000194e-02 4.125000000000000194e-02 4.125000000000000194e-02 0.000000000000000000e+00 0.000000000000000000e+00 4.125000000000000194e-02 0.000000000000000000e+00 0.000000000000000000e+00 0.000000000000000000e+00 0.000000000000000000e+00 -1.662500000000000089e-01 -1.662500000000000089e-01 -0.000000000000000000e+00 -0.000000000000000000e+00 -1.662500000000000089e-01 -1.000000000000000000e+00 -0.000000000000000000e+00 -1.662500000000000089e-01 -0.000000000000000000e+00 -0.000000000000000000e+00 -0.000000000000000000e+00 -1.662500000000000089e-01 -1.662500000000000089e-01
4.125000000000000194e-02 0.000000000000000000e+00 4.125000000000000194e-02 0.000000000000000000e+00 0.000000000000000000e+00 0.000000000000000000e+00 0.000000000000000000e+00 0.000000000000000000e+00 0.000000000000000000e+00 0.000000000000000000e+00 0.000000000000000000e+00 4.125000000000000194e-02 0.000000000000000000e+00 0.000000000000000000e+00 0.000000000000000000e+00 4.125000000000000194e-02 0.000000000000000000e+00 4.125000000000000194e-02 0.000000000000000000e+00 4.125000000000000194e-02 0.000000000000000000e+00 4.125000000000000194e-02 4.125000000000000194e-02 0.000000000000000000e+00 0.000000000000000000e+00 4.125000000000000194e-02 0.000000000000000000e+00 4.125000000000000194e-02 0.000000000000000000e+00 4.125000000000000194e-02 4.125000000000000194e-02 4.125000000000000194e-02 0.000000000000000000e+00 4.125000000000000194e-02 0.000000000000000000e+00 4.125000000000000194e-02 0.000000000000000000e+00 4.125000000000000194e-02 0.000000000000000000e+00 0.000000000000000000e+00 4.125000000000000194e-02 0.000000000000000000e+00 4.125000000000000194e-02 4.125000000000000194e-02 4.125000000000000194e-02 4.125000000000000194e-02 4.125000000000000194e-02 0.000000000000000000e+00 0.000000000000000000e+00 0.000000000000000000e+00 0.000000000000000000e+00 -0.000000000000000000e+00 -0.000000000000000000e+00 -1.662500000000000089e-01 -0.000000000000000000e+00 -1.662500000000000089e-01 -1.662500000000000089e-01 -1.000000000000000000e+00 -1.662500000000000089e-01 -1.662500000000000089e-01 -0.000000000000000000e+00 -1.662500000000000089e-01 -0.000000000000000000e+00 -0.000000000000000000e+00
0.000000000000000000e+00 4.125000000000000194e-02 4.125000000000000194e-02 4.125000000000000194e-02 0.000000000000000000e+00 0.000000000000000000e+00 0.000000000000000000e+00 4.125000000000000194e-02 0.000000000000000000e+00 4.125000000000000194e-02 0.000000000000000000e+00 4.125000000000000194e-02 4.125000000000000194e-02 4.125000000000000194e-02 0.000000000000000000e+00 4.125000000000000194e-02 4.125000000000000194e-02 0.000000000000000000e+00 0.000000000000000000e+00 4.125000000000000194e-02 0.000000000000000000e+00 0.000000000000000000e+00 4.125000000000000194e-02 0.000000000000000000e+00 0.000000000000000000e+00 4.125000000000000194e-02 0.000000000000000000e+00 4.125000000000000194e-02 4.125000000000000194e-02 4.125000000000000194e-02 4.125000000000000194e-02 0.000000000000000000e+00 0.000000000000000000e+00 4.125000000000000194e-02 4.125000000000000194e-02 0.000000000000000000e+00 4.125000000000000194e-02 0.000000000000000000e+00 4.125000000000000194e-02 0.000000000000000000e+00 4.125000000000000194e-02 4.125000000000000194e-02 4.125000000000000194e-02 4.125000000000000194e-02 4.125000000000000194e-02 0.000000000000000000e+00 0.000000000000000000e+00 4.125000000000000194e-02 4.125000000000000194e-02 0.000000000000000000e+00 0.000000000000000000e+00 -1.662500000000000089e-01 -0.000000000000000000e+00 -0.000000000000000000e+00 -0.000000000000000000e+00 -1.662500000000000089e-01 -1.662500000000000089e-01 -0.000000000000000000e+00 -1.000000000000000000e+00 -1.662500000000000089e-01 -1.662500000000000089e-01 -1.662500000000000089e-01 -0.000000000000000000e+00 -0.000000000000000000e+00
4.125000000000000194e-02 4.125000000000000194e-02 0.000000000000000000e+00 4.125000000000000194e-02 4.125000000000000194e-02 4.125000000000000194e-02 4.125000000000000194e-02 0.000000000000000000e+00 4.125000000000000194e-02 4.125000000000000194e-02 4.125000000000000194e-02 4.125000000000000194e-02 4.125000000000000194e-02 4.125000000000000194e-02 0.000000000000000000e+00 0.000000000000000000e+00 0.000000000000000000e+00 4.125000000000000194e-02 0.000000000000000000e+00 4.125000000000000194e-02 4.125000000000000194e-02 4.125000000000000194e-02 0.000000000000000000e+00 4.125000000000000194e-02 0.000000000000000000e+00 4.125000000000000194e-02 0.000000000000000000e+00 0.000000000000000000e+00 4.125000000000000194e-02 4.125000000000000194e-02 4.125000000000000194e-02 4.125000000000000194e-02 4.125000000000000194e-02 0.000000000000000000e+00 4.125000000000000194e-02 0.000000000000000000e+00 4.125000000000000194e-02 0.000000000000000000e+00 4.125000000000000194e-02 4.125000000000000194e-02 4.125000000000000194e-02 4.125000000000000194e-02 0.000000000000000000e+00 0.000000000000000000e+00 0.000000000000000000e+00 0.000000000000000000e+00 0.000000000000000000e+00 0.000000000000000000e+00 4.125000000000000194e-02 4.125000000000000194e-02 0.000000000000000000e+00 -1.662500000000000089e-01 -1.662500000000000089e-01 -0.000000000000000000e+00 -1.662500000000000089e-01 -1.662500000000000089e-01 -1.662500000000000089e-01 -0.000000000000000000e+00 -0.000000000000000000e+00 -1.000000000000000000e+00 -0.000000000000000000e+00 -0.000000000000000000e+00 -1.662500000000000089e-01 -0.000000000000000000e+00
4.125000000000000194e-02 0.000000000000000000e+00 4.125000000000000194e-02 0.000000000000000000e+00 0.000000000000000000e+00 4.125000000000000194e-02 4.125000000000000194e-02 4.125000000000000194e-02 4.125000000000000194e-02 0.000000000000000000e+00 0.000000000000000000e+00 0.000000000000000000e+00 4.125000000000000194e-02 4.125000000000000194e-02 4.125000000000000194e-02 4.125000000000000194e-02 4.125000000000000194e-02 4.125000000000000194e-02 4.125000000000000194e-02 4.125000000000000194e-02 0.000000000000000000e+00 4.125000000000000194e-02 0.000000000000000000e+00 4.125000000000000194e-02 4.125000000000000194e-02 0.000000000000000000e+00 4.125000000000000194e-02 0.000000000000000000e+00 0.000000000000000000e+00 4.125000000000000194e-02 0.000000000000000000e+00 4.125000000000000194e-02 4.125000000000000194e-02 0.000000000000000000e+00 4.125000000000000194e-02 0.000000000000000000e+00 4.125000000000000194e-02 4.125000000000000194e-02 4.125000000000000194e-02 0.000000000000000000e+00 0.000000000000000000e+00 4.125000000000000194e-02 4.125000000000000194e-02 4.125000000000000194e-02 0.000000000000000000e+00 4.125000000000000194e-02 4.125000000000000194e-02 4.125000000000000194e-02 4.125000000000000194e-02 0.000000000000000000e+00 0.000000000000000000e+00 -1.662500000000000089e-01 -0.000000000000000000e+00 -0.000000000000000000e+00 -0.000000000000000000e+00 -1.662500000000000089e-01 -0.000000000000000000e+00 -1.662500000000000089e-01 -0.000000000000000000e+00 -1.662500000000000089e-01 -1.000000000000000000e+00 -0.000000000000000000e+00 -1.662500000000000089e-01 -0.000000000000000000e+00
