-1.000000000000000000e+00 0.000000000000000000e+00 0.000000000000000000e+00 5.687499999999999778e-01 5.687499999999999778e-01 0.000000000000000000e+00 0.000000000000000000e+00 3.402777777777777485e-02 0.000000000000000000e+00 0.000000000000000000e+00 0.000000000000000000e+00 0.000000000000000000e+00 0.000000000000000000e+00 0.000000000000000000e+00 3.402777777777777485e-02 0.000000000000000000e+00 0.000000000000000000e+00 0.000000000000000000e+00 0.000000000000000000e+00 0.000000000000000000e+00 0.000000000000000000e+00 0.000000000000000000e+00 0.000000000000000000e+00 0.000000000000000000e+00 3.402777777777777485e-02 0.000000000000000000e+00 0.000000000000000000e+00 0.000000000000000000e+00 0.000000000000000000e+00 0.000000000000000000e+00 3.402777777777777485e-02 0.000000000000000000e+00 0.000000000000000000e+00 0.000000000000000000e+00 0.000000000000000000e+00 0.000000000000000000e+00 0.000000000000000000e+00 3.402777777777777485e-02 0.000000000000000000e+00 0.000000000000000000e+00 0.000000000000000000e+00 0.000000000000000000e+00 0.000000000000000000e+00 0.000000000000000000e+00 0.000000000000000000e+00 0.000000000000000000e+00 0.000000000000000000e+00 0.000000000000000000e+00 3.402777777777777485e-02 3.402777777777777485e-02 0.000000000000000000e+00 -0.000000000000000000e+00 -0.000000000000000000e+00 -0.000000000000000000e+00 -0.000000000000000000e+00 -4.274999999999999911e-01 -4.274999999999999911e-01 -4.274999999999999911e-01 -0.000000000000000000e+00 -0.000000000000000000e+00 -0.000000000000000000e+00 -4.274999999999999911e-01 -0.000000000000000000e+00 -0.000000000000000000e+00
0.000000000000000000e+00 -1.000000000000000000e+00 0.000000000000000000e+00 5.687499999999999778e-01 0.000000000000000000e+00 3.402777777777777485e-02 0.000000000000000000e+00 0.000000000000000000e+00 3.402777777777777485e-02 0.000000000000000000e+00 0.000000000000000000e+00 0.000000000000000000e+00 3.402777777777777485e-02 3.402777777777777485e-02 0.000000000000000000e+00 0.000000000000000000e+00 3.402777777777777485e-02 0.000000000000000000e+00 0.000000000000000000e+00 0.000000000000000000e+00 0.000000000000000000e+00 0.000000000000000000e+00 0.000000000000000000e+00 0.000000000000000000e+00 0.000000000000000000e+00 0.000000000000000000e+00 0.000000000000000000e+00 3.402777777777777485e-02 0.000000000000000000e+00 0.000000000000000000e+00 0.000000000000000000e+00 3.402777777777777485e-02 0.000000000000000000e+00 0.000000000000000000e+00 3.402777777777777485e-02 0.000000000000000000e+00 0.000000000000000000e+00 3.402777777777777485e-02 0.000000000000000000e+00 3.402777777777777485e-02 0.000000000000000000e+00 0.000000000000000000e+00 0.000000000000000000e+00 3.402777777777777485e-02 0.000000000000000000e+00 0.000000000000000000e+00 0.000000000000000000e+00 0.000000000000000000e+00 0.000000000000000000e+00 0.000000000000000000e+00 0.000000000000000000e+00 -2.557692307692307696e-02 -0.000000000000000000e+00 -4.274999999999999911e-01 -4.274999999999999911e-01 -0.000000000000000000e+00 -4.274999999999999911e-01 -0.000000000000000000e+00 -0.000000000000000000e+00 -4.274999999999999911e-01 -4.274999999999999911e-01 -0.000000000000000000e+00 -4.274999999999999911e-01 -0.000000000000000000e+00
0.000000000000000000e+00 0.000000000000000000e+00 -1.000000000000000000e+00 5.687499999999999778e-01 5.687499999999999778e-01 0.000000000000000000e+00 0.000000000000000000e+00 0.000000000000000000e+00 3.402777777777777485e-02 0.000000000000000000e+00 0.000000000000000000e+00 0.000000000000000000e+00 0.000000000000000000e+00 0.000000000000000000e+00 0.000000000000000000e+00 0.000000000000000000e+00 0.000000000000000000e+00 0.000000000000000000e+00 0.000000000000000000e+00 3.402777777777777485e-02 0.000000000000000000e+00 3.402777777777777485e-02 0.000000000000000000e+00 0.000000000000000000e+00 0.000000000000000000e+00 0.000000000000000000e+00 3.402777777777777485e-02 0.000000000000000000e+00 0.000000000000000000e+00 0.000000000000000000e+00 0.000000000000000000e+00 0.000000000000000000e+00 0.000000000000000000e+00 0.000000000000000000e+00 0.000000000000000000e+00 3.402777777777777485e-02 0.000000000000000000e+00 0.000000000000000000e+00 3.402777777777777485e-02 0.000000000000000000e+00 0.000000000000000000e+00 0.000000000000000000e+00 0.000000000000000000e+00 0.000000000000000000e+00 0.000000000000000000e+00 0.000000000000000000e+00 0.000000000000000000e+00 0.000000000000000000e+00 0.000000000000000000e+00 0.000000000000000000e+00 0.000000000000000000e+00 -0.000000000000000000e+00 -0.000000000000000000e+00 -0.000000000000000000e+00 -0.000000000000000000e+00 -4.274999999999999911e-01 -4.274999999999999911e-01 -4.274999999999999911e-01 -0.000000000000000000e+00 -0.000000000000000000e+00 -4.274999999999999911e-01 -4.274999999999999911e-01 -4.274999999999999911e-01 -0.000000000000000000e+00
0.000000000000000000e+00 5.687499999999999778e-01 0.000000000000000000e+00 -1.000000000000000000e+00 0.000000000000000000e+00 3.402777777777777485e-02 3.402777777777777485e-02 0.000000000000000000e+00 0.000000000000000000e+00 3.402777777777777485e-02 3.402777777777777485e-02 0.000000000000000000e+00 3.402777777777777485e-02 0.000000000000000000e+00 0.000000000000000000e+00 0.000000000000000000e+00 0.000000000000000000e+00 3.402777777777777485e-02 0.000000000000000000e+00 0.000000000000000000e+00 0.000000000000000000e+00 0.000000000000000000e+00 0.000000000000000000e+00 0.000000000000000000e+00 0.000000000000000000e+00 0.000000000000000000e+00 3.402777777777777485e-02 0.000000000000000000e+00 0.000000000000000000e+00 0.000000000000000000e+00 3.402777777777777485e-02 0.000000000000000000e+00 0.000000000000000000e+00 0.000000000000000000e+00 3.402777777777777485e-02 0.000000000000000000e+00 0.000000000000000000e+00 0.000000000000000000e+00 0.000000000000000000e+00 3.402777777777777485e-02 3.402777777777777485e-02 3.402777777777777485e-02 0.000000000000000000e+00 0.000000000000000000e+00 0.000000000000000000e+00 0.000000000000000000e+00 0.000000000000000000e+00 0.000000000000000000e+00 0.000000000000000000e+00 0.000000000000000000e+00 3.402777777777777485e-02 -2.557692307692307696e-02 -0.000000000000000000e+00 -0.000000000000000000e+00 -0.000000000000000000e+00 -4.274999999999999911e-01 -0.000000000000000000e+00 -4.274999999999999911e-01 -4.274999999999999911e-01 -4.274999999999999911e-01 -4.274999999999999911e-01 -0.000000000000000000e+00 -0.000000000000000000e+00 -4.274999999999999911e-01
0.000000000000000000e+00 5.687499999999999778e-01 0.000000000000000000e+00 0.000000000000000000e+00 -1.000000000000000000e+00 0.000000000000000000e+00 0.000000000000000000e+00 0.000000000000000000e+00 3.402777777777777485e-02 3.402777777777777485e-02 0.000000000000000000e+00 0.000000000000000000e+00 0.000000000000000000e+00 0.000000000000000000e+00 0.000000000000000000e+00 0.000000000000000000e+00 0.000000000000000000e+00 0.000000000000000000e+00 3.402777777777777485e-02 0.000000000000000000e+00 0.000000000000000000e+00 0.000000000000000000e+00 0.000000000000000000e+00 0.000000000000000000e+00 3.402777777777777485e-02 3.402777777777777485e-02 3.402777777777777485e-02 0.000000000000000000e+00 0.000000000000000000e+00 3.402777777777777485e-02 0.000000000000000000e+00 0.000000000000000000e+00 0.000000000000000000e+00 0.000000000000000000e+00 0.000000000000000000e+00 0.000000000000000000e+00 0.000000000000000000e+00 3.402777777777777485e-02 0.000000000000000000e+00 0.000000000000000000e+00 0.000000000000000000e+00 0.000000000000000000e+00 0.000000000000000000e+00 0.000000000000000000e+00 0.000000000000000000e+00 0.000000000000000000e+00 0.000000000000000000e+00 0.000000000000000000e+00 0.000000000000000000e+00 0.000000000000000000e+00 0.000000000000000000e+00 -2.557692307692307696e-02 -0.000000000000000000e+00 -0.000000000000000000e+00 -0.000000000000000000e+00 -4.274999999999999911e-01 -4.274999999999999911e-01 -4.274999999999999911e-01 -0.000000000000000000e+00 -0.000000000000000000e+00 -0.000000000000000000e+00 -4.274999999999999911e-01 -4.274999999999999911e-01 -4.274999999999999911e-01
0.000000000000000000e+00 0.000000000000000000e+00 0.000000000000000000e+00 0.000000000000000000e+00 0.000000000000000000e+00 -1.000000000000000000e+00 0.000000000000000000e+00 5.687499999999999778e-01 0.000000000000000000e+00 0.000000000000000000e+00 0.000000000000000000e+00 0.000000000000000000e+00 0.000000000000000000e+00 3.402777777777777485e-02 3.402777777777777485e-02 0.000000000000000000e+00 0.000000000000000000e+00 0.000000000000000000e+00 3.402777777777777485e-02 0.000000000000000000e+00 0.000000000000000000e+00 3.402777777777777485e-02 3.402777777777777485e-02 0.000000000000000000e+00 0.000000000000000000e+00 0.000000000000000000e+00 0.000000000000000000e+00 0.000000000000000000e+00 0.000000000000000000e+00 0.000000000000000000e+00 0.000000000000000000e+00 3.402777777777777485e-02 0.000000000000000000e+00 0.000000000000000000e+00 0.000000000000000000e+00 3.402777777777777485e-02 0.000000000000000000e+00 0.000000000000000000e+00 0.000000000000000000e+00 0.000000000000000000e+00 0.000000000000000000e+00 0.000000000000000000e+00 3.402777777777777485e-02 0.000000000000000000e+00 0.000000000000000000e+00 0.000000000000000000e+00 0.000000000000000000e+00 3.402777777777777485e-02 0.000000000000000000e+00 3.402777777777777485e-02 3.402777777777777485e-02 -4.274999999999999911e-01 -0.000000000000000000e+00 -0.000000000000000000e+00 -4.274999999999999911e-01 -4.274999999999999911e-01 -4.274999999999999911e-01 -4.274999999999999911e-01 -0.000000000000000000e+00 -4.274999999999999911e-01 -4.274999999999999911e-01 -0.000000000000000000e+00 -4.274999999999999911e-01 -4.274999999999999911e-01
3.402777777777777485e-02 0.000000000000000000e+00 0.000000000000000000e+00 0.000000000000000000e+00 0.000000000000000000e+00 0.000000000000000000e+00 -1.000000000000000000e+00 0.000000000000000000e+00 5.687499999999999778e-01 0.000000000000000000e+00 0.000000000000000000e+00 0.000000000000000000e+00 0.000000000000000000e+00 0.000000000000000000e+00 3.402777777777777485e-02 3.402777777777777485e-02 0.000000000000000000e+00 0.000000000000000000e+00 0.000000000000000000e+00 0.000000000000000000e+00 0.000000000000000000e+00 0.000000000000000000e+00 0.000000000000000000e+00 3.402777777777777485e-02 0.000000000000000000e+00 3.402777777777777485e-02 0.000000000000000000e+00 0.000000000000000000e+00 0.000000000000000000e+00 0.000000000000000000e+00 0.000000000000000000e+00 0.000000000000000000e+00 0.000000000000000000e+00 0.000000000000000000e+00 0.000000000000000000e+00 3.402777777777777485e-02 0.000000000000000000e+00 3.402777777777777485e-02 0.000000000000000000e+00 3.402777777777777485e-02 0.000000000000000000e+00 3.402777777777777485e-02 0.000000000000000000e+00 0.000000000000000000e+00 0.000000000000000000e+00 0.000000000000000000e+00 0.000000000000000000e+00 0.000000000000000000e+00 0.000000000000000000e+00 0.000000000000000000e+00 0.000000000000000000e+00 -0.000000000000000000e+00 -2.557692307692307696e-02 -4.274999999999999911e-01 -0.000000000000000000e+00 -0.000000000000000000e+00 -0.000000000000000000e+00 -4.274999999999999911e-01 -0.000000000000000000e+00 -0.000000000000000000e+00 -0.000000000000000000e+00 -0.000000000000000000e+00 -0.000000000000000000e+00 -4.274999999999999911e-01
0.000000000000000000e+00 0.000000000000000000e+00 0.000000000000000000e+00 0.000000000000000000e+00 0.000000000000000000e+00 5.687499999999999778e-01 0.000000000000000000e+00 -1.000000000000000000e+00 0.000000000000000000e+00 0.000000000000000000e+00 0.000000000000000000e+00 0.000000000000000000e+00 0.000000000000000000e+00 3.402777777777777485e-02 0.000000000000000000e+00 0.000000000000000000e+00 0.000000000000000000e+00 0.000000000000000000e+00 0.000000000000000000e+00 0.000000000000000000e+00 0.000000000000000000e+00 0.000000000000000000e+00 0.000000000000000000e+00 0.000000000000000000e+00 0.000000000000000000e+00 0.000000000000000000e+00 0.000000000000000000e+00 0.000000000000000000e+00 0.000000000000000000e+00 0.000000000000000000e+00 0.000000000000000000e+00 3.402777777777777485e-02 0.000000000000000000e+00 0.000000000000000000e+00 0.000000000000000000e+00 0.000000000000000000e+00 3.402777777777777485e-02 0.000000000000000000e+00 0.000000000000000000e+00 0.000000000000000000e+00 3.402777777777777485e-02 0.000000000000000000e+00 0.000000000000000000e+00 3.402777777777777485e-02 0.000000000000000000e+00 0.000000000000000000e+00 3.402777777777777485e-02 0.000000000000000000e+00 0.000000000000000000e+00 0.000000000000000000e+00 0.000000000000000000e+00 -0.000000000000000000e+00 -0.000000000000000000e+00 -4.274999999999999911e-01 -0.000000000000000000e+00 -4.274999999999999911e-01 -0.000000000000000000e+00 -4.274999999999999911e-01 -0.000000000000000000e+00 -0.000000000000000000e+00 -0.000000000000000000e+00 -4.274999999999999911e-01 -0.000000000000000000e+00 -0.000000000000000000e+00
0.000000000000000000e+00 0.000000000000000000e+00 3.402777777777777485e-02 0.000000000000000000e+00 0.000000000000000000e+00 5.687499999999999778e-01 5.687499999999999778e-01 0.000000000000000000e+00 -1.000000000000000000e+00 0.000000000000000000e+00 3.402777777777777485e-02 3.402777777777777485e-02 0.000000000000000000e+00 0.000000000000000000e+00 0.000000000000000000e+00 0.000000000000000000e+00 0.000000000000000000e+00 0.000000000000000000e+00 0.000000000000000000e+00 0.000000000000000000e+00 0.000000000000000000e+00 0.000000000000000000e+00 0.000000000000000000e+00 0.000000000000000000e+00 0.000000000000000000e+00 0.000000000000000000e+00 0.000000000000000000e+00 0.000000000000000000e+00 0.000000000000000000e+00 0.000000000000000000e+00 0.000000000000000000e+00 0.000000000000000000e+00 0.000000000000000000e+00 0.000000000000000000e+00 0.000000000000000000e+00 0.000000000000000000e+00 3.402777777777777485e-02 0.000000000000000000e+00 0.000000000000000000e+00 0.000000000000000000e+00 0.000000000000000000e+00 0.000000000000000000e+00 3.402777777777777485e-02 3.402777777777777485e-02 3.402777777777777485e-02 0.000000000000000000e+00 0.000000000000000000e+00 0.000000000000000000e+00 0.000000000000000000e+00 3.402777777777777485e-02 0.000000000000000000e+00 -0.000000000000000000e+00 -0.000000000000000000e+00 -4.274999999999999911e-01 -0.000000000000000000e+00 -4.274999999999999911e-01 -4.274999999999999911e-01 -0.000000000000000000e+00 -0.000000000000000000e+00 -4.274999999999999911e-01 -0.000000000000000000e+00 -4.274999999999999911e-01 -0.000000000000000000e+00 -4.274999999999999911e-01
0.000000000000000000e+00 0.000000000000000000e+00 0.000000000000000000e+00 0.000000000000000000e+00 0.000000000000000000e+00 0.000000000000000000e+00 0.000000000000000000e+00 0.000000000000000000e+00 0.000000000000000000e+00 -1.000000000000000000e+00 0.000000000000000000e+00 3.402777777777777485e-02 0.000000000000000000e+00 3.402777777777777485e-02 0.000000000000000000e+00 3.402777777777777485e-02 0.000000000000000000e+00 0.000000000000000000e+00 0.000000000000000000e+00 3.402777777777777485e-02 3.402777777777777485e-02 3.402777777777777485e-02 0.000000000000000000e+00 0.000000000000000000e+00 0.000000000000000000e+00 0.000000000000000000e+00 0.000000000000000000e+00 3.402777777777777485e-02 0.000000000000000000e+00 0.000000000000000000e+00 0.000000000000000000e+00 3.402777777777777485e-02 3.402777777777777485e-02 3.402777777777777485e-02 0.000000000000000000e+00 0.000000000000000000e+00 3.402777777777777485e-02 0.000000000000000000e+00 0.000000000000000000e+00 0.000000000000000000e+00 0.000000000000000000e+00 3.402777777777777485e-02 0.000000000000000000e+00 0.000000000000000000e+00 0.000000000000000000e+00 0.000000000000000000e+00 0.000000000000000000e+00 0.000000000000000000e+00 0.000000000000000000e+00 0.000000000000000000e+00 0.000000000000000000e+00 -4.274999999999999911e-01 -2.557692307692307696e-02 -4.274999999999999911e-01 -4.274999999999999911e-01 -4.274999999999999911e-01 -0.000000000000000000e+00 -4.274999999999999911e-01 -0.000000000000000000e+00 -4.274999999999999911e-01 -4.274999999999999911e-01 -4.274999999999999911e-01 -0.000000000000000000e+00 -0.000000000000000000e+00
3.402777777777777485e-02 0.000000000000000000e+00 0.000000000000000000e+00 3.402777777777777485e-02 0.000000000000000000e+00 0.000000000000000000e+00 0.000000000000000000e+00 0.000000000000000000e+00 0.000000000000000000e+00 0.000000000000000000e+00 -1.000000000000000000e+00 0.000000000000000000e+00 0.000000000000000000e+00 0.000000000000000000e+00 0.000000000000000000e+00 0.000000000000000000e+00 0.000000000000000000e+00 0.000000000000000000e+00 0.000000000000000000e+00 0.000000000000000000e+00 3.402777777777777485e-02 0.000000000000000000e+00 0.000000000000000000e+00 0.000000000000000000e+00 0.000000000000000000e+00 3.402777777777777485e-02 0.000000000000000000e+00 0.000000000000000000e+00 3.402777777777777485e-02 0.000000000000000000e+00 0.000000000000000000e+00 0.000000000000000000e+00 0.000000000000000000e+00 0.000000000000000000e+00 3.402777777777777485e-02 3.402777777777777485e-02 3.402777777777777485e-02 0.000000000000000000e+00 0.000000000000000000e+00 0.000000000000000000e+00 0.000000000000000000e+00 0.000000000000000000e+00 0.000000000000000000e+00 3.402777777777777485e-02 0.000000000000000000e+00 0.000000000000000000e+00 0.000000000000000000e+00 3.402777777777777485e-02 0.000000000000000000e+00 3.402777777777777485e-02 0.000000000000000000e+00 -4.274999999999999911e-01 -4.274999999999999911e-01 -0.000000000000000000e+00 -4.274999999999999911e-01 -0.000000000000000000e+00 -4.274999999999999911e-01 -0.000000000000000000e+00 -0.000000000000000000e+00 -4.274999999999999911e-01 -0.000000000000000000e+00 -0.000000000000000000e+00 -4.274999999999999911e-01 -4.274999999999999911e-01
0.000000000000000000e+00 0.000000000000000000e+00 3.402777777777777485e-02 0.000000000000000000e+00 0.000000000000000000e+00 0.000000000000000000e+00 0.000000000000000000e+00 0.000000000000000000e+00 0.000000000000000000e+00 3.402777777777777485e-02 0.000000000000000000e+00 -1.000000000000000000e+00 5.687499999999999778e-01 0.000000000000000000e+00 0.000000000000000000e+00 0.000000000000000000e+00 0.000000000000000000e+00 0.000000000000000000e+00 0.000000000000000000e+00 0.000000000000000000e+00 0.000000000000000000e+00 0.000000000000000000e+00 0.000000000000000000e+00 0.000000000000000000e+00 0.000000000000000000e+00 0.000000000000000000e+00 3.402777777777777485e-02 0.000000000000000000e+00 0.000000000000000000e+00 0.000000000000000000e+00 0.000000000000000000e+00 0.000000000000000000e+00 0.000000000000000000e+00 0.000000000000000000e+00 0.000000000000000000e+00 0.000000000000000000e+00 0.000000000000000000e+00 0.000000000000000000e+00 0.000000000000000000e+00 0.000000000000000000e+00 0.000000000000000000e+00 3.402777777777777485e-02 0.000000000000000000e+00 0.000000000000000000e+00 0.000000000000000000e+00 0.000000000000000000e+00 0.000000000000000000e+00 0.000000000000000000e+00 3.402777777777777485e-02 0.000000000000000000e+00 0.000000000000000000e+00 -0.000000000000000000e+00 -4.274999999999999911e-01 -2.557692307692307696e-02 -0.000000000000000000e+00 -0.000000000000000000e+00 -4.274999999999999911e-01 -4.274999999999999911e-01 -0.000000000000000000e+00 -0.000000000000000000e+00 -0.000000000000000000e+00 -4.274999999999999911e-01 -4.274999999999999911e-01 -4.274999999999999911e-01
3.402777777777777485e-02 0.000000000000000000e+00 3.402777777777777485e-02 0.000000000000000000e+00 3.402777777777777485e-02 0.000000000000000000e+00 3.402777777777777485e-02 0.000000000000000000e+00 0.000000000000000000e+00 0.000000000000000000e+00 0.000000000000000000e+00 5.687499999999999778e-01 -1.000000000000000000e+00 0.000000000000000000e+00 0.000000000000000000e+00 0.000000000000000000e+00 0.000000000000000000e+00 0.000000000000000000e+00 0.000000000000000000e+00 0.000000000000000000e+00 3.402777777777777485e-02 0.000000000000000000e+00 3.402777777777777485e-02 0.000000000000000000e+00 0.000000000000000000e+00 0.000000000000000000e+00 0.000000000000000000e+00 0.000000000000000000e+00 0.000000000000000000e+00 0.000000000000000000e+00 0.000000000000000000e+00 0.000000000000000000e+00 0.000000000000000000e+00 0.000000000000000000e+00 0.000000000000000000e+00 3.402777777777777485e-02 0.000000000000000000e+00 0.000000000000000000e+00 3.402777777777777485e-02 0.000000000000000000e+00 0.000000000000000000e+00 0.000000000000000000e+00 3.402777777777777485e-02 0.000000000000000000e+00 0.000000000000000000e+00 0.000000000000000000e+00 0.000000000000000000e+00 0.000000000000000000e+00 0.000000000000000000e+00 3.402777777777777485e-02 3.402777777777777485e-02 -4.274999999999999911e-01 -4.274999999999999911e-01 -0.000000000000000000e+00 -0.000000000000000000e+00 -0.000000000000000000e+00 -0.000000000000000000e+00 -4.274999999999999911e-01 -4.274999999999999911e-01 -4.274999999999999911e-01 -0.000000000000000000e+00 -4.274999999999999911e-01 -4.274999999999999911e-01 -4.274999999999999911e-01
0.000000000000000000e+00 0.000000000000000000e+00 0.000000000000000000e+00 0.000000000000000000e+00 0.000000000000000000e+00 0.000000000000000000e+00 3.402777777777777485e-02 0.000000000000000000e+00 0.000000000000000000e+00 3.402777777777777485e-02 5.687499999999999778e-01 0.000000000000000000e+00 0.000000000000000000e+00 -1.000000000000000000e+00 0.000000000000000000e+00 0.000000000000000000e+00 0.000000000000000000e+00 0.000000000000000000e+00 0.000000000000000000e+00 0.000000000000000000e+00 3.402777777777777485e-02 0.000000000000000000e+00 0.000000000000000000e+00 0.000000000000000000e+00 3.402777777777777485e-02 3.402777777777777485e-02 0.000000000000000000e+00 0.000000000000000000e+00 3.402777777777777485e-02 0.000000000000000000e+00 0.000000000000000000e+00 0.000000000000000000e+00 0.000000000000000000e+00 0.000000000000000000e+00 0.000000000000000000e+00 0.000000000000000000e+00 0.000000000000000000e+00 3.402777777777777485e-02 0.000000000000000000e+00 0.000000000000000000e+00 0.000000000000000000e+00 0.000000000000000000e+00 3.402777777777777485e-02 0.000000000000000000e+00 3.402777777777777485e-02 0.000000000000000000e+00 0.000000000000000000e+00 3.402777777777777485e-02 0.000000000000000000e+00 0.000000000000000000e+00 0.000000000000000000e+00 -4.274999999999999911e-01 -4.274999999999999911e-01 -0.000000000000000000e+00 -0.000000000000000000e+00 -4.274999999999999911e-01 -4.274999999999999911e-01 -0.000000000000000000e+00 -0.000000000000000000e+00 -0.000000000000000000e+00 -4.274999999999999911e-01 -4.274999999999999911e-01 -4.274999999999999911e-01 -0.000000000000000000e+00
0.000000000000000000e+00 0.000000000000000000e+00 0.000000000000000000e+00 0.000000000000000000e+00 0.000000000000000000e+00 0.000000000000000000e+00 0.000000000000000000e+00 0.000000000000000000e+00 0.000000000000000000e+00 0.000000000000000000e+00 0.000000000000000000e+00 0.000000000000000000e+00 5.687499999999999778e-01 0.000000000000000000e+00 -1.000000000000000000e+00 0.000000000000000000e+00 0.000000000000000000e+00 0.000000000000000000e+00 0.000000000000000000e+00 0.000000000000000000e+00 0.000000000000000000e+00 0.000000000000000000e+00 0.000000000000000000e+00 0.000000000000000000e+00 0.000000000000000000e+00 0.000000000000000000e+00 0.000000000000000000e+00 0.000000000000000000e+00 0.000000000000000000e+00 0.000000000000000000e+00 0.000000000000000000e+00 0.000000000000000000e+00 0.000000000000000000e+00 0.000000000000000000e+00 0.000000000000000000e+00 0.000000000000000000e+00 0.000000000000000000e+00 0.000000000000000000e+00 3.402777777777777485e-02 0.000000000000000000e+00 3.402777777777777485e-02 0.000000000000000000e+00 0.000000000000000000e+00 0.000000000000000000e+00 3.402777777777777485e-02 0.000000000000000000e+00 0.000000000000000000e+00 0.000000000000000000e+00 0.000000000000000000e+00 3.402777777777777485e-02 0.000000000000000000e+00 -0.000000000000000000e+00 -0.000000000000000000e+00 -2.557692307692307696e-02 -0.000000000000000000e+00 -0.000000000000000000e+00 -0.000000000000000000e+00 -4.274999999999999911e-01 -0.000000000000000000e+00 -0.000000000000000000e+00 -4.274999999999999911e-01 -4.274999999999999911e-01 -4.274999999999999911e-01 -0.000000000000000000e+00
0.000000000000000000e+00 0.000000000000000000e+00 0.000000000000000000e+00 0.000000000000000000e+00 0.000000000000000000e+00 0.000000000000000000e+00 0.000000000000000000e+00 0.000000000000000000e+00 0.000000000000000000e+00 0.000000000000000000e+00 3.402777777777777485e-02 3.402777777777777485e-02 0.000000000000000000e+00 0.000000000000000000e+00 3.402777777777777485e-02 -1.000000000000000000e+00 0.000000000000000000e+00 5.687499999999999778e-01 5.687499999999999778e-01 0.000000000000000000e+00 0.000000000000000000e+00 0.000000000000000000e+00 0.000000000000000000e+00 0.000000000000000000e+00 0.000000000000000000e+00 0.000000000000000000e+00 3.402777777777777485e-02 0.000000000000000000e+00 0.000000000000000000e+00 0.000000000000000000e+00 0.000000000000000000e+00 3.402777777777777485e-02 0.000000000000000000e+00 0.000000000000000000e+00 0.000000000000000000e+00 0.000000000000000000e+00 0.000000000000000000e+00 0.000000000000000000e+00 0.000000000000000000e+00 0.000000000000000000e+00 0.000000000000000000e+00 0.000000000000000000e+00 3.402777777777777485e-02 3.402777777777777485e-02 0.000000000000000000e+00 0.000000000000000000e+00 0.000000000000000000e+00 0.000000000000000000e+00 0.000000000000000000e+00 0.000000000000000000e+00 0.000000000000000000e+00 -4.274999999999999911e-01 -4.274999999999999911e-01 -0.000000000000000000e+00 -0.000000000000000000e+00 -4.274999999999999911e-01 -0.000000000000000000e+00 -4.274999999999999911e-01 -0.000000000000000000e+00 -4.274999999999999911e-01 -4.274999999999999911e-01 -4.274999999999999911e-01 -0.000000000000000000e+00 -0.000000000000000000e+00
0.000000000000000000e+00 0.000000000000000000e+00 0.000000000000000000e+00 0.000000000000000000e+00 0.000000000000000000e+00 0.000000000000000000e+00 0.000000000000000000e+00 0.000000000000000000e+00 0.000000000000000000e+00 0.000000000000000000e+00 0.000000000000000000e+00 3.402777777777777485e-02 0.000000000000000000e+00 0.000000000000000000e+00 0.000000000000000000e+00 0.000000000000000000e+00 -1.000000000000000000e+00 0.000000000000000000e+00 0.000000000000000000e+00 5.687499999999999778e-01 0.000000000000000000e+00 0.000000000000000000e+00 3.402777777777777485e-02 0.000000000000000000e+00 3.402777777777777485e-02 0.000000000000000000e+00 0.000000000000000000e+00 0.000000000000000000e+00 0.000000000000000000e+00 3.402777777777777485e-02 0.000000000000000000e+00 3.402777777777777485e-02 0.000000000000000000e+00 0.000000000000000000e+00 0.000000000000000000e+00 0.000000000000000000e+00 0.000000000000000000e+00 0.000000000000000000e+00 0.000000000000000000e+00 0.000000000000000000e+00 0.000000000000000000e+00 0.000000000000000000e+00 3.402777777777777485e-02 0.000000000000000000e+00 0.000000000000000000e+00 0.000000000000000000e+00 0.000000000000000000e+00 0.000000000000000000e+00 0.000000000000000000e+00 0.000000000000000000e+00 0.000000000000000000e+00 -0.000000000000000000e+00 -0.000000000000000000e+00 -4.274999999999999911e-01 -0.000000000000000000e+00 -4.274999999999999911e-01 -4.274999999999999911e-01 -0.000000000000000000e+00 -4.274999999999999911e-01 -0.000000000000000000e+00 -0.000000000000000000e+00 -0.000000000000000000e+00 -4.274999999999999911e-01 -4.274999999999999911e-01
0.000000000000000000e+00 0.000000000000000000e+00 3.402777777777777485e-02 0.000000000000000000e+00 0.000000000000000000e+00 0.000000000000000000e+00 0.000000000000000000e+00 0.000000000000000000e+00 3.402777777777777485e-02 3.402777777777777485e-02 0.000000000000000000e+00 0.000000000000000000e+00 0.000000000000000000e+00 0.000000000000000000e+00 0.000000000000000000e+00 0.000000000000000000e+00 0.000000000000000000e+00 -1.000000000000000000e+00 0.000000000000000000e+00 0.000000000000000000e+00 3.402777777777777485e-02 3.402777777777777485e-02 0.000000000000000000e+00 0.000000000000000000e+00 0.000000000000000000e+00 0.000000000000000000e+00 0.000000000000000000e+00 0.000000000000000000e+00 0.000000000000000000e+00 0.000000000000000000e+00 3.402777777777777485e-02 0.000000000000000000e+00 0.000000000000000000e+00 0.000000000000000000e+00 0.000000000000000000e+00 0.000000000000000000e+00 0.000000000000000000e+00 3.402777777777777485e-02 0.000000000000000000e+00 3.402777777777777485e-02 0.000000000000000000e+00 0.000000000000000000e+00 0.000000000000000000e+00 0.000000000000000000e+00 0.000000000000000000e+00 0.000000000000000000e+00 3.402777777777777485e-02 0.000000000000000000e+00 0.000000000000000000e+00 3.402777777777777485e-02 3.402777777777777485e-02 -0.000000000000000000e+00 -0.000000000000000000e+00 -0.000000000000000000e+00 -0.000000000000000000e+00 -4.274999999999999911e-01 -0.000000000000000000e+00 -0.000000000000000000e+00 -0.000000000000000000e+00 -0.000000000000000000e+00 -0.000000000000000000e+00 -4.274999999999999911e-01 -4.274999999999999911e-01 -4.274999999999999911e-01
0.000000000000000000e+00 0.000000000000000000e+00 0.000000000000000000e+00 3.402777777777777485e-02 0.000000000000000000e+00 3.402777777777777485e-02 0.000000000000000000e+00 0.000000000000000000e+00 3.402777777777777485e-02 0.000000000000000000e+00 0.000000000000000000e+00 0.000000000000000000e+00 0.000000000000000000e+00 0.000000000000000000e+00 0.000000000000000000e+00 0.000000000000000000e+00 0.000000000000000000e+00 5.687499999999999778e-01 -1.000000000000000000e+00 0.000000000000000000e+00 0.000000000000000000e+00 0.000000000000000000e+00 0.000000000000000000e+00 0.000000000000000000e+00 3.402777777777777485e-02 0.000000000000000000e+00 0.000000000000000000e+00 3.402777777777777485e-02 0.000000000000000000e+00 0.000000000000000000e+00 0.000000000000000000e+00 0.000000000000000000e+00 3.402777777777777485e-02 0.000000000000000000e+00 0.000000000000000000e+00 0.000000000000000000e+00 0.000000000000000000e+00 0.000000000000000000e+00 0.000000000000000000e+00 3.402777777777777485e-02 0.000000000000000000e+00 0.000000000000000000e+00 0.000000000000000000e+00 3.402777777777777485e-02 0.000000000000000000e+00 0.000000000000000000e+00 0.000000000000000000e+00 0.000000000000000000e+00 0.000000000000000000e+00 0.000000000000000000e+00 0.000000000000000000e+00 -0.000000000000000000e+00 -4.274999999999999911e-01 -0.000000000000000000e+00 -2.557692307692307696e-02 -4.274999999999999911e-01 -0.000000000000000000e+00 -4.274999999999999911e-01 -0.000000000000000000e+00 -0.000000000000000000e+00 -0.000000000000000000e+00 -4.274999999999999911e-01 -0.000000000000000000e+00 -0.000000000000000000e+00
0.000000000000000000e+00 0.000000000000000000e+00 0.000000000000000000e+00 0.000000000000000000e+00 0.000000000000000000e+00 0.000000000000000000e+00 3.402777777777777485e-02 0.000000000000000000e+00 0.000000000000000000e+00 0.000000000000000000e+00 3.402777777777777485e-02 0.000000000000000000e+00 3.402777777777777485e-02 0.000000000000000000e+00 0.000000000000000000e+00 0.000000000000000000e+00 0.000000000000000000e+00 0.000000000000000000e+00 0.000000000000000000e+00 -1.000000000000000000e+00 3.402777777777777485e-02 0.000000000000000000e+00 0.000000000000000000e+00 0.000000000000000000e+00 0.000000000000000000e+00 3.402777777777777485e-02 0.000000000000000000e+00 0.000000000000000000e+00 3.402777777777777485e-02 0.000000000000000000e+00 0.000000000000000000e+00 0.000000000000000000e+00 0.000000000000000000e+00 3.402777777777777485e-02 0.000000000000000000e+00 0.000000000000000000e+00 0.000000000000000000e+00 0.000000000000000000e+00 0.000000000000000000e+00 3.402777777777777485e-02 0.000000000000000000e+00 0.000000000000000000e+00 0.000000000000000000e+00 0.000000000000000000e+00 0.000000000000000000e+00 0.000000000000000000e+00 0.000000000000000000e+00 0.000000000000000000e+00 0.000000000000000000e+00 0.000000000000000000e+00 0.000000000000000000e+00 -0.000000000000000000e+00 -0.000000000000000000e+00 -4.274999999999999911e-01 -0.000000000000000000e+00 -4.274999999999999911e-01 -4.274999999999999911e-01 -4.274999999999999911e-01 -4.274999999999999911e-01 -4.274999999999999911e-01 -4.274999999999999911e-01 -4.274999999999999911e-01 -0.000000000000000000e+00 -0.000000000000000000e+00
0.000000000000000000e+00 0.000000000000000000e+00 0.000000000000000000e+00 0.000000000000000000e+00 0.000000000000000000e+00 0.000000000000000000e+00 0.000000000000000000e+00 3.402777777777777485e-02 0.000000000000000000e+00 0.000000000000000000e+00 0.000000000000000000e+00 3.402777777777777485e-02 3.402777777777777485e-02 0.000000000000000000e+00 0.000000000000000000e+00 3.402777777777777485e-02 3.402777777777777485e-02 0.000000000000000000e+00 0.000000000000000000e+00 0.000000000000000000e+00 -1.000000000000000000e+00 5.687499999999999778e-01 0.000000000000000000e+00 0.000000000000000000e+00 0.000000000000000000e+00 3.402777777777777485e-02 3.402777777777777485e-02 0.000000000000000000e+00 0.000000000000000000e+00 0.000000000000000000e+00 0.000000000000000000e+00 0.000000000000000000e+00 0.000000000000000000e+00 0.000000000000000000e+00 0.000000000000000000e+00 0.000000000000000000e+00 0.000000000000000000e+00 3.402777777777777485e-02 0.000000000000000000e+00 3.402777777777777485e-02 0.000000000000000000e+00 0.000000000000000000e+00 0.000000000000000000e+00 0.000000000000000000e+00 0.000000000000000000e+00 3.402777777777777485e-02 0.000000000000000000e+00 0.000000000000000000e+00 0.000000000000000000e+00 0.000000000000000000e+00 0.000000000000000000e+00 -0.000000000000000000e+00 -4.274999999999999911e-01 -4.274999999999999911e-01 -4.274999999999999911e-01 -0.000000000000000000e+00 -4.274999999999999911e-01 -4.274999999999999911e-01 -0.000000000000000000e+00 -4.274999999999999911e-01 -0.000000000000000000e+00 -4.274999999999999911e-01 -0.000000000000000000e+00 -4.274999999999999911e-01
0.000000000000000000e+00 0.000000000000000000e+00 0.000000000000000000e+00 0.000000000000000000e+00 3.402777777777777485e-02 0.000000000000000000e+00 3.402777777777777485e-02 0.000000000000000000e+00 0.000000000000000000e+00 0.000000000000000000e+00 0.000000000000000000e+00 0.000000000000000000e+00 0.000000000000000000e+00 0.000000000000000000e+00 0.000000000000000000e+00 0.000000000000000000e+00 0.000000000000000000e+00 0.000000000000000000e+00 0.000000000000000000e+00 0.000000000000000000e+00 0.000000000000000000e+00 -1.000000000000000000e+00 0.000000000000000000e+00 0.000000000000000000e+00 0.000000000000000000e+00 0.000000000000000000e+00 0.000000000000000000e+00 3.402777777777777485e-02 3.402777777777777485e-02 3.402777777777777485e-02 0.000000000000000000e+00 0.000000000000000000e+00 3.402777777777777485e-02 0.000000000000000000e+00 0.000000000000000000e+00 0.000000000000000000e+00 3.402777777777777485e-02 0.000000000000000000e+00 0.000000000000000000e+00 3.402777777777777485e-02 0.000000000000000000e+00 0.000000000000000000e+00 0.000000000000000000e+00 0.000000000000000000e+00 0.000000000000000000e+00 0.000000000000000000e+00 3.402777777777777485e-02 0.000000000000000000e+00 0.000000000000000000e+00 0.000000000000000000e+00 0.000000000000000000e+00 -4.274999999999999911e-01 -0.000000000000000000e+00 -4.274999999999999911e-01 -4.274999999999999911e-01 -0.000000000000000000e+00 -0.000000000000000000e+00 -4.274999999999999911e-01 -0.000000000000000000e+00 -4.274999999999999911e-01 -0.000000000000000000e+00 -4.274999999999999911e-01 -0.000000000000000000e+00 -0.000000000000000000e+00
0.000000000000000000e+00 0.000000000000000000e+00 0.000000000000000000e+00 0.000000000000000000e+00 0.000000000000000000e+00 0.000000000000000000e+00 0.000000000000000000e+00 3.402777777777777485e-02 3.402777777777777485e-02 0.000000000000000000e+00 0.000000000000000000e+00 3.402777777777777485e-02 0.000000000000000000e+00 3.402777777777777485e-02 0.000000000000000000e+00 0.000000000000000000e+00 3.402777777777777485e-02 0.000000000000000000e+00 0.000000000000000000e+00 0.000000000000000000e+00 0.000000000000000000e+00 0.000000000000000000e+00 -1.000000000000000000e+00 0.000000000000000000e+00 0.000000000000000000e+00 0.000000000000000000e+00 0.000000000000000000e+00 0.000000000000000000e+00 0.000000000000000000e+00 3.402777777777777485e-02 3.402777777777777485e-02 0.000000000000000000e+00 0.000000000000000000e+00 0.000000000000000000e+00 0.000000000000000000e+00 0.000000000000000000e+00 0.000000000000000000e+00 3.402777777777777485e-02 0.000000000000000000e+00 0.000000000000000000e+00 0.000000000000000000e+00 0.000000000000000000e+00 0.000000000000000000e+00 0.000000000000000000e+00 0.000000000000000000e+00 3.402777777777777485e-02 0.000000000000000000e+00 0.000000000000000000e+00 0.000000000000000000e+00 3.402777777777777485e-02 0.000000000000000000e+00 -0.000000000000000000e+00 -0.000000000000000000e+00 -0.000000000000000000e+00 -0.000000000000000000e+00 -2.557692307692307696e-02 -0.000000000000000000e+00 -4.274999999999999911e-01 -0.000000000000000000e+00 -0.000000000000000000e+00 -0.000000000000000000e+00 -4.274999999999999911e-01 -4.274999999999999911e-01 -4.274999999999999911e-01
0.000000000000000000e+00 3.402777777777777485e-02 0.000000000000000000e+00 0.000000000000000000e+00 3.402777777777777485e-02 0.000000000000000000e+00 0.000000000000000000e+00 3.402777777777777485e-02 3.402777777777777485e-02 0.000000000000000000e+00 0.000000000000000000e+00 0.000000000000000000e+00 0.000000000000000000e+00 0.000000000000000000e+00 0.000000000000000000e+00 0.000000000000000000e+00 0.000000000000000000e+00 3.402777777777777485e-02 0.000000000000000000e+00 0.000000000000000000e+00 5.687499999999999778e-01 0.000000000000000000e+00 0.000000000000000000e+00 -1.000000000000000000e+00 5.687499999999999778e-01 3.402777777777777485e-02 0.000000000000000000e+00 0.000000000000000000e+00 0.000000000000000000e+00 0.000000000000000000e+00 0.000000000000000000e+00 0.000000000000000000e+00 0.000000000000000000e+00 0.000000000000000000e+00 3.402777777777777485e-02 0.000000000000000000e+00 0.000000000000000000e+00 0.000000000000000000e+00 0.000000000000000000e+00 3.402777777777777485e-02 0.000000000000000000e+00 0.000000000000000000e+00 3.402777777777777485e-02 0.000000000000000000e+00 3.402777777777777485e-02 3.402777777777777485e-02 3.402777777777777485e-02 0.000000000000000000e+00 3.402777777777777485e-02 3.402777777777777485e-02 0.000000000000000000e+00 -0.000000000000000000e+00 -4.274999999999999911e-01 -0.000000000000000000e+00 -4.274999999999999911e-01 -2.557692307692307696e-02 -0.000000000000000000e+00 -0.000000000000000000e+00 -4.274999999999999911e-01 -0.000000000000000000e+00 -0.000000000000000000e+00 -4.274999999999999911e-01 -0.000000000000000000e+00 -4.274999999999999911e-01
0.000000000000000000e+00 0.000000000000000000e+00 0.000000000000000000e+00 0.000000000000000000e+00 0.000000000000000000e+00 0.000000000000000000e+00 0.000000000000000000e+00 0.000000000000000000e+00 0.000000000000000000e+00 0.000000000000000000e+00 0.000000000000000000e+00 0.000000000000000000e+00 0.000000000000000000e+00 0.000000000000000000e+00 0.000000000000000000e+00 0.000000000000000000e+00 0.000000000000000000e+00 0.000000000000000000e+00 3.402777777777777485e-02 0.000000000000000000e+00 0.000000000000000000e+00 5.687499999999999778e-01 0.000000000000000000e+00 0.000000000000000000e+00 -1.000000000000000000e+00 0.000000000000000000e+00 0.000000000000000000e+00 0.000000000000000000e+00 0.000000000000000000e+00 0.000000000000000000e+00 3.402777777777777485e-02 0.000000000000000000e+00 0.000000000000000000e+00 0.000000000000000000e+00 0.000000000000000000e+00 0.000000000000000000e+00 0.000000000000000000e+00 0.000000000000000000e+00 0.000000000000000000e+00 0.000000000000000000e+00 0.000000000000000000e+00 0.000000000000000000e+00 0.000000000000000000e+00 3.402777777777777485e-02 0.000000000000000000e+00 0.000000000000000000e+00 0.000000000000000000e+00 0.000000000000000000e+00 0.000000000000000000e+00 0.000000000000000000e+00 0.000000000000000000e+00 -4.274999999999999911e-01 -4.274999999999999911e-01 -4.274999999999999911e-01 -0.000000000000000000e+00 -0.000000000000000000e+00 -0.000000000000000000e+00 -0.000000000000000000e+00 -0.000000000000000000e+00 -4.274999999999999911e-01 -0.000000000000000000e+00 -0.000000000000000000e+00 -0.000000000000000000e+00 -0.000000000000000000e+00
0.000000000000000000e+00 0.000000000000000000e+00 0.000000000000000000e+00 0.000000000000000000e+00 0.000000000000000000e+00 0.000000000000000000e+00 0.000000000000000000e+00 0.000000000000000000e+00 0.000000000000000000e+00 0.000000000000000000e+00 0.000000000000000000e+00 0.000000000000000000e+00 3.402777777777777485e-02 0.000000000000000000e+00 0.000000000000000000e+00 3.402777777777777485e-02 0.000000000000000000e+00 0.000000000000000000e+00 3.402777777777777485e-02 0.000000000000000000e+00 0.000000000000000000e+00 0.000000000000000000e+00 0.000000000000000000e+00 0.000000000000000000e+00 0.000000000000000000e+00 -1.000000000000000000e+00 5.687499999999999778e-01 0.000000000000000000e+00 0.000000000000000000e+00 0.000000000000000000e+00 0.000000000000000000e+00 0.000000000000000000e+00 0.000000000000000000e+00 3.402777777777777485e-02 0.000000000000000000e+00 3.402777777777777485e-02 0.000000000000000000e+00 3.402777777777777485e-02 0.000000000000000000e+00 3.402777777777777485e-02 0.000000000000000000e+00 0.000000000000000000e+00 3.402777777777777485e-02 0.000000000000000000e+00 0.000000000000000000e+00 0.000000000000000000e+00 0.000000000000000000e+00 0.000000000000000000e+00 0.000000000000000000e+00 0.000000000000000000e+00 0.000000000000000000e+00 -0.000000000000000000e+00 -4.274999999999999911e-01 -0.000000000000000000e+00 -0.000000000000000000e+00 -4.274999999999999911e-01 -0.000000000000000000e+00 -4.274999999999999911e-01 -4.274999999999999911e-01 -4.274999999999999911e-01 -0.000000000000000000e+00 -0.000000000000000000e+00 -4.274999999999999911e-01 -0.000000000000000000e+00
0.000000000000000000e+00 3.402777777777777485e-02 3.402777777777777485e-02 0.000000000000000000e+00 3.402777777777777485e-02 0.000000000000000000e+00 0.000000000000000000e+00 0.000000000000000000e+00 0.000000000000000000e+00 0.000000000000000000e+00 0.000000000000000000e+00 3.402777777777777485e-02 3.402777777777777485e-02 3.402777777777777485e-02 0.000000000000000000e+00 0.000000000000000000e+00 0.000000000000000000e+00 0.000000000000000000e+00 0.000000000000000000e+00 0.000000000000000000e+00 3.402777777777777485e-02 0.000000000000000000e+00 0.000000000000000000e+00 3.402777777777777485e-02 0.000000000000000000e+00 0.000000000000000000e+00 -1.000000000000000000e+00 0.000000000000000000e+00 0.000000000000000000e+00 0.000000000000000000e+00 0.000000000000000000e+00 0.000000000000000000e+00 0.000000000000000000e+00 3.402777777777777485e-02 0.000000000000000000e+00 0.000000000000000000e+00 0.000000000000000000e+00 0.000000000000000000e+00 0.000000000000000000e+00 0.000000000000000000e+00 0.000000000000000000e+00 3.402777777777777485e-02 0.000000000000000000e+00 0.000000000000000000e+00 0.000000000000000000e+00 3.402777777777777485e-02 3.402777777777777485e-02 3.402777777777777485e-02 0.000000000000000000e+00 0.000000000000000000e+00 0.000000000000000000e+00 -0.000000000000000000e+00 -0.000000000000000000e+00 -0.000000000000000000e+00 -4.274999999999999911e-01 -0.000000000000000000e+00 -2.557692307692307696e-02 -0.000000000000000000e+00 -4.274999999999999911e-01 -0.000000000000000000e+00 -4.274999999999999911e-01 -4.274999999999999911e-01 -0.000000000000000000e+00 -0.000000000000000000e+00
0.000000000000000000e+00 0.000000000000000000e+00 0.000000000000000000e+00 0.000000000000000000e+00 0.000000000000000000e+00 3.402777777777777485e-02 0.000000000000000000e+00 0.000000000000000000e+00 0.000000000000000000e+00 0.000000000000000000e+00 0.000000000000000000e+00 3.402777777777777485e-02 0.000000000000000000e+00 0.000000000000000000e+00 0.000000000000000000e+00 0.000000000000000000e+00 0.000000000000000000e+00 0.000000000000000000e+00 0.000000000000000000e+00 3.402777777777777485e-02 0.000000000000000000e+00 0.000000000000000000e+00 0.000000000000000000e+00 0.000000000000000000e+00 0.000000000000000000e+00 0.000000000000000000e+00 0.000000000000000000e+00 -1.000000000000000000e+00 0.000000000000000000e+00 0.000000000000000000e+00 3.402777777777777485e-02 0.000000000000000000e+00 3.402777777777777485e-02 0.000000000000000000e+00 0.000000000000000000e+00 0.000000000000000000e+00 0.000000000000000000e+00 0.000000000000000000e+00 3.402777777777777485e-02 0.000000000000000000e+00 3.402777777777777485e-02 0.000000000000000000e+00 0.000000000000000000e+00 0.000000000000000000e+00 0.000000000000000000e+00 0.000000000000000000e+00 3.402777777777777485e-02 0.000000000000000000e+00 0.000000000000000000e+00 0.000000000000000000e+00 0.000000000000000000e+00 -4.274999999999999911e-01 -4.274999999999999911e-01 -4.274999999999999911e-01 -4.274999999999999911e-01 -0.000000000000000000e+00 -0.000000000000000000e+00 -4.274999999999999911e-01 -4.274999999999999911e-01 -0.000000000000000000e+00 -0.000000000000000000e+00 -0.000000000000000000e+00 -0.000000000000000000e+00 -4.274999999999999911e-01
3.402777777777777485e-02 0.000000000000000000e+00 3.402777777777777485e-02 3.402777777777777485e-02 0.000000000000000000e+00 0.000000000000000000e+00 0.000000000000000000e+00 0.000000000000000000e+00 0.000000000000000000e+00 0.000000000000000000e+00 0.000000000000000000e+00 0.000000000000000000e+00 0.000000000000000000e+00 0.000000000000000000e+00 0.000000000000000000e+00 0.000000000000000000e+00 0.000000000000000000e+00 0.000000000000000000e+00 0.000000000000000000e+00 0.000000000000000000e+00 0.000000000000000000e+00 0.000000000000000000e+00 3.402777777777777485e-02 0.000000000000000000e+00 0.000000000000000000e+00 0.000000000000000000e+00 0.000000000000000000e+00 5.687499999999999778e-01 -1.000000000000000000e+00 0.000000000000000000e+00 0.000000000000000000e+00 3.402777777777777485e-02 0.000000000000000000e+00 0.000000000000000000e+00 0.000000000000000000e+00 0.000000000000000000e+00 3.402777777777777485e-02 0.000000000000000000e+00 0.000000000000000000e+00 3.402777777777777485e-02 0.000000000000000000e+00 3.402777777777777485e-02 0.000000000000000000e+00 0.000000000000000000e+00 3.402777777777777485e-02 0.000000000000000000e+00 0.000000000000000000e+00 0.000000000000000000e+00 0.000000000000000000e+00 0.000000000000000000e+00 0.000000000000000000e+00 -4.274999999999999911e-01 -0.000000000000000000e+00 -4.274999999999999911e-01 -0.000000000000000000e+00 -4.274999999999999911e-01 -2.557692307692307696e-02 -0.000000000000000000e+00 -4.274999999999999911e-01 -0.000000000000000000e+00 -0.000000000000000000e+00 -4.274999999999999911e-01 -0.000000000000000000e+00 -0.000000000000000000e+00
0.000000000000000000e+00 0.000000000000000000e+00 0.000000000000000000e+00 0.000000000000000000e+00 0.000000000000000000e+00 0.000000000000000000e+00 0.000000000000000000e+00 0.000000000000000000e+00 0.000000000000000000e+00 0.000000000000000000e+00 0.000000000000000000e+00 0.000000000000000000e+00 0.000000000000000000e+00 0.000000000000000000e+00 0.000000000000000000e+00 0.000000000000000000e+00 0.000000000000000000e+00 3.402777777777777485e-02 3.402777777777777485e-02 0.000000000000000000e+00 0.000000000000000000e+00 0.000000000000000000e+00 0.000000000000000000e+00 0.000000000000000000e+00 0.000000000000000000e+00 0.000000000000000000e+00 5.687499999999999778e-01 0.000000000000000000e+00 5.687499999999999778e-01 -1.000000000000000000e+00 0.000000000000000000e+00 0.000000000000000000e+00 0.000000000000000000e+00 0.000000000000000000e+00 0.000000000000000000e+00 3.402777777777777485e-02 0.000000000000000000e+00 0.000000000000000000e+00 0.000000000000000000e+00 3.402777777777777485e-02 0.000000000000000000e+00 0.000000000000000000e+00 0.000000000000000000e+00 0.000000000000000000e+00 0.000000000000000000e+00 0.000000000000000000e+00 0.000000000000000000e+00 0.000000000000000000e+00 0.000000000000000000e+00 0.000000000000000000e+00 0.000000000000000000e+00 -4.274999999999999911e-01 -4.274999999999999911e-01 -0.000000000000000000e+00 -4.274999999999999911e-01 -0.000000000000000000e+00 -2.557692307692307696e-02 -4.274999999999999911e-01 -4.274999999999999911e-01 -4.274999999999999911e-01 -0.000000000000000000e+00 -4.274999999999999911e-01 -4.274999999999999911e-01 -4.274999999999999911e-01
0.000000000000000000e+00 0.000000000000000000e+00 0.000000000000000000e+00 0.000000000000000000e+00 0.000000000000000000e+00 3.402777777777777485e-02 0.000000000000000000e+00 3.402777777777777485e-02 0.000000000000000000e+00 3.402777777777777485e-02 3.402777777777777485e-02 0.000000000000000000e+00 0.000000000000000000e+00 0.000000000000000000e+00 0.000000000000000000e+00 0.000000000000000000e+00 0.000000000000000000e+00 0.000000000000000000e+00 3.402777777777777485e-02 3.402777777777777485e-02 3.402777777777777485e-02 0.000000000000000000e+00 3.402777777777777485e-02 0.000000000000000000e+00 0.000000000000000000e+00 0.000000000000000000e+00 3.402777777777777485e-02 0.000000000000000000e+00 0.000000000000000000e+00 0.000000000000000000e+00 -1.000000000000000000e+00 0.000000000000000000e+00 0.000000000000000000e+00 5.687499999999999778e-01 0.000000000000000000e+00 0.000000000000000000e+00 3.402777777777777485e-02 0.000000000000000000e+00 0.000000000000000000e+00 0.000000000000000000e+00 0.000000000000000000e+00 0.000000000000000000e+00 3.402777777777777485e-02 3.402777777777777485e-02 3.402777777777777485e-02 0.000000000000000000e+00 0.000000000000000000e+00 0.000000000000000000e+00 0.000000000000000000e+00 0.000000000000000000e+00 0.000000000000000000e+00 -0.000000000000000000e+00 -4.274999999999999911e-01 -0.000000000000000000e+00 -4.274999999999999911e-01 -4.274999999999999911e-01 -0.000000000000000000e+00 -0.000000000000000000e+00 -0.000000000000000000e+00 -4.274999999999999911e-01 -0.000000000000000000e+00 -4.274999999999999911e-01 -0.000000000000000000e+00 -0.000000000000000000e+00
3.402777777777777485e-02 0.000000000000000000e+00 0.000000000000000000e+00 0.000000000000000000e+00 0.000000000000000000e+00 0.000000000000000000e+00 0.000000000000000000e+00 0.000000000000000000e+00 0.000000000000000000e+00 0.000000000000000000e+00 3.402777777777777485e-02 0.000000000000000000e+00 0.000000000000000000e+00 0.000000000000000000e+00 0.000000000000000000e+00 0.000000000000000000e+00 0.000000000000000000e+00 0.000000000000000000e+00 0.000000000000000000e+00 0.000000000000000000e+00 0.000000000000000000e+00 0.000000000000000000e+00 0.000000000000000000e+00 3.402777777777777485e-02 0.000000000000000000e+00 3.402777777777777485e-02 0.000000000000000000e+00 0.000000000000000000e+00 0.000000000000000000e+00 0.000000000000000000e+00 0.000000000000000000e+00 -1.000000000000000000e+00 0.000000000000000000e+00 0.000000000000000000e+00 0.000000000000000000e+00 3.402777777777777485e-02 0.000000000000000000e+00 0.000000000000000000e+00 0.000000000000000000e+00 0.000000000000000000e+00 0.000000000000000000e+00 3.402777777777777485e-02 3.402777777777777485e-02 0.000000000000000000e+00 0.000000000000000000e+00 3.402777777777777485e-02 3.402777777777777485e-02 0.000000000000000000e+00 0.000000000000000000e+00 3.402777777777777485e-02 0.000000000000000000e+00 -0.000000000000000000e+00 -0.000000000000000000e+00 -4.274999999999999911e-01 -0.000000000000000000e+00 -4.274999999999999911e-01 -4.274999999999999911e-01 -0.000000000000000000e+00 -0.000000000000000000e+00 -4.274999999999999911e-01 -0.000000000000000000e+00 -4.274999999999999911e-01 -0.000000000000000000e+00 -0.000000000000000000e+00
0.000000000000000000e+00 3.402777777777777485e-02 0.000000000000000000e+00 0.000000000000000000e+00 0.000000000000000000e+00 0.000000000000000000e+00 0.000000000000000000e+00 0.000000000000000000e+00 3.402777777777777485e-02 0.000000000000000000e+00 0.000000000000000000e+00 0.000000000000000000e+00 0.000000000000000000e+00 3.402777777777777485e-02 3.402777777777777485e-02 0.000000000000000000e+00 0.000000000000000000e+00 0.000000000000000000e+00 0.000000000000000000e+00 3.402777777777777485e-02 3.402777777777777485e-02 3.402777777777777485e-02 3.402777777777777485e-02 0.000000000000000000e+00 0.000000000000000000e+00 0.000000000000000000e+00 0.000000000000000000e+00 0.000000000000000000e+00 3.402777777777777485e-02 0.000000000000000000e+00 5.687499999999999778e-01 0.000000000000000000e+00 -1.000000000000000000e+00 0.000000000000000000e+00 0.000000000000000000e+00 0.000000000000000000e+00 3.402777777777777485e-02 0.000000000000000000e+00 3.402777777777777485e-02 0.000000000000000000e+00 3.402777777777777485e-02 0.000000000000000000e+00 0.000000000000000000e+00 0.000000000000000000e+00 0.000000000000000000e+00 0.000000000000000000e+00 0.000000000000000000e+00 0.000000000000000000e+00 0.000000000000000000e+00 3.402777777777777485e-02 3.402777777777777485e-02 -0.000000000000000000e+00 -0.000000000000000000e+00 -0.000000000000000000e+00 -0.000000000000000000e+00 -4.274999999999999911e-01 -0.000000000000000000e+00 -2.557692307692307696e-02 -4.274999999999999911e-01 -4.274999999999999911e-01 -4.274999999999999911e-01 -4.274999999999999911e-01 -4.274999999999999911e-01 -4.274999999999999911e-01
0.000000000000000000e+00 3.402777777777777485e-02 0.000000000000000000e+00 0.000000000000000000e+00 0.000000000000000000e+00 3.402777777777777485e-02 0.000000000000000000e+00 0.000000000000000000e+00 0.000000000000000000e+00 0.000000000000000000e+00 0.000000000000000000e+00 0.000000000000000000e+00 0.000000000000000000e+00 0.000000000000000000e+00 0.000000000000000000e+00 3.402777777777777485e-02 3.402777777777777485e-02 3.402777777777777485e-02 0.000000000000000000e+00 0.000000000000000000e+00 0.000000000000000000e+00 0.000000000000000000e+00 0.000000000000000000e+00 3.402777777777777485e-02 0.000000000000000000e+00 0.000000000000000000e+00 0.000000000000000000e+00 3.402777777777777485e-02 0.000000000000000000e+00 0.000000000000000000e+00 0.000000000000000000e+00 0.000000000000000000e+00 0.000000000000000000e+00 -1.000000000000000000e+00 0.000000000000000000e+00 0.000000000000000000e+00 0.000000000000000000e+00 0.000000000000000000e+00 0.000000000000000000e+00 0.000000000000000000e+00 0.000000000000000000e+00 0.000000000000000000e+00 0.000000000000000000e+00 0.000000000000000000e+00 0.000000000000000000e+00 0.000000000000000000e+00 3.402777777777777485e-02 0.000000000000000000e+00 0.000000000000000000e+00 3.402777777777777485e-02 3.402777777777777485e-02 -0.000000000000000000e+00 -4.274999999999999911e-01 -0.000000000000000000e+00 -0.000000000000000000e+00 -4.274999999999999911e-01 -0.000000000000000000e+00 -2.557692307692307696e-02 -4.274999999999999911e-01 -4.274999999999999911e-01 -0.000000000000000000e+00 -4.274999999999999911e-01 -0.000000000000000000e+00 -0.000000000000000000e+00
0.000000000000000000e+00 0.000000000000000000e+00 0.000000000000000000e+00 0.000000000000000000e+00 0.000000000000000000e+00 0.000000000000000000e+00 0.000000000000000000e+00 0.000000000000000000e+00 0.000000000000000000e+00 0.000000000000000000e+00 0.000000000000000000e+00 0.000000000000000000e+00 3.402777777777777485e-02 0.000000000000000000e+00 0.000000000000000000e+00 0.000000000000000000e+00 0.000000000000000000e+00 0.000000000000000000e+00 0.000000000000000000e+00 3.402777777777777485e-02 0.000000000000000000e+00 3.402777777777777485e-02 0.000000000000000000e+00 0.000000000000000000e+00 0.000000000000000000e+00 3.402777777777777485e-02 3.402777777777777485e-02 0.000000000000000000e+00 0.000000000000000000e+00 0.000000000000000000e+00 0.000000000000000000e+00 0.000000000000000000e+00 0.000000000000000000e+00 0.000000000000000000e+00 -1.000000000000000000e+00 0.000000000000000000e+00 3.402777777777777485e-02 0.000000000000000000e+00 0.000000000000000000e+00 0.000000000000000000e+00 0.000000000000000000e+00 0.000000000000000000e+00 0.000000000000000000e+00 0.000000000000000000e+00 0.000000000000000000e+00 3.402777777777777485e-02 0.000000000000000000e+00 3.402777777777777485e-02 0.000000000000000000e+00 0.000000000000000000e+00 0.000000000000000000e+00 -4.274999999999999911e-01 -4.274999999999999911e-01 -4.274999999999999911e-01 -0.000000000000000000e+00 -4.274999999999999911e-01 -0.000000000000000000e+00 -2.557692307692307696e-02 -0.000000000000000000e+00 -4.274999999999999911e-01 -0.000000000000000000e+00 -0.000000000000000000e+00 -0.000000000000000000e+00 -0.000000000000000000e+00
3.402777777777777485e-02 3.402777777777777485e-02 0.000000000000000000e+00 3.402777777777777485e-02 3.402777777777777485e-02 0.000000000000000000e+00 0.000000000000000000e+00 0.000000000000000000e+00 0.000000000000000000e+00 0.000000000000000000e+00 3.402777777777777485e-02 0.000000000000000000e+00 0.000000000000000000e+00 3.402777777777777485e-02 0.000000000000000000e+00 0.000000000000000000e+00 0.000000000000000000e+00 0.000000000000000000e+00 0.000000000000000000e+00 3.402777777777777485e-02 0.000000000000000000e+00 0.000000000000000000e+00 0.000000000000000000e+00 0.000000000000000000e+00 0.000000000000000000e+00 3.402777777777777485e-02 0.000000000000000000e+00 0.000000000000000000e+00 0.000000000000000000e+00 0.000000000000000000e+00 0.000000000000000000e+00 0.000000000000000000e+00 0.000000000000000000e+00 0.000000000000000000e+00 0.000000000000000000e+00 -1.000000000000000000e+00 0.000000000000000000e+00 0.000000000000000000e+00 0.000000000000000000e+00 0.000000000000000000e+00 3.402777777777777485e-02 0.000000000000000000e+00 0.000000000000000000e+00 0.000000000000000000e+00 0.000000000000000000e+00 0.000000000000000000e+00 0.000000000000000000e+00 3.402777777777777485e-02 0.000000000000000000e+00 0.000000000000000000e+00 0.000000000000000000e+00 -4.274999999999999911e-01 -0.000000000000000000e+00 -4.274999999999999911e-01 -0.000000000000000000e+00 -4.274999999999999911e-01 -4.274999999999999911e-01 -4.274999999999999911e-01 -2.557692307692307696e-02 -0.000000000000000000e+00 -4.274999999999999911e-01 -4.274999999999999911e-01 -0.000000000000000000e+00 -4.274999999999999911e-01
3.402777777777777485e-02 3.402777777777777485e-02 3.402777777777777485e-02 3.402777777777777485e-02 0.000000000000000000e+00 0.000000000000000000e+00 0.000000000000000000e+00 3.402777777777777485e-02 0.000000000000000000e+00 0.000000000000000000e+00 0.000000000000000000e+00 0.000000000000000000e+00 0.000000000000000000e+00 3.402777777777777485e-02 0.000000000000000000e+00 0.000000000000000000e+00 0.000000000000000000e+00 0.000000000000000000e+00 0.000000000000000000e+00 0.000000000000000000e+00 3.402777777777777485e-02 3.402777777777777485e-02 3.402777777777777485e-02 0.000000000000000000e+00 0.000000000000000000e+00 0.000000000000000000e+00 0.000000000000000000e+00 0.000000000000000000e+00 0.000000000000000000e+00 3.402777777777777485e-02 0.000000000000000000e+00 0.000000000000000000e+00 3.402777777777777485e-02 3.402777777777777485e-02 3.402777777777777485e-02 5.687499999999999778e-01 -1.000000000000000000e+00 0.000000000000000000e+00 0.000000000000000000e+00 0.000000000000000000e+00 3.402777777777777485e-02 0.000000000000000000e+00 0.000000000000000000e+00 0.000000000000000000e+00 0.000000000000000000e+00 0.000000000000000000e+00 0.000000000000000000e+00 3.402777777777777485e-02 3.402777777777777485e-02 0.000000000000000000e+00 0.000000000000000000e+00 -0.000000000000000000e+00 -4.274999999999999911e-01 -0.000000000000000000e+00 -4.274999999999999911e-01 -4.274999999999999911e-01 -4.274999999999999911e-01 -0.000000000000000000e+00 -0.000000000000000000e+00 -0.000000000000000000e+00 -4.274999999999999911e-01 -4.274999999999999911e-01 -4.274999999999999911e-01 -4.274999999999999911e-01
0.000000000000000000e+00 3.402777777777777485e-02 0.000000000000000000e+00 0.000000000000000000e+00 0.000000000000000000e+00 0.000000000000000000e+00 0.000000000000000000e+00 0.000000000000000000e+00 0.000000000000000000e+00 0.000000000000000000e+00 0.000000000000000000e+00 0.000000000000000000e+00 0.000000000000000000e+00 0.000000000000000000e+00 0.000000000000000000e+00 0.000000000000000000e+00 0.000000000000000000e+00 0.000000000000000000e+00 0.000000000000000000e+00 0.000000000000000000e+00 0.000000000000000000e+00 0.000000000000000000e+00 0.000000000000000000e+00 0.000000000000000000e+00 0.000000000000000000e+00 3.402777777777777485e-02 0.000000000000000000e+00 0.000000000000000000e+00 0.000000000000000000e+00 0.000000000000000000e+00 0.000000000000000000e+00 0.000000000000000000e+00 0.000000000000000000e+00 0.000000000000000000e+00 0.000000000000000000e+00 0.000000000000000000e+00 0.000000000000000000e+00 -1.000000000000000000e+00 0.000000000000000000e+00 5.687499999999999778e-01 3.402777777777777485e-02 0.000000000000000000e+00 0.000000000000000000e+00 0.000000000000000000e+00 0.000000000000000000e+00 0.000000000000000000e+00 0.000000000000000000e+00 0.000000000000000000e+00 3.402777777777777485e-02 0.000000000000000000e+00 0.000000000000000000e+00 -0.000000000000000000e+00 -4.274999999999999911e-01 -4.274999999999999911e-01 -0.000000000000000000e+00 -4.274999999999999911e-01 -4.274999999999999911e-01 -0.000000000000000000e+00 -0.000000000000000000e+00 -4.274999999999999911e-01 -4.274999999999999911e-01 -4.274999999999999911e-01 -4.274999999999999911e-01 -0.000000000000000000e+00
0.000000000000000000e+00 3.402777777777777485e-02 0.000000000000000000e+00 3.402777777777777485e-02 0.000000000000000000e+00 0.000000000000000000e+00 0.000000000000000000e+00 0.000000000000000000e+00 0.000000000000000000e+00 3.402777777777777485e-02 0.000000000000000000e+00 0.000000000000000000e+00 0.000000000000000000e+00 0.000000000000000000e+00 0.000000000000000000e+00 0.000000000000000000e+00 3.402777777777777485e-02 0.000000000000000000e+00 3.402777777777777485e-02 0.000000000000000000e+00 0.000000000000000000e+00 3.402777777777777485e-02 0.000000000000000000e+00 0.000000000000000000e+00 0.000000000000000000e+00 0.000000000000000000e+00 0.000000000000000000e+00 3.402777777777777485e-02 0.000000000000000000e+00 0.000000000000000000e+00 0.000000000000000000e+00 0.000000000000000000e+00 0.000000000000000000e+00 3.402777777777777485e-02 3.402777777777777485e-02 5.687499999999999778e-01 0.000000000000000000e+00 0.000000000000000000e+00 -1.000000000000000000e+00 0.000000000000000000e+00 0.000000000000000000e+00 0.000000000000000000e+00 0.000000000000000000e+00 0.000000000000000000e+00 3.402777777777777485e-02 0.000000000000000000e+00 0.000000000000000000e+00 3.402777777777777485e-02 0.000000000000000000e+00 3.402777777777777485e-02 0.000000000000000000e+00 -0.000000000000000000e+00 -0.000000000000000000e+00 -0.000000000000000000e+00 -0.000000000000000000e+00 -4.274999999999999911e-01 -4.274999999999999911e-01 -0.000000000000000000e+00 -2.557692307692307696e-02 -4.274999999999999911e-01 -4.274999999999999911e-01 -4.274999999999999911e-01 -4.274999999999999911e-01 -4.274999999999999911e-01
0.000000000000000000e+00 3.402777777777777485e-02 0.000000000000000000e+00 3.402777777777777485e-02 0.000000000000000000e+00 3.402777777777777485e-02 3.402777777777777485e-02 0.000000000000000000e+00 0.000000000000000000e+00 0.000000000000000000e+00 0.000000000000000000e+00 0.000000000000000000e+00 0.000000000000000000e+00 0.000000000000000000e+00 0.000000000000000000e+00 3.402777777777777485e-02 3.402777777777777485e-02 0.000000000000000000e+00 3.402777777777777485e-02 3.402777777777777485e-02 3.402777777777777485e-02 0.000000000000000000e+00 0.000000000000000000e+00 0.000000000000000000e+00 3.402777777777777485e-02 0.000000000000000000e+00 0.000000000000000000e+00 0.000000000000000000e+00 0.000000000000000000e+00 0.000000000000000000e+00 0.000000000000000000e+00 0.000000000000000000e+00 3.402777777777777485e-02 0.000000000000000000e+00 3.402777777777777485e-02 0.000000000000000000e+00 0.000000000000000000e+00 0.000000000000000000e+00 0.000000000000000000e+00 -1.000000000000000000e+00 0.000000000000000000e+00 0.000000000000000000e+00 0.000000000000000000e+00 0.000000000000000000e+00 0.000000000000000000e+00 0.000000000000000000e+00 0.000000000000000000e+00 0.000000000000000000e+00 3.402777777777777485e-02 0.000000000000000000e+00 3.402777777777777485e-02 -4.274999999999999911e-01 -4.274999999999999911e-01 -0.000000000000000000e+00 -0.000000000000000000e+00 -0.000000000000000000e+00 -4.274999999999999911e-01 -4.274999999999999911e-01 -2.557692307692307696e-02 -4.274999999999999911e-01 -0.000000000000000000e+00 -0.000000000000000000e+00 -0.000000000000000000e+00 -0.000000000000000000e+00
0.000000000000000000e+00 0.000000000000000000e+00 3.402777777777777485e-02 0.000000000000000000e+00 0.000000000000000000e+00 0.000000000000000000e+00 0.000000000000000000e+00 3.402777777777777485e-02 0.000000000000000000e+00 0.000000000000000000e+00 0.000000000000000000e+00 0.000000000000000000e+00 0.000000000000000000e+00 0.000000000000000000e+00 3.402777777777777485e-02 3.402777777777777485e-02 3.402777777777777485e-02 0.000000000000000000e+00 3.402777777777777485e-02 0.000000000000000000e+00 0.000000000000000000e+00 0.000000000000000000e+00 0.000000000000000000e+00 0.000000000000000000e+00 0.000000000000000000e+00 3.402777777777777485e-02 0.000000000000000000e+00 0.000000000000000000e+00 0.000000000000000000e+00 3.402777777777777485e-02 0.000000000000000000e+00 0.000000000000000000e+00 0.000000000000000000e+00 0.000000000000000000e+00 0.000000000000000000e+00 0.000000000000000000e+00 0.000000000000000000e+00 0.000000000000000000e+00 0.000000000000000000e+00 0.000000000000000000e+00 -1.000000000000000000e+00 0.000000000000000000e+00 0.000000000000000000e+00 0.000000000000000000e+00 0.000000000000000000e+00 3.402777777777777485e-02 0.000000000000000000e+00 0.000000000000000000e+00 3.402777777777777485e-02 0.000000000000000000e+00 0.000000000000000000e+00 -0.000000000000000000e+00 -0.000000000000000000e+00 -4.274999999999999911e-01 -4.274999999999999911e-01 -0.000000000000000000e+00 -4.274999999999999911e-01 -0.000000000000000000e+00 -4.274999999999999911e-01 -2.557692307692307696e-02 -0.000000000000000000e+00 -0.000000000000000000e+00 -0.000000000000000000e+00 -4.274999999999999911e-01
0.000000000000000000e+00 0.000000000000000000e+00 0.000000000000000000e+00 0.000000000000000000e+00 3.402777777777777485e-02 0.000000000000000000e+00 0.000000000000000000e+00 0.000000000000000000e+00 0.000000000000000000e+00 0.000000000000000000e+00 0.000000000000000000e+00 0.000000000000000000e+00 3.402777777777777485e-02 3.402777777777777485e-02 0.000000000000000000e+00 0.000000000000000000e+00 0.000000000000000000e+00 0.000000000000000000e+00 0.000000000000000000e+00 3.402777777777777485e-02 0.000000000000000000e+00 0.000000000000000000e+00 3.402777777777777485e-02 0.000000000000000000e+00 0.000000000000000000e+00 3.402777777777777485e-02 3.402777777777777485e-02 3.402777777777777485e-02 0.000000000000000000e+00 0.000000000000000000e+00 0.000000000000000000e+00 3.402777777777777485e-02 0.000000000000000000e+00 0.000000000000000000e+00 0.000000000000000000e+00 0.000000000000000000e+00 0.000000000000000000e+00 0.000000000000000000e+00 0.000000000000000000e+00 0.000000000000000000e+00 0.000000000000000000e+00 -1.000000000000000000e+00 0.000000000000000000e+00 0.000000000000000000e+00 0.000000000000000000e+00 0.000000000000000000e+00 0.000000000000000000e+00 3.402777777777777485e-02 0.000000000000000000e+00 0.000000000000000000e+00 0.000000000000000000e+00 -0.000000000000000000e+00 -0.000000000000000000e+00 -0.000000000000000000e+00 -0.000000000000000000e+00 -4.274999999999999911e-01 -4.274999999999999911e-01 -4.274999999999999911e-01 -0.000000000000000000e+00 -2.557692307692307696e-02 -0.000000000000000000e+00 -4.274999999999999911e-01 -0.000000000000000000e+00 -4.274999999999999911e-01
3.402777777777777485e-02 0.000000000000000000e+00 0.000000000000000000e+00 3.402777777777777485e-02 0.000000000000000000e+00 0.000000000000000000e+00 0.000000000000000000e+00 0.000000000000000000e+00 0.000000000000000000e+00 0.000000000000000000e+00 0.000000000000000000e+00 0.000000000000000000e+00 0.000000000000000000e+00 3.402777777777777485e-02 0.000000000000000000e+00 3.402777777777777485e-02 3.402777777777777485e-02 0.000000000000000000e+00 3.402777777777777485e-02 0.000000000000000000e+00 0.000000000000000000e+00 0.000000000000000000e+00 0.000000000000000000e+00 3.402777777777777485e-02 0.000000000000000000e+00 0.000000000000000000e+00 0.000000000000000000e+00 0.000000000000000000e+00 0.000000000000000000e+00 0.000000000000000000e+00 3.402777777777777485e-02 0.000000000000000000e+00 0.000000000000000000e+00 0.000000000000000000e+00 0.000000000000000000e+00 0.000000000000000000e+00 0.000000000000000000e+00 0.000000000000000000e+00 0.000000000000000000e+00 0.000000000000000000e+00 5.687499999999999778e-01 0.000000000000000000e+00 -1.000000000000000000e+00 5.687499999999999778e-01 0.000000000000000000e+00 0.000000000000000000e+00 0.000000000000000000e+00 0.000000000000000000e+00 0.000000000000000000e+00 0.000000000000000000e+00 0.000000000000000000e+00 -4.274999999999999911e-01 -0.000000000000000000e+00 -4.274999999999999911e-01 -0.000000000000000000e+00 -4.274999999999999911e-01 -4.274999999999999911e-01 -4.274999999999999911e-01 -4.274999999999999911e-01 -0.000000000000000000e+00 -0.000000000000000000e+00 -4.274999999999999911e-01 -4.274999999999999911e-01 -0.000000000000000000e+00
0.000000000000000000e+00 0.000000000000000000e+00 0.000000000000000000e+00 0.000000000000000000e+00 0.000000000000000000e+00 3.402777777777777485e-02 0.000000000000000000e+00 3.402777777777777485e-02 0.000000000000000000e+00 0.000000000000000000e+00 0.000000000000000000e+00 0.000000000000000000e+00 0.000000000000000000e+00 0.000000000000000000e+00 3.402777777777777485e-02 3.402777777777777485e-02 0.000000000000000000e+00 3.402777777777777485e-02 0.000000000000000000e+00 0.000000000000000000e+00 0.000000000000000000e+00 0.000000000000000000e+00 0.000000000000000000e+00 0.000000000000000000e+00 0.000000000000000000e+00 0.000000000000000000e+00 0.000000000000000000e+00 0.000000000000000000e+00 0.000000000000000000e+00 0.000000000000000000e+00 0.000000000000000000e+00 0.000000000000000000e+00 0.000000000000000000e+00 3.402777777777777485e-02 0.000000000000000000e+00 0.000000000000000000e+00 3.402777777777777485e-02 0.000000000000000000e+00 0.000000000000000000e+00 0.000000000000000000e+00 0.000000000000000000e+00 0.000000000000000000e+00 0.000000000000000000e+00 -1.000000000000000000e+00 5.687499999999999778e-01 0.000000000000000000e+00 0.000000000000000000e+00 0.000000000000000000e+00 0.000000000000000000e+00 0.000000000000000000e+00 0.000000000000000000e+00 -0.000000000000000000e+00 -4.274999999999999911e-01 -0.000000000000000000e+00 -0.000000000000000000e+00 -0.000000000000000000e+00 -0.000000000000000000e+00 -0.000000000000000000e+00 -4.274999999999999911e-01 -2.557692307692307696e-02 -4.274999999999999911e-01 -4.274999999999999911e-01 -4.274999999999999911e-01 -0.000000000000000000e+00
0.000000000000000000e+00 0.000000000000000000e+00 0.000000000000000000e+00 0.000000000000000000e+00 3.402777777777777485e-02 0.000000000000000000e+00 0.000000000000000000e+00 0.000000000000000000e+00 0.000000000000000000e+00 0.000000000000000000e+00 0.000000000000000000e+00 0.000000000000000000e+00 3.402777777777777485e-02 0.000000000000000000e+00 3.402777777777777485e-02 0.000000000000000000e+00 0.000000000000000000e+00 3.402777777777777485e-02 0.000000000000000000e+00 0.000000000000000000e+00 3.402777777777777485e-02 0.000000000000000000e+00 0.000000000000000000e+00 0.000000000000000000e+00 3.402777777777777485e-02 0.000000000000000000e+00 0.000000000000000000e+00 0.000000000000000000e+00 3.402777777777777485e-02 3.402777777777777485e-02 0.000000000000000000e+00 0.000000000000000000e+00 0.000000000000000000e+00 0.000000000000000000e+00 0.000000000000000000e+00 0.000000000000000000e+00 3.402777777777777485e-02 0.000000000000000000e+00 0.000000000000000000e+00 0.000000000000000000e+00 0.000000000000000000e+00 0.000000000000000000e+00 0.000000000000000000e+00 0.000000000000000000e+00 -1.000000000000000000e+00 3.402777777777777485e-02 3.402777777777777485e-02 3.402777777777777485e-02 0.000000000000000000e+00 0.000000000000000000e+00 3.402777777777777485e-02 -4.274999999999999911e-01 -4.274999999999999911e-01 -0.000000000000000000e+00 -4.274999999999999911e-01 -0.000000000000000000e+00 -0.000000000000000000e+00 -0.000000000000000000e+00 -4.274999999999999911e-01 -2.557692307692307696e-02 -4.274999999999999911e-01 -0.000000000000000000e+00 -0.000000000000000000e+00 -4.274999999999999911e-01
0.000000000000000000e+00 0.000000000000000000e+00 0.000000000000000000e+00 0.000000000000000000e+00 3.402777777777777485e-02 3.402777777777777485e-02 0.000000000000000000e+00 0.000000000000000000e+00 0.000000000000000000e+00 0.000000000000000000e+00 0.000000000000000000e+00 3.402777777777777485e-02 0.000000000000000000e+00 0.000000000000000000e+00 0.000000000000000000e+00 0.000000000000000000e+00 0.000000000000000000e+00 3.402777777777777485e-02 0.000000000000000000e+00 3.402777777777777485e-02 0.000000000000000000e+00 0.000000000000000000e+00 0.000000000000000000e+00 3.402777777777777485e-02 0.000000000000000000e+00 0.000000000000000000e+00 3.402777777777777485e-02 0.000000000000000000e+00 0.000000000000000000e+00 0.000000000000000000e+00 0.000000000000000000e+00 0.000000000000000000e+00 0.000000000000000000e+00 3.402777777777777485e-02 0.000000000000000000e+00 0.000000000000000000e+00 3.402777777777777485e-02 0.000000000000000000e+00 0.000000000000000000e+00 0.000000000000000000e+00 0.000000000000000000e+00 0.000000000000000000e+00 0.000000000000000000e+00 0.000000000000000000e+00 3.402777777777777485e-02 -1.000000000000000000e+00 5.687499999999999778e-01 0.000000000000000000e+00 0.000000000000000000e+00 0.000000000000000000e+00 0.000000000000000000e+00 -4.274999999999999911e-01 -4.274999999999999911e-01 -4.274999999999999911e-01 -4.274999999999999911e-01 -0.000000000000000000e+00 -4.274999999999999911e-01 -0.000000000000000000e+00 -4.274999999999999911e-01 -0.000000000000000000e+00 -0.000000000000000000e+00 -4.274999999999999911e-01 -4.274999999999999911e-01 -0.000000000000000000e+00
0.000000000000000000e+00 3.402777777777777485e-02 0.000000000000000000e+00 0.000000000000000000e+00 0.000000000000000000e+00 0.000000000000000000e+00 3.402777777777777485e-02 0.000000000000000000e+00 0.000000000000000000e+00 0.000000000000000000e+00 0.000000000000000000e+00 0.000000000000000000e+00 0.000000000000000000e+00 0.000000000000000000e+00 0.000000000000000000e+00 0.000000000000000000e+00 3.402777777777777485e-02 0.000000000000000000e+00 3.402777777777777485e-02 3.402777777777777485e-02 0.000000000000000000e+00 0.000000000000000000e+00 0.000000000000000000e+00 0.000000000000000000e+00 0.000000000000000000e+00 3.402777777777777485e-02 0.000000000000000000e+00 0.000000000000000000e+00 0.000000000000000000e+00 0.000000000000000000e+00 0.000000000000000000e+00 3.402777777777777485e-02 0.000000000000000000e+00 0.000000000000000000e+00 0.000000000000000000e+00 0.000000000000000000e+00 0.000000000000000000e+00 0.000000000000000000e+00 0.000000000000000000e+00 0.000000000000000000e+00 3.402777777777777485e-02 0.000000000000000000e+00 0.000000000000000000e+00 0.000000000000000000e+00 0.000000000000000000e+00 0.000000000000000000e+00 -1.000000000000000000e+00 0.000000000000000000e+00 0.000000000000000000e+00 0.000000000000000000e+00 3.402777777777777485e-02 -4.274999999999999911e-01 -4.274999999999999911e-01 -4.274999999999999911e-01 -0.000000000000000000e+00 -0.000000000000000000e+00 -4.274999999999999911e-01 -0.000000000000000000e+00 -4.274999999999999911e-01 -0.000000000000000000e+00 -2.557692307692307696e-02 -0.000000000000000000e+00 -0.000000000000000000e+00 -0.000000000000000000e+00
0.000000000000000000e+00 0.000000000000000000e+00 0.000000000000000000e+00 3.402777777777777485e-02 0.000000000000000000e+00 0.000000000000000000e+00 3.402777777777777485e-02 0.000000000000000000e+00 0.000000000000000000e+00 3.402777777777777485e-02 0.000000000000000000e+00 3.402777777777777485e-02 0.000000000000000000e+00 0.000000000000000000e+00 0.000000000000000000e+00 0.000000000000000000e+00 0.000000000000000000e+00 0.000000000000000000e+00 0.000000000000000000e+00 0.000000000000000000e+00 0.000000000000000000e+00 0.000000000000000000e+00 0.000000000000000000e+00 3.402777777777777485e-02 0.000000000000000000e+00 3.402777777777777485e-02 0.000000000000000000e+00 0.000000000000000000e+00 3.402777777777777485e-02 3.402777777777777485e-02 3.402777777777777485e-02 0.000000000000000000e+00 0.000000000000000000e+00 0.000000000000000000e+00 0.000000000000000000e+00 0.000000000000000000e+00 0.000000000000000000e+00 0.000000000000000000e+00 0.000000000000000000e+00 0.000000000000000000e+00 3.402777777777777485e-02 0.000000000000000000e+00 3.402777777777777485e-02 0.000000000000000000e+00 0.000000000000000000e+00 0.000000000000000000e+00 0.000000000000000000e+00 -1.000000000000000000e+00 0.000000000000000000e+00 0.000000000000000000e+00 0.000000000000000000e+00 -4.274999999999999911e-01 -0.000000000000000000e+00 -0.000000000000000000e+00 -4.274999999999999911e-01 -4.274999999999999911e-01 -4.274999999999999911e-01 -0.000000000000000000e+00 -0.000000000000000000e+00 -4.274999999999999911e-01 -0.000000000000000000e+00 -0.000000000000000000e+00 -4.274999999999999911e-01 -4.274999999999999911e-01
0.000000000000000000e+00 0.000000000000000000e+00 0.000000000000000000e+00 3.402777777777777485e-02 0.000000000000000000e+00 0.000000000000000000e+00 0.000000000000000000e+00 0.000000000000000000e+00 0.000000000000000000e+00 3.402777777777777485e-02 0.000000000000000000e+00 0.000000000000000000e+00 3.402777777777777485e-02 0.000000000000000000e+00 0.000000000000000000e+00 0.000000000000000000e+00 0.000000000000000000e+00 0.000000000000000000e+00 0.000000000000000000e+00 0.000000000000000000e+00 3.402777777777777485e-02 0.000000000000000000e+00 0.000000000000000000e+00 0.000000000000000000e+00 0.000000000000000000e+00 0.000000000000000000e+00 0.000000000000000000e+00 0.000000000000000000e+00 0.000000000000000000e+00 0.000000000000000000e+00 0.000000000000000000e+00 0.000000000000000000e+00 0.000000000000000000e+00 0.000000000000000000e+00 0.000000000000000000e+00 0.000000000000000000e+00 0.000000000000000000e+00 0.000000000000000000e+00 0.000000000000000000e+00 3.402777777777777485e-02 0.000000000000000000e+00 0.000000000000000000e+00 0.000000000000000000e+00 0.000000000000000000e+00 0.000000000000000000e+00 0.000000000000000000e+00 0.000000000000000000e+00 5.687499999999999778e-01 -1.000000000000000000e+00 0.000000000000000000e+00 0.000000000000000000e+00 -4.274999999999999911e-01 -4.274999999999999911e-01 -0.000000000000000000e+00 -4.274999999999999911e-01 -4.274999999999999911e-01 -0.000000000000000000e+00 -0.000000000000000000e+00 -0.000000000000000000e+00 -0.000000000000000000e+00 -2.557692307692307696e-02 -4.274999999999999911e-01 -0.000000000000000000e+00 -4.274999999999999911e-01
3.402777777777777485e-02 3.402777777777777485e-02 3.402777777777777485e-02 0.000000000000000000e+00 0.000000000000000000e+00 0.000000000000000000e+00 0.000000000000000000e+00 3.402777777777777485e-02 0.000000000000000000e+00 0.000000000000000000e+00 0.000000000000000000e+00 0.000000000000000000e+00 3.402777777777777485e-02 3.402777777777777485e-02 0.000000000000000000e+00 3.402777777777777485e-02 0.000000000000000000e+00 3.402777777777777485e-02 0.000000000000000000e+00 0.000000000000000000e+00 3.402777777777777485e-02 0.000000000000000000e+00 0.000000000000000000e+00 3.402777777777777485e-02 0.000000000000000000e+00 3.402777777777777485e-02 3.402777777777777485e-02 0.000000000000000000e+00 0.000000000000000000e+00 3.402777777777777485e-02 0.000000000000000000e+00 3.402777777777777485e-02 0.000000000000000000e+00 0.000000000000000000e+00 3.402777777777777485e-02 0.000000000000000000e+00 0.000000000000000000e+00 0.000000000000000000e+00 3.402777777777777485e-02 0.000000000000000000e+00 0.000000000000000000e+00 0.000000000000000000e+00 0.000000000000000000e+00 0.000000000000000000e+00 0.000000000000000000e+00 0.000000000000000000e+00 5.687499999999999778e-01 5.687499999999999778e-01 5.687499999999999778e-01 -1.000000000000000000e+00 0.000000000000000000e+00 -4.274999999999999911e-01 -0.000000000000000000e+00 -4.274999999999999911e-01 -4.274999999999999911e-01 -0.000000000000000000e+00 -4.274999999999999911e-01 -0.000000000000000000e+00 -0.000000000000000000e+00 -4.274999999999999911e-01 -0.000000000000000000e+00 -0.000000000000000000e+00 -0.000000000000000000e+00 -4.274999999999999911e-01
0.000000000000000000e+00 0.000000000000000000e+00 0.000000000000000000e+00 0.000000000000000000e+00 0.000000000000000000e+00 0.000000000000000000e+00 0.000000000000000000e+00 0.000000000000000000e+00 3.402777777777777485e-02 0.000000000000000000e+00 0.000000000000000000e+00 0.000000000000000000e+00 3.402777777777777485e-02 0.000000000000000000e+00 0.000000000000000000e+00 0.000000000000000000e+00 0.000000000000000000e+00 3.402777777777777485e-02 0.000000000000000000e+00 0.000000000000000000e+00 0.000000000000000000e+00 0.000000000000000000e+00 0.000000000000000000e+00 0.000000000000000000e+00 0.000000000000000000e+00 3.402777777777777485e-02 0.000000000000000000e+00 0.000000000000000000e+00 0.000000000000000000e+00 3.402777777777777485e-02 0.000000000000000000e+00 3.402777777777777485e-02 0.000000000000000000e+00 0.000000000000000000e+00 0.000000000000000000e+00 3.402777777777777485e-02 3.402777777777777485e-02 0.000000000000000000e+00 0.000000000000000000e+00 0.000000000000000000e+00 3.402777777777777485e-02 0.000000000000000000e+00 0.000000000000000000e+00 0.000000000000000000e+00 0.000000000000000000e+00 0.000000000000000000e+00 0.000000000000000000e+00 0.000000000000000000e+00 0.000000000000000000e+00 0.000000000000000000e+00 -1.000000000000000000e+00 -4.274999999999999911e-01 -0.000000000000000000e+00 -0.000000000000000000e+00 -0.000000000000000000e+00 -0.000000000000000000e+00 -0.000000000000000000e+00 -4.274999999999999911e-01 -0.000000000000000000e+00 -4.274999999999999911e-01 -4.274999999999999911e-01 -0.000000000000000000e+00 -0.000000000000000000e+00 -0.000000000000000000e+00
0.000000000000000000e+00 2.681250000000000022e-01 2.681250000000000022e-01 2.681250000000000022e-01 0.000000000000000000e+00 0.000000000000000000e+00 0.000000000000000000e+00 1.604166666666666588e-02 0.000000000000000000e+00 0.000000000000000000e+00 0.000000000000000000e+00 0.000000000000000000e+00 1.604166666666666588e-02 0.000000000000000000e+00 0.000000000000000000e+00 1.604166666666666588e-02 1.604166666666666588e-02 0.000000000000000000e+00 0.000000000000000000e+00 1.604166666666666588e-02 0.000000000000000000e+00 1.604166666666666588e-02 0.000000000000000000e+00 0.000000000000000000e+00 1.604166666666666588e-02 1.604166666666666588e-02 0.000000000000000000e+00 1.604166666666666588e-02 1.604166666666666588e-02 1.604166666666666588e-02 1.604166666666666588e-02 1.604166666666666588e-02 1.604166666666666588e-02 1.604166666666666588e-02 1.604166666666666588e-02 1.604166666666666588e-02 0.000000000000000000e+00 1.604166666666666588e-02 1.604166666666666588e-02 0.000000000000000000e+00 0.000000000000000000e+00 0.000000000000000000e+00 1.604166666666666588e-02 0.000000000000000000e+00 0.000000000000000000e+00 1.604166666666666588e-02 0.000000000000000000e+00 0.000000000000000000e+00 0.000000000000000000e+00 1.604166666666666588e-02 0.000000000000000000e+00 -1.000000000000000000e+00 -0.000000000000000000e+00 -4.274999999999999911e-01 -0.000000000000000000e+00 -4.274999999999999911e-01 -4.274999999999999911e-01 -4.274999999999999911e-01 -0.000000000000000000e+00 -0.000000000000000000e+00 -0.000000000000000000e+00 -0.000000000000000000e+00 -0.000000000000000000e+00 -4.274999999999999911e-01
1.604166666666666588e-02 0.000000000000000000e+00 0.000000000000000000e+00 1.604166666666666588e-02 0.000000000000000000e+00 2.681250000000000022e-01 2.681250000000000022e-01 0.000000000000000000e+00 0.000000000000000000e+00 2.681250000000000022e-01 1.604166666666666588e-02 0.000000000000000000e+00 0.000000000000000000e+00 0.000000000000000000e+00 0.000000000000000000e+00 1.604166666666666588e-02 1.604166666666666588e-02 1.604166666666666588e-02 0.000000000000000000e+00 0.000000000000000000e+00 0.000000000000000000e+00 0.000000000000000000e+00 0.000000000000000000e+00 1.604166666666666588e-02 1.604166666666666588e-02 0.000000000000000000e+00 0.000000000000000000e+00 1.604166666666666588e-02 1.604166666666666588e-02 1.604166666666666588e-02 1.604166666666666588e-02 0.000000000000000000e+00 1.604166666666666588e-02 0.000000000000000000e+00 1.604166666666666588e-02 1.604166666666666588e-02 0.000000000000000000e+00 0.000000000000000000e+00 0.000000000000000000e+00 1.604166666666666588e-02 1.604166666666666588e-02 0.000000000000000000e+00 0.000000000000000000e+00 1.604166666666666588e-02 0.000000000000000000e+00 0.000000000000000000e+00 0.000000000000000000e+00 1.604166666666666588e-02 0.000000000000000000e+00 1.604166666666666588e-02 0.000000000000000000e+00 -4.274999999999999911e-01 -1.000000000000000000e+00 -4.274999999999999911e-01 -4.274999999999999911e-01 -4.274999999999999911e-01 -0.000000000000000000e+00 -0.000000000000000000e+00 -4.274999999999999911e-01 -0.000000000000000000e+00 -4.274999999999999911e-01 -0.000000000000000000e+00 -0.000000000000000000e+00 -4.274999999999999911e-01
1.604166666666666588e-02 1.604166666666666588e-02 1.604166666666666588e-02 1.604166666666666588e-02 0.000000000000000000e+00 1.604166666666666588e-02 0.000000000000000000e+00 0.000000000000000000e+00 0.000000000000000000e+00 0.000000000000000000e+00 0.000000000000000000e+00 0.000000000000000000e+00 2.681250000000000022e-01 0.000000000000000000e+00 2.681250000000000022e-01 0.000000000000000000e+00 0.000000000000000000e+00 1.604166666666666588e-02 0.000000000000000000e+00 1.604166666666666588e-02 0.000000000000000000e+00 1.604166666666666588e-02 0.000000000000000000e+00 1.604166666666666588e-02 1.604166666666666588e-02 0.000000000000000000e+00 0.000000000000000000e+00 0.000000000000000000e+00 0.000000000000000000e+00 1.604166666666666588e-02 1.604166666666666588e-02 0.000000000000000000e+00 0.000000000000000000e+00 1.604166666666666588e-02 1.604166666666666588e-02 0.000000000000000000e+00 1.604166666666666588e-02 0.000000000000000000e+00 0.000000000000000000e+00 0.000000000000000000e+00 1.604166666666666588e-02 0.000000000000000000e+00 1.604166666666666588e-02 1.604166666666666588e-02 0.000000000000000000e+00 1.604166666666666588e-02 1.604166666666666588e-02 0.000000000000000000e+00 1.604166666666666588e-02 1.604166666666666588e-02 1.604166666666666588e-02 -0.000000000000000000e+00 -0.000000000000000000e+00 -1.000000000000000000e+00 -0.000000000000000000e+00 -4.274999999999999911e-01 -4.274999999999999911e-01 -0.000000000000000000e+00 -4.274999999999999911e-01 -0.000000000000000000e+00 -0.000000000000000000e+00 -4.274999999999999911e-01 -0.000000000000000000e+00 -4.274999999999999911e-01
0.000000000000000000e+00 1.604166666666666588e-02 1.604166666666666588e-02 0.000000000000000000e+00 1.604166666666666588e-02 0.000000000000000000e+00 1.604166666666666588e-02 1.604166666666666588e-02 0.000000000000000000e+00 1.604166666666666588e-02 1.604166666666666588e-02 1.604166666666666588e-02 1.604166666666666588e-02 1.604166666666666588e-02 0.000000000000000000e+00 0.000000000000000000e+00 2.681250000000000022e-01 2.681250000000000022e-01 0.000000000000000000e+00 0.000000000000000000e+00 1.604166666666666588e-02 1.604166666666666588e-02 1.604166666666666588e-02 1.604166666666666588e-02 1.604166666666666588e-02 1.604166666666666588e-02 0.000000000000000000e+00 1.604166666666666588e-02 1.604166666666666588e-02 0.000000000000000000e+00 0.000000000000000000e+00 1.604166666666666588e-02 1.604166666666666588e-02 1.604166666666666588e-02 0.000000000000000000e+00 0.000000000000000000e+00 0.000000000000000000e+00 1.604166666666666588e-02 0.000000000000000000e+00 1.604166666666666588e-02 1.604166666666666588e-02 0.000000000000000000e+00 0.000000000000000000e+00 1.604166666666666588e-02 1.604166666666666588e-02 0.000000000000000000e+00 0.000000000000000000e+00 1.604166666666666588e-02 1.604166666666666588e-02 0.000000000000000000e+00 1.604166666666666588e-02 -4.274999999999999911e-01 -4.274999999999999911e-01 -0.000000000000000000e+00 -1.000000000000000000e+00 -4.274999999999999911e-01 -0.000000000000000000e+00 -4.274999999999999911e-01 -0.000000000000000000e+00 -0.000000000000000000e+00 -0.000000000000000000e+00 -0.000000000000000000e+00 -4.274999999999999911e-01 -0.000000000000000000e+00
0.000000000000000000e+00 1.604166666666666588e-02 0.000000000000000000e+00 1.604166666666666588e-02 0.000000000000000000e+00 0.000000000000000000e+00 1.604166666666666588e-02 0.000000000000000000e+00 1.604166666666666588e-02 1.604166666666666588e-02 1.604166666666666588e-02 1.604166666666666588e-02 0.000000000000000000e+00 1.604166666666666588e-02 0.000000000000000000e+00 1.604166666666666588e-02 0.000000000000000000e+00 0.000000000000000000e+00 0.000000000000000000e+00 1.604166666666666588e-02 0.000000000000000000e+00 2.681250000000000022e-01 2.681250000000000022e-01 0.000000000000000000e+00 0.000000000000000000e+00 0.000000000000000000e+00 1.604166666666666588e-02 0.000000000000000000e+00 1.604166666666666588e-02 1.604166666666666588e-02 1.604166666666666588e-02 1.604166666666666588e-02 0.000000000000000000e+00 1.604166666666666588e-02 1.604166666666666588e-02 0.000000000000000000e+00 0.000000000000000000e+00 1.604166666666666588e-02 0.000000000000000000e+00 0.000000000000000000e+00 1.604166666666666588e-02 1.604166666666666588e-02 1.604166666666666588e-02 0.000000000000000000e+00 0.000000000000000000e+00 0.000000000000000000e+00 0.000000000000000000e+00 1.604166666666666588e-02 1.604166666666666588e-02 0.000000000000000000e+00 1.604166666666666588e-02 -0.000000000000000000e+00 -0.000000000000000000e+00 -4.274999999999999911e-01 -4.274999999999999911e-01 -1.000000000000000000e+00 -0.000000000000000000e+00 -0.000000000000000000e+00 -4.274999999999999911e-01 -0.000000000000000000e+00 -4.274999999999999911e-01 -4.274999999999999911e-01 -0.000000000000000000e+00 -4.274999999999999911e-01
0.000000000000000000e+00 0.000000000000000000e+00 1.604166666666666588e-02 0.000000000000000000e+00 0.000000000000000000e+00 0.000000000000000000e+00 0.000000000000000000e+00 0.000000000000000000e+00 1.604166666666666588e-02 1.604166666666666588e-02 1.604166666666666588e-02 0.000000000000000000e+00 0.000000000000000000e+00 1.604166666666666588e-02 0.000000000000000000e+00 1.604166666666666588e-02 1.604166666666666588e-02 0.000000000000000000e+00 1.604166666666666588e-02 0.000000000000000000e+00 1.604166666666666588e-02 0.000000000000000000e+00 0.000000000000000000e+00 1.604166666666666588e-02 1.604166666666666588e-02 0.000000000000000000e+00 2.681250000000000022e-01 2.681250000000000022e-01 0.000000000000000000e+00 0.000000000000000000e+00 0.000000000000000000e+00 1.604166666666666588e-02 0.000000000000000000e+00 1.604166666666666588e-02 1.604166666666666588e-02 0.000000000000000000e+00 1.604166666666666588e-02 0.000000000000000000e+00 0.000000000000000000e+00 0.000000000000000000e+00 0.000000000000000000e+00 1.604166666666666588e-02 1.604166666666666588e-02 0.000000000000000000e+00 0.000000000000000000e+00 0.000000000000000000e+00 0.000000000000000000e+00 1.604166666666666588e-02 1.604166666666666588e-02 0.000000000000000000e+00 0.000000000000000000e+00 -0.000000000000000000e+00 -4.274999999999999911e-01 -0.000000000000000000e+00 -0.000000000000000000e+00 -0.000000000000000000e+00 -1.000000000000000000e+00 -0.000000000000000000e+00 -0.000000000000000000e+00 -0.000000000000000000e+00 -4.274999999999999911e-01 -0.000000000000000000e+00 -0.000000000000000000e+00 -0.000000000000000000e+00
1.604166666666666588e-02 0.000000000000000000e+00 1.604166666666666588e-02 0.000000000000000000e+00 1.604166666666666588e-02 0.000000000000000000e+00 1.604166666666666588e-02 0.000000000000000000e+00 1.604166666666666588e-02 1.604166666666666588e-02 1.604166666666666588e-02 0.000000000000000000e+00 1.604166666666666588e-02 1.604166666666666588e-02 1.604166666666666588e-02 1.604166666666666588e-02 1.604166666666666588e-02 0.000000000000000000e+00 1.604166666666666588e-02 0.000000000000000000e+00 1.604166666666666588e-02 0.000000000000000000e+00 1.604166666666666588e-02 1.604166666666666588e-02 0.000000000000000000e+00 0.000000000000000000e+00 1.604166666666666588e-02 1.604166666666666588e-02 0.000000000000000000e+00 0.000000000000000000e+00 2.681250000000000022e-01 0.000000000000000000e+00 0.000000000000000000e+00 0.000000000000000000e+00 0.000000000000000000e+00 1.604166666666666588e-02 0.000000000000000000e+00 1.604166666666666588e-02 0.000000000000000000e+00 1.604166666666666588e-02 0.000000000000000000e+00 0.000000000000000000e+00 0.000000000000000000e+00 1.604166666666666588e-02 1.604166666666666588e-02 0.000000000000000000e+00 0.000000000000000000e+00 1.604166666666666588e-02 1.604166666666666588e-02 1.604166666666666588e-02 1.604166666666666588e-02 -4.274999999999999911e-01 -4.274999999999999911e-01 -0.000000000000000000e+00 -4.274999999999999911e-01 -0.000000000000000000e+00 -0.000000000000000000e+00 -1.000000000000000000e+00 -0.000000000000000000e+00 -0.000000000000000000e+00 -0.000000000000000000e+00 -4.274999999999999911e-01 -0.000000000000000000e+00 -4.274999999999999911e-01
1.604166666666666588e-02 1.604166666666666588e-02 1.604166666666666588e-02 1.604166666666666588e-02 1.604166666666666588e-02 1.604166666666666588e-02 0.000000000000000000e+00 0.000000000000000000e+00 1.604166666666666588e-02 1.604166666666666588e-02 1.604166666666666588e-02 1.604166666666666588e-02 1.604166666666666588e-02 1.604166666666666588e-02 0.000000000000000000e+00 0.000000000000000000e+00 1.604166666666666588e-02 1.604166666666666588e-02 0.000000000000000000e+00 0.000000000000000000e+00 1.604166666666666588e-02 0.000000000000000000e+00 0.000000000000000000e+00 0.000000000000000000e+00 0.000000000000000000e+00 0.000000000000000000e+00 1.604166666666666588e-02 0.000000000000000000e+00 1.604166666666666588e-02 0.000000000000000000e+00 0.000000000000000000e+00 0.000000000000000000e+00 0.000000000000000000e+00 1.604166666666666588e-02 1.604166666666666588e-02 2.681250000000000022e-01 0.000000000000000000e+00 0.000000000000000000e+00 2.681250000000000022e-01 0.000000000000000000e+00 0.000000000000000000e+00 1.604166666666666588e-02 1.604166666666666588e-02 0.000000000000000000e+00 0.000000000000000000e+00 1.604166666666666588e-02 1.604166666666666588e-02 1.604166666666666588e-02 1.604166666666666588e-02 1.604166666666666588e-02 1.604166666666666588e-02 -0.000000000000000000e+00 -4.274999999999999911e-01 -4.274999999999999911e-01 -0.000000000000000000e+00 -4.274999999999999911e-01 -4.274999999999999911e-01 -4.274999999999999911e-01 -1.000000000000000000e+00 -4.274999999999999911e-01 -4.274999999999999911e-01 -0.000000000000000000e+00 -0.000000000000000000e+00 -4.274999999999999911e-01
0.000000000000000000e+00 0.000000000000000000e+00 0.000000000000000000e+00 1.604166666666666588e-02 0.000000000000000000e+00 0.000000000000000000e+00 0.000000000000000000e+00 0.000000000000000000e+00 1.604166666666666588e-02 0.000000000000000000e+00 1.604166666666666588e-02 0.000000000000000000e+00 0.000000000000000000e+00 0.000000000000000000e+00 1.604166666666666588e-02 1.604166666666666588e-02 0.000000000000000000e+00 1.604166666666666588e-02 1.604166666666666588e-02 0.000000000000000000e+00 1.604166666666666588e-02 1.604166666666666588e-02 1.604166666666666588e-02 1.604166666666666588e-02 0.000000000000000000e+00 0.000000000000000000e+00 1.604166666666666588e-02 1.604166666666666588e-02 1.604166666666666588e-02 0.000000000000000000e+00 1.604166666666666588e-02 0.000000000000000000e+00 1.604166666666666588e-02 1.604166666666666588e-02 0.000000000000000000e+00 0.000000000000000000e+00 0.000000000000000000e+00 1.604166666666666588e-02 1.604166666666666588e-02 0.000000000000000000e+00 0.000000000000000000e+00 0.000000000000000000e+00 0.000000000000000000e+00 0.000000000000000000e+00 0.000000000000000000e+00 1.604166666666666588e-02 1.604166666666666588e-02 1.604166666666666588e-02 0.000000000000000000e+00 1.604166666666666588e-02 1.604166666666666588e-02 -4.274999999999999911e-01 -4.274999999999999911e-01 -4.274999999999999911e-01 -0.000000000000000000e+00 -0.000000000000000000e+00 -4.274999999999999911e-01 -4.274999999999999911e-01 -4.274999999999999911e-01 -1.000000000000000000e+00 -4.274999999999999911e-01 -0.000000000000000000e+00 -0.000000000000000000e+00 -0.000000000000000000e+00
0.000000000000000000e+00 0.000000000000000000e+00 0.000000000000000000e+00 0.000000000000000000e+00 1.604166666666666588e-02 0.000000000000000000e+00 1.604166666666666588e-02 0.000000000000000000e+00 0.000000000000000000e+00 0.000000000000000000e+00 0.000000000000000000e+00 1.604166666666666588e-02 1.604166666666666588e-02 0.000000000000000000e+00 1.604166666666666588e-02 0.000000000000000000e+00 0.000000000000000000e+00 0.000000000000000000e+00 0.000000000000000000e+00 1.604166666666666588e-02 1.604166666666666588e-02 1.604166666666666588e-02 1.604166666666666588e-02 1.604166666666666588e-02 0.000000000000000000e+00 0.000000000000000000e+00 1.604166666666666588e-02 1.604166666666666588e-02 1.604166666666666588e-02 1.604166666666666588e-02 0.000000000000000000e+00 0.000000000000000000e+00 1.604166666666666588e-02 0.000000000000000000e+00 0.000000000000000000e+00 1.604166666666666588e-02 0.000000000000000000e+00 0.000000000000000000e+00 0.000000000000000000e+00 1.604166666666666588e-02 0.000000000000000000e+00 0.000000000000000000e+00 0.000000000000000000e+00 1.604166666666666588e-02 1.604166666666666588e-02 2.681250000000000022e-01 0.000000000000000000e+00 2.681250000000000022e-01 2.681250000000000022e-01 2.681250000000000022e-01 0.000000000000000000e+00 -0.000000000000000000e+00 -0.000000000000000000e+00 -0.000000000000000000e+00 -4.274999999999999911e-01 -4.274999999999999911e-01 -4.274999999999999911e-01 -4.274999999999999911e-01 -0.000000000000000000e+00 -0.000000000000000000e+00 -1.000000000000000000e+00 -0.000000000000000000e+00 -0.000000000000000000e+00 -0.000000000000000000e+00
